{"layers": [{"type": "Linear", "W": [[-0.04820547445070367, 0.08028027338093809, -0.061832346846731306, 0.04019681496000655, -0.08119999086067144, -0.03963689310454955, 0.09259566379258581, -0.058740445757543426, 0.032604126320839664, -0.003800929060620532, -0.013457853900903571, 0.005205804023963079, -0.05649184744400416, 0.05493030570011506, -0.06887572093229472, -0.04587510446654564, -0.08743393282251703, -0.036498469322590245, -0.01969681824177139, 0.07316360365164344, -0.015878231856752106, -0.0676050612541968, -0.03753377360560798, 0.0960432889839008, -0.08350359547911498, 0.02699921509538103, -0.01634276089273702, 0.03198347676250904, -0.020481803464978864, 0.041025051902727434, -0.0008392048392673708, 0.035821910058594406, 0.07954728693581722, 0.015339813551958157, -0.05043281603053571, -0.07381328968789694, 0.07649624884726475, 0.013020515282248804, -0.050222361297964764, 0.08530470337259415, 0.039734395375286655, 0.048225519881141495, 0.06321638658178903, -0.012738121976498245, -0.019984053407575468, 0.07219587537532683, -0.03296626774707838, 0.0547362499281617, -0.08190818846885287, 0.06869212171421014, 0.04334795352053174], [0.08543053384195413, 0.05689265294394329, 0.008483321330023622, -0.05109369816751726, -0.07129498025534085, 0.013121676088921832, 0.003850018358426888, -0.08607310051971287, 0.08168011576697774, 0.006566173721375608, 0.030004310745115767, -0.04411288159576962, -0.04723697467787933, -0.09707070228776299, -0.021136796730247383, -0.03935218030346993, -0.013736071255513418, -0.015254624762522581, 0.05787262937843916, 0.07138348186696382, -0.0521123755148546, -0.016645687996787215, -0.05310038172884998, 0.03689233797142801, 0.08367547378967585, -0.046859325949823394, 0.05605685174352297, -0.03440152461534062, -0.07973737187348799, 0.055323629102908826, -0.028475585695391662, -0.050493602666331745, -0.004592519674883579, -0.04809010127566079, 0.003600862424719846, -0.0029431565911204136, -0.020921501786570332, 0.03646649942677554, -0.031853255732636976, -0.06867917933957929, -0.0424426293445656, -0.06453161979989662, -0.004013432554256065, 0.010082591059392224, 0.06386249213097177, 0.006715699352065807, 0.08371767087303733, 0.09541679160237311, -0.09108509517765925, -0.04252146303414782, -0.05831966587596518], [-0.022502958393517635, 0.014001533269569358, 0.04451402554299258, -0.02920043469730483, 0.08602595258435293, -0.0911319360965797, 0.0598460389419698, -0.05201596683177888, 0.06855977718584313, -0.08685952938022394, 0.08640761218212874, 0.04723835703100771, 0.08882850941872374, 0.01610349664120673, -0.05911745038818375, 0.08609321677227179, -0.010998332415043144, -0.07634897467293233, 0.019229304808427845, -0.00021883903160269707, -0.005042197744629794, -0.06395769523294588, -0.07129813548714907, 0.014702031207890725, -0.011404082052648562, -0.06924460373351597, -0.011207975610343911, 0.039718098676371674, 0.036244098299715186, -0.005437404635939608, -0.023520997023019564, -0.02763534521266558, -0.050331924237371796, -0.053099817451700115, -0.0153689896514201, -0.07182518661017308, 0.045007965180426636, 0.032634927766952385, 0.020337204952822603, -0.08727789606349667, -0.03393170211986645, -0.012551755131937431, -0.07187581713460996, 0.07493970033387212, 0.0466275119431471, 0.0008282157263611023, 0.024329073182743622, -0.054963105203826385, -0.044117636714913436, -0.009171783989619122, 0.04449337593798351], [0.03019641776116513, -0.09492477960412066, 0.02648657454043304, 0.07879767291697869, 0.03889808902614516, 0.08403720989872243, 0.09058082685992919, -0.05642243831206807, -0.03148184798571795, 0.012689946211433356, 0.08186477931281633, -0.01891903042841489, 0.08064894795047575, 0.05820648545168733, 0.00868037896710918, 0.02552970494813883, 0.08363412877542394, 0.05727270352791719, -0.040004435938318116, 0.0633395492699347, -0.05022103783545135, -0.02142920587539628, 0.08984706806073181, 0.06872507973330515, -0.035204143011630926, -0.03201427980477183, 0.026158669368696298, 0.06626530216961703, 0.04060474786557956, 0.08496520999004145, 0.044647711218630606, 0.06623061377971808, 0.02461018257612092, -0.02308268672021476, 0.0026221892774025636, 0.0033609361631376246, 0.002077068261682505, 0.07821986281277721, -0.03718593464922975, -0.073757712897382, 0.06871585385806885, -0.03643886734906275, -0.019865784475215153, -0.04246239457309091, 0.06578316018756544, -0.03704671922998847, -0.002580226289671592, 0.061256760695276996, -0.007403785204009006, -0.005872173285946855, 0.07662879870559387], [-0.014524733503064947, -0.02533318963839559, 0.08593121806285879, 0.05488260095279781, 0.045251004688294266, -0.04508393539713222, 0.0589974916327449, 0.017463362980019773, 0.061098310004993876, -0.022781544535431852, 0.05129473925419139, 0.054253765006721036, -0.019337705536109685, 0.02772274236504991, 0.0520723857881308, 0.09046998361809021, 0.07720429746156018, 0.05308069563470964, -0.066689623984209, 0.01996485474671683, 0.03459673984524833, -0.07640831409085848, -0.005565456656728794, 0.06810311073268507, 0.07287355751187927, 0.0786753069287921, -0.07390969088176248, 0.01964048218171251, 0.06863091868777714, 0.02857546923310572, -0.03307409420945283, -0.0811705913249293, 0.07760530032504188, 0.0648822253315603, 0.030302703460042713, -0.023859893353754148, 0.05870320526971026, 0.060002767592247014, 0.0417187448997746, 0.018904129561660647, -0.029990199162543987, -0.03652050910058754, -0.02650889871513905, -0.02724329736830608, 0.004342021041154879, -0.07041694483172233, 0.044822773570114764, -0.027145073318070714, -0.06356469481475156, -0.04028544465264443, -0.01959823069967423], [-0.013221131666500765, 0.05595829014780272, -0.07702424055542617, -0.052239468392396696, -0.03267242561794898, -0.06293579557655804, 0.045724108237967506, -0.0662940946745897, -0.08598664551727957, 0.007506271914705823, 0.047939928141388144, 0.05620697942915438, 0.01236476256983159, -0.026635852388630487, 0.06620411174524875, 0.041600268197655166, -0.003991991584549328, 0.007953626806485953, 0.08146839334861694, 0.09118484153694438, 0.07543111287189935, -0.06232180840222905, -0.03513394270576962, -0.020343844969243255, -0.058455283456514864, 0.04249984058050338, -0.08380462275530585, 0.07388383509226798, 0.012280440107083273, 0.017487739999232282, -0.013352573938160356, 0.07285840210347876, 0.010886564993502382, 0.06968575491016987, 0.06362309127087001, 0.031818541890830256, 0.09020789535195203, -0.015653823339499977, -0.027776655748184335, 0.05896482057705537, -0.018737181841075014, -0.038576396151844834, 0.03627150475013174, -0.027755373073880037, -0.07165607121463428, 0.05597703363156848, -0.031502720125064006, 0.08272180055331449, 0.008704527293200284, 0.04780521731890287, -0.04218632142673305], [-0.05334595149604589, 0.004578617433885991, 0.048420863668247834, 0.05776338295049503, 0.026891814244765364, -0.06917121173455802, -0.02098998955683288, -0.08513049600687592, -0.023923252327601622, 0.0804088355316629, -0.027669645444017017, 0.036179760209846125, 0.021319450615767056, -0.0647924160811284, 0.03404049752079552, -0.07730232127383957, -0.05798794233715909, 0.01425030349241624, -0.06786178708921878, 0.08528892723209461, -0.014040629147017057, 0.02241287681169245, 0.0837827982235647, -0.07215375150937668, 0.09057714311263428, -0.08482612458586997, 0.01810280909012101, 0.026081357384461455, 0.08682462996052608, -0.026479995322771985, 0.07953292404733912, 0.02600852379773316, -0.0047435796557980334, -0.05907843995598986, -0.05061685874864558, -0.025057881108546943, -0.02599593700265157, -0.02563849918953418, 0.056040867546202126, -0.022597800993037934, 0.020112010460421426, -0.08485348509018917, -0.06439301200375752, 0.03393284125608404, 0.07113382023392609, -0.03375535218982279, -0.09099585218323035, -0.04935548299024676, -0.022420338236573335, -0.0307080337615583, 0.010880596915391519], [-0.03133953880190702, 0.017020310776093894, 0.060847891946808626, 0.058764524328173674, 0.03189538757668337, 0.023937309933994615, -0.04039517108208288, 0.04977505020571989, -0.029946556394971246, 0.07388808517354918, -0.021628111490984602, 0.031360103377254527, -0.0009705403922000067, 0.015295647640921962, -0.02072266700156042, 0.01738816356484095, 0.043479146874459425, -0.017455240539409934, 0.015356606388724934, -0.008145070517330636, 0.0024683388183891594, -0.025050392467736486, 0.01925222778880535, 0.046102644321820214, -0.05716531852188341, -0.05184408425126379, 0.06707984388984484, -0.07751470677987939, 0.06630701028896618, 0.05505814400689552, -0.04442285523870272, 0.04093643602021899, -0.03726917453922008, 0.07122794158982612, -0.019488135778594578, -0.06274160710954892, -0.0946410753731078, 0.07616469573167699, -0.04515355084643394, -0.026112759312173755, 0.1476765958013469, 0.05154198861355051, 0.031193584935655057, 0.0771724841015918, 0.03403622896369166, -0.0806814449351632, 0.13956101276065258, -0.023015623493233953, 0.04606727929651431, 0.0675505945561251, 0.08356582986547996], [-0.09303684403204932, 0.09054655792045854, -0.07641029212544022, -0.00011826744341317456, -8.105356609751861e-06, 0.086630154557297, 0.03866272884474494, 0.0916875722710998, 0.07186527219587414, -0.016109520386158423, -0.06115464528788809, -0.0669633478189989, 0.038766306587592524, 0.08615527962769941, 0.02782005606736222, -0.02937344235125158, 0.017695418446565515, 0.026487890145303877, -0.044000013712363846, 0.03562550541338027, -0.057359416346019695, -0.08809820720892128, -0.08270324274474883, -0.004230466684771647, 0.03451490677312207, -0.053421774591000365, -0.021076057200047526, 0.03357734978243811, -0.04654159118901237, 0.001999199400643551, 0.01608587725263847, -0.020477372235534436, -0.055623893630020856, 0.034163299506927695, 0.02551373956841057, -0.05911402120190086, 0.05889643618521654, 0.016899026136002547, 0.06493533742913024, 0.047762555823474204, -0.019568172435720226, 0.0372110897668412, -0.030345499185956273, 0.00859097041167049, -0.07873394374101451, -0.031513603395782686, -0.0242453346971018, 0.06827570995559977, 0.03953714073200089, 0.0501666452073217, 0.06530094648245607], [0.08743307171081552, 0.017750017301420992, 0.025141068185529844, -0.0037215765534476457, -0.055668369415849, 0.058077407011437036, 0.020819291059060222, -0.06670676566062801, -0.04381634339079769, -0.0483265295917567, 0.03639962996381755, 0.02127612473247369, -0.05555887260941677, 0.02960893759565873, 0.015313923566682125, -0.041279077292773546, -0.010044771688362101, 0.09373618482100815, -0.06718290899403857, -0.048330308122181066, 0.02069163884513083, 0.06210889495910681, 0.08229077411850667, -0.015133796310817217, 0.04851304397294678, -0.06412015558427005, -0.01735575236470877, 0.06483957122458203, 0.03669262316171291, -0.006451638797275673, 0.01889190010953816, 0.005580379668685767, 0.012234134027408342, 0.07178097153505586, 0.10039411990314441, -0.05151147924721589, 0.043848375838633255, 0.09489244721258837, 0.02297049308966035, 0.004235594111913401, -0.0008977514889025606, 0.0007364088379398317, 0.010030471682422382, 0.04394110089118105, -0.06701265618039, 0.09638183195155589, -0.010701861793845191, 0.012328864377292068, -0.0617066743554032, 0.05414280089104888, -0.0742287035951236], [-0.02618512544199886, -0.027144071551270275, -0.028355562037353812, 0.002742134359082087, -0.0699487381430338, 0.00423214584202905, 0.05702533575161107, 0.015844214155895715, 0.09204028895892923, 0.08794900518372355, -0.011060929904638684, -0.0005236846845732499, 0.0480306733947599, 0.06174902116774111, 0.013404946756725317, 0.03288408623139741, 0.034996046475396225, 0.008039663202997182, -0.0007461034963478756, -0.018191967375906812, -0.003833996643100346, -0.004692778510979613, 0.0629866511563559, -0.05707755067461562, -0.06955744328882021, 0.0863658086164585, 0.007444869821007567, 0.03666917205153026, 0.08520487758433382, 0.048431348330355534, 0.016712219814581243, 0.09443157556522958, 0.02823091641580876, -0.009342721479944475, -0.03615569286985629, -0.05712235910046352, 0.04714100923003763, 0.09490802702531118, -0.020965175885564284, 0.010698591035199179, 0.06913379767370284, 0.025308528624508556, -0.049488462736278514, 0.11440123476037427, 0.01524864728032328, 0.04489815084011413, 0.084476139854541, -0.005617506561684819, 0.023774919209671966, -0.007236326669022718, 0.014462949520278509], [0.029252248047701955, 0.01883270626580584, -0.03314382681781104, -0.05570085806257477, -0.07887973039491639, -0.06394112872267804, -0.05700411293022896, -0.00886337738072151, 0.017456940012643155, 0.04154245296844043, -0.01688898562025382, 0.05368934598722028, -0.08684889499879812, -0.03397169470498569, -0.06507485351773855, 0.005005124504368753, 0.013484776312687269, 0.019744831508990455, -0.012325558291735761, -0.02435593931488125, -0.026874220238420357, -0.07139038346955773, -0.05081178710895443, 0.0019147279449946097, 0.012127977849892195, -0.0673548475398852, 0.06761037382770319, -0.08639651885865655, -0.06346648312070155, -0.005235090202621347, -0.029470379222413325, 0.008756241005829675, 0.03919978167657438, 0.017535790221725116, 0.06905680806834227, -0.0011598374023266767, 0.02713288253588642, 0.0018668267371284649, -0.06416197115479005, -0.07423610294666122, -0.03022445329339873, -0.0055838338237829905, -0.04815567566687039, 0.04055816612703497, 0.035354282461526686, 0.0815274818173478, -0.026118570923713124, 0.08851698013606245, -0.1015030194145958, 0.10993076727559753, 0.09347995789496831], [-0.02122755966227305, 0.04991732477390538, 0.0061329797146792145, 0.01562869877044895, 0.05964291520000169, 0.08605498188069508, -0.033942604129331824, -0.05740853003120291, 0.08143481941352701, 0.02145876985974892, 0.06819243189716631, -0.04641439537524432, 0.06407899234472508, -0.06852036230613967, -0.0595120845181956, -0.03645023681847221, 0.07837059334435308, -0.015808285249915743, -0.013232089701042234, -0.03872537412349779, -0.07294733681687107, -0.00807741567527702, 0.005723308165302054, -0.025702808054770595, 0.04182289237054017, -0.0280439434997479, 0.09268384873282604, 0.07761343313974828, 0.021606333879804294, -0.06837545512239507, 0.014014372717376725, 0.02997321582460654, 0.03229404342653649, -0.01240467228545216, 0.05846402470968672, 0.0955573001778833, 0.032754026683534825, -0.06621818937842208, 0.028026718253358205, 0.02832144539848183, 0.036316147763074645, 0.08525162452435124, -0.08821182348508934, -0.057660896752505894, 0.0456837252673766, -0.06815697274747706, -0.02807615963173134, 0.06306752656773498, -0.036142749149585686, 0.10783183700623516, 0.06006775480563411], [0.031442151153404686, -0.029985592744455843, -0.07279432309992086, 0.08975192214775284, 0.06276876838854227, 0.08009079084866598, 0.0026860144624758623, -0.04546983272423058, 0.027031049112208782, -0.01150177542732185, -0.061278595093304945, -0.06756857546166473, -0.01740360056649486, -0.06980695911397203, -0.03891087888535121, 0.08875953767580805, 0.07946841418230373, 0.07397521434420234, 0.0008769451789569843, 0.04804601278537346, -0.05818650005718261, 0.02190585398325278, 0.09111297371776354, 0.05652555990669818, 0.08917293268152493, 0.029157825487031063, -0.03256964909992842, -0.08835311132463221, -0.03757473031032643, 0.0634338168100539, 0.006512019890986077, 0.028443367409864927, 0.05875647932008412, -0.036222012324708876, -0.05075116115078539, 0.07410591286330333, 0.014867927984511921, -0.07134424306032212, 0.03922370915287159, 0.04496206336342755, 0.07276684835092989, -0.0639980985991656, -0.04622532432510778, 0.06747001675552303, 0.034490194275564656, -0.023157133426462827, 0.11958829698503169, -0.03271897021190243, 0.06370755484013745, -0.032052997007832845, -0.0043290409552890945], [0.08702432800641012, 0.03956414537916854, 0.04328931109054327, 0.0662363696892239, 0.028317443653465408, 0.004653184864165478, 0.05698395570666604, 0.01107542255227922, 0.08008433813594074, 0.043887868301479484, -0.08635514164147765, -0.0421468768289863, 0.07020295308429467, -0.06445470815463514, -0.09246717257014454, 0.013413692667603082, 0.035268789608667604, 0.08454822265319159, 0.08624255469170837, 0.02336860422176038, 0.03307347066471457, 0.005449912721402277, 0.05828891457656357, 0.03182008814570492, -0.06817962778151716, 0.017455578861141387, -0.08575023247212804, -0.03117362735516225, -0.036909790067412414, 0.07362306773563942, -0.05366436519632313, -0.028779417683190364, 0.008315644758961372, -0.05486824241010086, -0.024874367645244436, -0.04050088100084947, 0.04463093672120845, 0.03718556724266062, 0.011771763980457156, 0.06272555406103605, -0.02774264429038035, 0.041607334108292475, -0.06855743672550126, -0.04896168223546653, -0.03607528346068614, 0.06630636821601939, -0.035762414804297496, -0.026258789496800418, 0.04066008429535016, 0.04703444187782921, 0.056820844434611634], [0.056641056283815404, 0.03003228671414355, 0.05649562060387524, 0.01254230734936362, -0.02089133073587932, -0.032638290990288234, -0.04237711399614214, -0.030440488916427436, 0.0010779386597881448, 0.06723633389975973, -0.048765743300929164, -0.01904402045471987, -0.04302923740719697, -0.004040115455777847, -0.07950648506392745, 0.02278369042506138, 0.06571684955978727, 0.07617991469993038, -0.026165362466406033, -0.060738051299739346, 0.043093177977452345, 0.04612335757801789, -0.05656268611803227, -0.07956983198906041, 0.030800865022903304, -0.02148473128176634, 0.004899777963847032, 0.011887632742744998, 0.0706681844842872, -0.06770737160243291, -0.04266674796243007, -0.08338341647570412, 0.03543485507774051, -0.0780362879609364, 0.0665486471571589, 0.020904290015147875, 0.000354828748345772, -0.04066313122589613, 0.0683755098680257, -0.07047882810110179, 0.018137111254858476, 0.061300538277928265, 0.027025609902157542, -0.07864377326777433, -0.07021683573704648, -0.0383766760220048, 0.04720534296489626, -0.06554549986994095, 0.08124947603341501, 0.07593918531625211, 0.01410024652524458], [0.06825726826590334, 0.02447613845423297, -0.062103255940432936, -0.01836096194563905, -0.0873264118975963, -0.011231425059252705, 0.08874152157504701, -0.017666323804933676, 0.03016353111221817, -0.026225627119153744, 0.03205440175410171, -0.030201416091689342, 0.074922764782274, -0.016228034115282664, -0.042175059058517775, -0.012711989961966626, -0.07788785722494114, -0.031108413822591097, 0.0435575935241267, -0.017386739889517628, -0.009637483495323791, -0.049675631467543606, 0.058331684337031925, 0.07043136193461884, -0.017671896334242983, -0.09174626742191386, -0.013172202001598963, 0.06821647096291814, 0.025993441570208057, -0.0497816659193033, -0.07427110374476562, 0.06949127689851538, -0.07697817406980781, 0.0229573189908479, 0.016571881862907548, -0.05805964806527032, -0.008692315964159229, 0.0654378192069687, 0.09114439672972097, -0.07718212825341468, -0.08751639631855135, -0.04398522128269499, -0.08125417791170017, 0.07585407244588131, -0.07679488663982334, -0.022829613161748197, 0.062180751039556274, -0.006493282110848105, -0.045961689030321815, -0.08282946725043903, -0.049948568591413604], [-0.032789299008911525, 0.058965506440544546, -0.0072937472063431975, 0.012661821303077773, -0.048967024930744625, -0.012005136723888655, 0.0797277921402359, -0.07648651517520294, 0.04168737643895118, -0.03022342122367476, -0.02015536511098744, 0.04468707788248773, -0.027799458121328252, -0.008002150446091085, 0.002380914484117003, -0.0011050461628331683, -0.07784821800424661, -0.015216620279192352, -0.02367950916049096, -0.014874505702416095, -0.0345706493420043, -0.01129863396966984, 0.04878049505420752, -0.07370726273839388, -0.07896314242441187, 0.012106834386575583, 0.01859819267189582, 0.052825227476276625, -0.0804673146090926, -0.08557028481250813, 0.020593388249563485, -0.04487843853043588, 0.003333128659382723, -0.0373714159923355, -0.05987706658552723, 0.015418902761583331, -0.038565819436972806, 0.01330632134973357, 0.07179754847151648, -0.005969568652634173, 0.08871805335589969, -0.033270936845915255, -0.06466119267957664, 0.009380643666837043, -0.032362287282268275, 0.04573857157385988, -0.03445066772609084, 0.04557778649404868, -0.05980186749871881, 0.01923087642675776, -0.04733766371747815], [-0.06215200764223856, -0.06912496447593722, 0.09283549589577193, -0.0699665214287333, 0.07403104888296533, -0.003476139645225361, 0.07240533422580689, -0.06263838114272875, 0.01921857559566916, 0.03643089635245327, -0.039105190464293026, 0.023942730682225185, 0.07447197846570823, -0.01954223193725165, -0.08238098116697154, 0.021675490426139483, 0.05149877321834567, -0.00471315571054725, 0.06059100779682255, -0.026517404238152673, -0.005264622351468193, -0.01334590223803527, -0.0705251511878362, -0.07504478744210973, 0.023990595631096706, 0.07528487353601034, -0.05431686524496073, 0.07510409084815788, -0.027496954819223398, -0.011645127809419249, -0.08244266503588622, -0.085133882730326, 0.017482941586669475, 0.07099105293186102, 0.035478703631046195, -0.06436626215711433, 0.026835613386870252, -0.05691957694837723, -0.002126138946445963, 0.04880203710591042, -0.0033572863749728224, -0.029675501052436264, -0.035927449907406324, -0.019209650171760767, -0.08497872413827777, 0.04435639406205115, 0.0035255528349799666, -0.05357674478006035, -0.03983667538192363, -0.059293237069499044, -0.0017811960776054508], [0.014829347572711848, 0.02272202043897414, -0.011651194879087815, 0.08898359248597917, -0.06335916696952235, -0.057130520455475446, 0.010913295489673378, -0.015368566144703192, -0.037577497958093155, 0.04061756986907857, 0.0034030341537719814, 0.01061687160620067, 0.035021892656053454, -0.013697623096898951, 0.0007045913807192072, 0.08843798905054706, -0.062110135913670095, -0.007873483777995452, 0.021459432621221946, 0.048415911712611163, -0.07674241553524615, -0.07082117711889298, -0.044175169670076314, 0.029103490253457376, -0.05121160874393197, -0.08578964827079547, -0.016217341558638586, -0.06386709652805929, 0.03205265550597182, 0.08062224297401166, 0.047547876747495915, 0.011837822001524058, -0.018504124912115495, -0.08674364479072445, -0.013547655532785826, 0.0024459361009142376, -0.03545523050231237, -0.01835492878778178, 0.07965503135215682, -0.02340835512024144, -0.046738626537654475, -0.012248623652165669, 0.08091657382447844, -0.08680566737088476, -0.00755808315101007, 0.08960666207961814, 0.0005983806815871694, -0.03488002995122144, -0.030081423019880385, 0.030949688130941313, -0.0688767097578294], [0.08183857824928456, 0.03373703272472409, 0.07728746245134208, -0.06232996144302962, -0.09012454855320946, -0.030809514554460023, -0.00685676456408683, 0.0033130174756108455, 0.024447338211143955, -0.0847253987780159, 0.07825571110861373, -0.06168073684828501, -0.05836810502126008, -0.0700926379056188, -0.019937615713254128, -0.061008823283303475, 0.03948092139043776, -0.0250526731601039, -0.06955908287434495, -0.024568089330200844, 0.060921212164350674, 0.011153466504546322, -0.07734759969659055, 0.017722094088224297, -0.0021339015420306384, 0.004467923286184208, 0.04753406882213292, -0.062177669031153335, 0.03846681239321732, 0.05152148456692011, 0.07579036170780394, -0.018394491432503313, -0.04897540144991413, 0.039313812283441205, 0.09606567737606096, 0.08800810020165245, 0.01636848809573941, -0.02762464939064305, 0.07908802530595574, -0.06138246535875283, 0.03529053791450647, 0.06718347846945627, 0.009829922835562548, 0.053640151763960746, -0.011125920103929243, 0.039622515663587154, -0.040573109583209865, 0.03513357709011983, -0.06722017037651191, -0.048377474309515195, -0.06748288035498445], [-0.03158199374299157, -0.09076089624786463, 0.03719038954240242, 0.07666768371748298, 0.06148948524229168, -0.08370623196328116, -0.00032524640050075497, -0.06777933570225951, 0.013516461755706928, -0.08846734409523638, 0.0823605274481479, -0.008370910909298366, -0.05929429098407799, -0.016323201944586377, -0.03423545073012413, -0.0027720830274846277, -0.015908927556403808, 0.08580291875133515, -0.034105670752301004, -0.07960060012862087, 0.009822197945553977, -0.004557149701466595, -0.02516313807252627, 0.08483049163681486, 0.06235385471034583, -0.015599337969294524, -0.06612470946130145, 0.06947303999625298, 0.0560417134759926, 0.07800912795525163, -0.018933490836328375, -0.047325633257582045, 0.004503146343933198, 0.005108733118753653, 0.04499532182348984, -0.06573480647985872, 0.08495500924045545, 0.009039085652357547, -0.03843030558723993, 0.018987769615917624, -0.07610697073280036, 0.06026003027752589, 0.00699600589420684, -0.05096850551310207, -0.08208038202435615, 0.005836090960075156, 0.05921741363090674, -0.047706804134763844, 0.08275231015862047, 0.024476985097214736, 0.002433698714884826], [0.08600189415951148, -0.02972824208466352, 0.04036184323341157, -0.022002241814997856, -0.031102711189607134, 0.008147482594383746, 0.08225394526853651, -0.07730813189794217, -0.015013699538677632, -0.08015297369811124, -0.018888468142341637, -0.07648172318982743, 0.05420048867846894, 0.02975564295810723, 0.0877083101638985, 0.044490854327851756, -0.02817474750198379, 0.02491194370170975, -0.06390452456800683, -0.01187839604827896, -0.06900869127670703, 0.08620239567825419, 0.032853930277329024, -0.04188734083980285, 0.004279678248415659, -0.01625579671424472, 0.07426340491352074, 0.03170579905073681, 0.039685534925305924, 0.025853519197273897, -0.06539583316804758, 0.01634550810990263, 0.06699418566638636, -0.020704082967576365, -0.08378279730140661, -0.03182234492766469, -0.08798624903755223, 0.01943506663891284, -0.0011316392109869643, -0.06869645645650974, 0.07879307182412829, -0.042407164099691294, -0.01271311382932965, -0.05322562084026288, 0.007656979007779753, 0.016053230635035453, 0.05354852850393246, -0.08589702144389914, -0.06417731002497876, -0.04917959251891777, -0.03220790288574036], [0.05901883137721294, 0.060212109052491934, 0.04838998624425009, 0.014398756096177703, -0.09185923839672915, -0.034146549945781556, 0.0037361238126577007, 0.03801720384418964, -0.016966309509722624, -0.004998616758524343, -0.03846438759977584, 0.009098999043043978, -0.012333563195457769, -0.029941008533422298, 0.08209646600742697, 0.021969781683761593, 0.029864999460979074, 0.06971810370633869, 0.04189233364506325, -0.04422705841529856, 0.05038675272375177, 0.023699212048819696, 0.009245461105515305, 0.04123519809590016, 0.0600432737995225, -0.03258677237078468, -0.03392252397848147, 0.008252133065477665, -0.06830301163123789, 0.05675429788394537, -0.05288624589599808, -0.028191546186343203, 0.05622645496785566, 0.07210002696833491, -0.029837749594842564, -0.06475818778378128, 0.027594251164372256, 0.0349343947433984, -0.013659078575633844, -0.05537710628102834, 0.10913948023367, -0.06884719014218198, 0.06063287941227302, -0.0236479354503127, -0.041492441476485176, -0.011572385060791415, -0.03529977595721454, 0.052116247399417746, -0.06550157115964188, -0.010173365416316303, -0.024556442400139426], [0.05836489493635493, -0.08817147050485873, 0.04846368608916251, -0.037248135911864044, 0.02378480782807131, 0.09064527102707974, -0.05609877687053799, -0.09052114213672552, -0.03192825289655776, 0.041801124254792425, -0.05342524471058822, -0.027950648842172934, 0.08820595580062163, 0.061766190270575394, 0.0889948181375914, -0.050158265524197256, 0.03566296415428281, -0.030031810652554277, 0.034894968153010145, 0.05912198759936387, 0.03397525498341815, 0.0014822306620550013, 0.033621596522205796, 0.03892992240357158, -0.06398583259836749, 0.043702478237083266, -0.06375211605894562, 0.06675375933264165, -0.021528060069733713, -0.07060543959729727, -0.08796838815709412, 0.02701591626746801, -0.07400620577421131, -0.016267837694325042, -0.07078252243618302, 0.03894764534563548, 0.06304435940545325, -0.07405942991615853, 0.025162517115619596, 0.030370076604474876, 0.031645864953656094, 0.09031527776817497, -0.03912429966328384, 0.09464561607178874, 0.011903131846705281, -0.04862958352130959, -0.012069316610458304, -0.06818034131489464, 0.04144028835712797, -0.022915590230548632, 0.020850806560816827], [0.04987714316158413, -0.04208498609034867, 0.025304516669750185, 0.03210130147058287, -0.00989891083498323, 0.0493442468486533, -0.013070059126527428, -0.06181735831960944, -0.07731410044341316, -0.0662250359207636, 0.044393890508789766, -0.0012870793473869684, -0.06480136067281025, 0.0848398902979215, -0.09173687209309374, 0.015928729281967303, -0.0040845610023625915, 0.06879712569771597, 0.019248829177280987, 0.06302320129538036, -0.05297351434343717, 0.00701476218447536, 0.048160954187739115, -0.02567558879006026, 0.04352365641376785, -0.018725191219200594, -0.030914584320312088, -0.040271603093103334, 0.029842404235655044, 0.08687392604463197, -0.08319095256081564, -0.05611037312877808, -0.0819250517197949, -0.06135691421824258, -0.007900190755785588, 0.009021756869503994, 0.03699200852345466, -0.07714289984163597, 0.06168688412627798, -0.05762115948646207, 0.03653283038812209, -0.021517823831924632, 0.00537649791334672, 0.04685805835349043, 0.07329144640343949, 0.004659787668229863, -0.10010177158502875, -0.03693796490219696, 0.042249228383991644, 0.03836160399383205, 0.0688973164846206], [0.0051361441280644606, -0.06586278212376238, -0.04732486421303776, -0.020027340244492528, -0.05837055527180828, -0.0347051819007626, -0.03845204626179665, 0.05020264403679432, -0.013751199626155964, 0.007090151835302404, -0.028983217733550365, 0.03465432663511836, 0.00926731633602312, -0.067113804151219, 0.07075319007878673, -0.07444335281297801, -0.046339737841092486, -0.0822409042900983, 0.057234868437715976, 0.06592075827324088, -0.014138894865201439, 0.04680724501906844, 0.044298053419898585, 0.0592556995270653, 0.08040304248461562, 0.017498431395617797, 0.011900171824738355, -0.08749895498949409, -0.06383049888065652, 0.08393796072842315, 0.00016751389219297403, 0.06807375357179446, -0.05738893549523522, 0.05736686274558701, 0.02794053882932896, 0.036413369453794774, -0.027199960627398836, 0.06429625133661955, -0.036524777207624405, 0.08399620369355668, 0.03851444247480683, -0.0820042905219592, -0.06764668598291013, -0.06236867554437618, -0.049967431936858, -0.024133003455041137, -0.11623291709773467, 0.03933010394175868, -0.056099793534304096, -0.03878790571666092, -0.03837537651219521], [-0.034360034555009224, 0.021649702642678702, -0.0908174389784454, 0.04087434555814185, -0.0028386771733913503, 0.04163408610572945, 0.0550188655979545, 0.080172399366993, -0.09190995637039027, -0.04720395234802425, -0.024436945130157015, 0.006015092275576474, -0.03883199342585299, -0.007476396788166502, -0.0018120868532690616, 0.04813592544339789, -0.07644192793565405, -0.025163698605341355, -0.04737636038784853, -0.013252809824375744, -0.0284229046604699, -0.0485812599376333, 0.07380784850158224, -0.09340661796495334, -0.08851895755772807, 0.0379922331484876, -0.0545887983741836, 0.07323756658993785, 0.017695658819789965, 0.05824437273277677, 0.07614723611430908, 0.04079675380665074, 0.08295292922453745, -0.05686354048579921, -0.06856515334016268, -0.08920902370065142, -0.08501454409608612, 0.04076803720506605, 0.035913761521694156, -0.038390040759517505, -0.0877587253576584, -0.07565672815061623, 0.00802356866722694, 0.06378785380748754, -0.09362893583636477, 0.010664971588218478, 0.0039234215135612776, -0.04797966718126972, -0.05094751583168409, 0.043506420593976594, 0.04904526234416065], [-0.0284548025645682, 0.07613838940413184, -0.0030377785850392515, 0.06592701568543145, 0.02812375710560142, -0.0011004469327959324, -0.02343876476882124, -0.08328884462906352, -0.017660509831145796, 0.04671522176098828, -0.0402220211686877, -0.02938519172619926, -0.03315092485969004, -0.0857977069172204, 0.07331908221799417, 0.02932303332654137, 0.022021767544040647, 0.06825806646645423, 0.016676220103870203, -0.01606969217924981, 0.07032809773034916, -0.049519705891830836, 0.05219434674351129, 0.09254686533210367, -0.06704514762606811, -0.03920278496396087, -0.019067191362779026, 0.04185516272987898, 0.01125243789531497, -0.013138187124514053, 0.07683435098572457, -0.005819728696079809, -0.045370525000808806, -0.08339209636532745, 0.11170466310419072, 0.09572949611034888, 0.08093424127695281, 0.04249996976467415, 0.012578065118805616, 0.0891951861914052, 0.05073249985259087, -0.02180044494217642, 0.021388585274332916, -0.003080001819465277, 0.007316353834945876, -0.0492349249121106, 0.007972365903354348, -0.016473257632771573, 0.023719417008397477, 0.11524157718072411, -0.07371869237599174], [-0.0034957322723686247, 0.06584520175754895, -0.07692584844819489, -0.0523041052020202, 0.029244066955544715, -0.040054658697889774, 0.0707328440752057, -0.08155698284120003, 0.02899472525707782, 0.011788744479252123, -0.03888728216076114, 0.03846267806243098, -0.03918371075767144, -0.07305292018609995, -0.001923586998251274, -0.08064250519754419, 0.014197698912411235, -0.056334411848358565, -0.0006642129124859936, 0.08493955477440468, 0.03072543339394221, 0.01309459335143292, 0.0498408414002503, -0.017309907696409655, 0.012634334380440246, 0.07632497108359373, 0.0844093397650354, -0.08958539383725132, 0.019370876412486485, 0.043719845999269244, 0.059361025638533765, -0.0022485120875974534, -0.0732662577384512, -0.012966892760579312, -0.05433365705972501, -0.0017652758243507447, -0.06370930723184187, -0.08186997319386068, 0.0789486424811163, -0.006979640494528895, 0.03339450612738761, 0.017241281193996906, -0.013906336548986249, -0.002097873694179974, 0.07032336948224734, -0.06589778988029091, 0.006401983173023094, 0.08165858706236538, 0.0958396363627481, -0.01583119869838934, -0.08511799811168008], [0.03482773286236783, -0.006800700285858381, 0.0894879524813639, -0.04719178926804841, -0.0728095665347256, -0.07131287896112454, 0.01062759413768782, 0.022253823609370536, -0.00012058936804433108, 0.06988628834494269, 0.08668394181994472, -0.06340722537514837, 0.003744440111033742, -0.013786683063578106, -0.07333348982823945, -0.05482404529183335, 0.00968969763830082, -0.01028932271823623, -0.04046480983933711, -0.0798776433992326, 0.04002973852134718, 0.06934749362425498, -0.060337665423909705, 0.0698044729601439, -0.02088985287305783, 0.08294993820919054, 0.08448160150259974, 0.08086572117339602, -0.08326358935402173, 0.046860155250759414, -0.08734030937125474, -0.07733257958654902, 0.01670725000614227, -0.03892560907533706, 0.09327906682181172, 0.005155504490117383, -0.042088449921779444, 0.01117218705082826, -0.00024098821196373167, -0.0864221949207341, 0.08498731400714334, 0.020684926023960108, 0.036487692630118404, 0.07666972386475532, 0.05338249949509418, -0.08443840895266903, 0.05472306129224271, 0.02619782564103629, 0.027227083790333756, 0.035326003785232866, 0.07125575626658409], [-0.07555894225156048, -0.021270914742420956, 0.05185971670972272, -0.01985696615174637, 0.0797261724543979, 0.07626594931946055, 0.01251520581008785, 0.041728723351502336, -0.0818943153301308, -0.039758318724834964, 0.0068962783993056454, -0.09298715737947338, 0.027893081517691775, 0.004397413326762083, -0.06757386783950184, 0.029662071331379426, -0.00956558707036149, -0.08051926579004383, -0.05066297355111349, -0.05684932057398728, 0.0028335152802996554, 0.0023344912433467383, -0.017939815535299504, 0.06881324962158572, -0.08297022330007175, 0.059530456149459725, -0.011381871087585654, -0.05873198197900824, -0.04442595025594074, -0.04926619921401019, 0.09242671200294919, 0.013645028969632773, -0.03994491323759693, -0.039285291855796184, 0.07079062748292379, -0.04469592670488433, 0.06491907719480508, -0.03420434152292941, -0.08993248370739747, -0.09108403002103926, 0.06917826147494648, 0.07877445372088299, 0.06684304610700036, 0.00213655582342715, -0.09037295615374617, 0.006478610875312613, -0.052422908159006486, -0.009813948863603475, 0.06810825814649951, -0.06474025079671143, 0.03543327856423034], [-0.0676864651059854, -0.08403733186524312, -0.06864485106250937, -0.021664282807649964, -0.07154378393179919, 0.045643556877566084, -0.011839628911166938, -0.002430674317045006, -0.05059827115544325, 0.01546528085137177, -0.08734573576989095, -0.06869997804038867, -0.06156326702433869, -0.03647147553971859, 0.06245934803322389, -0.03851082951469335, -0.05345027844548395, -0.0030757094020446487, -0.09154446253218272, -0.025949466938069855, 0.021768401331633432, 0.014160827961521287, 0.068669253384393, -0.006928518830324036, 0.005904453532883468, -0.06667406045924065, 0.008704744826715962, 0.07187398801085736, 0.01971591294245004, -0.0796125498681195, -0.016913386018105235, 0.04590324085573664, -0.08539273772338278, 0.07528665084154908, 0.05136384798286882, 0.02461010314644198, 0.04662670034500663, -0.0003073445216315743, 0.028736882065548214, -0.0028587470512582494, 0.0391762399153606, -0.055899728348789646, -0.03582044054077026, -0.03506161943279799, 0.01287363418289446, 0.06862110446810035, -0.00038439586129025705, 0.005906946341612071, 0.07146102093748252, -0.06110437372836966, -0.0414377809444928], [0.03621645642761779, 0.047060355976207044, 0.013970392265432709, -0.03561077638813493, 0.0464180720526429, 0.010250460814087987, -0.08054960429870689, -0.07745287403860865, 0.06656149725065816, -0.027861527266976015, -0.0800335224627267, -0.03160930216755276, 0.05283261539236687, -0.08105298428527452, -0.01225263323969179, 0.06391054811815074, -0.016614737148046264, -0.0034754623155587487, -0.07359673852308174, -0.06179390666804294, -0.03488994952581094, -0.04272584793609919, -0.033646851635610986, -0.06287687527826755, -0.041084447097397135, 0.031689561483810975, 0.0891963183723472, -0.02206754582525502, 0.016226689912852442, -0.04991995492426392, -0.009699526552000156, -0.03620712139594503, -0.017763640642462372, -0.06472658520337843, 0.10864407139703634, 0.06490627791236937, -0.07318635250321885, -0.052528451039634994, -0.0028883076010400724, -0.020773653399527036, 0.12612236873360788, -0.046248721001222313, 0.05723092344304292, 0.12994525867123488, 0.011971662473355365, 0.07463744514841773, 0.131734253752734, -0.05594012482344722, 0.04727366713994311, 0.15836441388286554, -0.0032482145096864455], [0.056076159682490356, -0.08029332675309533, 0.07494839222538036, 0.08851321344452912, 0.09082610644363696, 0.07385111311456967, 0.0386143456527163, 0.025561636021949278, -0.01260455443762235, -0.008879589045082016, -0.015853076199530785, -0.059223280612835855, -0.08557232876047176, -0.025392304471478503, 0.084674927715267, -0.07529715759826992, -0.0268441731026485, 0.012856221062909437, 0.05213294602367201, 0.07382356143837696, 0.01776775627648087, 0.0024555223270927183, 0.07284639406179225, -0.040181337866938914, 0.011789660099455316, -0.01196363188101796, -0.015809167990802838, -0.02581788529150857, 0.00018366082923804294, 0.07171691060318047, 0.07556877531976992, -0.0758689493133052, -0.012910481182950283, -0.04990327838410074, 0.0812744528845722, 0.011224448228452978, 0.01683842148093318, -0.015649119828493572, -0.060125550281903355, -0.012087377581831852, -0.03292462986353326, 0.06212778605114904, 0.045324708675326765, -0.03385938993412993, -0.0243296387463294, -0.04682503483133481, 0.0788217263028303, 0.029668335776666263, 0.020156733027437028, -0.06048002032562898, 0.08604659840743092], [0.06885421425746902, -0.06135786778516453, -0.050237432550498534, 0.06758642283151024, -0.0788633215390539, -0.00395183347121092, -0.025830486831747924, 0.04509062324492898, -0.005853762560041135, -0.014651886551502244, -0.04349468682389643, -0.02430984125756154, -0.09037787984490575, -0.0739369424808193, 0.023103855644311763, -0.003432292948884077, -0.06369336769791642, 0.011042373446981526, 0.012980194036471458, -0.04996403151403541, -0.02810748291787659, -0.023061376798910554, -0.050871707043789176, -0.0413734234075535, 0.014428619561768712, -0.07355237672883108, 0.06340994589479262, -0.028669666094855297, -0.06093106693008086, 0.034096204042578904, -0.067440497479191, 0.02661315056211018, -0.0903710968997974, 0.06596216788231428, -0.06670187377597497, -0.06336347260207907, 0.006277907316155117, 0.022639018473000715, -0.014844605126241786, -0.030698506181902195, -0.014253534911579996, 0.05138161495344519, 0.010483229405336993, -0.06704683892306403, 0.05944826299885142, -0.06873778404883157, -0.004309042520788333, -0.05377361101987141, -0.03520124375217553, -0.10107959653973557, 0.009174500614664757], [-0.07719472110377153, 0.0924320690026, 0.04133201805116035, 0.07125357059724988, 0.002102010620381392, 0.06116894456169875, -0.07018305691171688, 0.0010800852288016367, 0.0359162044407315, 0.0038130117447512856, -0.05862686429297123, -0.0498790831113744, 0.043650197785322684, -0.07983903222066198, -0.09648191206551684, 0.04019828699045661, -0.04063142268519528, 0.005980005327602478, -0.05082851502475364, -0.04746453876455825, 0.07818381474649375, 0.07948521929913302, 0.06506131990426053, -0.010937302444945288, -0.0379031434292866, 0.03768008185914053, -0.018034778986846783, 0.04785188814739041, -0.01759514883090122, 0.017559944042126525, -0.008579331793287709, 0.016138117003937056, -0.023506511191257195, -0.0037266480602107447, -0.08304382578357261, -0.0006549300303857166, 0.08967488414740861, -0.08390856405623558, -0.07309812130688877, -0.0712323201031263, -0.07969787308585474, 0.040357830555176784, 0.07272605016924297, -0.05246390190339081, -0.04140403944235088, -0.07068351584119663, -0.040636633310132154, 0.0446551584779517, 0.08323210998234808, -0.041779419192473514, 0.05550334647407426], [-0.055548350268721215, 0.07674438186245296, 0.03558829252102486, -0.044286334189689594, -0.0043473916186659205, 0.04362732938970919, 0.061877435385952986, -0.032733364349650886, 0.04470045134380653, 0.07751596180028006, -0.06135405313817136, -0.06886453426579031, -0.04806001602961323, 0.04047895077016292, 0.08757925426135706, 0.042205590286107604, 0.07290612835829331, -0.0008650921596680899, 0.009605135303396524, 0.0018309222479380048, -0.012222633341551999, 0.03638395109040538, -0.08328507105531005, -0.057699326844988255, -0.04206499484196571, -0.036517641515919526, -0.0587165073082311, -0.07840054200385943, -0.04778873229866222, -0.07208899430955609, -0.02277723018405281, 0.05192652136177267, 0.050416923634177414, -0.05789860529815007, -0.03345380503385225, -0.03348424904482468, -0.08157160694101638, 0.08172149048853329, 0.04559470284573616, -0.006715403354396704, -0.0373839114683424, -0.015464186792249358, -0.09253508876183009, -0.060805063949015706, -0.005885210520565282, -0.05296348738140453, -0.007583984998831045, 0.04939065260723143, 0.05206446761273549, 0.06131345059406701, -0.05546249696402907], [0.09182610894274545, 0.07717212788774881, -0.0362509931381142, 0.011627809380782795, -0.07729637126391892, -0.011122207901080209, 0.004323257920139961, 0.05724971000604921, -0.07250551599416982, -0.07012250235359012, -0.011741456704093345, -0.03826483436738569, -0.0857480079312356, 0.038428032119858395, -0.07881626205114593, 0.06157379101183686, 0.04120585429259347, -0.06716071206962819, 0.05234048419462042, 0.008282233235655698, -0.0035416686526445673, -0.029394734395181393, -0.013296955801388866, -0.03196549359888086, -0.025916475684267425, -0.03834626860549499, 0.034695826544944165, -0.07832185990338808, 0.04825939808247464, -0.038717096313313534, 0.05960908438791073, -0.08319957494175176, 0.05674103395669533, -0.05770209220803044, -0.0008841954640133906, 0.03676776928137456, -0.02374388653759294, -0.019033456434503382, -0.03385297135716237, -0.015309194624699726, -0.030013902075818243, -0.01436934896995165, -0.04949770877699143, -0.08353814466113897, 0.05773487092778567, -0.014068692730037214, -0.043896301343724235, 0.005728743084444936, -0.003285753884806206, 0.09694286273717022, -0.060981536080686766], [-0.08545042915771196, -0.02290135387559843, 0.07044102120716769, -0.08854484720596484, -0.04628806663871632, -0.06243267429161957, 0.05954731085832809, -0.02541366064079968, -0.017715598158793134, 0.0038160821416206576, 0.0861789275093756, 0.01870955070912608, 0.04049860473724133, -0.024578892178998932, -0.06384043888487302, 0.0728722928910999, 0.008783286648617333, 0.013422067130334272, -0.019109938159168324, -0.017182276106225476, 0.010902609211900229, 0.028447648501572866, -0.06654443435597829, -0.08762411001925473, -0.03296363603026674, 0.08056336501269819, -0.05841572727141363, -0.02099018010109638, -0.08914460430429275, -0.03322075093890039, 0.06365250057085417, 0.048570249649699575, -0.03843928181968114, 0.08882025163714138, -0.02993151684699506, 0.07100112378587096, -0.030980143301599865, -0.053518137809488386, 0.08413375866426406, 0.036420396421339395, -0.04165119406233958, 0.04866740678272015, 0.0026952768806894453, 0.038178110093835795, 0.03733548893985364, -0.05348166133609613, -0.025315690229474722, 0.08133076046817828, 0.0036870339853042468, -0.06181597740050613, 0.05861595952120287], [0.006617050182170808, -0.07487853493742709, 0.011267044881821724, -0.05282121681709476, -0.0367394866894546, -0.05012654121831883, 0.014641352613932028, 0.016334118336682295, -0.06806900285507916, -0.06408123788873739, 0.016974570437331873, 0.026611406873878477, -0.07724186359456152, -0.08129406759286062, -0.07201726132973019, 0.017303714502400935, -0.08308787828284346, -0.04344648296319279, -0.02982553991463924, -0.07239622246556071, 0.03424997274208159, 0.08732329667400966, 0.025571902187038913, 0.003899400255854856, 0.08832131480595141, -0.02600189346296395, 0.08347230660716734, -0.05467243302477674, -0.05723964726387732, 0.031121536692742816, -0.05388207519884229, 0.07526605169660666, -0.018385657877954358, -0.06409003038754511, 0.07680538945552214, 0.044363840849877906, 0.02039541516555684, 0.008230598852976634, 0.022881971641250623, -0.05142746055232286, -0.03418321815488126, 0.04334498166551024, 0.0671830853611455, -0.0017922231231585401, 0.019114093502868912, 0.009609550172160785, -0.06567169574899523, -0.04834634152586913, -0.065994496532808, 0.047040748951522666, 0.027373405986469215], [0.05520575712955837, 0.06465806654875683, 0.02980066660207068, -0.029097416599992137, -0.0768930008691066, 0.013407936984200316, -0.0706824961776882, 0.06365864439072741, 0.06819563152545856, -0.05892983087656398, -0.03321033803690255, 0.010484030175954985, 0.051264594238991476, -0.013661512068336247, 0.08416339332993691, -0.057072417978700246, 0.012025911574071808, -0.07074462966624841, -0.05653026566821326, -0.06701428214763058, -0.035345087553827995, -0.017634760856701785, 0.04679466251248501, -0.08237060419004756, 0.07654189040320246, -0.0500126776291081, 0.035449820665314886, -0.059729342920643066, -0.07481800745974056, -0.0019152542652677343, -0.0003068984208889804, 0.09404685772407463, -0.05927472124387413, 0.06881914082696598, 0.007569816880072619, 0.0919171901535389, -0.08202644316307071, 0.017227183150940507, 0.07525148740344384, -0.025500659629489403, 0.005752205024625659, -0.049673994456262575, -0.0536056414062819, -0.003453947355906927, -0.055722687147983785, 0.037655589205483446, 0.12382968033799299, -0.048538430360004575, -0.04425470608089389, 0.0398390406157834, 0.011069820332293432], [0.01705508575283802, 0.07285643960151635, 0.05933275257487682, -0.07966743008379194, -0.030484642050462557, 0.05023837819087547, 0.05323258131683836, -0.029715012326082188, 0.07116540553351762, -0.07717123190607551, -0.034013637269195394, -0.0016350950075531114, -0.05581299488209244, 0.02720980849593895, -0.08632286926184511, 0.08216901954448284, 0.046022593387646346, -0.053202967457643725, 0.06331943289571713, 0.01123904975280844, 0.06322511832399018, 0.08903398047323381, -0.05266334422465355, 0.07710742036670559, -0.06492438344867983, -0.06555253445486815, -0.04805993094775361, -0.022002591460136306, 0.001231857456482413, 0.03148432392888024, -0.04658282712525958, 0.030346111586268373, 0.022617722179006695, -0.011544511955540829, 0.09261184953474955, -0.01127757637650228, -0.0618575844204918, -0.08170287397626064, -0.0065648773035372554, -0.02155326799422725, 0.046812178398983544, 0.03888109792026783, -0.0554152373926752, -0.04877424765381844, -0.060702063441934614, -0.03413945139423192, -0.023241059580453083, 0.049267880743407565, -0.004641066875752993, -0.060667027332025204, 0.07200414235484662], [-0.04593825356284344, 0.09039127463926108, 0.04419723590310185, 0.014666221361523967, -0.051575107800957, -0.05847181657876786, -0.010543880529138221, 0.06252770844202636, 0.006164566631940693, 0.03296533160962318, 0.03978127922759015, 0.035901646668438286, 0.049108434528006464, 0.08745386054635831, 0.03563486971689696, 0.012017200320815585, -0.03203133028853343, 0.08716495313989685, -0.05435111534988887, -0.0375129659112903, -0.02774975504271728, -0.031183046306286422, -0.09257177757242176, 0.04728338652726136, -0.01967219569482102, -0.06017308488696346, -0.018648063709857055, 0.04755591159563215, 0.08638378958878762, 0.01636787584018654, 0.005404611293861564, -0.07725843515911275, 0.05829145081511312, 0.08166735424418994, 0.0692874848809128, 0.02164835729705991, -0.020693087932116695, -0.029319070646516395, 0.05458185103767665, -0.054578905163098435, -0.08670619081884165, -0.08882990599501951, 0.04709541078335451, 0.08577747332069859, -0.06834755757192026, -0.017904955613701926, 0.07051655471171576, -0.0025694794504523438, -0.04812305737528327, 0.05166077758315634, 0.08984850727123217], [-0.08467126218369762, 0.004413748277709406, -0.012630984533826812, 0.0011155520671803955, 0.014975250990637602, -0.018486989922083332, -0.006832460805230099, 0.014569237221623158, 0.07973867915069688, -0.023277224041558648, 0.06794899299216318, 0.08431220091873291, 0.025160671832326578, 0.03865461909081762, 0.0662060300420323, -0.01878981667006876, 0.01312602675521581, 0.002175073050360381, -0.07011792288231719, 0.058769302887291555, -0.07615990622213192, -0.010697902421642471, -2.2375525456639044e-05, 0.040438268415336216, -0.07456440937878218, 0.024833951292418867, -0.08290008789199722, 0.02182398187615732, 0.0489677374296428, 0.08365905432635264, -0.0834165962939142, 0.05885003431492812, 0.09034964256835187, -0.04249683274914354, 0.08846599042831113, 0.062159295699427276, -0.040118491566392724, 0.0015623376355362614, 0.036269277369518224, 0.07857193371681347, 0.0351397835920093, -0.039377275941657665, -0.07309775797008032, -0.026193797076234145, -0.004927228870852378, -0.038153795905324285, 0.02271419322813828, -0.01841613316763288, -0.08438603658659834, -0.06753559385447859, 0.036492542053737496], [-0.018521862373284497, 0.07503929252150636, 0.0775808549065989, -0.02246674289557503, -0.07160385154977393, 0.06599089463391691, 0.06805480751111283, 0.05396202871704788, 0.057103482100402565, -0.09365999658384766, -0.019328484826111002, 0.02816333589357089, 0.06292369143471127, -0.004250380971223457, -0.03828696042454882, 0.0015015865850759238, 0.04949902689925916, -0.06541784955121341, -0.030945405487302912, -0.0499423495259222, -0.0642088961748855, -0.06025229652447687, -0.09086012971149847, -0.026231763010614473, -0.044392775050116524, 0.05269623559504632, 0.058697165369491267, -0.05678386153841686, 0.010629186511446297, -0.015045940158490959, 0.02732691461745018, -0.014527790560762173, 0.07813526834045773, 0.025373722216532762, 0.07441119800620989, 0.054162462370841394, 0.015993166124664962, -0.07189885399250262, 0.05757737589708587, 0.0634159713335425, -0.01719850794669106, 0.046407165465844565, -0.017918054281320008, 0.028315422198977237, 0.005140178215944971, -0.047082139966840277, -0.10548522437446892, -0.021026132826647545, -0.01596070586624445, -0.0008373970824932085, 0.053457721720151216], [-0.0353680857720548, 0.0392064429319017, -0.06425590345011513, -0.07277653023506842, 0.07197954064037665, 0.07389820600461318, -0.039061514850305346, -0.0436099978406193, 0.0434802749679588, -0.040614752785417485, 0.029479665734287373, -0.06340401320046092, 0.047715859791720126, 0.07973637066600318, -0.059491143290500065, -0.07402710070370459, -0.03726968546682677, 0.035200682208589455, -0.05191093906892182, -0.009947688356565463, 0.0778779353156051, 0.012244794592434131, -0.008735494216078141, -0.06561932594659275, 0.021308099698170217, -0.00034156113565829806, -0.032842693151964954, -0.007918096981312746, -0.03323936144538719, 0.05205250689080752, 0.014220486327056215, 0.01174797248998427, -0.06497399730481893, -0.010705653885200086, 0.05725270348490414, 0.07341169588971179, -0.04251176861816024, 0.0006071319692053585, -0.012695958018285457, 0.06984077804297635, 0.018281228042649547, 0.01204347405947262, -0.01738274227313085, 0.00042436799360768217, 0.05962339364887363, -0.06317340781456235, -0.08936338110664957, 0.0856724863114855, 0.0800307507052388, -0.04802165831543583, 0.0873714529050601], [0.022444027665237853, 0.09165745732977162, -0.0503840414775758, 0.08319482121365877, -0.04517392780903186, 0.03667549115634104, -0.05109911455719423, -0.014821277145162728, -0.07599174284489423, 0.08359874766822425, -0.0007188320590759608, 0.005313904219661873, -0.056544763141805864, -0.01901867546669771, -0.0016382073042183313, 0.07554069544140107, -0.01513999148133913, -0.027864463257315206, -0.07769097971649555, 0.030777043933318416, -0.005818355692373636, 0.0304582829806602, 0.05395435639203644, -0.08460206261545615, -0.03601103845308313, 0.025195208773225553, -0.027560267596226037, 0.03825776572220127, -0.0547462503153603, -0.018282860663577063, -0.005580842336454587, -0.03215391256501942, 0.04959551104497787, 0.004217840179628399, 0.07244644438708725, -0.010957034703654502, 0.07254753383053279, 0.031244997524824392, -0.06007163660489136, 0.015828391264815993, 0.054464629386720385, -0.09280515840774052, -0.02367781725301852, -0.0721796695525437, -0.0032206638572091903, 0.007261425471956741, -0.0812231717990912, 0.012293521982340119, 0.018493623377010583, 0.029169969466606844, -0.06085974188472273], [-0.021610007206641635, 0.07825491238505165, 0.02378960023648327, -0.04080893048750599, 0.06296140805582623, 0.06318969473209074, 0.03900562816565494, -0.04551892847166088, -0.007634099621002557, 0.027237735909492078, 0.011133977039333236, -0.0364969256829315, -0.05257386032369327, -0.017525274381972298, 0.05482671367140571, 0.04756042535945776, 0.006245350461118797, -0.09115767744111529, -0.013024945525545022, 0.024983536223297936, -0.05236543585609986, -0.009337050435292921, 0.0062814033411333235, -0.061618158353192405, -0.062450621316583944, -0.04575156982569942, 0.08397375079840635, 0.08091361473182275, -0.08349751217325327, 0.029576060194910915, 0.06608723785525493, -0.019128912696450638, 0.02035638579175041, -0.020087095310173334, 0.07245349951817179, 0.02488740111536116, -0.022268409584797533, -0.018081560338854424, 0.08386102435603837, 0.0464786758447704, -0.08133448211332454, 0.062078433043596774, -0.015447421687627463, 0.0496646636750446, 0.07260193432800491, 0.03341459163352794, -0.027491126781933543, -0.03824417426771921, -0.014890784725834931, 0.04401460986007986, -0.02625319857401617], [-0.011156217500562261, 0.08448113155067088, 0.07379315591970714, -0.08325630206146888, 0.06722458973531176, 0.02310621664041005, 0.05787921870517577, -0.06755915562435019, 0.09285641757814601, 0.09021948310580181, -0.05288522951813968, 0.00898354085868414, -0.005394832427709521, 0.047979323299312704, 0.025273004902857665, 0.05964924740212288, -0.08077352560562832, 0.02435674468722679, -0.027617720316379723, -0.05346161723224604, 0.08494809411665245, -0.04732992443707541, 0.015495653902182407, 0.07219483415979888, 0.002010907440718949, -0.050753115030098606, 0.012259605529765226, -0.053177777988538046, -0.05929302950770246, -0.06353688160015455, -0.018645732128944745, 0.07586617006311389, 0.08835860073426835, 0.08806800829940255, -0.019811776390546657, -0.0899366120450974, 0.050951083523604335, 0.04432235460475408, 0.07708874848375741, -0.08738900344573954, 0.07940728203205531, 0.06873016105608246, 0.07128200420243475, -0.08422162006902285, 0.07577576219432014, -0.0692250944747053, 0.013697260002475776, -0.03478980214380597, 0.013364268856000065, 0.0009841123173896973, 0.07853301638325341], [-0.08955498831043043, 0.0497024355532442, 0.013304209088518796, -0.03057140228283748, 0.06468607046172804, -0.03874301971522942, 0.05251519800362262, -0.008199829262701741, -0.005018006379473734, 0.07529731408041833, 0.048734462446442084, -0.04885972118320991, -0.073906560544511, -0.014171836292134287, -0.05671623783405573, 0.09178338978855878, -0.00978801835649862, 0.07423462766961952, 0.08922298556104712, 0.06699641116588766, -0.023794666768052846, -0.05626893278373702, -0.010070633726536958, -0.04607917249662684, 0.036818601095996564, 0.050548732089082574, 0.08181779608022793, -0.02363458713144097, 0.05117871178238468, 0.044192656840603244, 0.031892636119444956, -0.05316610407884758, 0.06152172501104155, -0.026698884392528075, -0.0060067852341667925, 0.04750206376486008, 0.08611474627992456, 0.0680544619020456, 0.08705385291922575, 0.08871109350100083, 0.06290168429215619, -0.03127093420616997, -0.03827695658754234, 0.07098891013862381, -0.06302863059569414, 0.011455250684346087, -0.0748663274529061, -0.022772488516089366, 0.016634442933732698, -0.04116150614076664, 0.03506288054071835], [-0.033454544674430736, 0.08795327580312842, -0.04206974427463948, 0.07333265111251012, 0.07145864243975779, -0.0542767396782193, -0.06683697877868892, 0.01665981321129157, 0.07206031478751337, 0.01912809576285904, -0.02664197180421033, -0.09040537364667611, -0.08467123248099868, -0.016762201399130622, -0.017625241531023957, -0.08361111705343816, -0.09018861321018148, 0.022012331677224547, 0.056048661228381244, 0.005537802420992932, 0.06120715130360144, 0.01229900850539093, 0.03127254562969648, 0.004235573128235933, 0.08272606935639089, 0.08026818872515455, -0.00011920636848958369, 0.058426140562041415, 0.029234529196374988, -0.06573133041105977, 0.07721353929627447, -0.041932598865626614, -0.0008270593931408266, 0.0005560976126144339, -0.006782207386477512, 0.05377922690033832, 0.04247115333594787, 0.020842827514825652, 0.08811352300097039, 0.0453065525720018, 0.027861447753689372, 0.04720167463946181, -0.07913035409047693, 0.03791198294327575, 0.060365820736886476, 0.05736358276288022, -0.05978453094513927, -0.08630590001716867, 0.08492417142485302, -0.007590133995112682, 0.04373744318252418], [0.06620154608537974, -0.06725071710868652, -0.05934836998386902, -0.04628302259969047, -0.0233323199176044, 0.00793307746020568, 0.06440976215345762, -0.01842474481539587, 0.04619789962067791, -0.08431474015310224, -0.061282866741062134, 0.06205519603619733, -0.06596365898642492, 0.022200873289607924, 0.04562335065521994, -0.049189810968409776, 0.06894617665091599, 0.039708018078741546, -0.06516328139919332, -0.03606577200437744, -0.07309360356622667, -0.07326597467453899, -0.06326325020178263, -0.009487884834336298, -0.05237703532159767, -0.029222985176818487, -0.09118574669392031, -0.07479112504157, 0.058827936296704714, -0.054038206071706445, -0.049936826256514286, 0.05848631349371281, -0.04035266709274152, 0.0001421477883753764, 0.02495429276703005, 0.034277768932862517, -0.005819680444950459, 0.029779307265787022, -0.00509502537250414, 0.01795981435278406, 0.09064487927114404, 0.03549105842933951, -0.054127955478518175, 0.07026458598558184, -0.02349053219054744, 0.009927348329106793, 0.011703986705638814, -0.04414783896536276, -0.07964267715559306, 0.0314589652829288, 0.006097349504929111], [-0.04357765373461177, 0.0021228069418458076, -0.07944980680433979, -0.05494184151246455, 0.056776160662067025, 0.07262376228606926, -0.038493337366006755, -0.08043643373242464, 6.54046987313172e-05, -0.04281588237747121, -0.05869705559288311, -0.08466555652789026, -0.04301521080811579, -0.039412187454671226, -0.031034589421164493, 0.09092810698359091, 0.027317351438710575, 0.053680188631936535, 0.07703461535054432, 0.031144570717034494, 0.08260193509098371, 0.08543120426464784, 0.05054832422374101, 0.02432301883519417, 0.003931753763712915, 0.04800410343603936, 0.050772299773915106, -0.05967656511617352, -0.014985449574168157, 0.005699099050305033, 0.055193957361892934, -0.04958187426599315, 0.04901574294909778, 0.07456367285905971, -0.031006289256334762, -0.06646341332934406, -0.012133455420154503, 0.08116094588553975, 0.08346170090035175, 0.03939432928710469, -0.031512004676878584, -0.0666520291830176, 0.03083757905668025, -0.08049304432642394, -0.03881092322957447, 0.0890049148685212, 0.07090456040978568, -0.037581293013528895, 0.030069258511618662, -0.00027033547754941724, -0.06116629792538412], [0.08248791419105801, -0.009318419718022263, 0.07259648978747692, 0.009126499715806124, 0.007366315628227468, -0.09268194094084753, 0.05170993552347736, -0.01188468967063521, 0.035050460714949674, 0.0639800293052551, -0.0523301236320564, -0.07890079991024877, -0.02192073203736772, -0.028668475789375415, 0.02315771075469074, 0.0720894521438186, -0.08283734608222666, 0.028847140592033995, -0.06427116245113308, -0.014431878899409698, 0.03421689274424044, 0.0031320774974564953, -0.024185410196408724, 0.0581788413902429, -0.055164367555136574, -0.033362924812487274, 0.08771654313251977, 0.06329499792395084, -0.015247207390055017, 0.044295941709759465, 0.0051587256224626, -0.014387096520986544, -0.004478876063002495, 0.08570498305098072, -0.016712765460196923, -0.043458939051893394, 0.03472509809211644, 0.055583073725364404, -0.08679599379348583, -0.05287900012927376, -0.07809198545337831, -0.06335199905135983, -0.02580425477042967, -0.037741548168678966, 0.048719931348638036, 0.014474849513615455, 0.046747794150729466, -0.006481736798609172, 0.050682391392886744, -0.022881349389922142, -0.0029632135177247504], [-0.08370123899324826, -0.061239040953121125, -0.07285179454546233, -0.0941129432116248, 0.09659696519668956, -0.06279004224036633, 0.0436433874245429, 0.0666915444213967, -0.022777787708720965, -0.07762768371843938, 0.047488059688971206, 0.068078937928035, 0.04276308303595174, 0.052172959486107284, -0.03601482539908743, -0.07041540684607393, -0.032476468406937374, 0.043059971987367655, -0.059923199268927654, 0.061278079555538385, 0.08221498416919926, 0.07652853699532401, 0.07332997652442115, -0.08231001478991579, -0.0663996421235305, 0.02624867081542027, 0.008400395343140129, 0.01454118213853778, 0.015064476102655041, 0.012067287560199168, -0.03224428496336021, -0.08400039224649845, -0.021793584590647643, 0.06644675489232385, -0.062127733278817425, -0.01889143838679333, -0.02511187557243362, -0.009032961646614601, 0.07970808275158946, 0.0004718399772740683, -0.12015710247170877, 0.028923153387781765, 0.09549127550131456, -0.024813180646616497, -0.07332542023757319, -0.07380185104238564, -0.01099619728178019, 0.03237115310458846, -0.05202005557721529, -0.11544691690414438, -0.09186443006951737], [0.024557440998283112, 0.06333868603597888, -0.051595113853744455, 0.04179452296642393, 0.013459975409756195, -0.003349271633358241, -0.0014392822151320036, 0.01569772922800755, 0.024251893319409162, 0.09143919899823012, -0.004524554978730117, -0.07931519379939724, -0.05786708685691386, 0.02337778140034867, -0.008066357733491882, -0.061235774372258155, -0.08071847553534349, -0.07581292458234437, -0.011707930621218372, 0.04690090302344182, 0.05374283012865938, -0.08750274051249626, 0.059005675217679555, 0.08383349984883763, -0.09115956916667281, -0.05249308184289671, 0.08332990471643138, -0.03541375852346168, 0.0431487770818594, -0.08944517067725305, 0.05654444268300128, 0.06626346344496895, 0.06353584595979178, -0.08784897002895004, -0.058650010617526165, 0.0822183452801633, 0.07145536516018483, 0.07843890607285153, -0.04296673508168775, -0.04524299334632871, 0.016021865641627303, -0.07655893349551635, 0.06350254120027346, -0.06633219093941142, 0.03716025782340808, -0.06516818760770958, 0.06441703412459637, -0.0005429545461001563, 0.08535636162008294, 0.012410112892591016, 0.07439015746046919], [-0.027361493794586522, 0.05009562929507173, 0.007200585711890523, -0.047681376260782525, -0.06422779818558713, -0.08075682123667931, -0.05675025754166028, 0.015177161298223515, -0.05832056678431992, -0.0523521349937262, 0.08573068733349828, -0.006179163629102562, 0.0875165877634432, -0.08362319808328836, -0.08739403681715772, -0.004378102065092094, -0.028196382684418833, -0.06205370022822798, -0.010813741541156824, -0.06877194298268287, -0.00794930946257828, 0.035809994327871734, -0.07241305350537297, 0.053213818003058105, 0.019777332739507224, -0.03430514802029227, -0.013553028331212778, -0.0005127570927734498, 0.022045955048931493, -0.09029330626556911, -0.03831005077087608, -0.06998500516016191, 0.06248362437731719, -0.024579551521257976, -0.04799257278346778, -0.0553815779170589, 0.07802895247419632, -0.05719655293666305, -0.06651524738321385, -0.08374092903765165, 0.07987889150586229, -0.061756258630241034, -0.03708727033755221, 0.07821835789110401, -0.02695043438393766, 0.06760661411974597, -0.06190509074458223, -0.0030770803222289365, -0.052595713768357935, -0.039128059217497804, 0.08980771869008422], [0.008868648473158311, 0.011094612098654057, 0.04077028028771481, -0.08956002244325881, 0.04888618994165486, 0.005948369175841624, -0.06768189258820918, -0.051562914816859734, -0.06962265751725055, -0.03515306829967357, 0.023712043447694654, -0.07862946265406746, -0.06968976329879202, -0.037956872048124056, -0.0758450941746018, -0.018156184777330886, 0.0013190707939451582, -0.04894234474256709, 0.004500116558999868, -0.0037529443479063463, 0.006262202797540811, -0.021096271296068177, 0.00023894377616890885, 0.06327340819979863, -0.06558593914758264, -0.009776317441209584, 0.08440926985691558, 0.009673414743138917, 0.06475003897890101, 0.03926325438579832, -0.041637281416664104, -0.021585816986536457, -0.06762176539504375, 0.010347527226431397, 0.020722767255027284, 0.07257983184983613, 0.06326270315028885, 0.011834686550740759, 0.07830286956627353, -0.08630408967132197, 0.052628679212327195, 0.030841966811295217, 0.03427703229897283, -0.08185085148477526, 0.015305076953474897, 0.012491591557405212, -0.04727373772800484, -0.012716457329614838, -0.05972454680804797, 0.07630717276553285, -0.0015256198526811867], [-0.06457634054527894, -0.0006853140744174165, 0.03945770587456661, -0.022786274327277013, 0.05199385038014778, 0.023393430130861703, 0.057679372375943526, -0.013603617358840098, -0.0016220932773644047, 0.05796172969547805, 0.03812354581361372, 0.08125712784697268, -0.05197418025039607, 0.007302603158521636, 0.03091311482373565, -0.0510701964959064, 0.07216995309391186, 0.06400693781691813, -0.09103955849294118, 0.05835595066482137, 0.07312697649507718, -0.03665664802283312, 0.008567210459456688, 0.0886924976214209, -0.0059347433311930835, 0.05607171388851728, 0.03727207373527328, -0.027211755115849865, 0.0948875920392306, 0.0612487590080085, -0.07091416840945877, -0.050179713308656185, -0.07491633563422287, -0.03109178020397483, 0.10170457729840035, 0.07267947690413767, -0.003977904713187712, 0.08267636526396843, 0.06332991322305395, 0.004353128900800197, 0.045347286341524864, -0.07127048682037945, 0.057312713156077694, 0.04555722466906887, 0.09122154178513724, -0.06585320504922113, 0.06091624174228584, -0.030867764057183947, -0.06439473275654296, -0.05359725681868652, -0.04756575009853934], [0.059596830516549744, -0.029404282516300954, 0.09531925368138777, -0.04039133515878485, -0.05906046947152112, -0.020478579786185162, 0.08477898076346241, -0.012353225918931322, 0.06664002278004072, 0.0336109575872359, -0.029074235441637536, -0.05887009977393848, 0.06070629998381779, 0.015835944708640522, -0.03347660371080901, 0.03057883635555081, -0.0693302834761336, -0.03293170204298675, 0.00517477567206841, 0.028948416808517435, -0.04641539821718283, -0.08065275219657218, -0.026503318436820245, -0.03590985462440574, 0.029768840685537253, 0.09610639757039965, 0.04659165730374988, 0.05931559474111021, -0.02236127752198274, -0.08490364561533456, -0.020775189211432323, -0.07178008132814928, 0.017210633586674736, 0.07462645163136605, -0.04270193105947804, -0.026383879767054648, 0.0007180430970476437, -0.05028416229886238, 0.024794517830413983, 0.0528331874992549, 0.014855134687381696, -0.031728498172707925, 0.015859567332808897, 0.1136655243061316, 0.054828262137598255, 0.09646339229461938, 0.05355844450671705, -0.02204632768448865, -0.0971603458901141, 0.12640883647787024, -0.06303904492340283], [0.06782773814309373, -0.07178905691747088, 0.047051378061123326, 0.010853074921548456, -0.06371354771509576, 0.0755359870465977, -0.049961107537329706, 0.03819735755702278, -0.0807189140141143, -0.060981949169249046, -0.09064456781539068, -0.024423706758229427, -0.04656237356306143, 0.046179285432665175, 0.05739202834427968, 0.06591910955166516, -0.06373933053074915, 0.018767065963232094, 0.03972975786556194, 0.017408421458293112, -0.011361684705494377, 0.05804428388870872, -0.0526638832756066, -0.06647195148014973, 0.06528769796261548, 0.060688996357533775, 0.016436644396734087, 0.008376466250603268, 0.04066254027816792, -0.015512960123189123, -0.053282862183377404, -0.06026985820387952, 0.016496179336318823, 0.019169709034079812, 0.006009554849699424, 0.02652944072917654, 0.017328357430193203, 0.009852483946952945, 0.014661059092462736, 0.05298683611655091, 0.004988127523632682, 0.012479014798387809, 0.021297531481181624, -0.06856985476545423, 0.02383683778193063, 0.0572319070098375, 0.030806531274661476, -0.0012924044848627038, 0.08248601838569843, 0.0071185584555516655, 0.003667382868987587], [-0.025738678363524354, 0.026215886934703215, -0.03777013780205334, 0.020525039556448965, -0.07056822086117066, 0.07131388498384739, -0.07617724065020488, 0.04307223383091822, 0.07436700767527754, 0.06477548930506394, -0.015148453478686551, -0.03581052860994484, 0.0042457764946016415, 0.029822131206979696, 0.05340644757406353, 0.07061606257899863, -0.030898684034360822, 0.007740181823581552, -0.08955884941646829, 0.012737001132017508, 0.07342590846774395, -0.018895755675213313, 0.08275747445006353, 0.045217497001553614, 0.044030930281576064, 0.05447076119424081, -0.07947361614386847, 0.043499950262372584, 0.028151528586538133, 0.06039022824905615, -0.06504807721139001, -0.0520699703832671, -0.01700268098485047, 0.0904435791813234, -0.08132989842965188, 0.006156793758430857, -0.04474711530562626, -0.03838662464067877, 0.0824324304637125, 0.029382278968542556, 0.0773022809793665, -0.023490773149877756, 0.043590812668874226, -0.05821306641409324, 0.05796849278440387, 0.025673290529171333, 0.07265463102368613, 0.01265778888372849, 0.005443523180184117, -0.051164038954328396, 0.06405280982523714], [0.036590003722891506, -0.008740151300955831, -0.05114661971684807, -0.08980738574413526, 0.0758784751148115, -0.014958821813240193, 0.042090770705615024, 0.045035560532136705, 0.06560289044394184, -0.006037955127356475, -0.03413379385809154, -0.017820620159903364, 0.0020607299980898754, 0.05824947372585747, 0.08734095195141588, -0.06026182559071934, 0.06544274192510013, 0.07244777099197801, 0.012778200190650612, 0.06642365702121755, -0.042690765330229315, 0.009830187315811995, 0.07542338248433114, -0.03409466104987187, 0.0681478835036239, -0.055627455706694015, 0.004561002877206021, 0.07001045054663396, 0.03200540306241813, 0.0536501629758533, -0.07817716224255045, 0.05084036397678377, 0.011270294647686625, -0.014268493277222507, 0.06277073934457648, 0.011588525163356832, -0.04996970953623251, -0.04331080762233301, -0.08673281740826295, 0.018128705746755815, -0.07381500944020243, -0.044372441753476446, 0.008561558222113687, -0.04960618361391749, -0.08275214233561497, 0.0223206177291329, -0.007962294066650707, 0.056250677382310516, 0.07124357772424657, 0.0520656132212716, 0.06383466436448566], [0.01663433325806293, -0.0040606198698045935, -0.05104926339484302, -0.0343531247542921, 0.04502961299344389, 0.07340421375681919, 0.039102900887453315, 0.03209204763270799, -0.07539744150053196, -0.0910823007185313, -0.042818483776876304, 0.038974417003011255, -0.03494404913189551, -0.07865550122081442, 9.894424689908025e-05, -0.09135243207022775, 0.046214544414936796, -0.007199995319320141, 0.02284504123651779, 0.08916864347042364, -0.0037947067980055355, -0.05230942451509418, -0.03664420661995361, 0.045935329433406495, -0.0795096438488236, -0.05210215682433727, 0.0003484050834043548, -0.06740669403891685, 0.002352717011669014, 0.046821622442682446, 0.07298094839256894, -0.08203963127680684, 0.03210088757256868, 0.02474590477737651, -0.033468906329683294, -0.0931215546643502, 0.041053236299080864, -0.02448010499336201, 0.023525324856474593, -0.04494103329501095, 0.04728256698566438, -0.030772251257624204, 0.01524503247131393, 0.02660714475208053, -0.07559811264120406, 0.024125711168386514, -0.009965867630473427, 0.033822176155807106, -0.022677873824234033, 0.0157408110385147, -0.07277742557675072], [0.02173233266180934, 0.028185451522141587, -0.07502391228683931, 0.05546520312611133, -0.011783546442102812, 0.07178933796932012, -0.008238360285186654, 0.036627967154668734, -0.005892713801392344, 0.03298495908668942, -0.04290545062860655, -0.06730207926163424, 0.037029060781210765, -0.04114090912917654, 0.0042621830536561925, 0.020125238941422915, -0.029748794157138183, -0.016254418187996042, -0.025114468534979575, 0.029730897460473794, 0.04792325069591197, -0.07873765832154613, -0.08554858644839985, -0.07354115240163461, 0.013048306843846134, -0.02007559831450753, 0.0005940797149021557, -0.08352991864026463, -0.059172796410677235, -0.013337506978077196, 0.049608972208443326, -0.06465655299873127, 0.025385315990881705, 0.031609055333482614, 0.022809228840380467, -0.020051030601594355, 0.051875795990747764, -0.030410325223756255, -0.008320625545694394, 0.0297358608065988, -0.062345243410861145, -0.04776406871918511, 0.008275076486709202, 0.04508101712237865, 0.004973010997097031, 0.021628916404888503, 0.021457011698982665, 0.07588567175092295, 0.02526217322251135, 0.10145476557608014, 0.031216818894096398], [0.007228658940460341, -0.08964500210827381, -0.006159518070858698, -0.05187029533510142, -0.05125369036456883, -0.0826803668765011, -0.04876785342218569, -0.02107636952966461, -0.06468705931825657, 0.07678320835536113, -0.09098937408243653, -0.017438224135118235, -0.02604428840308339, -0.07802476550426937, -0.0712843088951171, -0.06621566185323596, 0.0030510175360335024, 0.0800022740058055, 0.06931159345829742, 0.0601099796222416, -0.009320082189858095, 0.07536745447749368, -0.012713241181066797, 0.021209733236704865, 0.035438049146061384, 0.07026413748572333, -0.009686590966766762, 0.033031091756292166, 0.04781864721037469, 0.07347764094293825, 0.010241490037069569, 0.016844857713757114, -0.06823552654737612, -0.06718368014265101, 0.006833927330754509, 0.07453187666323165, -0.0067203997199303265, 0.02714341513124827, 0.009585602890134454, 0.04960216007847463, -0.018912164243410523, -0.07314993339840559, 0.08657161117794282, 0.0775595043153147, 0.06202134712290964, 0.04078324485568729, 0.09200979641546057, 0.07963507803267802, 0.07043039064375212, -0.0665647422981546, -0.07493801719657246], [-0.03157460863582758, -0.02199817098009182, 0.02449336963905845, -0.0165252235417692, -0.0284770333082795, 0.059779035157752944, 0.0503285509701247, 0.0704254272613156, 0.020801643286471706, 0.07549243866417038, 0.04312677242600418, -0.060339323565478636, 0.08130677646834161, 0.04061630916599002, 0.08215750670631043, 0.07385318142835604, -0.004281552707579581, -0.06130205733990591, -0.06795695931243496, -0.03189293201885449, 0.06160352967307573, -0.08736075621644343, -0.01815468725490678, -0.0766651129084569, -0.02100161100972128, 0.07514269239193842, 0.001223534519606613, 0.010236784948631441, 0.02521827912120973, -0.048976495254846875, 0.028822998816149775, 0.02388708576677621, 0.007926099582554948, 0.05653085086109813, 0.03692820824455862, -0.027861378193411362, 0.01022890190761895, -0.10114960312598283, -0.07074683889719081, -0.08242062180441972, -0.01035213074261431, 0.007076607315420675, -0.07411793595240396, -0.08133180089664081, 0.03845927049062166, -0.04797830739298811, 0.05263539039375343, 0.08321036598145555, -0.04456525693499857, -0.03977410959613905, 0.07488242645600579], [-0.0060670950571948545, -0.0739638890277655, 0.07542562712497308, -0.00721860370721566, -0.046710344058228596, 0.005951719258785084, -0.005749208491277966, 0.03560258946447342, 0.01905845440459604, -0.06044273146599983, -0.09552540181388008, -0.07593731671739129, 0.061232238167779555, -0.040743908945833435, 0.012670910873149078, 0.061156613207517745, -0.07595138292057806, 0.07079209719646214, -0.024238860808594467, 0.020818913040297964, -0.06025613770602875, -0.07438684836206945, 0.00971688244629393, 0.028597307744940965, -0.06135549148047653, -0.019890844180317092, 0.0501417874693167, -0.02513185708358208, -0.05690661284256624, -0.001577403606323921, -0.03602726938353084, -0.027875302292683847, -0.07632062584843448, 0.033568124195982416, 0.07852769698347634, -0.017123258393789014, -0.0038639559367358964, 0.049979679067984666, -0.060668434475553104, -0.0735306125219472, 0.01357930508402058, 0.028074790925733582, -0.05805113964571607, 0.08227319483164225, -0.0370036417025803, -0.05773791653027657, -0.018840888380443815, 0.08122374565258328, 0.0033741581865703316, 0.009641456119382028, -0.07352730791255067], [0.07178490703116445, -0.004923579117781134, -0.041396990909240074, -0.0406300074309256, 0.026893366220538388, -0.033584436472312004, -0.04931288035067234, 0.0624159453555585, -0.045497997147950164, 0.08622396364718041, 0.07031356308022467, 0.07269982665379285, -0.04067238208525596, -0.040786892727368136, 0.0351942941290261, -0.03674304744497299, -0.048256955137665064, -0.06931200103159597, 0.007900299291307132, 0.04292632627193432, 0.0389922980742293, -0.0526621528939343, 0.08638574467283053, -0.022449852899841322, -0.08569619532620296, -0.033537662956027746, -0.05137997012803463, 0.0933447928741581, -0.04865691914251674, -0.019402860485034427, 0.018895622030219984, 0.05126245113500894, 0.031238311060041605, 0.07631555045140503, -0.060056748254720786, -0.05131495866265691, 0.01198978605641443, 0.02051920600836198, 0.03169061365494419, -0.025682600820007145, -0.03847420271003051, -0.06629148287511588, -0.05924579230910551, 0.0843600369030226, -0.010056038530404739, -0.05895248619121389, 0.09601999033074177, -0.07393180911332682, -0.0981622434349017, -0.026850698258050847, -0.055437007402501494], [-0.025996325995441712, -0.08311475651193251, 0.03410290099652041, 0.07191378482426891, 0.078139591681978, -0.08993612822452611, 0.034676303900661204, -0.03319324977252803, 0.0016613626616537244, -0.06497962154104994, -0.0766293274833167, -0.005356246937153179, 0.07893969410447627, -0.020787610134647014, 0.04462565843984028, -0.04277894382341598, -0.008654208382230934, -0.025945057727576538, 0.0279740041771933, 0.08589650320167269, -0.08999525738696863, 0.09010704086269006, 0.019827044671357586, -0.010600739794494074, -0.05179232614565949, 0.02635294364557304, -0.06558819084554074, -0.07453211338094379, 0.009545033676442456, 0.04453420781332175, -0.013455853853606429, -0.0692964605149933, 0.05898783820060713, 0.004033324759927582, 0.0298828712617452, 0.0018655739253896765, -0.04581320298156628, 0.06976644728361302, -0.06260313895002231, 0.020698996633112924, 0.07612215274825332, -0.08430461800654218, 0.07055384660242262, 0.005734105799066359, -0.027233398686645587, -0.030480636587503496, -0.01476245504969361, -0.053608472509639134, 0.030597059732771718, 0.09996153121158953, 0.05345541764430827], [0.02826784232061247, -0.07043261343094005, -0.04347724126884158, -0.06446286166176679, 0.052524007519203414, -0.030666079417319574, -0.06641712362979796, 0.015864660393494302, 0.029232153188532062, -0.03157303234779712, 0.0784296601735662, -0.06427702691081812, -0.07295937191887798, -0.002299079767937706, -0.05661891807755649, -0.007920207981724537, -0.07810372268056016, -0.07762553698758669, -0.02979313697999533, 0.09021824784392352, 0.03641573688304798, 0.040778442232282226, -0.019663109357172623, -0.059064048983930216, 0.07540112654275545, -0.07285626357323954, -0.03479607199903114, 0.04935898546673148, -0.06376565626233852, -0.05515242646221151, 0.06487668805129351, -0.011106707485048257, -0.05502560191518279, -0.021532471161594038, -0.07477650855758594, 0.0030329651471105294, -0.011301236006064266, -0.0434368332267374, 0.04691320382934442, 0.07540003319566722, -0.008898829259432596, 0.08174848978431985, 0.0742996592342276, -0.02939406007898553, -0.0032577553828361952, -0.07706420674194031, 0.0564431584017938, -0.031178350702652492, 0.002875699920554603, -0.02354223857091427, -0.05946205154462447], [0.018889202463957342, 0.04809048037419067, 0.034591965508830216, -0.023389610321180084, -0.0220054737826036, -0.050903708307175624, 0.03326773550413528, -0.0937517807295547, -0.02898642562085131, 0.04270595409994464, 0.0036506121955528076, -0.08528874411757544, -0.038475980204899146, 0.027868318109843453, -0.07472644337540164, 0.02404109164121933, 0.05754591632199621, 0.006815315177061937, -0.08371461739416726, 0.022604732953936862, 0.05682661145676785, 0.032145265786849654, 0.0916812731188145, -0.047415853690558334, -0.07729692627711619, 0.047752022111861726, -0.07971132178188413, -0.013600637494133925, 0.023802965356584313, -0.07598043194202161, -0.06127365949833872, -0.01330106064692, -0.06282337884246557, 0.0395109249277023, 0.046808422145596995, 0.01200982057943016, -0.0300650018305164, 0.09413465705816884, 0.03467664392442052, -0.04368808000541444, -0.05700864957944259, -0.06767882173883692, -0.003940403280800018, -0.011059364502386064, 0.01860473113451056, -0.06108540078768821, 0.03620764575749968, 0.01718558673109484, 0.05691378771189923, 0.009630279579815213, -0.06793465235301109], [0.028901419635631836, 0.09290610593584095, -0.03772997326827848, -0.037819387931582106, 0.039502688926958976, 0.0147656146067637, -0.051596646810916656, 0.06913543722904661, -0.0021826033440741997, -0.03709316773015425, 0.03927900779682778, -0.06882284255909416, -0.032584652958761236, 0.07295797368398786, 0.07680139845981132, -0.05201735696767565, 0.060041688385910355, -0.02023997545419509, -0.015745200879034013, -0.08069348997290404, -0.007769665276534306, -0.008717844262925782, 0.07362980358322722, -0.009550883252474452, 0.03538193546608454, 0.0417624070196047, 0.05035804879034556, -0.02451766698440065, -0.016009190497046202, -0.07455728704781231, 0.05652205131626248, -0.07712025140770076, -0.08883450320216797, -0.03203551381791943, 0.032198809234636, 0.05351687389398148, -0.01684327103645728, -0.04129554580659817, -0.07199908664603136, 0.00477629681851479, -0.013976017416737886, -0.09366407191470816, 0.08804583313317367, -0.0007384704111460114, 0.04433460149637686, -0.04531076706304746, 0.036358544110770975, 0.026861134414959405, 0.03570857845088468, 0.03533381442414845, -0.0056194512950356965], [-0.06366351215912347, -0.031541541432229585, 0.07024911163924671, 0.07869716256184504, 0.08979506189947867, -0.012835476550018125, 0.06450603921151425, -0.045825609143534084, 0.04380027127648679, -0.08040807798387989, 0.09075582376730074, -0.06508612682326641, 0.08437807056842195, 0.04677891542947314, 0.07430888674984308, -0.032268185443819604, -0.0540429532985513, 0.06809153120283397, 0.00843919765578174, -0.06485820826248782, 0.03823819983770606, -0.08652040605280752, 0.07136329177579574, 0.08064053427184907, 0.04469720635767201, -0.05568686396712539, 0.0178425694235178, -0.03629726173377626, 0.08327307575800663, -0.07704348895797691, 0.06441899482871713, -0.06759855497542268, -0.00935560323755953, -0.013804610681137806, 0.07495296178031444, -0.08571752976668007, 0.034755253127518315, -0.05756796424023627, -0.02183919124242137, 0.046694067905801266, 0.06487789055197363, 0.008847935133230102, -0.013966949476182336, -0.09225981352595056, -0.09258927539381727, 0.05877364485350715, 0.021194150872843497, -0.04658315455574795, 0.027784172993385283, -0.05940792995655263, -0.08704374841656212], [0.052289282822498076, 0.008075605013149663, 0.04275556961547822, 0.04376147848396921, 0.08416286933812675, -0.06034711706760018, -0.06391332925802418, 0.05031586358064619, 0.021879796368175015, 0.06393428724154446, -0.007392033444047904, 0.05835451477342516, 0.08550682622563324, 0.0006328906035104566, 0.07786148996395958, 0.05135774959000095, 0.08206546357515186, 0.010957628320169355, -0.005850898461298829, 0.027126612881265687, -0.08913360712723445, -0.02068619442800732, -0.05108914953106735, 0.02587773000968097, 0.08072996223751218, 0.05854022566712225, -0.07910657250560692, -0.07490195666636221, 0.013398378340114335, -0.029250332929096474, 0.014593570963500085, 0.0338041357579474, -0.0006641282918532326, -0.0581754863544249, -0.013595635919350658, 0.06992717583116403, 0.04941027712939341, 0.04388723861820764, -0.015743359645570058, 0.024349834314366103, 0.04243470997203386, 0.03210892095986355, -0.013414861251311767, -0.006878829977502538, -0.04598304174591106, -0.03504197363714773, -0.01640336769112028, 0.010135953426857493, 0.08744196230812849, -0.046468188529916576, -0.03716672702683583], [0.042505427574805466, -0.061193004413360126, 0.048585564752811394, -0.03461048311449527, 0.06813249874819902, 0.07482505807922617, -0.0038078212216149016, 0.06657840108730559, 0.005911243420827595, -0.023132033849967554, -0.026061040308676852, 0.028093767150021536, 0.09005356641269605, 0.07168610415371833, 0.015452160644105128, -0.0372908458371022, 0.04172841480531621, 0.00017082499798880423, 0.01975490495789812, 0.014421834235426494, 0.08417438156892473, -0.004938697286322166, -0.012215234735575344, 0.018736407247533636, -0.03266736707604333, -0.049817816383442695, -0.06554815685878805, -0.034622813598188903, -0.039407111553917025, 0.05828982765955695, 0.01865966843395807, -0.05694438704873554, 0.08859130688729121, 0.009032171066388343, -0.0020276198323600906, 0.00560794111083397, 0.059804875990570605, -0.083488414974208, 0.07923719010461112, -0.018332754445842106, -0.05521773807911423, 0.011122410572738767, -0.01604292766792272, 0.032067444133036686, -0.06998506974598659, -0.024240670225137262, -0.044755578599310744, -0.013596335224857306, -0.05537955377838317, -0.06164093691669484, 0.07187574055798278], [0.04261458680064909, 0.07257859695251453, 0.05246869703600137, 0.06965056342556589, 0.07101371687567357, 0.07342282277183791, 0.03753911820488352, 0.05970156271297966, -0.03944618462682771, -0.08276295006100594, -0.08061615908210258, -0.0018094780752812517, -0.04774025056081948, 0.025480128488210886, 0.026777154235750878, -0.042680307992979206, -0.022874110904594364, 0.03733550766954104, 0.01314889012218857, 0.02826164698117563, -0.07094924537005251, -0.023752199775445765, 0.08338498591433005, -0.08475450938092648, 0.05143088973478655, -0.008609847837100329, 0.05149297958640064, 0.06666987762147891, 0.008173196708409122, -0.05791951197270843, -0.05696341440540137, -0.06142704461229196, -0.04465695506828431, 0.02947428731697582, -0.07216796533263654, -0.08593371583975358, -0.07602083089596592, 0.013498694216398483, -0.04783705837861774, 0.05933437465539181, 0.01884300310213886, -0.006028848130475241, 0.08851569378108302, 0.04340085794309757, 0.05217944597392404, 0.015649857218831432, -0.007002377725835068, 0.01995221190945224, 0.03556011232099909, 0.024525395973289062, -0.016818530564366697], [0.022544006412452463, -0.07416400064674383, -0.02492760806088041, 0.07173234289136567, -0.027592324108709335, 0.034025737679749486, -0.0876813610811483, 0.025890737804897552, 0.08075092128786478, -0.0034295242295930735, -0.08404580375753443, 0.03699504049013581, -0.09063448763336998, 0.040365076355266344, 0.02630835184179887, 0.03126594563510708, 0.01002424764266974, -0.007969150448707217, -0.0722943166054745, 0.008129773315959928, -0.07591298363052223, -0.012853410913972732, -0.05537209039239666, 0.010713375520721139, -0.035149085836743706, -0.07745096426535256, -0.0873852398128439, 0.016393383231968938, -0.08287868686569272, -0.07226102635232227, -0.08534021416480451, -0.07562755898032937, -0.06839631419025322, -0.028871468087484028, -0.026885314597137423, 0.010078353120373636, 0.061422050354170796, 0.005878526067028966, -0.041829742693093426, -0.02737127176421949, -0.024559631007973457, 0.029208626250959775, 0.0027488349279923127, 0.09203142866739673, 0.08524068315437561, -0.0201030515991607, 0.053393056459540275, -0.04231729821457727, 0.04581174437774278, -0.06039196286363455, 0.03556206039423843], [-0.051215579825125694, 0.06675377414789205, -0.04672151599436077, 0.04806319970364686, -0.07613230414353848, 0.08086538859914703, 0.05520236413263674, -0.03713050530393745, 0.012165238075110182, 0.09054191885276118, -0.08522972810016381, 0.04428105109030178, -0.012806542822767357, -0.036607285252154606, -0.019824398392734432, 0.009521548890681115, 0.047494072812357464, -0.03478120133970019, -0.05558821322099781, -0.06584420174301402, 0.02403014515317336, 0.03916590971083833, -0.0006940272995985428, 0.05458127387014457, -0.05787955942011462, 0.015646339614880638, -0.0637939436243874, -0.054501230871587536, 0.0636206464009947, -0.08184651812569115, -0.03250041810312653, -0.028105094077710977, 0.07711188810858431, 0.05408638321722486, 0.01947873713726378, -0.04536160565266344, -0.06325727772947953, -0.0576739510766832, 0.04182083545317705, -0.010976100349701855, 0.034412900749292395, 0.021733256295038677, 0.027389132265730313, -0.0404453249747555, -0.05979771745856587, 0.039191369994733695, -0.05089268140965166, -0.06766593349722531, -0.003910271276575573, 0.01144848862833613, 0.025950711709443904], [-0.020939209506333975, 0.012803108801164932, -0.05913912297522856, -0.002739553541367153, 0.09142406563733002, 0.03644285524462162, -0.032260197782972906, -0.04691460135626046, 0.0030128853806723963, -0.0798255945449662, 0.05263042856157598, -0.06868865789374969, 0.07498050932802543, 0.07672136347914421, -0.08206593517177685, -0.05728400923431257, 0.0009201128915162555, 0.0323817807815388, -0.06898064567605618, -0.042942033126807055, -0.06421732485852982, 0.013175156009940445, 0.012270806218345543, -0.056398517479040025, 0.005587191772013676, 0.04186957848099816, -0.025842643675953257, 0.01084490171960335, -0.011380860478693456, -0.09144335795934735, 0.052181984742374364, 0.06310301300762747, 0.05957598252478097, 0.09087572871338342, -0.034027654680206756, 0.0701640597516964, -0.003476699801460776, -0.08723786124225796, 0.018622394006593497, -0.08792810323448022, 0.05312068784728417, -0.08649758705319956, 0.06385122460419926, 0.06183303242531677, 0.08090279965359067, -0.022363674752613756, 0.0275048154644443, -0.009370863427761467, 0.028661081307546826, -0.07375772077005165, 0.04109212067238018], [0.09053407816289494, -0.01661260029686322, -0.05509809537075251, 0.038420669376995384, -0.0020699735458537863, -0.06704163999954334, -0.08403761378407285, 0.006280211348824488, 0.015933748117503033, -0.012997313213976158, -0.005115086561431578, 0.028696744641513033, 0.016865418203386218, -0.07201508544499301, -0.061282584085872484, 0.013661879992244547, -0.034222394026873944, 0.01630334920737689, -0.020379852517276316, 0.019796795590538714, 0.062050240305139746, 0.08893223257171667, -0.02605243711538499, 0.018687978016613836, 0.011306653735202572, -0.05164822610085925, -0.035657669917021725, 0.047481764262847385, -0.041916450590751615, -0.035774278794499, 0.02012887727741984, 0.07411327229082657, -0.006774957631940656, -0.023443757735425803, -0.005510592556756563, -0.07401627866913393, 0.051808780305547156, 0.061784409243519724, 0.026365587928946374, -0.06281231484844323, 0.09077574736976621, -0.0655045712477117, -0.08024390520664793, -0.05773725294065785, 0.01055562827822149, -0.0712351290240515, -0.03973327628634987, 0.018579203600001534, -0.031614277811793046, -0.0007933737253877937, -0.00928938148470798], [0.012485887175684197, 0.052010704562957547, 0.01775753870916041, -0.06014162722036904, -0.060319093127117286, 0.08587718396813292, -0.05465239723834885, -0.020337145519876983, -0.010944411497875516, 0.05180616994527087, 0.02815880795637668, -0.0016854368984816838, -0.08468428249714993, 0.03144452047657741, -0.06200586919358089, 0.04588221583834858, -0.027096315069472358, -0.022237535782021613, 0.08258248770546572, -0.04492637814888158, -0.0034535881228983114, 0.04020982020409519, -0.02071585060556716, 0.03613366737349209, -0.002044354431960171, 0.08624701534007027, -0.02512287848355577, 0.07824318599612906, -0.06715499993214223, 0.06085494809863319, 0.03312577179664288, -0.03144361518438114, -0.034108735688026796, -0.06490857060916459, 0.08543655898309105, 0.05022650049003852, -0.004194834344023996, 0.006728682179601376, 0.05727093981291003, -0.07091726369890129, 0.039293005003877966, 0.024625238129370026, -0.012188801269877047, -0.0006156428440845053, -0.015758300140191066, -0.08806432450381355, -0.025630237719148442, -0.06573356111594998, -0.06878722988199923, 0.06602627746598505, -0.05964210665430837], [0.019513246169689562, 0.02832439014453063, 0.007055411429070876, -0.035576232654589236, -0.0105625449408192, -0.0943809722265496, -0.015444504451870447, 0.07702164171355305, 0.08252034588700191, -0.032313026696791695, -0.0778156504918701, 0.06654720139934162, 0.026470459083863147, -0.04896894982345883, 0.05202573970427854, 0.05843670427325844, 0.06728730213550452, 0.07888514072660667, -0.003254954816037751, 0.05096605338057686, -0.010873638344670348, 0.0552494239386153, 0.0005242272695714389, -0.011620152911438747, 0.07921360206462887, -0.005273871007009697, -0.0731682690335655, 0.00263494716634099, -0.07362635359864286, -0.09281234459232042, -0.025631131828493706, -0.07962027334407079, -0.01014640381115263, -0.06977064269397419, 0.04517257586773473, 0.06798079605564479, -0.07118773608423579, -0.0938648329323061, 0.019255827466850273, -0.07698321387021356, 0.05537142672203514, -0.08192855813619906, -0.019083729724193244, -0.028561318585868137, -0.042712281879255444, 0.0489819018631446, 0.03582073561243457, 0.06161769385115918, 0.0324298027175895, -0.0660314242264957, 0.013660560728345842], [-0.06902542508258554, -0.06263344542493238, -0.02256750850755953, 0.03967133360638678, -0.0861148528644464, -0.06954682526946292, -0.012208788137492104, -0.05294308944236888, 0.03500693667613301, 0.0041191486148199116, -0.08844020468988299, -0.024231598146151574, -0.07039335356365364, 0.0049344155240541795, -0.06165813755507837, 0.011316492320297558, 0.016381232745756626, 0.05612652847308445, 0.0256520877422169, 0.0766624420757068, 0.005968613896589305, -0.06459217106791473, 0.046239703592700084, 0.047288629623648055, -0.029478149983047278, -0.07575964313072311, -0.0638364330704537, -0.061562841204746546, -0.0032723105455876316, -0.02549597896857619, 0.025321098881454625, 0.07509167695746945, 0.08305240800199805, -0.05861766007521823, -0.06798481408868984, 0.016848877396199963, -0.03279258717172713, 0.06384979898297143, 0.018608373067293557, -0.08014429295171524, 0.11277113189399532, 0.08927536491811787, -0.01580980676280934, 0.04729818417465393, 0.07499657992508804, -0.038535261420337134, -0.025603621994436936, -0.0012322895021276146, -0.009296364810635066, 0.11744095494477348, 0.055357475410329544], [-0.03957201170909785, 0.05014852219202611, 0.03850487330541089, 0.08946692479242467, -0.006517334203159621, 0.040507880256778296, 0.09329854156378727, -0.05626977570709697, -0.047595623820544636, -0.032286318864568654, -0.05182084000048714, -0.06755721212253774, -0.003410421706212917, -0.026267161086106938, 0.0774079289025194, -0.03592502025048056, 0.014708480457655125, 0.04012033136612459, 0.01995302965892325, 0.03147731980917917, -0.05416870739898931, 0.030154795333633237, 0.00039026596805877885, -0.051807155182462705, -0.017707971825767374, -0.04954198111677413, -0.06623079319440564, 0.014279315208996154, -0.06858335254311759, 0.03132509357367137, 0.031896938686797424, 0.012194816408825162, 0.02466503455057942, -0.05966368094314106, 0.07838748299928837, -0.07926147220585633, -0.07798703095581025, 0.03633153797911898, -0.001947707157506531, 0.012007011266718857, 0.0002692384310027389, -0.07978549022435058, -0.05327731049101391, 0.00016941008268707232, 0.07835157839266, 0.0625188791844904, 0.026886905997049602, -0.05232555867902554, 0.06238950244473148, -0.0016237361903186517, -0.03025305970948037], [-0.05660978157710371, -0.0372777550308158, 0.03158478766864733, -0.05710741166429872, -0.029780863614177568, -0.014211481982451698, 0.010515839144314882, 0.004035554633312205, 0.07932698749606132, -0.08643665415937732, 0.05361655810015049, 0.020963076254786096, -0.006869677488258675, -0.004050188435752462, 0.041476727937005735, 0.011648107566784697, 0.03462366471101494, -0.0392646646227163, -0.028035623737962756, -0.016285072914720065, 0.04692059460327111, -0.015572990949627562, -0.045699546465177696, 0.02588538534236075, 0.08780274072845479, -0.0750426553753388, -0.09149714788678015, 0.05127090320220961, 0.013558102839154656, -0.04257749542247818, -0.07717247311305556, -0.028374142482410374, -0.09085528358272794, -0.06586429955075224, -0.022879741041978027, -0.021134836703106213, 0.013114057311627998, 0.049884056526383495, 0.05650192280209079, -0.020597266470135864, 0.06197533482262832, -0.09033024321030363, -0.05897655835076875, -0.09901982931035001, -0.024743610376494713, -0.014155470250759165, -0.03547783254414452, -0.04289749604309257, -0.05646658899728953, 0.03726632095299894, -0.04600338884943494], [-0.021777151466362256, -0.021571743196393732, 0.01315758662801858, -0.012837248512987075, 0.04690776478611741, 0.02701161979176331, -0.04117382518670897, 0.0682252273181126, 0.05438296028806059, 0.02633390568643135, 0.04334024475722037, -0.0281256031148175, 0.057513974117081985, 0.0847441011481457, -0.003036555996179593, 0.0057759867335260675, 0.0013637704977566957, 0.0051472013606575304, 0.03408246802825063, -0.04405236653712381, -0.08657344880942482, -0.08323001969027663, 0.00010811080535849255, 0.09186784801396612, 0.06373501098841686, -0.022145812523352657, -0.010171992542172653, -0.05755830920784103, 0.06369928986594385, -0.02503861950038965, 0.01288962927038577, -0.05271496632980625, 0.07677064579472964, -0.07868783206929617, 0.04738537780313095, 0.02754084538722077, -0.03220790237143394, -0.06503627457940789, 0.019015017204104985, 0.07815422040431146, 0.051193303200498676, -0.042166659124109905, 0.035887406676235224, 0.089720103281104, 0.07987969548435964, 0.06041894966912311, 0.06370784007931353, -0.04442814828445942, -0.0512327719396891, 0.04989466549845263, -0.07285772914055069], [0.07168378919603359, 0.08399956318571561, 0.05737220033263145, -0.043354448027996886, -0.07421235614251147, -0.048368021694749894, -0.0382300727698913, 0.05764811520567151, 0.030106658610359632, -0.061411504859892156, 0.029854683344467465, -0.012078347241681964, 0.03718422005315666, 0.034856602125093554, -0.09297627158302753, -0.017828053488336233, 0.0504908115973617, 0.012289414177023875, -0.02362985502225921, 0.06854252041247716, 0.010545092504447419, -0.020131480357245213, -0.05247326874677089, -0.012565751158624733, -0.03632125373920038, 0.04585866305316666, 0.021352250409578732, -0.05056165276945852, 0.011722836858933437, -0.016839405909579466, -0.015460542967464356, -0.04049826870235891, -0.04721394119659554, -0.04514309185412186, 0.0691215858733882, -0.025876032587089343, 0.07024440966355945, 0.06011657048707734, 0.05229495153480053, 0.08772842026067522, -0.03289794795035265, -0.06292131977731649, 0.07650939198418835, -0.10064285041473536, 0.056437962996172715, -0.03305495244840414, 0.011391974713415392, -0.07013340464853472, -0.026403800438746915, 0.028736000467233184, 0.06108442097516954], [0.0548028649508567, 0.03813797975679994, -0.07448968350050415, 0.040167338339786536, 0.09005951078526282, -0.02569064678551496, 0.018734116422515386, -0.07225351765005171, 0.003921927924949445, -0.031809752142267396, 0.0395923793917479, 0.021738087329881337, 0.008759451116160727, -0.028373405250385883, -0.013780983857747975, -0.007304982084545608, 3.7256503552720636e-05, 0.004080910325813044, 0.04714965672025189, 0.06451831835981847, -0.03450848089560064, 0.010977705508258063, -0.08667195978208818, -0.07810237719429033, -0.007259425888992771, -0.011340406431203796, -0.08814682138362123, -0.014035824187630734, -0.07844293268848161, 