{"layers": [{"type": "Linear", "W": [[-0.05003563667345418, 0.08463857438203216, -0.06841263171196293, 0.037498590764400805, -0.07594571609768923, -0.04623937815890901, 0.09138217958983548, -0.053204486837225146, 0.025973763859784837, -0.007481932080580275, -0.008580676636641235, -0.0009185857591825636, -0.05634744207089051, 0.06051297815200911, -0.07514374547991416, -0.0486667033199601, -0.08788165215497033, -0.04270102006300384, -0.016905219388356874, 0.07361132298409674, -0.02213929026783179, -0.07071947805759041, -0.04424089017854881, 0.09000426746046901, -0.0799912357483869, 0.022000766169505137, -0.022481708808612458, 0.029447724264958577, -0.029579222355984362, 0.03502397041744988, -0.0004429640236951887, 0.027411505536891104, 0.07348511615774735, 0.014927992704429224, -0.06551861675621048, -0.07975600709650711, 0.08166463955951726, -0.0020749159272657053, -0.05605026913676701, 0.08166333798738938, 0.014456596852979176, 0.041915394446313495, 0.06974741707559397, -0.03924334810126118, -0.02623645680675446, 0.06921955430276851, -0.06682990561614136, 0.04838809768617218, -0.07366976494066792, 0.034819042551549564, 0.03700948190277205], [0.08238750764222404, 0.0628878804829348, 0.0006630191813368908, -0.05535562170934831, -0.0640499415226436, 0.005258192603170106, 0.0017925372515455312, -0.07846575665819133, 0.07382302782623516, 0.0013579723375213432, 0.03685374400181145, -0.05127160193053898, -0.046890185130377376, -0.08936007462176941, -0.028701760060608927, -0.04268731856245229, -0.014023853028131389, -0.02253280418491524, 0.061207767637421515, 0.07167126363958172, -0.05945617222639389, -0.018992356172729416, -0.061116617706536806, 0.029873988832219894, 0.08693636204903844, -0.054593975536380714, 0.04878711720201355, -0.03660849823161663, -0.08912180087380599, 0.048388622554959806, -0.02896088767407061, -0.060388793887089634, -0.011789238544551175, -0.049117766589082464, -0.01645902387317312, -0.009876736294579538, -0.015019883975635015, 0.016204482313871726, -0.038677424630476714, -0.07412834684140426, -0.07593278937589266, -0.072039055670069, 0.003834597410667648, -0.025601678577519965, 0.05633474773366713, 0.0009013739058065656, 0.038113828310845824, 0.08789316266259033, -0.08001224963934792, -0.08843989536018158, -0.06583851388743114], [-0.024430387340332035, 0.01085522006154427, 0.048484317958946935, -0.03028868728475777, 0.08287902095614068, -0.08704878654493593, 0.05706931440067474, -0.05528004485421908, 0.07263390378089582, -0.08384368001100058, 0.08461436805259422, 0.05138713174623594, 0.08622921756147922, 0.01374455858967088, -0.055357277527472035, 0.08721098569653878, -0.011105142276904208, -0.07288687455980414, 0.01811153588416122, -0.00011202916974166724, -0.0015942663417762314, -0.0649704786518502, -0.064578597529767, 0.017973265568916458, -0.01825853079798198, -0.061454886384578265, -0.00742295084791686, 0.03319635437082968, 0.04511827679936924, -0.002127644194751952, -0.03145993755017834, -0.013978241081606916, -0.04669378939037783, -0.05210716705890449, -0.01316950402184259, -0.06851806793647273, 0.04240329185453523, 0.033782075030443774, 0.023537832755506555, -0.08735655544807729, -0.02795275864525229, -0.00869491969190795, -0.08269363261098633, 0.07685652010977902, 0.05042464610905656, 0.0034001323701647697, 0.03139820025152105, -0.05116556169227088, -0.05084291101169716, -0.006049755925660921, 0.04841621319016503], [0.029954476181313812, -0.08976592999448386, 0.023934809569673445, 0.07677108805237294, 0.044945340125112636, 0.08087196759543247, 0.09143002461255963, -0.04966164051672996, -0.03442760883648911, 0.007585483512686199, 0.08692334173090266, -0.02406994943210079, 0.0825645279143272, 0.06521114744597918, 0.005538296570809737, 0.02515676053832974, 0.08306542520131613, 0.054039453869786966, -0.03963149152850901, 0.0639082528440425, -0.05289897492503836, -0.010198661096345697, 0.07825743800120788, 0.06608466512724272, -0.032726668137010036, -0.04173318927109282, 0.02348042151659593, 0.07594876997215369, 0.024858549908826414, 0.08319690027410295, 0.05473409558816468, 0.04270266233909112, 0.02179045418451501, -0.019994057275278934, -0.015176248667298515, 0.0013557825690735657, 0.008696326170476368, 0.060993661424130236, -0.03924550620212482, -0.07093723549175315, 0.038544422373575915, -0.03842254080435632, -0.012741061742340489, -0.07052034743360491, 0.06379040888313957, -0.036614946601714625, -0.04303039055600375, 0.05899469724692374, 0.0010088424621600845, -0.04412600507175006, 0.07440619837615746], [-0.0006838769532158019, -0.021448299963650136, 0.08206302644562256, 0.06922463193491096, 0.047377273437687786, -0.04805790733122835, 0.06939642961166138, 0.020921205989759478, 0.05695027193877763, -0.009872410104805494, 0.05156698958789375, 0.054508926803008347, -0.01864092239695235, 0.031056893458780984, 0.049196719498753025, 0.09433909184540752, 0.07511624975083708, 0.04985983671147834, -0.07055873221152632, 0.022052902457439818, 0.032339036576295783, -0.063931985697056, -0.00859625201909687, 0.06682263357811417, 0.07849406861348837, 0.08495758763696919, -0.07803478158653049, 0.041841011921797636, 0.06454900730003316, 0.029176876620686763, -0.02902253715221975, -0.09296291245804308, 0.07392358227348578, 0.07911711607331694, 0.0319322469960468, -0.027812496751001548, 0.055167030037256926, 0.06202694448118169, 0.03826853300267391, 0.011299288995045115, -0.028728165191635943, -0.041341017012177725, -0.03197066923592568, -0.0404784507266917, -0.0006149607618687666, -0.08394534911136008, 0.05498647288541151, -0.03093050183272197, -0.06454903998971293, -0.03324504166451875, -0.02414827603658044], [-0.009373907913001368, 0.04930865727136854, -0.06756034852051675, -0.0474555665262828, -0.03949865833584902, -0.05332176771202145, 0.04788217648544869, -0.07343402278461589, -0.07657252566611926, 0.015315428547446433, 0.0435469583993106, 0.06520532531309119, 0.01147733705150183, -0.032335942682497204, 0.07514148935638702, 0.04600697903593057, -0.0046839171252656365, 0.015973152381848075, 0.07706168251034225, 0.09187676707766013, 0.0840439238091027, -0.052368245204656313, -0.033668454404678784, -0.012221021608167246, -0.060179209884405595, 0.046434153406271494, -0.07538913905910896, 0.08041224624555955, 0.012219259022302609, 0.02582428134524169, -0.011051716201519828, 0.07106575734419547, 0.01861022012757719, 0.07389709624859997, 0.07272828983576596, 0.03996359473211402, 0.08443688667655383, -0.006661745339746055, -0.019679015146878295, 0.06232342927211598, -0.0031908588080747295, -0.029527873426343887, 0.022257748320158022, -0.014723700704269604, -0.06244520145427781, 0.059923379575768605, -0.013145647851105327, 0.09185445035920553, -0.003878234112059039, 0.06973963701593001, -0.03282729443353202], [-0.052338443581336894, 0.006715935432269869, 0.049366112664534036, 0.05884882398176639, 0.02918416825901591, -0.06828563992644353, -0.01970854052434312, -0.08302033559931717, -0.022974519573509853, 0.08118692375569264, -0.026269880767791288, 0.03682962902461726, 0.022983277485634963, -0.0636638139744338, 0.0350553885266388, -0.07701303282679352, -0.057168930999975824, 0.015086093196839175, -0.06815107553626483, 0.08446991589491165, -0.013127606123612627, 0.021420713926192873, 0.08414923807676708, -0.07145226029420731, 0.08884990077938476, -0.08514890179360077, 0.019074357184564163, 0.024998863919588596, 0.08998547246220674, -0.025522791576783683, 0.0796396931254535, 0.0314054273080743, -0.0036218731870882527, -0.06312530155439552, -0.053128246384227924, -0.024155001665765133, -0.030054045761458915, -0.028969083385240464, 0.056867102859569786, -0.026381396918059095, 0.01709273458386495, -0.0838795778305326, -0.06622126872780419, 0.03171785743508104, 0.07213713156473066, -0.03527511555943643, -0.09458928081063474, -0.04839720273138236, -0.02364758966960682, -0.03034368596312426, 0.011843057622934926], [-0.010053764589318651, 0.03344333158170406, 0.043288595821986305, 0.078187506478635, 0.045956902877702495, 0.007835314611075334, -0.02548234771112985, 0.06790530050842053, -0.04778180801578432, 0.09090092924842136, -0.01196821593786053, 0.02129879700783827, -0.00244247358523009, 0.03289967242122283, -0.03545788028866605, 0.022126742513302527, 0.03898852379660793, -0.03143795596727868, 0.010618027440263385, -0.003654447439478794, -0.010731340838661107, -0.0284715372838862, 0.011511685283762374, 0.0351816764882702, -0.06616183919786217, -0.04001254377071457, 0.050679916143148825, -0.06469518815274343, 0.048024207546532735, 0.04706425065715209, -0.06456300411456768, 0.023409744161656774, -0.05162209908214332, 0.1022618092284219, -0.04636489279755293, -0.07910921758661035, -0.08159164733178205, 0.05005602591357433, -0.06068500644609743, -0.04713804301229342, 0.09972444260273822, 0.03200446360642293, 0.04012204042411835, -0.0070489501334372665, 0.013139540150079636, -0.11174800078116343, 0.08900180497739028, -0.04072358762356452, 0.0790925486843638, -0.008319208721012732, 0.06388511228704478], [-0.1128238890635856, 0.08603104649431532, -0.0683146843297601, -0.019951050032106035, -0.0012895646995448131, 0.09323474706298328, 0.02602686697486723, 0.08705985618736847, 0.0800193806614159, -0.03631118646674719, -0.06007667496453313, -0.0661718089495017, 0.043291707712406834, 0.08100580725688172, 0.03352949168569444, -0.03761885924592337, 0.02210057623981075, 0.03196044442300539, -0.03575459681769225, 0.031220347620134887, -0.05263376376696802, -0.08597107553078298, -0.08593091549318292, -0.0013023752162691186, 0.042441409972390605, -0.0730320816655618, -0.01372759288462637, 0.02120987951023023, -0.04026527345283919, 0.0022988847114231575, 0.033759017153719484, -0.006832151030779551, -0.04993829972481783, 0.009386627632520725, 0.026931894373467158, -0.05115138274266655, 0.05472801182173994, 0.017942455754480675, 0.07224981571747024, 0.0690941526124838, -0.014922595339350095, 0.04739958796339134, -0.027427699506772697, 0.046653438846750744, -0.06739347268509743, -0.006803492687062772, -0.03157789279582352, 0.0769342059893228, 0.020409486227412104, 0.0681517153535118, 0.07546825245028789], [0.0753019070980387, 0.02029283060531976, 0.025288787278952868, -0.017367330785964807, -0.04974189187160833, 0.05704330684034686, 0.014472518300525811, -0.06268846028889787, -0.043710680152514676, -0.06509198617449641, 0.04348461953249997, 0.016451387403276042, -0.04930020588275421, 0.033150209490292085, 0.013724502682154614, -0.04855441601936031, -0.007639731343016779, 0.09233935370348567, -0.059907570267452664, -0.050735348467526684, 0.018808009720022258, 0.0629552031569396, 0.0665364136676102, -0.01738427079079038, 0.05991762408096489, -0.08794013029333712, -0.017065409954860247, 0.058875656474862696, 0.023428586214172865, -0.010498204133213873, 0.03903871510941517, -0.00015325652634666615, 0.011363707683142895, 0.04967822312128427, 0.08242415226901346, -0.05081822767159334, 0.041855777500783044, 0.07650709161748488, 0.023384109634047887, 0.010131744966959162, -0.02917872072040476, 0.0021872688340507105, 0.01634188691343897, 0.03686533475981011, -0.06475150335608697, 0.10415632605828486, -0.05852728587911054, 0.013001800080756099, -0.06801807172412927, 0.0258519616582921, -0.07269945497899832], [-0.027185962500726177, -0.01703287786051305, -0.03762792977758461, 0.0005770568212996234, -0.05915378977175499, -0.004738995778659078, 0.05534610480168265, 0.02791693805819405, 0.0827375744806302, 0.08724831114612056, -0.0016870835226103413, -0.007142178249631972, 0.04634917072601574, 0.07322014392170423, 0.004800211609301844, 0.03184394719169857, 0.03400949701059999, 0.00020960459064203879, 0.00029403554335171, -0.017205417911110563, -0.011807003939267702, -0.019420091836093476, 0.05258129987414683, -0.06410373917736667, -0.07922162444702567, 0.08293019706025899, -0.0014420636122775279, 0.023311640603473717, 0.06734025250628177, 0.0414803023141447, -0.0020515891622997742, 0.08490398064405112, 0.020853025127539407, -0.005518106040016485, -0.0632958417185625, -0.06574113753607444, 0.05625436665463578, 0.06698816808781088, -0.029418595826684598, -0.004679739400951323, 0.021975233543280164, 0.01542868680929736, -0.040454685815137406, 0.05432370294889107, 0.004874171400350517, 0.03225150227887472, 0.022583063475664744, -0.014964163486883937, 0.047241405302479944, -0.0779031015414167, 0.0045478779467921695], [0.0067052544708515625, 0.01986395029798595, -0.03218450904214708, -0.08044884798931454, -0.07162990690910458, -0.06550907759320039, -0.06761143541300542, -0.006317711270747211, 0.018539297260249357, 0.00895497798550377, -0.006735137013119764, 0.04337594363610476, -0.07263136169216637, -0.03288689771042076, -0.06694798341375055, -0.009244834039631064, 0.01958661062500855, 0.017765840068748564, 0.0019244002522641975, -0.030457773627202367, -0.029905467723025582, -0.07179278100014841, -0.07170077564984108, -0.003955254262422873, 0.032868071003417466, -0.11107075327496234, 0.06963373702556884, -0.10003273352129957, -0.0683514983927956, -0.01415971379930753, 0.012378428079514232, 0.00763048278777451, 0.037829740577312664, -0.03046976558420456, 0.05014086488331088, 0.001200563094086136, 0.01948004191023012, -0.01626949401242436, -0.06293854601030428, -0.05493740049823442, -0.05619763733060302, -0.001320736165778134, -0.029171405260656952, 0.06497243871355964, 0.040824423755735695, 0.10865021277188222, -0.07950620964423084, 0.09038259098897951, -0.10887766484496474, 0.0954090665908225, 0.09718193911094165], [-0.03061863978842143, 0.049445774413381986, 0.018460506198146414, 0.0049249583759947155, 0.06444743634964024, 0.09607662561578159, -0.0353131701667791, -0.056183942325975025, 0.09300664513250641, 0.004930101637218621, 0.07874660757729667, -0.04710698361639425, 0.07539593415727529, -0.06377144523950774, -0.050852515827846015, -0.036414715301086, 0.0832080602271055, -0.008148223708702712, -0.01326761121842852, -0.04356284100624928, -0.06493625963212428, 0.04174536074975368, -0.04058494352819729, -0.018018513503858708, 0.07770885312210235, -0.08074388459366232, 0.10336675653341396, 0.13506530515384632, -0.035206817247093014, -0.06095959931959243, 0.0625508694047548, -0.03994517509965593, 0.03969655883947279, -0.024620618777078555, 0.03501366307362822, 0.10728648507334321, 0.02652255470532879, -0.08734711062350134, 0.039662994537554876, 0.07756500648152316, -0.0007566826642820293, 0.09856929406755466, -0.0929564687758834, -0.05282634944692161, 0.06200474295332607, -0.034466890014579754, -0.08824887167452601, 0.0766591627525171, -0.08043448523686342, 0.07976231351803365, 0.07523556302619541], [0.02510601054152346, -0.023447984237700073, -0.07726156256834049, 0.08271766952096403, 0.07153312006816091, 0.07486222661375748, 0.000489257872460942, -0.03830679680711328, 0.02253908144034895, -0.02195806002814747, -0.05383420287917875, -0.07381385706153547, -0.010715627932324289, -0.06524006595558557, -0.04448133222047149, 0.08128790235495137, 0.08159473764582775, 0.06877728310301753, 0.008348580499814401, 0.04591968932184924, -0.0636860584947324, 0.015883454469788002, 0.08485741840941385, 0.05022297239075399, 0.0964334412310406, 0.013671293921508385, -0.037104654819178684, -0.09207973879447884, -0.04016630366098734, 0.05555788686374578, 0.0226907633147778, 0.026745914458567884, 0.05420336778704318, -0.05535194134959427, -0.06447709785389973, 0.0702064888469592, 0.01367207808279534, -0.08545703064891715, 0.03500151922775591, 0.043369404583722564, 0.04747991478797439, -0.06739897860346174, -0.03674438466386241, 0.05765328515060073, 0.031402263170051584, -0.019872987070727325, 0.08197993489176449, -0.036759699325236726, 0.06439628498672467, -0.05606489375935014, -0.008111254986021917], [0.09586668478494888, 0.03738064789953287, 0.044478202009411924, 0.07603703442781876, 0.02354960330019186, 0.006693323312640339, 0.06119740002902412, 0.00798388906750847, 0.0811520970698322, 0.056388231582462645, -0.09226278508583138, -0.03715420405021676, 0.06490769894682472, -0.06686667773921155, -0.0904898952369314, 0.019043714152021825, 0.032773056918695656, 0.0861135642036706, 0.08061253320729048, 0.025864336911732518, 0.035444040201233956, 0.011318243211192907, 0.07063738413576941, 0.034658183872011306, -0.07227182297706677, 0.03516071147278071, -0.0849448637668312, -0.02047674560137903, -0.02441719680205436, 0.07803935334604623, -0.062145597712092805, -0.02899857485920557, 0.009427628220572743, -0.034013150597771484, -0.012963580943089963, -0.03998736388928872, 0.04698857988432659, 0.04920147580831557, 0.012606799805120781, 0.05906688344748943, -0.008249178700083014, 0.04171238479091097, -0.07643147418796709, -0.04794322772922599, -0.03640245279004039, 0.057756911726306905, -0.0034979031515553764, -0.025351446876961236, 0.04240288289840402, 0.06701588291318557, 0.057135075105029846], [0.06811765733721946, 0.03318864066355147, 0.05113386634073974, 0.02478215450225586, -0.020798486262884084, -0.03690825170285743, -0.03692444325104861, -0.027603982717724206, -0.00451082800534175, 0.0846377764716013, -0.04913138383653301, -0.019714738242393427, -0.050450352138282334, 0.0002593138574869792, -0.0829219435552152, 0.0290223862437643, 0.06298754557351384, 0.07308055387140015, -0.03240405828510892, -0.05800874731346672, 0.04055234691630527, 0.044094305378995474, -0.057249575948143866, -0.08071486001766805, 0.018462546163972273, -0.00324745016374945, -0.0006602357331465192, 0.014943801844519218, 0.06782277131773048, -0.0670741549665891, -0.06548333358101893, -0.07125920706369579, 0.030952466791403413, -0.0458566152628973, 0.0698383950884426, 0.01574090380348623, 0.009464883493765805, -0.03624895213231446, 0.063712633837604, -0.07176830898857568, 0.02507614942090938, 0.05481454609042492, 0.027466839396787974, -0.09909471360609476, -0.07776999158770202, -0.04381367111884156, 0.06658714115566346, -0.07130390059661325, 0.10259256757700555, 0.07212491289480394, 0.007396227759280261], [0.07042359867999458, 0.026490180379324883, -0.06379016093580002, -0.015727482586962598, -0.08545925358974696, -0.012914764626076866, 0.09106084442151231, -0.015925410297145424, 0.028286009618125562, -0.02546258362383386, 0.03293638827382984, -0.03194675239386793, 0.0765492295203527, -0.015353398024114989, -0.04437093955009627, -0.013112652213393654, -0.07765971987005973, -0.033153197704407326, 0.04395825577555402, -0.01761487724439945, -0.011663016238625293, -0.04730411723986739, 0.059615863819773025, 0.06892811472991255, -0.01643292458198503, -0.09596045634176482, -0.0150934325941334, 0.06862851687774753, 0.02643509372000755, -0.05092447088206231, -0.07485722965301693, 0.0597934858459329, -0.07870179144234203, 0.01980097894215288, 0.01619420553548939, -0.060178118633963835, -0.01216714824660496, 0.06480780790709025, 0.08910516855041963, -0.08036359006165233, -0.09124865855514123, -0.04600320390328366, -0.08310466299490579, 0.07304983451352927, -0.0787593548978678, -0.025977044707019503, 0.05726131561829742, -0.008268315370805496, -0.051653689463675656, -0.08629503477734705, -0.05191948640783873], [-0.03478567670780585, 0.06356701214928605, -0.012125422427245888, 0.009622127451832621, -0.04343178349106357, -0.016868668575925394, 0.07832868929776655, -0.07061241637836406, 0.03681977192669465, -0.03415463673478012, -0.015012012419526072, 0.04030366975251877, -0.027624947863391938, -0.0020345191988957317, -0.0022425911628754513, -0.002808872032968493, -0.07800078060920142, -0.019672818026423067, -0.021975683290355694, -0.01472194309746111, -0.03902789345119645, -0.00941075823249811, 0.04408206558256096, -0.07807514818877394, -0.07776415562170208, 0.00641982188763171, 0.014238724385710139, 0.0547653584563773, -0.08556290607624216, -0.08979649255831133, 0.019693724229494322, -0.05208593583096199, -0.001132276945553748, -0.037707190699018976, -0.07557246457243941, 0.01114365555697383, -0.03381939073658881, -0.0024017661464991735, 0.06756871181970396, -0.009158714320694691, 0.06266368847843092, -0.037950898686578124, -0.05828629888777033, -0.017847050765895003, -0.03705278949140844, 0.041569694929862885, -0.0694211767127284, 0.04089150431816156, -0.051345640886384464, -0.016799154029701113, -0.052009627873724554], [-0.0650638437435327, -0.06610112956424022, 0.08898732379757067, -0.07337625129093125, 0.07772672789645603, -0.007299486691803192, 0.06996846104331349, -0.05872639691935684, 0.015369353039461978, 0.03340021184390768, -0.035457848874391115, 0.020782906413703367, 0.07385695940060226, -0.015338072088230598, -0.08621834520522381, 0.020137010169326022, 0.051458052355907904, -0.008280989069821637, 0.062129488053636175, -0.02647668337571492, -0.008862129961254739, -0.012393114036336736, -0.07426080018235076, -0.07845879102546502, 0.025226420644092237, 0.0712470537337485, -0.05792872928159181, 0.07411184483486431, -0.03183088443467407, -0.015016519811278689, -0.08385532638052258, -0.09020663965905241, 0.013873762691007305, 0.07037081034168917, 0.024882505199782898, -0.06778071089820512, 0.029582718057948806, -0.06775419386189101, -0.005503058527958932, 0.045754389379024304, -0.020618324746332628, -0.03333071451342235, -0.03289923103823169, -0.03831173627045755, -0.08866549709541263, 0.04153236757092639, -0.019815226467438343, -0.05728722203001005, -0.03460582403786823, -0.08401482439490789, -0.005458574926938409], [0.015274096587719915, 0.022181901808788942, -0.010117822058857487, 0.0895365307641804, -0.06401821541829093, -0.05558772154184495, 0.01125925296712546, -0.016050716088788525, -0.03604080587114356, 0.04125036641346315, 0.002728637931944347, 0.012070114338677856, 0.03511710531079827, -0.014401146543846166, 0.002184640272625535, 0.08929463448786888, -0.06192585312728129, -0.006406683094070803, 0.020602787183900267, 0.04823162892622236, -0.0752582645698067, -0.07043315471037759, -0.04256954607783651, 0.030601585249974972, -0.0531554669742733, -0.08513047413178723, -0.014777952631641278, -0.0632655336885182, 0.034278433110182374, 0.08225113161628973, 0.046445045878938954, 0.012542151266761045, -0.01703998657553253, -0.08667092961088181, -0.011895458603239054, 0.003836879891084846, -0.03652183984720238, -0.01683070013717705, 0.08103411488003669, -0.023348937332296482, -0.04350288168152436, -0.010767218010646937, 0.0796247482236903, -0.08387442194522918, -0.0061124218661364055, 0.0895682373818311, 0.005269939909453819, -0.03337715537858495, -0.030688699892443938, 0.03513907820099267, -0.06738536201463152], [0.08245784107403793, 0.035742949415949174, 0.07446769998886359, -0.06206228590873041, -0.08767558780153906, -0.03361534109708255, -0.005927947571915636, 0.005793307077624728, 0.021605578532547597, -0.0853809912236372, 0.08055576249468899, -0.0644820293480483, -0.05728696905275013, -0.06775195496256953, -0.022517323095987873, -0.06239096565708585, 0.0392258901349764, -0.027726372096671198, -0.06817694050056261, -0.0243130580747395, 0.0582633199320922, 0.008472671922249037, -0.07996524687658241, 0.015229481832857675, -0.0011717239841535847, 0.0026344050267823518, 0.044919088547020154, -0.06535146368756282, 0.035062727751490344, 0.049040708899106014, 0.07606038576475066, -0.022024801582989025, -0.05144795081115914, 0.03806804718056748, 0.08903369894324022, 0.08543995214040459, 0.01761212217530154, -0.03477122634779486, 0.0765797800254396, -0.06434270377501035, 0.023124799536457102, 0.06454282727279402, 0.011838580960911348, 0.041005676670232874, -0.013739727892392811, 0.03665336593003923, -0.05648794177275786, 0.03241948995867677, -0.06530131137526914, -0.06387424252152574, -0.07018917886082278], [-0.03483328093919075, -0.09660878043419685, 0.03120144124333638, 0.07316175298913873, 0.05358935580108224, -0.0889169976353545, -0.006745982793659056, -0.07268553123616321, 0.0075475739627277535, -0.08961256704545657, 0.07535385605685446, -0.011172573912145805, -0.07119143026925749, -0.014799203196127637, -0.03915099000595128, -0.0025561452948530353, -0.018068308518460426, 0.0814915066616508, -0.03432160848493258, -0.07744121916656499, 0.0048205602478409715, -0.011290067167370214, -0.028379189356002976, 0.08198353943099987, 0.07361276151423526, -0.011442317028711433, -0.07139186424273164, 0.07603324982115327, 0.04839634704778262, 0.07763739015054566, -0.020515612984289465, -0.06556086943191515, -0.001732619638959467, 0.034842911094961085, 0.04653699694922025, -0.07057867818582274, 0.09325713362650427, 0.008162606240818885, -0.04213836869203386, 0.021462674040921715, -0.05758522018852713, 0.05422339599473525, -0.0013288881216213305, -0.06157142354997554, -0.08798621640155309, -0.0035218776704328612, 0.08853245980761834, -0.052829009128221624, 0.08922979864684416, 0.04317609614289277, -0.0035327895407272275], [0.08501039089828417, -0.026466818987682352, 0.03661020356395846, -0.02335589005054868, -0.02726405483478166, 0.004384460837217948, 0.08186795242696315, -0.07347745010170392, -0.018788833553006302, -0.08220770461539649, -0.01543978711263274, -0.07979712973922366, 0.0550989378370002, 0.03329966544557658, 0.08403033546913094, 0.04270103703997659, -0.0280333326897395, 0.021386551284242737, -0.062114707280131846, -0.012019810860523294, -0.07256725773952113, 0.08494615511731463, 0.02974590026848774, -0.04527969100439652, 0.0064110666388633684, -0.020577562795410235, 0.07072421573594855, 0.03097917940289796, 0.03647004336348899, 0.02249489746486737, -0.06525762446106094, 0.01170022032742232, 0.06348300901745257, -0.023087523433280438, -0.09249996073442764, -0.035210153630721996, -0.08701587459783094, 0.010612035510316219, -0.004479824777236936, -0.07156875868775234, 0.063881965742524, -0.045997144203230145, -0.009623874729982232, -0.06788457088348755, 0.004091640353486579, 0.013040206612473002, 0.033469124073892326, -0.0894944014079279, -0.06125644988167388, -0.06854909680556763, -0.03577767707331403], [0.05639346989730988, 0.06421500208848895, 0.04361688471638027, 0.0109574779014589, -0.08698234304644951, -0.03894316372792149, 0.0018340656711999387, 0.04314538690202012, -0.021761576456100842, -0.008799649033567641, -0.033883076936857104, 0.0048046304140138, -0.012229364379445481, -0.024708450902329676, 0.07740290834679668, 0.019770083928643406, 0.029817730367973694, 0.06529074942908748, 0.04409203140018149, -0.044179789322292926, 0.04590749129399209, 0.02134730110654179, 0.00450253818867806, 0.03699154597400635, 0.06101298408131624, -0.03804068786660219, -0.03837964499145777, 0.0062764543148760565, -0.07378587976617236, 0.05250251873199997, -0.05456187439744754, -0.03481678947266246, 0.05171555872158713, 0.07119877041437413, -0.04398397614806074, -0.06899237323100108, 0.03152822858792367, 0.020520719153029596, -0.017849432061868287, -0.059466711455500615, 0.08612542832392446, -0.07338666000931371, 0.06635972708664521, -0.04843824846865581, -0.046030047123324126, -0.015529675309837815, -0.06686320101218335, 0.04754371177231077, -0.056703745973708454, -0.04141551492432306, -0.029115551695838043], [0.05594179773194834, -0.08473537794772414, 0.043547573720748176, -0.040275706940980045, 0.028081773607040922, 0.08572113537109204, -0.05790659401365424, -0.08605897941514626, -0.03687916532415792, 0.03840259701507291, -0.04924462075344754, -0.03231749658786117, 0.08819079400582637, 0.06642929120888978, 0.08415100014261391, -0.05237805854229403, 0.03541679055737533, -0.03469793005870961, 0.037114761171106916, 0.05936816119627135, 0.029264835446536658, 0.00023758773915198705, 0.027884604031640794, 0.034406376300429295, -0.06164406402623903, 0.03875614142246188, -0.06841078451988931, 0.06476306082638682, -0.028746745268162913, -0.07511548415132234, -0.08826724597653607, 0.019329219108968843, -0.07868013134489091, -0.01728394289503965, -0.08358480543033701, 0.034489811131238265, 0.06651242949331602, -0.08699996642191761, 0.020771535614061795, 0.027074636835690183, 0.010406522085984332, 0.08560250587987243, -0.03454522667553834, 0.07232417831382053, 0.0072256724564235125, -0.05057734438018156, -0.04077143042012978, -0.07291168185905195, 0.04826451079232223, -0.050840783840628845, 0.016117954905655985], [0.04377835729878273, -0.04885594119605102, 0.032278820630850254, 0.02677143900817513, -0.015457425523396847, 0.05600786332375914, -0.016983088801128907, -0.06899522579749533, -0.07019640328424842, -0.07081253384910526, 0.04083051007024322, 0.003666374122386456, -0.0632769681674955, 0.07784101917514367, -0.08586136069583297, 0.014828116867665723, -0.0028459026063992194, 0.07444229246751201, 0.020349441591582626, 0.06178454289941631, -0.04769310963469337, 0.004385416175060557, 0.05850776709442492, -0.020672789085337994, 0.034385624230999966, -0.014950069768790666, -0.024094244172442814, -0.048912451689767975, 0.046588297281089985, 0.09124266236205887, -0.08887616095195029, -0.0424464981471149, -0.07626011460946684, -0.07052983162278069, -0.00020901752298710968, 0.015237534062691136, 0.032285166200583915, -0.0701448430607496, 0.06752640949447673, -0.05320048546182191, 0.05240116026261346, -0.014160976136028628, -0.0004447157052447378, 0.07111610365522851, 0.08099319331986266, 0.015542320272553862, -0.08474256781338316, -0.030001883648742414, 0.03519801898189615, 0.06512309714523266, 0.07633224962996378], [-0.01132964235718583, -0.07684562208888178, -0.03032143258904534, -0.03525518036603153, -0.06674511684726944, -0.019137436683824855, -0.04831785379995, 0.038003291668352465, 0.003326154428391821, -0.008530491829522894, -0.03462749165671041, 0.04373522400594892, 0.014559139675271768, -0.07987127711494434, 0.08498302258503583, -0.0785360414436984, -0.04248512745581989, -0.06852728042360368, 0.06132755706843644, 0.06206614788796867, -0.001167234441299049, 0.05678844266659556, 0.047157706163968666, 0.07067201641138006, 0.08457351097217089, 0.005934627937808648, 0.02799395702084158, -0.09237334311699927, -0.04276226773279736, 0.09316831263556588, 0.02077152752507244, 0.09390462373249588, -0.04330992846149093, 0.033861386083295315, 0.041063281171187654, 0.052196786018591984, -0.038194666110654196, 0.07710656043059622, -0.021430776149586543, 0.10877800397479095, 0.06298525236522964, -0.06338288688654235, -0.07371779925664132, -0.0029181692355674553, -0.029956124162966023, 0.009395973464705807, -0.09661525645344589, 0.05659340857522902, -0.08291971023368071, 0.012738253352426492, -0.01945944171864717], [-0.02370642308851783, 0.0203432713265012, -0.09030203306181091, 0.052553496474334466, -0.006581460711355645, 0.04331544337694956, 0.0600495858193762, 0.07839821271186265, -0.09133252942982786, -0.03114865724649223, -0.028328170568109094, 0.011118025907277408, -0.04525944644875621, -0.00813523008628568, 0.00035437082218205357, 0.054004677427189514, -0.07811101487615449, -0.023270048490741144, -0.05324511237164015, -0.01158372288387523, -0.026100435206212472, -0.05755171618895535, 0.09186465996692167, -0.0906739179705834, -0.10784771427021964, 0.06021156017308556, -0.054672157274505466, 0.07010627589404879, 0.0312041183867724, 0.062226201859974344, 0.04755864128893867, 0.05178624482956177, 0.08411532635793117, -0.03611491182926106, -0.060810788580324335, -0.08942380920312878, -0.08018411523799898, 0.04766513363877047, 0.03597890975282023, -0.049713914534239345, -0.07421123545533198, -0.07615843804835089, 0.0013148377994451272, 0.05246557116585018, -0.09502966559943701, -0.0020945704981054566, 0.03003905273830646, -0.047946630971751024, -0.03987053355302845, 0.04944035255348213, 0.04825475480241929], [-0.024944172417238442, 0.08618532038880951, -0.01884639725392496, 0.068232500910611, 0.037557880587942634, -0.016626732761162347, -0.020819754249645703, -0.0722382621426827, -0.03373977801024459, 0.04696698294018531, -0.03290976909443329, -0.04220910494017531, -0.0333738435640048, -0.07508889790620683, 0.05860792661928911, 0.026629552491858752, 0.021852617624057002, 0.054277190199300746, 0.01936970093855282, -0.015900542259266164, 0.056695904356841645, -0.06362324821792473, 0.04525646035244961, 0.07996618023728881, -0.06758400355253745, -0.044068663370287045, -0.03424200944458859, 0.039856100930679164, 0.0028857426271053127, -0.024563558120383303, 0.06583959660676797, -0.018133371909086836, -0.060037367078750285, -0.07234749666882585, 0.09914299205172901, 0.08153759448495729, 0.09029175088293899, 0.030381751202972807, -0.001309118168664038, 0.08196091359286632, 0.030063126546086304, -0.03769896339498857, 0.03770679143581288, -0.035704757165805866, -0.009168997876715499, -0.0586837184950239, -0.015782929008915418, -0.03192443068479362, 0.05076397615893333, 0.08750657845065862, -0.08998170550007784], [-0.004656678509572263, 0.05939758581752649, -0.06788222387283618, -0.052817403530662096, 0.022262492954438957, -0.0308534228324528, 0.06931591959142916, -0.08873521802021016, 0.03809560248920522, 0.011650352975747088, -0.04560837206212153, 0.04732457908001855, -0.040800000648742424, -0.0800539644164536, 0.006989638048756913, -0.07650837245233755, 0.014115699395189968, -0.048086157232994836, -0.0047983456576933025, 0.0850215542916251, 0.03918100446831105, 0.011604270805516275, 0.059977158638075644, -0.008917521554940824, 0.004605931852694951, 0.08276288810138897, 0.09312399099353787, -0.09212864790561663, 0.031435481413549876, 0.052532215847758905, 0.04777914542670957, 0.00021237958586978412, -0.0645856313345228, -0.009053256854507436, -0.041823028694237735, 0.006255743381446913, -0.06486546143064617, -0.06964129937321246, 0.08692009551185083, -0.005687407589038625, 0.05416670317584668, 0.02562703103844664, -0.019471673828129078, 0.01797933343648777, 0.07900022731846951, -0.06367203448939839, 0.031181275420996107, 0.09064660390118488, 0.0929907965857807, 0.01367369818526422, -0.07595203012255333], [0.0556742983408497, -0.0021408212157356236, 0.07985668783048888, -0.026105928058226528, -0.07196119098546677, -0.0789597995240123, 0.023133139456943504, 0.027037975832415087, -0.009933217417614179, 0.09162529784716111, 0.08467604606126582, -0.06410561231494358, -0.0036772402001561282, -0.007804715121691599, -0.0799362712633953, -0.04689609437544111, 0.0044010338473615, -0.016955214670919136, -0.04839276075572936, -0.07458897960829293, 0.034298708313020614, 0.06767833585080588, -0.05233434525094157, 0.06622413143110024, -0.02783035127548177, 0.10605755741321035, 0.07502408965163677, 0.09508143705686035, -0.09131625677187072, 0.04625202199810922, -0.1127057697988025, -0.1010196962727738, 0.009401246400338783, -0.0039471487492132125, 0.0902601482268374, -0.004491821968778618, -0.031440799306655935, 0.00866312178103729, -0.008945107394411428, -0.10708567810402286, 0.07507182016921975, 0.00902182497846561, 0.034685026726922794, 0.02858980057786158, 0.04065904155209232, -0.11540245671290879, 0.05817268424797645, 0.01630266535391057, 0.0448747675973571, 0.008566620501052065, 0.0598075334089208], [-0.0765072735505097, -0.022232114345630702, 0.05366110015890026, -0.02057318977945094, 0.07857666402704068, 0.07808126797289304, 0.011506334778960112, 0.04056176490272721, -0.08009832798438833, -0.03971114701448529, 0.005809230427770484, -0.0912055326999656, 0.0272718018750919, 0.0033098135104468462, -0.06603078010666394, 0.030376614781929545, -0.009345790109916652, -0.07882707009887287, -0.051377517001663583, -0.05706911753443232, 0.004490493569401066, 0.002893827044096575, -0.01648900379312364, 0.07055805261272748, -0.08465038168096053, 0.06019195696622219, -0.009729911796289292, -0.059210397170556255, -0.04259113809536852, -0.047555198023272904, 0.09038934769037509, 0.014727801036653665, -0.03837953314010807, -0.039110024356570634, 0.07383419592055578, -0.04309529491406048, 0.06383499912520606, -0.0313711991040712, -0.08834845466959089, -0.09074315361407, 0.07491654004601335, 0.08041723396569074, 0.06566298713812029, 0.0073382547546238935, -0.08873738957221824, 0.0069531929251842595, -0.04546737540658756, -0.008101903497459137, 0.06778706355444812, -0.057358134433584375, 0.03712258446173235], [-0.07368302707783703, -0.0860035257026661, -0.07082761964166107, -0.027540141597759138, -0.07382233448672053, 0.04358511120290869, -0.018026399297430464, -0.003983792314745461, -0.05303244390031445, 0.011809426176440756, -0.0888004032538388, -0.07037464510809721, -0.06751259293423381, -0.035568313205699094, 0.06033464121436446, -0.04034021465939347, -0.05340809522520895, -0.0050320146124792405, -0.08971507738748302, -0.025991650158345363, 0.019748734509789017, 0.022856746359037672, 0.06779767159267962, -0.008356664022248713, 0.014275349793111108, -0.07079134695218268, 0.005596713145202228, 0.08201841379567623, 0.01852913693914141, -0.08082579853672466, -0.017656360758316926, 0.036669524542399655, -0.08906139150655822, 0.09042447094100023, 0.04939088217172326, 0.02282353115866019, 0.05752921505714764, -0.002325096571388515, 0.027384931499549618, 0.006580379092862498, 0.039272585153638635, -0.057387573873714175, -0.0297503067668473, -0.04024547184426789, 0.011835942764794227, 0.07091107628092307, -6.268143000127945e-05, 0.004269401322324558, 0.07725514230837477, -0.061297140718405016, -0.04284776152811979], [0.030043837575022554, 0.055822873258788576, 0.006454993525895722, -0.04442120325309889, 0.058064564353812034, 0.0021368080491592054, -0.08373795418278689, -0.06604721850697184, 0.059161960572534644, -0.03902461061876479, -0.06789293239293925, -0.040960063540733185, 0.05621078588612056, -0.06983744358162984, -0.019942122646767958, 0.059465474917858065, -0.015570294758558874, -0.010463593705805985, -0.06915166532278809, -0.06283834905752969, -0.04234386658598468, -0.04051143206686944, -0.04716092803020642, -0.07081628570787077, -0.03898420266271199, 0.013388785696074138, 0.082710615487192, -0.019652005414493263, -0.0002221421538010699, -0.05873174678950881, -0.0071659457046739485, -0.04704147798609538, -0.024510575379590872, -0.07767084454030583, 0.07773646520294163, 0.058733198587463085, -0.06712883771163763, -0.08338982239937709, -0.009294890923711354, -0.02450797451848013, 0.0740691739761588, -0.05336217934508878, 0.07156430184750134, 0.08526357777753538, 0.0049907134361638975, 0.06850923847988204, 0.05671917578628124, -0.06347516442402155, 0.05955691956283242, 0.08451616884860184, -0.01058568172549476], [0.06948765372062533, -0.07306164583562141, 0.07565128797675791, 0.10210586198947252, 0.09642066704230197, 0.07552561290971459, 0.047929049147035704, 0.032492073156935794, -0.011865709229056718, 0.005066514117509257, -0.014347343620689517, -0.05325829951962094, -0.08414651686506212, -0.02218080681359095, 0.08552759307394242, -0.06781594155324047, -0.02877833167653464, 0.014069313293683727, 0.0446517299786418, 0.07575772001226398, 0.01970834204245119, -0.0036450246915630895, 0.09311421128826892, -0.03780785239864239, -0.017638305106618787, 0.011726592674107444, -0.014911019077280955, -0.028659381416125194, 0.025187300604948948, 0.0762917086047431, 0.047239648345545567, -0.06705847454155951, -0.010658411093838109, -0.04263576528951176, 0.08468206992277673, 0.010714995786528337, 0.010448151461714739, -0.013285320363949716, -0.06052468674783135, -0.034983184097312756, -0.03203567445779067, 0.06011712602794065, 0.036374598404763654, -0.052288797497112884, -0.027434345547020806, -0.06814444678731345, 0.08253676172302912, 0.029025076729637937, 0.02741515328873101, -0.06183648629877744, 0.08376515032737976], [0.06981280841420291, -0.06298328019483664, -0.047712325142234134, 0.06885827193546366, -0.08089436639805536, -0.0014232102474272396, -0.02516781934868434, 0.042973774280973695, -0.003328477442677086, -0.01319160349627349, -0.045532819919382725, -0.022059215609119373, -0.09047159238764275, -0.07617701927728558, 0.02553360421243528, -0.002309093463292139, -0.0635882384714403, 0.013389109207709915, 0.011856994550879518, -0.050069160740511695, -0.025745675274821425, -0.021298887240284434, -0.048357736093431754, -0.03913331539724068, 0.013448445393585404, -0.07145402943587408, 0.06574028409737938, -0.027319861238809737, -0.05789505480570338, 0.03633641479831122, -0.06683687989548609, 0.02947745673419888, -0.08802239805095098, 0.06657325713330935, -0.06045249748342182, -0.06109882209841198, 0.004650318832927436, 0.028952645011433478, -0.012609432330390441, -0.028749988290155334, -0.004025879684984385, 0.053774611365014144, 0.008163131959634626, -0.056107375588765745, 0.06185472432238663, -0.0672782068705684, 0.00953693658937288, -0.05134416136679064, -0.038639538398144636, -0.08726964347708412, 0.011579715208929017], [-0.07455260135154174, 0.088608676112395, 0.04707582422257313, 0.07452341169277758, -0.0025865810974555203, 0.06688022786640778, -0.06825430933875049, -0.0037439094045004784, 0.04164660279760295, 0.007229972768355533, -0.0632039285460325, -0.04489107466203204, 0.043484934642552306, -0.08475805805211654, -0.09090834063558517, 0.042980237994919304, -0.04044476362966653, 0.011377877852291746, -0.05361046602921633, -0.047651197820087005, 0.08362002133614387, 0.08210511405378233, 0.07048801058825417, -0.0057252539186807005, -0.04081865355263445, 0.04247944028762811, -0.01259112076290092, 0.05176387219868471, -0.010841658691659053, 0.02287946353126584, -0.008192071106315355, 0.021533787506473986, -0.018242621744454776, -0.0022267347037293744, -0.0703169801794239, 0.004497991051126846, 0.08621660249674347, -0.07094262780192422, -0.06802990301906006, -0.06684063721614855, -0.058348906488362134, 0.045840488527063086, 0.06815572667124915, -0.029525243515717406, -0.03595140416938523, -0.06640726579991732, -0.01156073461329167, 0.05016990241149159, 0.07691524287715269, -0.012474928402107302, 0.06102209397311632], [-0.0572463544477503, 0.07817774182052918, 0.032860171293613696, -0.04607711592490315, -0.00237933199003941, 0.040962770881763214, 0.06061019032348462, -0.030842313453418597, 0.04200068617412704, 0.07614013813058755, -0.0591231029523696, -0.07098041509151147, -0.0479539314531288, 0.04256684645133228, 0.08486567053682147, 0.04069590773219765, 0.07290988145948137, -0.0034912329470594416, 0.011114817857306405, 0.0018271691467501294, -0.014855564996161003, 0.03400701698362425, -0.08610590857938681, -0.06015707810689976, -0.04158516914684143, -0.03911450695383743, -0.061389023601208084, -0.08200461669419783, -0.05129714191183259, -0.07463358125843, -0.02462360391352786, 0.04940917969771692, 0.04786259320027007, -0.059196215373562185, -0.03986133004081677, -0.03597697180809062, -0.08057953048777784, 0.07499869414664338, 0.043127288820367024, -0.009631307920811585, -0.047826831780640566, -0.018008619438164272, -0.09138400883998432, -0.0724062422588927, -0.008389932883145906, -0.054777759240524256, -0.02210692742066947, 0.04682577823758137, 0.05504133475049801, 0.04743253786086145, -0.05797604232063383], [0.09088275940059341, 0.07810906192686588, -0.036785213145355065, 0.010421912228962799, -0.07617811653466634, -0.011640808883038936, 0.0034953946838258837, 0.0585139270233135, -0.07303926663428933, -0.07140089101360082, -0.010807979055513284, -0.038618320317392596, -0.08594020778465507, 0.039791324200563125, -0.07938333310397869, 0.06142895229915531, 0.04120447385513522, -0.06756498922867023, 0.05248532290730197, 0.008283613673113865, -0.00397513308559648, -0.028229768843392247, -0.013700179267398443, -0.032285484190902616, -0.025920481373225848, -0.039493443622430006, 0.03438475978278803, -0.0776518418043926, 0.048746470121770094, -0.038982919970721286, 0.0594192306361407, -0.08417792302964418, 0.056202382946682464, -0.058185709264681786, -0.005095522215956966, 0.036328088127429506, -0.02318475726648178, -0.023314359749159602, -0.034293794309027306, -0.016542237778560745, -0.03627345603877629, -0.014872486583694972, -0.04798702089313371, -0.09017253029011739, 0.057209978063640435, -0.015561907645457729, -0.052079567985439945, 0.005229948058731504, -0.0009245337904821155, 0.08844496485634727, -0.061480932736295436], [-0.10065031012176942, -0.031223144691297763, 0.0822440917773086, -0.10306724458606037, -0.051773534607054555, -0.05191116268571836, 0.05136952294946134, -0.03444450964744541, -0.005811053974980032, -0.013632194991620421, 0.08239087274080137, 0.023194458364758096, 0.046856534750463336, -0.034791927528682355, -0.054118406677223944, 0.06754436191817018, 0.012247592478787575, 0.022206700395387365, -0.013782007186239356, -0.020646581936395677, 0.018782824448489138, 0.02915432125049139, -0.06596329924506776, -0.08068387164629223, -0.02865410243496279, 0.0670500326237162, -0.04727104333261677, -0.03718292182407057, -0.08199313502195511, -0.028226112742594497, 0.07800196424474672, 0.057312910285428606, -0.028255397039577884, 0.061206652082099015, -0.022878805958329633, 0.08183848934436964, -0.04101389292736779, -0.047367992734149635, 0.0945135997033358, 0.051373632257113645, -0.02808795577277392, 0.06195250965767648, -0.0035936706573279553, 0.08318190904995544, 0.052138330859908696, -0.03066080175161566, -0.019725161520922425, 0.09357356902507082, -0.023361676477565443, -0.02820978652113824, 0.07234671302327259], [-0.0013011516519083768, -0.07752394682988295, 0.015735410254156486, -0.06138970788290934, -0.03776493629308066, -0.046426199723851105, 0.009072375163357592, 0.014301224639788708, -0.06336471440875083, -0.07188463796260132, 0.01753185727389393, 0.02794863725205676, -0.0754650318596279, -0.08317786043850087, -0.06860515264137486, 0.01624750401462049, -0.08118616908172545, -0.0406376515899337, -0.028769329426858795, -0.07429793166667872, 0.037197863127025214, 0.08078349432589575, 0.02704444830364991, 0.0054446106621293, 0.08519977019162665, -0.03313666263733345, 0.08818855694323235, -0.06415305921891651, -0.044918491873538656, 0.032237981321243184, -0.049841946976723374, 0.08709263800320452, -0.014651312653924041, -0.08053513230862683, 0.07721128865356519, 0.04869111605747788, 0.012379060329787505, 0.0070654238221582455, 0.026683251322652625, -0.05438125315206849, -0.02863935333017871, 0.048169781814891795, 0.06158803068321575, 0.011572849307338392, 0.024252052998300782, 0.014471153544109898, -0.06757231656149866, -0.04400576445717562, -0.06915213715553123, 0.05614006460138942, 0.03225614297608057], [0.04860516246874021, 0.06774822304620008, 0.02682361682487782, -0.03710302015415101, -0.0719778651128287, 0.01002765325140911, -0.07534893967469453, 0.06839421150804488, 0.06524967291927808, -0.0679652438130825, -0.027288033883925183, 0.006722072163378383, 0.051927536194505734, -0.007876187758606984, 0.08068261989715654, -0.059171526466099245, 0.011658828367929955, -0.07401442543276658, -0.05443115718081426, -0.0666471989414884, -0.038408745621433434, -0.0034920795793294095, 0.03044684343225255, -0.08597238272731843, 0.09141175076396262, -0.06699820344301351, 0.03326787291960281, -0.04737539490178424, -0.08866148270963833, -0.00575963100784187, 0.015198599231273164, 0.07556507552536465, -0.062459709870862044, 0.05924263089286643, -0.008232156172792162, 0.08981506298217762, -0.08175980497767844, 0.0024247400038915124, 0.07291803541593316, -0.026212369329776126, -0.02118421427519422, -0.052446581587767764, -0.044909825297219964, -0.02200021000094954, -0.05817501189861506, 0.03603269571240682, 0.08428162522827734, -0.051434117308215566, -0.038811623225250204, 0.005137758997307742, 0.008555734893859466], [0.01679205142310082, 0.07470187529518114, 0.057444146967332646, -0.08033284172498739, -0.02831957776002199, 0.04832028316521857, 0.0531903721253084, -0.02742928984049918, 0.06924891970873008, -0.07838430065948086, -0.032126705054843004, -0.003468334802498002, -0.05549882738043154, 0.029389767264339103, -0.08811824896379283, 0.08151988485748367, 0.046041158801297236, -0.05497157418711038, 0.06396856758271631, 0.01122048433915751, 0.061444766702366, 0.08953232487202749, -0.05386820159538843, 0.07534888760903048, -0.0645798420758073, -0.06793494392437366, -0.04975074637182585, -0.02148229975553334, 0.0002532268184125136, 0.029842158488453452, -0.04639576548684149, 0.027799378655486248, 0.020973687381680053, -0.011864192263815104, 0.08682004004362175, -0.012979410788034412, -0.060391988919897346, -0.08754642253344198, -0.008235775265271209, -0.02278773057382512, 0.036633099468198996, 0.037088007638379564, -0.053808296739024104, -0.059023698369160514, -0.06248657689241556, -0.03574230919584061, -0.036702319738957725, 0.047434366743241765, -0.0030000560494868184, -0.07463941983521756, 0.0702018440829023], [-0.05228193879780128, 0.08809557242120997, 0.04151004098394897, 0.009091289979038818, -0.05385368577572404, -0.0610799302271966, -0.016815907125853922, 0.06025941412796337, 0.0035306526525747416, 0.031201880601039005, 0.03846941070524863, 0.033752042974367236, 0.04514620927372603, 0.08590854855739345, 0.03283402860670966, 0.009513105107596613, -0.03242432945556239, 0.08465790912208618, -0.05184702013666951, -0.037119966744261344, -0.030539097634000083, -0.04597848659829508, -0.0945703192592783, 0.044783964711751265, -0.022017408901828624, -0.05822668341997638, -0.021617153124132978, 0.02640926172082408, 0.08027443014414432, 0.013019944086306351, -0.0032831064070875243, -0.0769564461215091, 0.05599885438278142, 0.08200913991408633, 0.07031649772930756, 0.01908427368407636, -0.01629439664644782, -0.028860390552561545, 0.05200541921527297, -0.05693964817575023, -0.0854549655536194, -0.09106241167388018, 0.049150509249851135, 0.08427212724992378, -0.07067508282859968, -0.01386355066640184, 0.0712341943374919, -0.005243321684590289, -0.04194701815325233, 0.049815593402355994, 0.08726633317177404], [-0.07516179676145754, 0.007854227601107044, -0.01853939928229277, 0.011236485558569468, 0.019376351278720748, -0.02393372676822337, 0.0025707022759984418, 0.017851298695210682, 0.07400603447784188, -0.013642169978972428, 0.07407588303881577, 0.08034812467673869, 0.03152465679461034, 0.04086987493187766, 0.062097522874947554, -0.020004580058790262, 0.014687718403938557, -0.0026007047362465994, -0.06890315949359567, 0.05720761123856839, -0.08070764416155367, -0.026420920154802394, 0.0029501040201446974, 0.03539178378875346, -0.08568922385010141, 0.02423128145418695, -0.08831777548502939, 0.013058157745982051, 0.046737161477219895, 0.07808416645123804, -0.10573211937188823, 0.06794591362948643, 0.08549143924872274, -0.050901460317910256, 0.07967339622230625, 0.056336105486960594, -0.04290157914404384, -0.007016164189846997, 0.030277944279839604, 0.06825881137313138, 0.014719818814593943, -0.04522565643224804, -0.07088922680546227, -0.04544763683333067, -0.010819327401270739, -0.048279371191541916, -0.0025127810904453677, -0.02430613881341398, -0.08518805576692293, -0.09466991699221826, 0.0309332521591723], [-0.04264144629633778, 0.06550684235640018, 0.09925300813485224, -0.049273833462163075, -0.07580763209968341, 0.08524790120575518, 0.05490893343020757, 0.04506072232021525, 0.07891334955349794, -0.12431433981499793, -0.0205110767647529, 0.03803393574504371, 0.0754728095081495, -0.012751469894435097, -0.020967349703040917, -0.0021458521720131617, 0.05634187435127205, -0.0500070331474268, -0.027297966730213764, -0.05678519697793509, -0.04872207725836689, -0.01902236651139103, -0.08953271736375656, -0.013464964995282427, -0.01277653170454697, 0.009108044281231216, 0.08171939616513331, -0.03330455190385309, 0.03848366034557503, -0.0025104654024231073, 0.07944857098625127, -0.033005008551710346, 0.09546371759341282, -0.007852304319215077, 0.07040696672098731, 0.07543144772655269, -0.0051897437848674125, -0.07746537371872038, 0.07817287604457701, 0.10159857771483514, -0.016466337298794955, 0.06925154944754391, -0.03864802190159932, 0.07715029457302436, 0.030688184956060096, -0.030823282951962905, -0.1392392047238095, 0.0016386282885780252, -0.07864107893111502, 0.018417859164586138, 0.07862830866758909], [-0.03455604816361405, 0.03843531597249021, -0.06257549940298991, -0.07178771827882947, 0.07110866574358805, 0.07563434571195969, -0.03839115759378193, -0.044554870041610586, 0.04516532518518697, -0.03935526181320287, 0.02877813405780595, -0.06187557654024388, 0.0480219924465992, 0.07882684447039152, -0.05791625952877706, -0.07311737274218133, -0.03723649373518406, 0.03677196812605503, -0.05282066703044523, -0.00998088008820816, 0.07946405533611704, 0.015010006894562652, -0.007492321302023236, -0.06403034842328578, 0.01945686263715525, 0.0012055261672984513, -0.031120205843291532, -0.00762014208186014, -0.03201550321564527, 0.05370800195085383, 0.013694598085675608, 0.012657403587567381, -0.06336442858659094, -0.011408960486579231, 0.05922575128493972, 0.0749662708085236, -0.044436823004566695, 0.0024949543407991603, -0.011207759714817744, 0.06962163205615766, 0.022019944098552943, 0.013674374898459282, -0.01962335813789433, 0.004018949862859181, 0.06121071115327702, -0.06446337658639226, -0.0839564685981577, 0.08725151589155154, 0.07718801983186897, -0.043446493734929106, 0.08891424661832538], [0.042656644903535906, 0.09633347702814589, -0.05241073363444004, 0.10398536172409725, -0.043649711415870464, 0.03533627364248713, -0.03519830303576577, -0.011844043898465939, -0.07818488262264851, 0.10145861365498353, -0.00261104603677519, 0.006378131789688513, -0.053633594430463644, -0.018162276133367863, -0.002280589664243596, 0.08066692110649916, -0.016781285115116146, -0.028625611042068944, -0.08281720538159364, 0.03241833756709534, -0.00593131929783301, 0.02610288848403967, 0.05517677260342482, -0.08406815572702503, -0.037813113729698304, 0.037876659867358886, -0.029845170420206592, 0.04951223452278003, -0.05663527064618531, -0.016342706803731955, -0.002369656863845635, -0.029264683181201033, 0.04865253728661571, 0.01958759291626372, 0.085097374382467, -0.013156673216297054, 0.06863984517007038, 0.04474132024374875, -0.061908926165235585, 0.010248647780263393, 0.07281677851953718, -0.09605511754904039, -0.02772809827441123, -0.06851726084624596, -0.007189916119543795, -0.002441068730364404, -0.046260065830106445, 0.010113834227384594, 0.021074145241217458, 0.055488528614665134, -0.06435341963288614], [-0.046315325182497265, 0.07215563485305672, 0.0368916251876942, -0.06625400311918273, 0.062435036168281104, 0.07394762855099547, 0.025031142040898503, -0.05101312625014739, 0.005594984901704751, -0.0013722540481449674, 0.01390424748906363, -0.03419820147787814, -0.042092682109197525, -0.024290889454727682, 0.06416614948814169, 0.038780667773737024, 0.012308065825440653, -0.08230411998766342, -0.004245187939823842, 0.018920820858976034, -0.044398635007446494, 0.0050849013275774246, -0.0031618307968933053, -0.05606360201761738, -0.049862883921851085, -0.07979988335585009, 0.09687607512207758, 0.07345602103363719, -0.0733143121362981, 0.03214518623765435, 0.10084585536567085, -0.007736855464558806, 0.03030388630573173, -0.06541765674442108, 0.06644064357700995, 0.03764151279723546, -0.036985770276829054, -0.025229025189391706, 0.09555171121670256, 0.06633791022819216, -0.0873510257194516, 0.07757013145785834, -0.017720844604887095, 0.09132772794867737, 0.08991489958907826, 0.06555879686787436, -0.05589580473614067, -0.024637607730341373, -0.043150558365230525, 0.059138137673822595, -0.010362575359672575], [-0.008284191532888499, 0.08575517072366665, 0.06643112128769867, -0.08017648860127846, 0.06827309826186541, 0.016974520449043323, 0.0578317827213447, -0.06565622707275258, 0.08593612040160525, 0.09714376804846707, -0.05073346590635625, 0.007103714797102622, -0.011194234675659996, 0.051082017549692375, 0.021084845791409564, 0.05973888116418047, -0.08331281627731996, 0.020271280879420442, -0.027707354078436976, -0.050922326560552934, 0.08014089771853224, -0.04538560149643723, 0.011126723511217948, 0.0675497096377667, -0.0046541791837843485, -0.027015867285535074, 0.00508014861772046, -0.0605511108640291, -0.07544652318130947, -0.06900401926923806, -0.03056951873573465, 0.08344168107694741, 0.08222604414608055, 0.10245004436312376, -0.02779133630820991, -0.09593031992173416, 0.06631437415526921, 0.03757657232223501, 0.07139246731567178, -0.09333518168694348, 0.07143684199558294, 0.06251272207358012, 0.07824473208911377, -0.10736265593161903, 0.0690698755951659, -0.0713332900363922, 0.017994625937797572, -0.04177093535353689, 0.027926588821377177, -0.01685453756344687, 0.0714961810282549], [-0.09286506348928321, 0.05205713307287298, 0.015580455328116954, -0.034430862997185514, 0.06733818248885987, -0.036493684424324484, 0.04941284297430537, -0.005370782022676061, -0.0026776383402530987, 0.07183393220705248, 0.05019218303804476, -0.0461509138881391, -0.07429548864728681, -0.01237500030694033, -0.05518900792111149, 0.09350687520903328, -0.009992260388866372, 0.07626552324064868, 0.08749950014057262, 0.06720065319825623, -0.021840501187180752, -0.0468850595696, -0.01190568570146304, -0.04413842092077637, 0.03338055051506433, 0.04930816956541132, 0.08441358333352497, -0.02532344858079459, 0.05305062841121555, 0.046276521015945746, 0.03171847424710231, -0.05234473461710055, 0.06405434075237536, -0.029474781444189968, -0.009924253006622662, 0.049454824783655954, 0.08389934263860097, 0.06386969192739105, 0.08898787190153924, 0.08587209606996372, 0.05579662644766629, -0.02979495532502811, -0.03928410098535228, 0.06424999720505993, -0.061677941393252805, 0.012123856341127328, -0.0883261000300546, -0.02095671095972584, 0.018916611850949165, -0.05148120461877307, 0.03682369558335067], [-0.045375608672691255, 0.0813177222301261, -0.04592509074666998, 0.062134051305155084, 0.06390001696603412, -0.057924628867751356, -0.08058105575256629, 0.010834412736077263, 0.0678975096945233, 0.015057965843732035, -0.0316006615715901, -0.0931402658318659, -0.09922352360975416, -0.016967746829720853, -0.021376936483942906, -0.08664113509111267, -0.0906665115883283, 0.01843844772411895, 0.0590786792660561, 0.0060157007991402545, 0.05750878473551575, 0.013148006539604835, 0.03253665999288095, 0.0014795684550571598, 0.09549928964244558, 0.07741590304581797, -0.005585689487666452, 0.06322559191875801, 0.022183886732316152, -0.06877757046454121, 0.07075570243588483, -0.05828831124978011, -0.007129607382687476, 0.02311213872082777, -0.008463385026247782, 0.05037449481524871, 0.05983944451718696, 0.017663442233939664, 0.08530308512448785, 0.05382447440977589, 0.033112478187096554, 0.04448190522030389, -0.07498133790406374, 0.027423148408125052, 0.05814214926298731, 0.059925764225741446, -0.05101876729029193, -0.08940404915523353, 0.09480385046507658, -0.008095346703185007, 0.041086064541433626], [0.06050266411464744, -0.07031235611968024, -0.05675194522722172, -0.05232199104310061, -0.026255437689087387, 0.010615710778496004, 0.05880668015813338, -0.020730513833025554, 0.04884935908977569, -0.090486817013535, -0.06435564742114486, 0.06455441778377329, -0.07033770585643687, 0.021160465519941753, 0.048231156257998335, -0.04810895344311873, 0.06799842156008197, 0.04224168224828284, -0.066244138924484, -0.035118016913542986, -0.07077040230080052, -0.07107719686690933, -0.060578551794500994, -0.0070217048779084796, -0.05485908110978683, -0.026966571561068714, -0.08841207361384483, -0.07598395088014882, 0.06036194909970859, -0.05142131701278932, -0.0550189598970539, 0.05164906769974075, -0.037846435332515124, 0.003999618161270475, 0.020540832433484542, 0.03679892134962623, 0.0007960492469124786, 0.024586091862656714, -0.0025118277139280806, 0.01452326882882245, 0.08788967502535801, 0.038184503142214214, -0.05050045359274335, 0.06223992970989577, -0.02066383938614439, 0.007104939803974745, 0.008395464360274437, -0.0413810761199189, -0.06974802636689993, 0.02592774912718705, 0.008882388746239601], [-0.043447384281253824, 0.005211589438711, -0.08213285049095809, -0.055431539432747076, 0.060487122909175225, 0.0699184822764098, -0.03801054377739342, -0.07663712065378245, -0.002619818029769128, -0.04436674117330728, -0.055340973414539744, -0.08703595247625272, -0.041950776923134085, -0.03584433264224759, -0.03365309448783121, 0.08966591015376121, 0.027213587365626925, 0.05108593067509615, 0.07829681218037401, 0.031248334790118144, 0.08007084764443669, 0.0858595399806278, 0.047597109911994985, 0.0218041913694736, 0.006342742184851094, 0.043784791654347184, 0.04822938931739002, -0.057786063436656994, -0.018890100025346412, 0.003159341620440181, 0.05774345984403625, -0.054898055021932665, 0.046489586124330726, 0.07242154857376937, -0.040299909524750106, -0.06890428420470869, -0.010790771898872061, 0.07176168790626412, 0.0810597041496554, 0.035736681403679964, -0.04777784881188547, -0.0692387286133936, 0.033239367794961776, -0.09693190436192206, -0.041354003768159814, 0.08455423361540663, 0.0492253190576008, -0.040163853050607524, 0.032501412302095245, -0.022021670852173582, -0.06373276632682061], [0.10197253704842932, -0.008946678954481542, 0.07305614790859435, 0.02957015607630221, 0.0039000621515695813, -0.09084723796356359, 0.06408468538595853, -0.012588866828625438, 0.035282300467663334, 0.08580854114124792, -0.0581982865200213, -0.07258678373387455, -0.026178636471507713, -0.028998471849396044, 0.025194308968183383, 0.08092309436840507, -0.08709278457125089, 0.030230911080660977, -0.07310480467571956, -0.01017644041038495, 0.036876993679085104, 0.003915981968395345, -0.018214395328416986, 0.06215150065603643, -0.058989644989655685, -0.010890813004312673, 0.08762624507126549, 0.07638699155974193, -0.01776015037860246, 0.050630936357943315, -0.0034763022720754335, -0.02377491387760854, -0.003080763402861598, 0.11397629315237706, -0.004121370561387125, -0.043857656362349645, 0.03514554946704227, 0.06833198997218154, -0.08655541182560099, -0.06515560389528598, -0.05982872400006226, -0.06488239090960662, -0.03873496191899487, -0.04844158211613767, 0.046523376100846024, -0.00484013951890187, 0.08280905482963848, -0.006313922017344619, 0.052175232578440145, -0.003770094012649844, -0.004141859093109772], [-0.08104587182439335, -0.06663118886715187, -0.06477836765237324, -0.09047590878366543, 0.08995363753291184, -0.05474432788175275, 0.0454093981733588, 0.05983534956043211, -0.014709487025584403, -0.07341622607066761, 0.04090835220758916, 0.07510232733415771, 0.04213049975451484, 0.04507043172860613, -0.028289585379339816, -0.06672756336867158, -0.0321141287486672, 0.050631089698373447, -0.06361104274633012, 0.060915739897268215, 0.0897932117580539, 0.081894004093352, 0.08159132997299222, -0.0750232415238267, -0.06992306904998262, 0.032688405415368965, 0.01604838661067, 0.01910884697285968, 0.025777743306020368, 0.019413609212360183, -0.03153638859211156, -0.07505363600147172, -0.014309077937568679, 0.06847590232677415, -0.043365729673766444, -0.011639052087197885, -0.029979097265692402, 0.009836956664393368, 0.0868632558447446, 0.006198729109603396, -0.08898250540612328, 0.036567307877903646, 0.08891246075183638, 0.00807104565314512, -0.06567298176565166, -0.06893788705726717, 0.030900163308523493, 0.04009107712107536, -0.06130706142144812, -0.07340578975656395, -0.08418551800869399], [0.05434925883006849, 0.06826237020125767, -0.053541060982437286, 0.07301431504764741, 0.013726090397765348, -0.002787094604085645, 0.01677583708277082, 0.019834985117321246, 0.022174503569636284, 0.1267823942978086, -0.006998777737926147, -0.07037682825307476, -0.0663497983003595, 0.02752682359789944, -0.00653867840734679, -0.04650675269892252, -0.0866115772198423, -0.07449504372517983, -0.02643695229455406, 0.05279400470794081, 0.05600248294551274, -0.07366173818578577, 0.07987255812255208, 0.08746863501987298, -0.11558067957807594, -0.009720194986920614, 0.08091054908450741, -0.009029847715565793, 0.046860573697169526, -0.08233570072602868, 0.018606355476822045, 0.05777648856593949, 0.06354709041828294, -0.04369430011531192, -0.0517346302917956, 0.07899808374172514, 0.08039956116977405, 0.08687978872120046, -0.04534783506238721, -0.060867800522924745, 0.019667592993035606, -0.08157190997216394, 0.051002343490716015, -0.10595924756249857, 0.03048526363961788, -0.0915340635322815, 0.09211190756763332, -0.00371542795430891, 0.09333363289838212, -0.0033301498775354307, 0.06925173902786273], [-0.02665810860465348, 0.0499077719971847, 0.008039991662423418, -0.046924230833364375, -0.06449691200137113, -0.07992666495909485, -0.056066132946075264, 0.014857705397924012, -0.05748864747916217, -0.05175800432899574, 0.08533661753458728, -0.005506734099178692, 0.08787542467224375, -0.08416190310468417, -0.08658318060209202, -0.0039342708762940964, -0.028224193260908845, -0.06129624658312317, -0.011257572729954826, -0.06874413240619279, -0.007174226738151782, 0.03645017602158428, -0.07206305494866407, 0.05401546495615055, 0.019071543003016403, -0.03344140585429728, -0.012739253895050859, -1.903110553827525e-05, 0.022537575836035148, -0.0894673596159811, -0.03814425393079651, -0.06849031584070242, 0.06338822449367952, -0.024633136479630488, -0.04657026276817262, -0.0546211881177645, 0.0773815635457238, -0.05579958538756089, -0.06575763855805722, -0.08366367595573981, 0.08193159498462911, -0.06101781868211375, -0.03810641053739715, 0.08047263943421555, -0.02619298539222957, 0.06735368975920945, -0.059035521413308235, -0.0022558416670338116, -0.05389327597472414, -0.03597547661363758, 0.09058706078159941], [0.008908035550633726, 0.013889967910731488, 0.04105985904812525, -0.09022866216495957, 0.05208781895741981, 0.006157879390759675, -0.06736981113202917, -0.0482655176370301, -0.06927441696228179, -0.03688286151318651, 0.02599900593995669, -0.07820180968163877, -0.06824380769938702, -0.03557174441568047, -0.0757429106090093, -0.01761985201115344, 0.0012212459398446038, -0.04874851578479564, 0.003963783792822332, -0.0036551194938057936, 0.006543260088014819, -0.02138612919953919, -0.0007221393627157572, 0.06341117562997463, -0.0672856748502728, -0.012045245872226914, 0.08506085320087228, 0.009827024507347067, 0.0663028018068273, 0.03958548911393752, -0.040793570607621205, -0.02221415539509054, -0.06691216217933572, 0.00691440788601875, 0.015091093327946333, 0.0728309085094463, 0.06187362318181637, 0.006062916045036148, 0.07851840095213791, -0.09039501811104829, 0.042163154608941045, 0.030732725058657182, 0.03500782886979641, -0.09164020741415262, 0.015117916914791748, 0.008774323339680598, -0.06332711236540792, -0.012614308156439243, -0.05760399802939755, 0.06190226165680707, -0.0014924557380238744], [-0.03786067059034115, 0.0076101509991565765, 0.02373242670715956, 0.004279778387030272, 0.054393003672409485, 0.010422049284332586, 0.07221556896732838, -0.005117442625374349, -0.017573635003458953, 0.08891183579937223, 0.036664237437430997, 0.07811845040675151, -0.06480435087880897, 0.018027376569863758, 0.019518423722729675, -0.03995865606067517, 0.06493409335119929, 0.05312689696068202, -0.10215109892817317, 0.06559181040753326, 0.06343651728160671, -0.03998049839033239, 0.01886430620079714, 0.08205210730808667, -0.022245313821751735, 0.09494509720382736, 0.022239074616845114, -0.008740334899335874, 0.09089553968683435, 0.05914160117131946, -0.11310081240628693, -0.060256992812787506, -0.08725723295224261, 0.024150956152864413, 0.09812350850467906, 0.05749143694378456, 0.01252936859382549, 0.07991045782210963, 0.04939143034360304, -0.019919543077941988, 0.03868283504674667, -0.08980306445729998, 0.05820211444053473, -0.01943434423191412, 0.07072218733387091, -0.10432702395503413, 0.07580473017642941, -0.04711152750146371, -0.028336406950408417, -0.08551798016029619, -0.06627196270841161], [0.04441927663123323, -0.02228661784653696, 0.0913648473649781, -0.05680845109367117, -0.04751260957377225, -0.025892065448831138, 0.07735578932803291, -0.0037629136559845723, 0.06275678951303786, 0.013860260516051041, -0.016419284754974464, -0.0682388141676409, 0.07036242518387634, 0.02244713768029886, -0.039010536246946205, 0.019769049055861843, -0.06518235536493494, -0.038110763140608336, 0.015984562971757186, 0.02480048869731785, -0.05232955945915703, -0.09150213199541044, -0.04789017247367384, -0.0430790967850634, 0.03774918853645852, 0.0654434681485565, 0.042912028276154916, 0.04157338359619659, -0.03814249160659895, -0.09451934756907733, -0.0030983505446559403, -0.06892149861787578, 0.012875008226261152, 0.042690255745434856, -0.06597919856931973, -0.02925316393452898, -0.0026377884422597326, -0.07368978427603479, 0.021301270489672113, 0.058429644798798995, -0.0231459685506463, -0.033738825287687235, 0.029596725790823415, 0.10430147706834066, 0.05347135146041957, 0.11101669189341498, -0.007487413483454379, -0.025302076639215607, -0.09524928098252625, 0.08781507882836892, -0.06537496512164291], [0.06541643360508087, -0.07260863321976227, 0.0451746729020309, 0.00906783801108336, -0.06477763114861947, 0.0738734985000824, -0.05347050088982795, 0.03731097017970645, -0.08241383670086223, -0.05949963989251635, -0.091113186210736, -0.024376982566999977, -0.05036192954758771, 0.04605494507344271, 0.05610512417873196, 0.06497063397340663, -0.06509659199804113, 0.017550002043718104, 0.04067823344381932, 0.01876568292558466, -0.012783089725635334, 0.0548455557143826, -0.058043888458162815, -0.06818599218334316, 0.06726659762237959, 0.06705690750498772, 0.014504814721262154, 0.0042866477783521754, 0.03479950982972587, -0.017727214483177104, -0.05013825883966564, -0.05295856462656157, 0.014893483975619301, 0.0238536997127527, 0.006360084688232007, 0.024930353838709875, 0.021207732530455988, 0.010985270857689506, 0.013095302702579555, 0.055340255219875636, 0.00721509207266434, 0.011041255176873585, 0.02271526661195668, -0.06918816057690491, 0.022116823189925573, 0.06618727044023272, 0.037527086015871076, -0.0030888608095686805, 0.09044429284670796, 0.007272852983502276, 0.0019998551773840758], [-0.019460491393058603, 0.02544071384933511, -0.043480648157692085, 0.027880988363515616, -0.07318101059490348, 0.06651058081643708, -0.0732274335235756, 0.041644740193280794, 0.06849176294297611, 0.07470252177462676, -0.018219302767170452, -0.03709461434239717, 0.000516339587484105, 0.029306614314100823, 0.048298458753202315, 0.07126122541596504, -0.033428679576548666, 0.002565244904898969, -0.0902040122534347, 0.015266996674205089, 0.0689526389334139, -0.01967174656057736, 0.08344428759420545, 0.04188611090299942, 0.05122532652476361, 0.06404720118480321, -0.08581292089306773, 0.04570100283747773, 0.0224565861391802, 0.05781355576593034, -0.06720223543425884, -0.06511225410386424, -0.02267880210810939, 0.10425167441693277, -0.07372441084093796, 0.00035832442641762845, -0.04376673222824573, -0.03060065863208657, 0.07713034136354122, 0.023634902890711913, 0.08620474991679164, -0.02968992030586752, 0.03749922720396988, -0.06290202298367291, 0.05172384450697778, 0.01695267730460132, 0.09018867179476212, 0.006978174379116666, 2.4748423924261598e-05, -0.039080237549079695, 0.05793746876221795], [0.026203123551759556, -0.01362068313421348, -0.046283742749907104, -0.10034932476015504, 0.07206183782412236, -0.011072525907807617, 0.03561577452637988, 0.03940596432364437, 0.07063612267756274, -0.019154492810136627, -0.03785342213367654, -0.017414352650997597, 0.004496904951988687, 0.05112597186759836, 0.09098966536798714, -0.06338608565849972, 0.06639543382937427, 0.07594144448820461, 0.015902460258431665, 0.06547096511694342, -0.039840576833202176, 0.014568609768980329, 0.07265714936845805, -0.0322740891131044, 0.07877550158707368, -0.0633464766112938, 0.009966431633619236, 0.05949324530633132, 0.032648460988393094, 0.05369116004865093, -0.05859237008571739, 0.05528807873679284, 0.01641936821476411, -0.032503601879033985, 0.07213391281668155, 0.016286812929817155, -0.05267068598142802, -0.032907496147399615, -0.08245554200994906, 0.02952895792861134, -0.06208524828308075, -0.03879923607479111, 0.010436875184537103, -0.014423643892980228, -0.07670358142051312, 0.040568257051503576, 0.0006148973847762551, 0.06117734597984306, 0.056741829369023715, 0.06984078304621975, 0.06965307968742292], [0.011959945469140443, -0.0103242974757288, -0.04085304886507356, -0.03842267649964509, 0.03958126411068264, 0.08296671976024403, 0.03586253477116182, 0.025168152338766545, -0.0649838426167225, -0.09311860883983697, -0.045654586946118035, 0.04574073595751854, -0.03425305280038787, -0.08511788800114152, 0.009333522415597914, -0.08999976494280988, 0.047510655995789165, 0.0019492910743899316, 0.021492374109100508, 0.08787253188957012, 0.00484906296474311, -0.04903086230520255, -0.038820828071805494, 0.053565123769742415, -0.07989067155056767, -0.05544447886546049, 0.010030513961283825, -0.06811694347629993, 0.0014652360679236994, 0.053379705833507166, 0.07989571268597773, -0.07189168487732871, 0.04126762626158169, 0.014833697803776144, -0.022838684344599552, -0.0836750309172161, 0.03487090753648889, -0.01325861129744038, 0.03262834966875936, -0.03193496655179938, 0.06450011137366449, -0.020442096176841774, 0.009209793484802513, 0.05823725452660866, -0.0650420837105184, 0.04060342723387705, 0.007162277101452902, 0.043600971894797655, -0.03643932249502227, 0.03700596183348348, -0.06230493112296409], [0.01753342584408402, 0.03313767082096437, -0.08278967902909388, 0.05024962461290569, -0.006770333601519266, 0.06366803936072477, -0.012641139176500742, 0.042494411332379314, -0.013536303683618018, 0.030346796797324774, -0.03712406188261616, -0.07382658353982935, 0.03479569134592352, -0.03375220146737067, -0.0032596363423358413, 0.018795793858419684, -0.029397126333396657, -0.023391965607451166, -0.023785023451976344, 0.029379229636732267, 0.04105481345357455, -0.0934879499102902, -0.1043369036231247, -0.08087485417914193, 0.02531788146681529, -0.0349471534637052, -0.006409698333981699, -0.08332446872400635, -0.0798569325736757, -0.02021329372936222, 0.05750054188585537, -0.07846517124232663, 0.018139495118088274, 0.03126431384962515, 0.015622190468298183, -0.02648236618565101, 0.05102541640730347, -0.03721155307048626, -0.01482301315072413, 0.02976588086562482, -0.07141697467360555, -0.055615431718626415, 0.011183381747353567, 0.03223913453144348, -0.0031453355036772457, 0.023483061246291705, 0.007269819561018036, 0.0685674007332757, 0.038668449515076225, 0.08168582059747838, 0.023660448930400618], [0.006447693729729147, -0.08760303451310908, -0.009298024742022896, -0.05331569609757832, -0.0491474887973602, -0.08611297044600663, -0.04888230292761985, -0.019058609931190372, -0.0677403749899766, 0.07359456458196147, -0.08962324293541486, -0.020926312972569007, -0.0247239454727944, -0.07679821956990447, -0.0744030578101865, -0.0689912852508575, 0.003728866098067809, 0.07705178459469286, 0.07208721685591896, 0.05943213106020686, -0.012417113105033295, 0.06457398509323847, -0.014342668481162654, 0.017588182600835483, 0.04194360081854485, 0.0646978316376144, -0.012752869525781599, 0.027397698425296314, 0.04158972386503221, 0.06911457632982065, 0.019335997999287688, 0.009477753054933197, -0.07121170278063227, -0.07360173231237849, 0.007590432796260054, 0.07191985633995059, -0.00551559858893334, 0.02809681106399301, 0.006929798024738526, 0.047918858258640375, -0.018044627366172114, -0.0757920892434683, 0.09239746750138106, 0.08215300323964629, 0.059148723263499216, 0.03837731301811825, 0.09295566821801987, 0.07667528700786566, 0.072514129716625, -0.06784336822758671, -0.07797322282390089], [-0.019535193311690322, -0.02341426469223052, 0.025032321127055935, -0.003241745086241348, -0.03288032328932288, 0.06139710732474803, 0.05770741055968296, 0.06747960809977477, 0.021224173594354, 0.09013654305624329, 0.037238525810287505, -0.05540367184715369, 0.07789833679753778, 0.03764435600250219, 0.08378096339917793, 0.07938118096401256, -0.007170568051067848, -0.05956292332703952, -0.07348495884809148, -0.029003916675366562, 0.06385302045476014, -0.081100527541779, -0.011135548701184154, -0.07335889577467254, -0.023827917026844118, 0.09395780877152278, 0.001273311630842738, 0.020123008829328652, 0.026259338380719928, -0.04456053243725866, 0.020093745604616235, 0.02197883633360102, 0.009038459062732913, 0.07703619994407163, 0.05236941980230179, -0.027957749235711166, 0.012186412497395611, -0.08416697221423851, -0.07042358406820902, -0.08286012091715987, 0.010073774560601633, 0.006349459956582222, -0.07783111510296017, -0.07437152608694195, 0.03724614351356648, -0.05355642602540859, 0.08915099646951682, 0.08336167025787232, -0.04535228512428631, -0.015055825304766212, 0.07428032944077896], [0.017764519604229558, -0.06286439298321136, 0.06202672750179361, 0.016236924533767697, -0.0391917678770184, -0.006373139438304108, 0.011361675777733067, 0.04622006761978315, 0.005479335667510834, -0.03779519694221204, -0.09095518129369673, -0.08330397223929742, 0.06079363283710893, -0.030485106133934747, 0.002089559491998281, 0.06518501671673323, -0.0792640624631678, 0.06026978056926557, -0.02826726431780876, 0.024131592582886257, -0.06962439428096608, -0.08274257527837092, 0.0039571387753240895, 0.02014097020483962, -0.055267316304705896, -0.007571146981697584, 0.03746009057558586, -0.0059002682435272125, -0.0666092925291393, -0.007680509029119352, -0.03299553021929885, -0.028555306276246802, -0.08776244361989229, 0.05729759011703678, 0.07822685474724764, -0.029299204247241417, -0.002534762588886969, 0.05168058571935517, -0.0723109055533508, -0.08484541112409087, 0.011528887067567939, 0.01353854481415154, -0.056373959792328045, 0.05399881973589578, -0.052936514350377654, -0.08176714238295199, -0.005072152054642421, 0.06773594554897223, 0.018044299821625427, -0.004571046870918819, -0.08856808435723668], [0.0664462394553638, 0.0011368282785777228, -0.04919323430822566, -0.04707798469098778, 0.034520578742292654, -0.04142028777629104, -0.053474043419627984, 0.07036213554914135, -0.05333780437959811, 0.08002650581474667, 0.07794005205304468, 0.06577601028948611, -0.04120927100908044, -0.032428514619265825, 0.027521268885968356, -0.04007474688880509, -0.0482863730475946, -0.076619659556768, 0.011231998735139248, 0.04295574418186386, 0.03161476310441046, -0.05638732120943006, 0.07744620747775503, -0.02950040740673772, -0.08521351028535445, -0.04357126297466391, -0.05882546320427922, 0.0883264338277502, -0.05950567417736365, -0.026395816987926993, 0.012809921498491389, 0.03857431380693442, 0.02391243953007975, 0.07556197261255983, -0.08361970013831337, -0.05830716016866241, 0.019139684195161627, -0.0035018696213688916, 0.024778888526082524, -0.031781518645081844, -0.0775732684081641, -0.07378545976095688, -0.050207935128747924, 0.042240897013227044, -0.017538328825268484, -0.0634300800784666, 0.04165819886759005, -0.08144322019252237, -0.0829241797187092, -0.08026352278321736, -0.06284776586645437], [-0.034199575468687016, -0.08594440754349741, 0.04061213055711383, 0.0634020760735021, 0.07731498704792396, -0.08386463286444004, 0.0282370264856595, -0.03493759112459205, 0.008392659052632784, -0.07059941310276842, -0.07432377807872882, -0.0016929519108244311, 0.07853820370153917, -0.021264882175570765, 0.050442276178906856, -0.042776856273438954, -0.007737981062010722, -0.020251953122039774, 0.02797191662721595, 0.08498027588145203, -0.08475571315938274, 0.08463049101602584, 0.012166425372549949, -0.006069791546556979, -0.060167608706208846, 0.01941113237833014, -0.0590542804331131, -0.08913285912308724, 0.0017450324743981556, 0.04785467449195756, -0.0205081883321415, -0.06218979315749212, 0.06508942267200654, -0.005553927282726931, 0.021748735380461574, 0.00798979395577337, -0.046449272785714237, 0.060960759015330865, -0.05685643062703348, 0.02231719280801469, 0.06515658650822952, -0.07766598792813353, 0.06892685834788484, 0.0004139905893377533, -0.020399794117483497, -0.022806366208114857, -0.037400456238046886, -0.04736461401726552, 0.032262570712060915, 0.08133353910313627, 0.06013644289207683], [0.029015401912210595, -0.06954302771830494, -0.04399540550884942, -0.06392368069847772, 0.053617303125573765, -0.031192239034167367, -0.06558242697753794, 0.016990532263174832, 0.028694522197383804, -0.03167462779814784, 0.07950945267231872, -0.06492829730878233, -0.07237147484566674, -0.0011920755337767597, -0.05701479231926228, -0.007736174194999154, -0.07805731730399168, -0.07806332205397193, -0.02997717076672074, 0.09017184246735503, 0.035981066883075105, 0.04130026327384394, -0.020543182854750833, -0.05947809594708072, 0.07425181254854828, -0.07394712401284415, -0.03516914702239853, 0.05027822207875722, -0.06522707643544028, -0.05543104141157253, 0.06347400411496561, -0.01335093522488695, -0.05549652674031424, -0.021838775883789546, -0.07828486730210388, 0.0025964685178486713, -0.010777519420505394, -0.046901531848599, 0.04646089475441094, 0.07455747130635014, -0.014378587099717385, 0.08120262334944141, 0.0758750898025879, -0.03503296922072468, -0.0038394014340098342, -0.0783921502750887, 0.04923239013293522, -0.0316888219983662, 0.005075439544274807, -0.030739200398104904, -0.06001360328599159], [0.01685662934207903, 0.05074723788866546, 0.031513699183273666, -0.025792946135197156, -0.01881372617549168, -0.054019812603079254, 0.03175804090340058, -0.09047215454048115, -0.03209618607822244, 0.040295313440096334, 0.006694037915593906, -0.0881560793110189, -0.038503734501861814, 0.031133955722623896, -0.0777271945250665, 0.022572643598339617, 0.05758058566869591, 0.003943461058428591, -0.08224616935128766, 0.02257006360723711, 0.05388034086182479, 0.029352034127512167, 0.088186250675805, -0.05020200936052495, -0.07740889589771018, 0.04421968210208889, -0.08271084718224508, -0.01667008435251123, 0.019550502964761365, -0.0788538509137605, -0.06381037827804571, -0.016696517298442848, -0.06567270184384406, 0.0397673059438718, 0.037982296809898716, 0.009230584873321707, -0.026748220667668396, 0.08525173644317248, 0.03192711525275625, -0.04496881027018334, -0.07171407203471065, -0.07063113584543379, -0.00017031062791562912, -0.026705012409705672, 0.015643888176410173, -0.06196996435192667, 0.015995073552564548, 0.014265428340026226, 0.06269897650524629, -0.01070614628693374, -0.07086018004835445], [0.040525285665032905, 0.09088677143080502, -0.033043381836810354, -0.025830776749422284, 0.03576303012914169, 0.019623912680626635, -0.04265168103311341, 0.06585253954689503, 0.002668956988107909, -0.02576947566778949, 0.03560492520117624, -0.0645845909315158, -0.03159439044734555, 0.06953855795678837, 0.08254696448692486, -0.04750585858452177, 0.05938764377831875, -0.014928066512032389, -0.02025669926218796, -0.08003944536531064, -0.0024269830191272555, -0.006078613288153235, 0.07904760717967042, -0.004816050399164263, 0.032496220341431764, 0.05364100203983842, 0.055415311504439096, -0.017480539352444452, -0.011171647832878372, -0.06942924526719878, 0.061711241350585255, -0.058426754171283866, -0.0835183325542641, -0.028024644518291335, 0.045667974347157296, 0.05786089826632769, -0.022026279639546006, -0.026780935174915872, -0.06773717801028, 0.00763561750331895, 0.009595749156274288, -0.08942799943498332, 0.08163714949582582, 0.019795923706191362, 0.047974538657594046, -0.04488794453363548, 0.07352027260322459, 0.031136180144452973, 0.03150014909274865, 0.059204420838353713, -0.0017346567438246148], [-0.06306537958153077, -0.03201835978613679, 0.07120478107278318, 0.07943760432459945, 0.08909482378579978, -0.011893916211966187, 0.06498199377052177, -0.046511070465844136, 0.044736474628429515, -0.08004280695828857, 0.08977656984621553, -0.06436315799639065, 0.08436554035788835, 0.04594455920628862, 0.07523566929065373, -0.031691347883764764, -0.05380647976941007, 0.06898494061861643, 0.007862360095727055, -0.06509468179162914, 0.03908771687767242, -0.0861420374345878, 0.07309818692560155, 0.08153232441551911, 0.044179567259248806, -0.05555254684676029, 0.01873818800725875, -0.036246485193875806, 0.08566104473744493, -0.07603238985856793, 0.06425210492530696, -0.06749390650313039, -0.008424666355763031, -0.013547922116933746, 0.0772993633983011, -0.08492754790511667, 0.033893986361261196, -0.05539530544036626, -0.02102740625371529, 0.04698133098748575, 0.06889852398857749, 0.009700665221912288, -0.014986938077269028, -0.08816080974242738, -0.09172086335648133, 0.05958387935833431, 0.026819225875715415, -0.04561872236270082, 0.026393958136609844, -0.05318694507571748, -0.0861205824001248], [0.048164687475362934, -0.001328676733405087, 0.05505522708720732, 0.0411825785108836, 0.07525590035599894, -0.04820461258434085, -0.06639612031520184, 0.039608850473676065, 0.03420279638451184, 0.06210482049459379, -0.014621947954725966, 0.06850623375096919, 0.08697513934440569, -0.009667451262466653, 0.08912579392337334, 0.051274331464124884, 0.0834193180670107, 0.021530375654233706, -0.005767480335423001, 0.025772758389407152, -0.07872062424137723, -0.016125217418324764, -0.04111328426131908, 0.035691837748438926, 0.07891118760285326, 0.06166263070556623, -0.06790230341342714, -0.07772796198107254, 0.02706145417677486, -0.02001650046097026, 0.017800430442218587, 0.04169412173930559, 0.009421309047344735, -0.06286894905534506, 0.0003491243996128857, 0.08084444777644756, 0.04327530243408792, 0.057488550438699784, -0.00500830333511321, 0.03547945028477319, 0.06751883641476011, 0.04503819698056696, -0.022117070106523924, 0.03037173625498998, -0.03239012177071487, -0.021117615151335017, 0.01437189658774474, 0.02261989883367678, 0.06980729699669055, -0.000582664782199795, -0.02398205078802257], [0.04267353080882218, -0.06003196613438468, 0.04716997731819943, -0.03472773274362961, 0.0695865399242256, 0.07342678063883472, -0.003506227139058307, 0.06809520676121654, 0.004496119292235631, -0.02363904062512584, -0.02465591794544693, 0.026692493873984327, 0.0904275306405442, 0.0731939115759505, 0.01415883060558025, -0.03773711718125712, 0.041435960406365005, -0.0011297496663639495, 0.020201176302053064, 0.014714288634377709, 0.08286877690689208, -0.00428428793203002, -0.014292131243257025, 0.01747629356843443, -0.03272193210764553, -0.05036202844037835, -0.06680622228292532, -0.034832731317131285, -0.04252798850323898, 0.057066015475911794, 0.018592705449956975, -0.0589450172121021, 0.0873807418244383, 0.008753406462438634, -0.006807534192944914, 0.004366128233349462, 0.060984231046426154, -0.08824327034717527, 0.0780036971494769, -0.019723299273149683, -0.06318252513520319, 0.00977158996554299, -0.01464429169669483, 0.023584204340937234, -0.07134455694822107, -0.025963886075354103, -0.05507425082361762, -0.014987862181828931, -0.053406156110355985, -0.0723699763767457, 0.07046802649922122], [0.04851660482961596, 0.07129230807282061, 0.04953394804427423, 0.07646028382315466, 0.06755202832520207, 0.0713467631826071, 0.039447657738117994, 0.05786509483412854, -0.04259205860587029, -0.07136152920721689, -0.08344986267684348, -0.001146447827076557, -0.0540485690641329, 0.025309894373723253, 0.024567488027439167, -0.038722872731616315, -0.02465011348505977, 0.035499867788676774, 0.009191454860826356, 0.03003764956164104, -0.07233559189664439, -0.02366113843151338, 0.08453217386390488, -0.08474882688449391, 0.04822858894021351, 0.0007744927721803316, 0.047736338072839245, 0.06908147329498641, 0.0004345858652871207, -0.05693633976021913, -0.07522027199603082, -0.07190897486516554, -0.047626107239515325, 0.049592606531338776, -0.0620948687720497, -0.08900099536550671, -0.07136794229006556, 0.02413278305282304, -0.050420058664292035, 0.058794878875970576, 0.032319700252916306, -0.00993592311858997, 0.08498012824454916, 0.040714096775469895, 0.04792149777477178, 0.007813766180414052, 0.014671665078769151, 0.016664211476302752, 0.03660793074981602, 0.03427966160711711, -0.020547478680340903], [0.020696056801797407, -0.07341251139582321, -0.025557226709866102, 0.0696822669187659, -0.026666527651391474, 0.0333905726199192, -0.089373652529592, 0.026951284695334008, 0.08011394423429458, -0.005005253168896294, -0.0831368328448355, 0.03665666219842631, -0.09130659962111409, 0.04165778734521028, 0.02551514989017132, 0.03103596073877948, 0.010074067558535942, -0.008530483949416263, -0.07206433170914686, 0.008079953400093726, -0.07647957190953474, -0.01137937234146123, -0.056312687345324915, 0.010190542746241796, -0.03475817808278456, -0.0791279186727046, -0.08795587398298499, 0.017403437433573282, -0.08338248941021141, -0.07275443045866514, -0.0859455351894808, -0.0781696219861651, -0.0692117698911111, -0.028620122004969877, -0.029844705546737217, 0.009572304954201291, 0.06236931303592817, 0.0028692043616510544, -0.042354475426607724, -0.027986001918665477, -0.028694999347449957, 0.028552614254389534, 0.004430936591050513, 0.08708094281023059, 0.0845651507856562, -0.020806346031963387, 0.04719404122154542, -0.04293358419690786, 0.049190189948764125, -0.0664273289532126, 0.034928488253246605], [-0.05126865182054061, 0.06733412470764387, -0.04739301307446874, 0.04786750057022206, -0.0753506935071545, 0.08020820807027627, 0.05525267853531994, -0.036329036821731386, 0.01150961401811934, 0.09009781424112588, -0.08442654307355757, 0.0436208894275341, -0.012628456039075767, -0.03573524808928422, -0.020419932777052258, 0.009302601288206189, 0.04747407965526991, -0.035350434720169785, -0.055369265618522935, -0.06582420858592666, 0.02340377269291681, 0.03871023051101484, -0.0016826410710707035, 0.05402400677094375, -0.05818050626455787, 0.014811701018990292, -0.0643521925306275, -0.05521930109127588, 0.06209289355998314, -0.08236221532192861, -0.03322949190892999, -0.029627605005372128, 0.07658205116363286, 0.05347462602341034, 0.016701627769107788, -0.04595084290399395, -0.06309961691808792, -0.060598593708745846, 0.04124953252094361, -0.01211835775547887, 0.029929131742050002, 0.02109010636495283, 0.02741939878606678, -0.04537621839152068, -0.06042463374395057, 0.0381350427427533, -0.05683855897101808, -0.06830578817618517, -0.003690534923038405, 0.005249902175684065, 0.025323034862999097], [-0.024420406125973154, 0.009932150191979117, -0.05878182253584373, -0.005815758069759491, 0.08778633915927732, 0.03682373222197501, -0.03601928323264704, -0.05038870423166991, 0.003369080136418301, -0.08082901811414427, 0.049277024649048685, -0.06798910637998097, 0.07174720833276371, 0.07405509784613316, -0.08169653035021815, -0.05799489071015062, 0.0014874079130645149, 0.03317854376233967, -0.06826976420021807, -0.043509328148355744, -0.06365114641509281, 0.015014800312770426, 0.01636817773331589, -0.05576687217184407, 0.008188868138978117, 0.044402223895117506, -0.02573882896838514, 0.011773500794701497, -0.005025712824884082, -0.0911686170285553, 0.05284977262377973, 0.07011176871277688, 0.05947955514583168, 0.09565389508876591, -0.025251962870152987, 0.0707375753294836, -0.0009150110387029993, -0.07829406527657454, 0.01925733151594333, -0.08059107503103548, 0.06839579292357338, -0.08563067120326841, 0.06444899101623393, 0.07829880675187949, 0.08178659865176263, -0.016314062685080833, 0.04945532988073397, -0.008872338500900504, 0.025522436579954885, -0.05340751423200879, 0.04183536406571031], [0.08939646494306466, -0.015378990169877434, -0.056302189693443375, 0.037047353397233966, -0.0005078334973244061, -0.06825603888948083, -0.08497420143401174, 0.007932268538582235, 0.014711524404003105, -0.014496480441945965, -0.0035808744218406526, 0.027554459808733483, 0.016584105595009956, -0.07023513627921547, -0.062481791779141774, 0.013126823103580218, -0.03444521788586475, 0.015174211538339701, -0.019844795628611946, 0.02001961944952954, 0.06088291459098154, 0.08952905204209495, -0.029157692993692273, 0.017589712959560903, 0.012084803206752955, -0.0536722395757991, -0.03673602096090384, 0.048036509601415665, -0.045601884358497026, -0.03693912672136923, 0.020028705585328842, 0.07118736986062901, -0.007873242937439648, -0.023297805793511553, -0.010515538434064782, -0.07507283240930387, 0.05350834220917446, 0.056782835404583835, 0.025315815687351497, -0.06367148404248625, 0.08254902064095558, -0.06670654531508352, -0.07798027322815618, -0.06657877114525054, 0.009362034438305257, -0.07204461797934789, -0.05096730673690708, 0.017400552565146513, -0.028494487287808585, -0.011810653389053925, -0.010498013838961415], [0.008447923275444899, 0.05560963308147783, 0.013012261788270781, -0.06493083203431545, -0.05586516182055272, 0.08108117468702372, -0.05809689963209731, -0.015508622661632634, -0.015722185566041116, 0.04737308167765045, 0.03255121630742992, -0.005970785223156594, -0.08588301552855931, 0.03669519067779086, -0.06670871429168711, 0.04404132021717319, -0.027232707002312517, -0.026656254436957415, 0.08442338332664076, -0.044789986216041626, -0.007895821168631084, 0.03840025871722423, -0.02718937190815467, 0.03190092500805136, -0.0009034297630781473, 0.07931987679811792, -0.029626776680046443, 0.0759754789004623, -0.07491201260504408, 0.056567237698381456, 0.029898751365820857, -0.03978668680949185, -0.038569201517372954, -0.06417764541988291, 0.07031256785036825, 0.04602396407050189, 0.0012778830455214348, -0.008808449676568077, 0.05310934042186922, -0.07483566284657137, 0.014662084703571717, 0.020010133510692227, -0.0054587095768467465, -0.028492723966376813, -0.020384437638771954, -0.0909850012852861, -0.060053551318150544, -0.07030471001588577, -0.056643858929863504, 0.03155778941363016, -0.06413727558593012], [0.024679577834598423, 0.027124372496749115, 0.00736453307409634, -0.029312929339032148, -0.014679063223290012, -0.09341773465329103, -0.013853814050581507, 0.07459936841292424, 0.08263723485684853, -0.0237836731573708, -0.08429803019692123, 0.07014952242583342, 0.0207942971726463, -0.05109463509059076, 0.05281135900834483, 0.06190657254631162, 0.06575309409921094, 0.07980144884994017, -0.006724823089091043, 0.05250026141686965, -0.009529958299391536, 0.05297050240271227, 0.01336644299133112, -0.009435331188987718, 0.07766833390497976, 0.009689565959586673, -0.07329277227406085, 0.011448615379207695, -0.060235424591002014, -0.08923918335995797, -0.03165955947303076, -0.07819743248831976, -0.009717373844966296, -0.04973605579019616, 0.05771084564161555, 0.06795777822810448, -0.06814508569461661, -0.08189383667885954, 0.019606835403138453, -0.07913844297309554, 0.07828467974258412, -0.08222074933426622, -0.023977818736157286, -0.02308874799397474, -0.043522168090090414, 0.03994500337364371, 0.07357937260487853, 0.06204304653680505, 0.03598796097633755, -0.04012696005551639, 0.013413188273794934], [-0.0788815872905556, -0.057466453351247226, -0.021750947936358827, 0.02863838709770186, -0.07689324390870485, -0.07004990330357927, -0.015929707276207405, -0.04656780204416429, 0.03590988181537298, -0.010385324664994122, -0.07797216252006738, -0.028439336314030738, -0.06161096068820129, 0.009497690490173929, -0.06230592136500493, 0.005353261464124578, 0.02051621309034059, 0.055542567601660375, 0.0316153185983895, 0.07252746173112361, 0.0048571312874679876, -0.05299538843783235, 0.036177185708938416, 0.0440909155575867, -0.02152309772771562, -0.10387649523923752, -0.06298276288417097, -0.05380710988235925, -0.010758222162380768, -0.030373644617897988, 0.04485616736088417, 0.06647552189146301, 0.08260941321570814, -0.08937122468001224, -0.08842847750224077, 0.018160202430650692, -0.03891338941389496, 0.043495233490761356, 0.019206777493372098, -0.0745168901105073, 0.07818897817716917, 0.09160721241092669, -0.00851365186824576, 0.04007675788981089, 0.07798584884242696, -0.030963664215287262, -0.07880048027222228, -0.00015953298617690215, -0.017590538396418727, 0.07830755152974825, 0.05758628425219141], [-0.044124325249249745, 0.05842594082934656, 0.028242463957853667, 0.08320476371175194, 0.0036046333826044302, 0.030185362874540017, 0.09007170483049161, -0.04563639756778279, -0.057915303485196225, -0.0396860262665518, -0.04218816986605834, -0.07694057296859669, -0.0031115034425313742, -0.015392856583476444, 0.06742230047208762, -0.040289072152596195, 0.014243783087785025, 0.03048048277776233, 0.024317081561038942, 0.03194201717904928, -0.06383245493249434, 0.02753023349893237, -0.010239331071253549, -0.06110425166812153, -0.01448605618217802, -0.06034497643125487, -0.07575983212071105, 0.011784635986187952, -0.08074279376929923, 0.022182855854090508, 0.029913609974672267, -0.0016590616302463723, 0.015164539816734879, -0.06093548364104347, 0.04885902464254292, -0.08843491352448009, -0.06938769382122167, 0.0065036063681016, -0.011000385564041926, 0.004286117395589761, -0.04895399276362657, -0.08965169573903202, -0.04228050369178588, -0.052022040764851445, 0.0685253673734549, 0.054703665885477384, -0.03995824340652246, -0.06220315330115714, 0.07844613808860205, -0.06878459927010006, -0.040092172752451846], [-0.05798122871772261, -0.038450048198456405, 0.032292604723702274, -0.05817733549164181, -0.031158683123403773, -0.013493354641256583, 0.009088861057089174, 0.002632779115015395, 0.08005767975705028, -0.08659647939136021, 0.05237341830182778, 0.02193825326363586, -0.007850178246047517, -0.005290464693577099, 0.042018138124854755, 0.011853664186860907, 0.03472814422629203, -0.038629625158804415, -0.028241180358038968, -0.016389552429997158, 0.04755848230037613, -0.017428006541571183, -0.0447332836747365, 0.02654366079207137, 0.08782276568888804, -0.074515301528538, -0.09098798558183466, 0.05017310839530535, 0.01503769858552964, -0.041937833495343, -0.07824884088651306, -0.02820426797068202, -0.09030063007813818, -0.06545461767125814, -0.018974085984177727, -0.020505050633378003, 0.012443839394700094, 0.05365677701596552, 0.0571363642679065, -0.020223634099912482, 0.06888664166692957, -0.08965315502329037, -0.05993598318714985, -0.09267020525429248, -0.02406808143145651, -0.012744084464224653, -0.026823276011167158, -0.042198718553983716, -0.05647352222950828, 0.04625853126416357, -0.04527145061861718], [-0.0414318717366079, -0.02623407643375229, 0.021265416726713213, -0.03385784803758791, 0.04597075617100792, 0.03382083053274578, -0.05446406527425387, 0.06501401777695232, 0.06266585287141906, 0.003216331688538702, 0.04372561389924417, -0.02642216843032426, 0.05971405793128377, 0.08133344618393704, 0.002816742417964953, 0.0013263030847074555, 0.00386971232427528, 0.01090578152555951, 0.038532151677069235, -0.0465583083636424, -0.08168054800305481, -0.06624348028711947, 0.0036349399185331317, 0.09552624473889777, 0.06771983960689408, -0.038613831358291044, -0.0014772440970942772, -0.05873327216108461, 0.07677880486524774, -0.023148127961489014, 0.02540049491991759, -0.05216247724350849, 0.08377688006805707, -0.1041156575283683, 0.033538352854229715, 0.035445651230000416, -0.03277692655311485, -0.08049337763669032, 0.02632908934369392, 0.08484455183401766, 0.030252845290568375, -0.03286908756488942, 0.037008480311958074, 0.09316715924394758, 0.09038289326755294, 0.07010709443517205, 0.022330935344660845, -0.03618845501336135, -0.0658155427131476, 0.02715939545448188, -0.06313461278180484], [0.06391785146992325, 0.07571351966439954, 0.06479018628270146, -0.04974035177496113, -0.0826232912356983, -0.040788522885132905, -0.04535312487409306, 0.04880305715210347, 0.037396252104603116, -0.06478496315972222, 0.022596094739204212, -0.005475725443220793, 0.0325926862774711, 0.027188489197204128, -0.0863191624391857, -0.017766994381693976, 0.05052685036681096, 0.018694674224057337, -0.023690914128901466, 0.06850648164302801, 0.016727799947704874, -0.020474385203535613, -0.04109957307411064, -0.0055452848548046005, -0.04237091736077377, 0.05361480688466358, 0.027680847698283315, -0.05911584074936435, 0.023523413331557018, -0.010434145240105441, -0.029003047018204022, -0.03281785091545221, -0.04078224654642625, -0.03896146671241077, 0.07900386187463865, -0.01946859100732172, 0.0745540556818889, 0.06869188984692376, 0.058871975599569276, 0.0929998266198687, -0.015758536140036073, -0.05535161320730188, 0.07045487474508258, -0.08420097689022114, 0.06471021259799753, -0.028550878553269248, 0.030667645315093774, -0.06256913604956249, -0.03607836531013471, 0.05408273574815731, 0.0691303650675826], [0.05762617055772702, 0.03367127164174995, -0.06950952434796953, 0.04400916107476226, 0.08466132898625976, -0.020692901442959016, 0.020845280345256956, -0.07802014603572871, 0.008920043244519019, -0.027344804066950973, 0.03454729214785161, 0.026137788860023173, 0.008805040055753235, -0.034347307668077254, -0.008924776455562763, -0.005513956586459104, -0.00010335889953941302, 0.008650659335316377, 0.04535863122216531, 0.06465893376291061, -0.02994629984851014, 0.010284034645145212, -0.08294205211792004, -0.07366185355723899, -0.008036807019467601, -0.004765403806323967, -0.08364515753118186, -0.014833796493066445, -0.0746690597754141, 