{"layers": [{"type": "Linear", "W": [[-0.04422492789769147, 0.09499442336636457, -0.06697144417767126, 0.04193961048075074, -0.06537152257006865, -0.04481586307002894, 0.10200452630726937, -0.04388223290332129, 0.0275542259902748, -0.011532073549975165, -0.001326045192409576, -0.001913707826900079, -0.04134172900693351, 0.06746926723220593, -0.0736246733761177, -0.05754726539421344, -0.08845876125430353, -0.04207561983972406, -0.00802465731410355, 0.07418843208342994, -0.021376492671581086, -0.054657276231245236, -0.0645989533895271, 0.09301157331574965, -0.03941254233547621, 0.008645646313038534, -0.020757211218303314, 0.05331710185442491, -0.05143713008691978, 0.03663084026097227, 0.06687832460130244, 0.02362141801709358, 0.07586098414076008, 0.002421606073210917, -0.07316220967661413, -0.07644623800991429, 0.07113477654309423, -0.007560876730257421, -0.05243528065089303, 0.09352348958546572, 0.0072910079517763005, 0.04689807026355301, 0.05977256223791463, -0.030239477187334076, -0.020959011849068628, 0.03548768790963839, -0.06407184992848815, 0.0529394738735704, -0.126558560989886, 0.02110131591038105, 0.04098536177878433], [0.09368267780098215, 0.0671912636310275, 0.01222721850448277, -0.043416604373121157, -0.059068582647827286, 0.01611978173338132, 0.015054314448446264, -0.07538524679737596, 0.08513272269266368, 0.00714114280380912, 0.03945568176251529, -0.04459512623689691, -0.034990646761773124, -0.09023584815480436, -0.017528601259204222, -0.03913691646035459, -0.012796420550103296, -0.013284518494710913, 0.05765736553532382, 0.07044383116155323, -0.04967009626630954, 0.014539142734538118, -0.06703636419434073, 0.03825442307603284, 0.08252383937559442, -0.05882727026514553, 0.05957828697208012, -0.009685688695415601, -0.0959983720069192, 0.05629561849943751, -0.010960380379639152, -0.045495740721222956, 0.0001909220746122443, -0.0631531158765989, -0.02168198927184773, -0.00023702853316210726, -0.028068138294221813, 0.011780757710272077, -0.029547539671619567, -0.065611866658762, -0.08716805885803104, -0.06023218140298697, -0.005318805198023198, -0.01887094602286296, 0.06880273624280626, 0.014806667718171712, 0.026233110312038677, 0.09899364158315652, -0.10317264280087411, -0.09017247979140727, -0.054068064334018104], [-0.03120243063349585, 0.00921068399281479, 0.037572165715770905, -0.03970765808487985, 0.08039032369376004, -0.09727223599704064, 0.046839105534070044, -0.05427482413466424, 0.06149691453371826, -0.0941403919694625, 0.08101479868017049, 0.04268014663283594, 0.07221821644041439, 0.018454431462533644, -0.06567408811552086, 0.08887651454252303, -0.012481080258458758, -0.08323216335270239, 0.016446007038176547, 0.0012639088118128426, -0.01108741898478782, -0.02629503699727352, -0.0455600127409473, 0.008629047704429044, -0.0037505539668530197, -0.05677813906379395, -0.016334675572834485, 0.06295291839113283, 0.08090343852427204, -0.009838884139219212, -0.025761648773276486, -0.02357704835229846, -0.057108575240721667, -0.04072167093514624, -0.008108929767671125, -0.07777820425205721, 0.05330365086289661, 0.03598160606299747, 0.014879211039536216, -0.10560713531977967, -0.01011677046272383, -0.020754787553424598, -0.07215585892504338, 0.07527019334243727, 0.03833569947872259, -0.021150110439394583, 0.053981400297402456, -0.06315996999360636, -0.03045895103493159, 0.012913770936244396, 0.03586512310863877], [0.016695204895462588, -0.09717436888999335, 0.020416142961776768, 0.06612416406533317, 0.038533248015625715, 0.07873357236127253, 0.07714526886658712, -0.0573977576756675, -0.037117027600339, 0.009013205166637884, 0.08534501772351859, -0.018885527095281737, 0.07352474491701186, 0.05945141750260003, 0.0032503436846336568, 0.025938257754171346, 0.0856935325936429, 0.054246991497123496, -0.040412988744350606, 0.061280145451716124, -0.054827667137865986, -0.020191681323971103, 0.09674491402091391, 0.0638171570056726, -0.05863697346630586, -0.029187445971775024, 0.02127075680242517, 0.0454444626184845, 0.04738695214992662, 0.08037264903478644, -0.004070907483869423, 0.06135661803317939, 0.017986900378341063, -0.01975704037908859, -0.014199913649240139, -0.0019655877372393143, 0.010067307308944737, 0.060588977964311834, -0.04276680735244151, -0.0773925166256871, 0.042187784565781025, -0.04254009561460882, -0.010806139104429794, -0.07646364873343621, 0.059093499565873744, -0.02530695055839505, -0.03928589409124984, 0.05503970874870232, 0.020070118664604442, -0.04083029047052912, 0.07098327375230548], [-0.00970514476963954, -0.019326222520858968, 0.08204134576003819, 0.05923681496074001, 0.051409068518075494, -0.04916628725633141, 0.06555350705784595, 0.023108095673537173, 0.05757724227881682, -0.026608980550613198, 0.053225884928092396, 0.04988404954726595, -0.011885399799414364, 0.03061440148877726, 0.04938803809639725, 0.08556403300388155, 0.07859555472116687, 0.047785500542673644, -0.06178367337000018, 0.01857359748711042, 0.030590247700713096, -0.06885848342149237, -0.0009395419518220432, 0.06392007220090477, 0.09413064697603073, 0.06597520343761953, -0.07724952513769846, 0.022308396069466652, 0.09087573521795636, 0.025564257660705154, -0.009499685692790562, -0.04758049685926134, 0.07603575250777637, 0.04851816527439097, 0.028684436538071862, -0.02825277901748622, 0.04418962182290221, 0.05619278516343059, 0.03757110809276365, 0.008633359615442966, -0.04121772569838666, -0.04083523775956658, -0.04387137988743719, -0.026258976042367356, 0.002171552017350855, -0.0772180058110382, 0.030957037130155764, -0.02971149667567513, -0.09832930616882016, -0.04834263174269113, -0.02092984647831383], [-0.022548639864923725, 0.061392950834167556, -0.06666238116894593, -0.06047991874512144, -0.030358740505239984, -0.05278118754997744, 0.03638163909432457, -0.06291595414193578, -0.07567476845722648, 0.0034426006540358403, 0.04475228797883962, 0.06625344979390868, 0.0067055877160734165, -0.02653088321843153, 0.07618392262571844, 0.045360920377076897, -0.003346081346544664, 0.018987730045600743, 0.07770774116919561, 0.09053893129893958, 0.0853059145076339, -0.055594256934535506, -0.026496059114598253, -0.00941157202944672, -0.06468756148476439, 0.05245796958168839, -0.07502217424671599, 0.06975773521926978, 0.015767557754232036, 0.028592529555854573, -0.02583248301328943, 0.09423608992849439, 0.02177529837628954, 0.07732704436864814, 0.07539884762744395, 0.04124867850766383, 0.09409733145948541, -0.002537185169917365, -0.017841509936250305, 0.07367250019450194, 0.0015998865484022555, -0.02933060123792697, 0.032688224938481884, -0.003929665734642772, -0.062205783253373996, 0.05099862464489156, -0.0030102995493896485, 0.09306854337146135, -0.006373631674123575, 0.049021079795835636, -0.03234051091843759], [-0.07889919607244995, -0.026759212124800976, 0.04426682048782796, 0.031958775794574464, -0.003913702897043539, -0.07221290561822032, -0.05487976094899021, -0.11114022915727925, -0.02773520368500508, 0.07536625409185277, -0.04350209539114141, 0.034806139090991894, -0.01968907029367116, -0.07222562642572196, 0.03177812852628128, -0.06736680687760382, -0.0621094930495829, 0.009318755514671283, -0.07779730148545452, 0.08941047794451833, -0.017144666501521886, 0.021337659235952357, 0.09947992162245974, -0.07648852038106908, 0.08831777740020236, -0.07279787208340216, 0.0160120889783058, 0.027262860876683514, 0.1086121825975425, -0.027239724491636644, 0.022113567334799966, -0.001978636618324673, -0.009582571146640661, -0.005803212718503851, -0.039007762523646614, -0.027629968376656558, 0.009082988950326183, -0.021513365319675553, 0.05383987722065789, -0.03880664530679248, 0.06155191053420647, -0.09115841725446053, -0.06749658182434869, 0.009706783535775067, 0.06522687649851829, -0.04730063535617157, -0.05330941875159028, -0.054369468062587245, 0.033299178948469496, -0.009417026295244386, 0.005163316138204732], [-0.05824532516558719, 0.026195366490330493, 0.053694578139178814, 0.03086172964320519, 0.042129689058150066, 0.016367318569284146, -0.06488446243308646, 0.06141834560621258, -0.03722768112828426, 0.05237513889228365, -0.014704284380650398, 0.025198351613020573, -0.012496683884376152, 0.026153151613719255, -0.02925771150927148, 0.010945451857435895, 0.04037485948719357, -0.023819638778708147, 0.02179931809612991, -0.005040783130064716, -0.005154774861125355, -0.04572764341220232, 0.0013220853726261888, 0.04108982388497968, -0.055611464172760645, -0.051936788216740803, 0.059537440132643706, -0.11061343614238256, 0.04178795755405055, 0.04884063379278804, -0.059855884807252874, 0.03404420157559078, -0.04376898057147238, 0.07801082934547818, -0.054828127129392244, -0.07007331521901429, -0.07264734617948894, 0.04110720861391189, -0.05161646661098455, -0.0259884197101228, 0.08729127722894552, 0.04400174407658991, 0.05044859784707999, 0.013887475422018437, 0.026538085660679694, -0.06598184313802148, 0.05172438974649366, -0.029990755592119073, 0.07792648111178341, -0.02024336715710919, 0.07704471163882289], [-0.09313394568208458, 0.08648475483888966, -0.0782630238445787, -0.000913452085525348, -0.006107380063177317, 0.08579475270272463, 0.033116721011109254, 0.08859750000068414, 0.0701895306210804, -0.011905524075046364, -0.06608480186729211, -0.06718235966165102, 0.023331879157215317, 0.08732553576282445, 0.028363329212387482, -0.02473464091724245, 0.020921698547116025, 0.02510808153615433, -0.048638815146373075, 0.032399225312829946, -0.05775550296494938, -0.06281287931628142, -0.02724062030950463, -0.005804765203087401, 0.027943180347833274, -0.041883991278076696, -0.022294345370808218, 0.048316485712826054, 0.01049384193899895, 0.0026923620435411544, -0.017459963474073366, -0.019683121158203705, -0.0581583588959739, 0.052916495364120165, 0.03944325345621576, -0.06013804467921096, 0.07049645829525086, 0.025141444682440166, 0.06455829958251645, 0.031076045719266306, 0.018080117476511722, 0.0337201708273807, -0.02713327034480022, 0.015410574978406224, -0.08188441702805056, -0.09249867605221758, 0.02162356147813393, 0.06488230212454768, 0.04116625212536942, 0.06658508077363573, 0.06086428011652395], [0.06509011742142623, 0.02527261996041804, 0.019762244510143478, -0.026864279944394956, -0.04840165335052045, 0.05272014213081932, -0.000295583295655881, -0.0575612028013378, -0.04942023591158013, -0.06373962647336204, 0.04014348759013544, 0.017582848806631714, -0.0665264111221094, 0.039582197638492515, 0.008873262468215643, -0.04629091162748976, -0.010454572103982271, 0.08877399044795303, -0.06217107465932256, -0.04792050770656083, 0.015284370033555027, 0.06066134909590088, 0.07949578353938004, -0.01765373329719759, 0.053670756631748515, -0.05919925181795745, -0.02236289169122312, 0.054633753012036296, 0.044910958474479054, -0.00857409399076295, 0.009920007073674873, 0.02243109442158558, 0.006545659462107558, 0.07689627242095214, 0.07785267598663062, -0.056330512901140405, 0.05125469420110267, 0.07026655467906182, 0.01869162539697193, -0.002643337574380855, -0.02315188810267606, -0.004508393382049481, 0.021518740582876103, 0.012912013282691235, -0.07211541345523884, 0.08497940926169875, -0.03907375737977791, 0.007182736265148076, -0.03996024183488719, 0.02564349058999341, -0.07934989216185365], [-0.05106306865967075, -0.021668253619598052, -0.037970415016047566, -0.019943021163307855, -0.06331282572866605, -0.006241814225354554, 0.0348281856359979, 0.022541662118461425, 0.08200247341706772, 0.07178568481705083, -0.005466642836562028, -0.009235712339400183, 0.036347307323687204, 0.06825099613558974, 0.0013490008382137089, 0.027737697021449778, 0.03541525509210999, -0.0022795495896561265, 0.004400285713599631, -0.018611175992620597, -0.015143752770881416, -0.0352081482069997, 0.04591338718970343, -0.06670444734830322, -0.06823072767943353, 0.06365606226445618, -0.0054607090277691535, 0.010369454554724447, 0.05891798432189052, 0.0393794712392323, -0.013213024973238242, 0.049828008572902684, 0.017328795765262466, -0.012192545375474283, -0.05022438886671787, -0.06774876469779673, 0.05462762261358521, 0.07767589332985314, -0.030616541624414344, 0.005452097041579152, 0.03858244540841624, 0.014594558911671029, -0.0451833366451414, 0.07884042453953413, 0.005817588872744355, 0.060949258381983784, 0.0329148671240658, -0.01569845526716039, 0.034917321820681205, -0.05298995187094028, 0.005073063350207903], [0.022860316282396518, 0.025321449838848202, -0.03649844749085485, -0.06401772302242689, -0.07122802799857793, -0.06760285382624377, -0.06217537946675997, -0.0004430715417203437, 0.014262395539925175, 0.032620325052920035, -0.010195013086019323, 0.05027816900929258, -0.08787582420353397, -0.025758214570751056, -0.06891760020162889, 0.003959272500571226, 0.012170922384671835, 0.01696414096756574, -0.011279706287938214, -0.023042085386865818, -0.029443647802352053, -0.07232611790997986, -0.06309792118986947, -0.0015506565652223662, 0.005853626642070422, -0.06910902347105738, 0.06343779690105873, -0.0804248445334431, -0.08291332212376132, -0.009565873490957458, -0.02377076224049036, -0.0023225087755051462, 0.036162011001937555, 0.014583395483949728, 0.05266743795827099, -0.003832635008061538, 0.036653216313880944, -0.013218690123367365, -0.06702669051359451, -0.08043629315760997, -0.055612852619355724, -0.007832558072464376, -0.03099634894645532, 0.014157804477030356, 0.032680863182821984, 0.0855642542170839, -0.05343510863821832, 0.08474997067315189, -0.07171265825978053, 0.07181351840867402, 0.08989617689382388], [-0.03597820650867564, 0.05125171199953038, 0.007595687548768841, 0.0007757737828448444, 0.06257442319990704, 0.0876454127205039, -0.048709424746013245, -0.05439843442782984, 0.08312399057611027, 0.014163220670725752, 0.07281713404830241, -0.0424628190705566, 0.05524499032725518, -0.06426976205408354, -0.05771873687663499, -0.03284738889291512, 0.0804812892566987, -0.012922437156360152, -0.016834937626599693, -0.04083607003584286, -0.0712652008672619, -0.0004938615332265337, 0.007215131357070702, -0.025451633598921705, 0.019614708218895476, -0.03440177750548652, 0.09341311303498046, 0.06906397874493297, 0.0294738100536241, -0.06760633950126105, -0.021393313083538226, 0.02304369960064942, 0.033066986612586835, -0.0035917494715153883, 0.03919199923639242, 0.09688155333591023, 0.04527410406498635, -0.08601054271707906, 0.029508424332048238, 0.03231335916752633, 0.008283705050998806, 0.08625076205926875, -0.075186867549014, -0.09037163808995295, 0.046329524633243815, -0.056328144545736016, -0.07084717074970498, 0.06392713723556957, -0.007782082568533763, 0.06509634642384522, 0.061412100658196404], [0.029481536612754263, -0.027358380169721135, -0.062014057076744504, 0.08698928228657951, 0.067053350179661, 0.09117289940670006, 0.0008857390592867982, -0.04135977567075474, 0.03804171257570765, -0.016163852496379468, -0.05774301328829404, -0.05699599849188622, -0.01826663362664895, -0.06670483401345595, -0.027558228074479107, 0.09745673017633487, 0.08227986358641505, 0.08636741623033317, -0.007820247321569676, 0.045234563381262034, -0.04712536294073279, 0.045896357664552745, 0.10015226449861353, 0.0671906798464823, 0.06191870557651284, 0.025908187649203194, -0.018610052593024718, -0.06536650353833816, -0.008483611533437817, 0.0740272409369579, -0.02319582443348063, 0.05946002307050663, 0.06977058097794327, -0.033934035390592754, -0.07769867054124964, 0.08389884096758497, 0.01886836716902117, -0.09913011585993071, 0.0484868117439261, 0.04163345746280879, 0.033018077108807053, -0.05532332888632548, -0.03802975937227259, 0.02590515294944164, 0.04291219927899014, -0.017395998673684285, 0.06583162911972196, -0.021983742528824898, 0.08733924662123137, -0.07921887014083002, 0.006467094821951462], [0.07862100896109178, 0.0336741641634983, 0.03779599150933415, 0.056419807873520286, 0.02142791040744799, 5.7379801103373566e-05, 0.0462778746172468, 0.005895613789494007, 0.07542017111756301, 0.03586178243457367, -0.09132179509574741, -0.0418967495062777, 0.060930197118704094, -0.0654262050551466, -0.0963323508862438, 0.013650807867818181, 0.036602820643641995, 0.08231449130330737, 0.08600543949149317, 0.022034573186786057, 0.030325719433357375, -0.007202989889520663, 0.0807755293468243, 0.027217679641228353, -0.0650344851005515, 0.02346989649086129, -0.08759581782974403, -0.011801946526797625, 0.004983486388343492, 0.06956331846354652, -0.06118913358160877, -0.00632924463487017, 0.0011183838073965063, -0.05152406658183234, -0.015450749188848494, -0.04372701593801251, 0.04810340496871633, 0.04665494674268536, 0.008156861153250724, 0.05455369899534244, 0.008898632155951637, 0.03627908396080291, -0.04458118968800605, -0.026189828642724573, -0.04349848328786194, 0.04966506613350599, 0.012556202140077282, -0.03176792095288174, 0.08717027447289812, 0.08729177603733268, 0.05056911948066853], [0.0511173135980682, 0.03180284483064305, 0.04538396791660189, 0.0054110601850575575, -0.021490621243466, -0.04396952929971719, -0.050340805209811795, -0.027653085271233023, -0.010035438309583422, 0.061320235249685384, -0.051747101912953036, -0.03315515560971807, -0.058013192006591226, -0.0001318951872845455, -0.08818668838877314, 0.02299512040079579, 0.06283246757236663, 0.06595701673982948, -0.026376792442140442, -0.057853669312318556, 0.03265514684563936, 0.0499708603395456, -0.0436989406815572, -0.0888617872726498, 0.04189668396228906, -0.0072661071095509, -0.005774256909167813, 0.007939987555420356, 0.0870943615148094, -0.07386628824912232, -0.05111403624808126, -0.08560018449367265, 0.0264042733263043, -0.050903162014098856, 0.06837322803644083, 0.011109575385932111, 0.023147799744330233, -0.03776982116997498, 0.0600818102869066, -0.061119410883382, 0.026953796629266353, 0.04949687995483042, 0.04012767429941255, -0.08348517815682416, -0.08141532079573148, -0.048788324123621565, 0.05821222840041924, -0.07695844977591171, 0.09125521387769471, 0.05761893225649333, 0.0021965683826208585], [0.054221545916102495, 0.017653974909858795, -0.06776069748249654, -0.03207000229774297, -0.094768816501505, -0.016847639691527264, 0.07368185491956787, -0.023204590879957084, 0.02423535037444077, -0.03729348033169585, 0.024956763267546922, -0.034475866586532296, 0.06179643152328095, -0.018594867236112915, -0.049109269422117525, -0.014466426648375797, -0.07989541389634451, -0.03645433142520328, 0.045312030210535745, -0.015379183218114148, -0.01538908457507196, -0.025239677529677138, 0.06426858307492782, 0.06613523665912242, -0.02114421415007502, -0.08468023051813253, -0.018483508597062662, 0.06296738362726331, 0.04311775475253589, -0.05392989240079078, -0.08638628227442648, 0.07558520168231318, -0.0829045773936081, 0.03584300018986812, 0.019613156959004428, -0.06394327844064976, 0.003163032365105238, 0.06696028049587703, 0.08540109673992453, -0.07899968561803752, -0.08003107819132223, -0.049863602149542385, -0.08051103119134856, 0.07093367055204895, -0.08289362088591234, 0.004330654282976017, 0.07106492891014748, -0.012262596736674182, -0.02333879896434768, -0.06882631209167121, -0.055496115752898124], [-0.030554570736037106, 0.06763402151529282, -0.009960604780964059, 0.012951400924620264, -0.03882740306919365, -0.015452539172947477, 0.08602129335273989, -0.06668282022426505, 0.03879673214980189, -0.03966639833193999, -0.013148178184442307, 0.0398185086402278, -0.01805208117903244, -0.0011345104585917447, -1.3815960690211978e-05, -0.0035520724748059787, -0.07915832030605893, -0.017784536702124515, -0.021232482848518187, -0.01356440340060389, -0.036693669541028213, -0.03732230695039958, 0.016537733270286487, -0.07526053213971742, -0.07691147570139051, -0.008375001963960085, 0.015370258344248822, 0.0626425936327689, -0.1228592955384846, -0.08824895056099248, 0.033409906897663405, -0.060667211514745446, 0.002371027751087457, -0.04442735014925832, -0.07920254127659919, 0.013712582747043602, -0.03543653498917413, -0.003664325386561227, 0.06980968643966702, -0.00883595345768445, 0.05542585596819317, -0.03538400656949717, -0.04127277084276836, -0.016306292043725575, -0.03400193220969078, 0.04479766664514164, -0.07104693009783136, 0.043717929327397674, -0.028601593081856336, -0.009701498369257702, -0.0492024408297191], [-0.05916601762322823, -0.07310505142592251, 0.08764644413642007, -0.07178785585437547, 0.06914571947376441, -0.00866173159227032, 0.0713046994715677, -0.06290435579409145, 0.013932933354864714, 0.02988241037124585, -0.045441413483233814, 0.019262593263866624, 0.06472310696505411, -0.015287647969166113, -0.08810782195158239, 0.02699548155969577, 0.049672339341600244, -0.01171532376410724, 0.05527101666326655, -0.02469097036140748, -0.008964744355055305, 0.026140851247746538, -0.03595197712438149, -0.07956226790984099, 0.0480829046258543, 0.0735079360677752, -0.05719716864928633, 0.12291387365366531, 0.03330592971208951, -0.011193400745106531, -0.0605058933593356, -0.10111189598702414, 0.012245625306365023, 0.08276619885188743, 0.027611268268690686, -0.06815156631507764, 0.032845007087566686, -0.072327161864368, -0.005707433092830335, 0.004537171172319399, -0.005885555048321665, -0.03622091126479109, -0.04134625070827856, -0.06153337067975425, -0.09135303407526207, -0.01513693019464059, -0.004988463540660659, -0.0588002049901959, -0.01765137266664354, -0.07219331947493292, -0.00728851417683271], [0.013950381775576755, 0.01627436117046992, -0.0048601252019438495, 0.0845254632006994, -0.07047347380354899, -0.04976440239377826, 0.006120283868361176, -0.018759364347002677, -0.030666763694657644, 0.03579522892194424, -0.0019135859136873476, 0.019316623214700953, 0.02489519491373285, -0.012099706993057985, 0.007482476381499909, 0.0987920400804194, -0.06264346477390953, 3.08814862030959e-05, 0.011105381591349451, 0.048949240572850446, -0.06839390109783341, -0.057125148005899525, -0.01244800731539606, 0.03761191012773035, -0.08617336186167643, -0.07516451420649357, -0.00744305705970191, -0.0357246881747945, 0.07881464755389449, 0.09040069533480954, 0.015095065454887254, 0.03148013974251583, -0.011277119804587303, -0.06139320816526465, -0.010297400973540129, 0.008966836110128742, -0.017935293927465956, -0.016394178373148813, 0.08607802856770347, -0.027076268126485885, -0.03460294086640808, -0.0068792165624227955, 0.08440693089560321, -0.10223876858526716, -0.003745292334845026, 0.0780484503324576, 0.01442992229839294, -0.029057545406423156, 0.00842134876310557, 0.0219833164192644, -0.06394770789330954], [0.0622379167934602, 0.03502067377771802, 0.07325702136515122, -0.08033093880469964, -0.08884761153879145, -0.03512546063747705, -0.022913773454122082, 0.004152243295519391, 0.020543152067887156, -0.09306623883198803, 0.07971715388095635, -0.06423709479782173, -0.06443636438020713, -0.06963573869842857, -0.02618573291861805, -0.06520942990598945, 0.038859384877271384, -0.027996500203121718, -0.06535847625165911, -0.02394655281703427, 0.057497769834836884, 0.006475594167730308, -0.09788220851225522, 0.017339460621200953, -0.010114539280067043, 0.0006734118930780183, 0.04068209886885602, -0.08534875371946034, -0.005667810580065159, 0.049218869186794925, 0.06646659012185217, -0.02797773211612446, -0.054601309025202126, 0.03851228834513215, 0.09044517988754708, 0.08468193745282802, 0.024294742018600442, -0.03177478611261082, 0.07563010695163075, -0.05532917455765265, 0.02427158516486646, 0.06483850006685545, 0.02195872712816371, 0.04567042906611054, -0.012518316221875821, 0.048226413251422684, -0.0396918619547717, 0.031346181185512814, -0.04918365338717474, -0.057716930699144506, -0.0718759136847476], [-0.01897703707883269, -0.0955998520843805, 0.032099545605296084, 0.08713798476180164, 0.05723272635637755, -0.08853827083802475, 0.008888704280539263, -0.07079511566790371, 0.00852418127281124, -0.07949377119054955, 0.08179492907725928, -0.013069051236304358, -0.05732618774422792, -0.015019196515820727, -0.03888511408371908, -0.0022613136874120904, -0.018013502873645025, 0.07856903043602655, -0.0346164400923734, -0.07749602481137925, 0.0053660077791322465, -0.02730355138593537, -0.008140899021751049, 0.07939414246149852, 0.0672799716315592, -0.004496146005600335, -0.06975628969334416, 0.07070323195169667, 0.08035298434731891, 0.07460918925539907, -0.021287084437472643, -0.03759162098095835, -0.0003639176026413458, 0.006753109095972912, 0.048790505994236864, -0.07044037981147239, 0.07885976697669425, 0.008036944775056419, -0.04329463428014989, -0.009611605969695245, -0.06852857252912527, 0.05358924760562198, -0.02112507410955636, -0.06668468745456713, -0.08855033961390542, -0.03334598915131736, 0.06127464454691304, -0.052554391625405074, 0.0667105138330848, 0.03091395482784512, -0.0031149315150379893], [0.08686557694135423, -0.024646001575905154, 0.04277715384292441, -0.018818802582304266, -0.026013038867169137, 0.009831288867050439, 0.08545403216159861, -0.07393166179572468, -0.013007325896369432, -0.07550687669220012, -0.015244778944675122, -0.07658178595962793, 0.05953928112774541, 0.02818493668361726, 0.08899114906598683, 0.04416055233696248, -0.02753815728461738, 0.026225107589116215, -0.0635742225771177, -0.0125149862656453, -0.0680575481888567, 0.0683240598783936, 0.028625159998377482, -0.03982147038899026, -0.00847981635048867, -0.024147146253170233, 0.0727229602763312, -0.0004024655415512006, 0.0327545276092015, 0.02801520862105798, -0.08579251787827454, 0.008372140206692457, 0.06888770384890204, -0.01743557545900869, -0.08271472037560695, -0.030789824192675144, -0.08373438023556774, 0.022188917946562504, 0.00016497245002894338, -0.05768986100152554, 0.06319287353632583, -0.040918105573723475, -0.013583255880307994, -0.05887624481193513, 0.010084186258962322, 0.030786783046572765, 0.029236942734759557, -0.08333313139390056, -0.06547113264546621, -0.0723459566036092, -0.02949791691676254], [0.08191053099891037, 0.07273894616016185, 0.04010539599974557, 0.03629771444500288, -0.07773767945466196, -0.04281289549306121, 0.02926817771918623, 0.04929396991788488, -0.025397315543558133, 0.006560896045352908, -0.02775910859424724, 0.0008872635079199815, 0.010119985467325232, -0.025138126282302276, 0.07436511819035403, 0.017297146728113767, 0.031814210982430605, 0.06206850227413949, 0.0465649686007112, -0.04617626993674979, 0.04257946246048772, 0.02150682538141371, 0.00036811888866725883, 0.031147809050248797, 0.06476702811163153, -0.045049784810308066, -0.04045156553195863, 0.026411830773305008, -0.0716478305847769, 0.04743867794858292, -0.00952357924285039, -0.02357914655047835, 0.04959507150560187, 0.050866230396964564, -0.04818817672663072, -0.07196332346956973, 0.012441612035574435, 0.01876955310531076, -0.021569594443070272, -0.057597252902326, 0.0667298022313695, -0.07446160436777555, 0.05637698334302074, -0.0433125830017561, -0.047257481094623535, -0.016214843002476553, -0.07385796194230453, 0.04457491061997341, -0.09016219749235743, -0.042129435106172085, -0.03179607377684373], [0.0764353118590982, -0.08642827279306171, 0.03401605153984308, -0.02130838513719755, 0.02792668067537811, 0.0771439916468072, -0.03839601413121768, -0.08777891219734701, -0.04579142341997726, 0.048042964744302925, -0.0456073396630572, -0.04149704919121585, 0.09873274984726209, 0.06626714100644725, 0.08005745271708324, -0.05380496655908814, 0.03979893347773071, -0.04002289810717267, 0.03854166918790103, 0.05498601827591597, 0.022055877920395067, 0.016198817435693656, 0.04188617121555041, 0.02258061850647292, -0.06592934629367923, 0.0367248967997743, -0.07412355409689358, 0.05544010108029462, -0.02154864594271702, -0.08655678889993781, -0.085047021840032, -0.014627002411364535, -0.08932332935520079, -0.02040316632591253, -0.08887718099083733, 0.028294379965144188, 0.06741373133383521, -0.09064822257332625, 0.013696400724820004, 0.026978496776037326, 0.01680268066520564, 0.07880675529240605, -0.018660135996549306, 0.07846150870733418, -0.001547234865133867, -0.06525961144178566, -0.021651735264776786, -0.08152634966366289, 0.054574090333347716, -0.03803301655227116, 0.0072680246243503], [0.08283046496883631, -0.04514825744407218, 0.021057704217761184, 0.06368448737030064, -0.012076029135519929, 0.046261775335272634, 0.013528096361809305, -0.06411439413149987, -0.08067209316310606, -0.042741664063382305, 0.04925311541508148, -0.003069222437172248, -0.05864372134987215, 0.08791389471803225, -0.08826077042009216, 0.02461302704277448, -0.002453751031373879, 0.06592006397436688, 0.010564531416473687, 0.061392391324391594, -0.05343049536614706, 0.03298846691029722, 0.06341147042967159, -0.03458328958278552, 0.049646544411408554, -0.018812683564330485, -0.0310439547157511, 0.01380166130871256, 0.051607505005604314, 0.08160382221452726, -0.06777454290839782, -0.04494515931050408, -0.08404399928891006, -0.05491355496438579, -0.0017640384761735532, 0.00823454948821963, 0.03737762627375203, -0.0682849661917099, 0.059648198603383676, -0.05325298581044045, 0.060971158730968575, -0.02461864079801021, 0.023495007212754982, 0.06535553464395046, 0.0676423748134391, -0.03015129298610943, -0.05470253266093763, -0.04168207609933425, 0.058434963561468545, 0.04642308135916372, 0.0637599709717222], [0.020782742589372388, -0.0666700917162772, -0.035577246611204094, -0.0049769302520433515, -0.062295626744845595, -0.02300052522782202, -0.02696542825521326, 0.048299997012616336, -0.0023829660498886616, 0.01428433436912154, -0.03868133364799935, 0.04633231508946807, 0.007616182153781767, -0.07340015145530572, 0.08194164970113944, -0.06002486270250353, -0.046985146714853335, -0.07167295459799548, 0.04281637832724185, 0.06656616714700211, -0.002232750871089842, 0.07554768840398939, 0.08263411141243537, 0.07378697540203444, 0.05599986941666987, 0.04635686489991598, 0.02362455481803513, -0.061028833119425155, -0.013078567782940097, 0.10082561688086682, -0.03183150613014706, 0.09893023360257712, -0.04602894124168689, 0.06940887747676766, 0.05268282759268003, 0.04531564760526891, -0.029706449034406758, 0.08755015201546473, -0.02721363783939906, 0.07290475744040642, 0.08167099299203277, -0.07494687724453633, -0.0724293325362843, -0.03466182482851949, -0.04331842815045373, -0.020742924231377465, -0.060955481833817396, 0.04982507927951316, -0.03460239374923378, 0.02410200382092664, -0.02871525549196209], [-0.046634924398539605, 0.008303530062407112, -0.09048714739127461, 0.02997890336296509, -0.017731027416074543, 0.042296797006350494, 0.03896761588182461, 0.06744922255432327, -0.09179658242773096, -0.04951062815629043, -0.03522496038829563, 0.00711968167055818, -0.05686121800185767, -0.01473366843271102, -0.003299585109973813, 0.05225988103398966, -0.07717492928300752, -0.025805517037219058, -0.0515003159784403, -0.012519808477021605, -0.028823153756152707, -0.05018627056284218, 0.0963982260820735, -0.09215398811274299, -0.10150306097248347, 0.04622627539460877, -0.05497783125051093, 0.0593688996797832, 0.049990217151151595, 0.06017379205806473, 0.039704905927380886, 0.04115914903248804, 0.08126200394442333, -0.03770184881417649, -0.04794129213890161, -0.09018917280650068, -0.07680488459366223, 0.05781664896253306, 0.035350276568068086, -0.04566403020255252, -0.04740528245135231, -0.07730438057716167, 0.0011567046273900797, 0.076924916060972, -0.09549963827062036, 0.014866198708781314, 0.04558222553460151, -0.04873497953784333, -0.030845574402913193, 0.08255198605523464, 0.04775259293859669], [-0.03644077680096914, 0.07744295201910494, -0.009612115511197538, 0.05839535794597741, 0.030121979248260967, -0.008069647604383157, -0.03090084416734681, -0.08135961206496956, -0.024290067710253285, 0.04526368035201202, -0.03628702807798597, -0.034154669171525216, -0.03546745333927077, -0.08239571565227434, 0.06637585119540275, 0.023206150073564597, 0.02069631054627101, 0.059962911107214696, 0.022793103356846974, -0.014744235181480145, 0.06380761277408308, -0.06685339228716704, 0.04396515356929597, 0.08524716468235935, -0.056363700743814096, -0.049354252938900674, -0.02665695033449791, 0.023824907687257663, -0.012383509862209182, -0.021379389553697514, 0.06849359067829684, -0.022673950241885413, -0.05287830293636839, -0.08823822975684173, 0.09502571198592959, 0.08918058925542413, 0.0884522766186991, 0.026368194550794772, 0.005479247900727211, 0.08363147458049666, 0.013960010393846574, -0.02759812166665445, 0.016915686402257657, -0.03994839761221974, 0.0018332226332501906, -0.05239340912819136, -0.047527365357626306, -0.021627931243010615, 0.017798869850702524, 0.05049503405261467, -0.07798161539951379], [-0.013304162091700968, 0.05962740808239137, -0.062340706879278854, -0.06186865970473448, 0.022221323978500965, -0.025675126105758388, 0.059994590031103495, -0.08775436959215689, 0.04360023449845946, 0.004544643732706124, -0.04583206818048137, 0.05122969441867289, -0.04853870112040214, -0.07756450344153099, 0.010834146305236762, -0.06776846485720013, 0.019340944956254717, -0.041312791474398404, -0.013538253252830172, 0.07979630873056105, 0.04422183011066442, 0.03905381605100991, 0.07433119810900392, -0.004865011845717442, -0.014151468401271254, 0.06440347920596906, 0.09919474089047739, -0.06486017041065881, 0.05457044380776251, 0.058344598523185576, 0.027449834535364787, -0.007106780701162114, -0.06016690040218037, -0.004331487660146394, -0.04519392343136022, 0.01123627049649838, -0.06589124277467419, -0.07575708099531286, 0.09211345067635955, 0.0017157396144344495, 0.05100253329924709, 0.029217397989645347, -0.020279660539916165, 0.009832386142998537, 0.08219553144684995, -0.06129409996827848, 0.02171322774066523, 0.09482555851771153, 0.0987632960075721, -0.003874235199179717, -0.07235793986155908], [0.033088145375279536, -0.0035672331452194757, 0.08402879488860604, -0.04777177629402129, -0.06843826895141433, -0.07690402361194502, 0.010248613078876659, 0.025129763893095777, -0.00554245681510472, 0.07148677688507077, 0.09151405994606074, -0.0674618497346491, 0.006473664891245699, -0.01230613642823282, -0.07897417848712592, -0.0599513537482286, 0.010592647660383458, -0.015998894649941475, -0.03533750138294185, -0.08078059342131542, 0.0345588842102096, 0.06357535450500638, -0.06425491353336553, 0.06264887115048282, -0.015396629521808574, 0.07045982206596571, 0.07800267633729409, 0.07899452990610822, -0.08333372726158537, 0.03919123125670086, -0.07819965301848786, -0.07857667128433037, 0.011611096592172968, -0.04729528615394778, 0.08758985109442392, 0.00013451025978732293, -0.04671039465612992, 0.004190822917797597, -0.0056072593773209955, -0.09214909037293488, 0.06538519175962146, 0.016231926868642412, 0.027514419252735893, 0.06200001871150845, 0.049539521499477775, -0.08966687561014444, 0.03143188986161469, 0.02089633215832808, 0.009970574496057637, 0.015425796718434328, 0.06663418278810262], [-0.06406472259145055, -0.017039714956796924, 0.05816435810820184, -0.00975465043516826, 0.0841303826498479, 0.08233165157300598, 0.023357683934307347, 0.04613598925178065, -0.07598631391053841, -0.03409660139714312, 0.01179530813989854, -0.0883540574616001, 0.03226020911885743, 0.008794691130560759, -0.05990780529353954, 0.035019768174419715, -0.007157052390656255, -0.07487841975945907, -0.05602067039415377, -0.05925785525369289, 0.009927672250744188, -0.00521818179715813, -0.002901735169488732, 0.0738867112855212, -0.0898518000862598, 0.05445591216123297, -0.005980920359105843, -0.012104933808059272, -0.026879262002490485, -0.043375479703648585, 0.08099015517488291, 0.013447310031985928, -0.03595583602434249, -0.02548383567421343, 0.0711838745768988, -0.03819257268912059, 0.07466007818447642, -0.03196964735209833, -0.08392605867522428, -0.07951933184928417, 0.07270032490309575, 0.08439191333331994, 0.08266209716193035, 0.003636441339248395, -0.08495877156611131, -0.012967551259815203, -0.043824969623589394, -0.0034981911538775386, 0.08323659063377309, -0.06588620463270603, 0.0413596148064882], [-0.06193831504770577, -0.08487848713635814, -0.0789312806627076, -0.01816787473618737, -0.07227244032416943, 0.035823185006122464, -0.006889419788302845, -0.0017090161751663186, -0.06098400100422197, 0.015111057218419571, -0.08769903022064278, -0.07812411242026238, -0.060091889165818174, -0.03287094567656459, 0.0528577805648373, -0.04006525382635677, -0.05353128327461755, -0.01412569700704107, -0.08999003822051961, -0.025868462108936334, 0.012640311351013763, 0.026640984461033152, 0.0833042313853445, -0.016389630903963982, 0.024808631712542214, -0.06743903459801076, -4.608392250051123e-05, 0.09096982725046347, 0.040440503013120306, -0.085902287302998, -0.001895532391646988, 0.017393167127313695, -0.09537276152698719, 0.07903425579308167, 0.05292906519243845, 0.015806278324864725, 0.043809270203708374, -0.001996401128596027, 0.02046292477342605, -0.020938075001288713, 0.046177075386591396, -0.06587175903195894, -0.044062614036883656, -0.04217067740945018, 0.0033267516462726007, 0.02819505115059967, 0.006579615039525159, -0.004008803753479397, 0.055965730897931415, -0.050835925386607465, -0.052208375905028165], [0.017494109887196203, 0.0663402256569271, 0.010522092287481803, -0.054637793973215075, 0.06684153750084636, 0.006126469524111709, -0.09566171980275323, -0.05660455488810367, 0.06260711978245084, -0.043209014978813215, -0.06518358957595469, -0.03468519418332392, 0.04762456599780669, -0.06468991074321916, -0.016886055361520873, 0.05940115630466551, -0.015014144875882086, -0.005878626356051678, -0.06908734670959686, -0.06339449894020739, -0.039338111558246985, -0.055125388636888296, -0.0380663368119548, -0.0634225934758525, -0.056484774608024854, 0.026134823119506247, 0.08366662884731908, -0.037972914182112426, 0.00572222376498824, -0.051055103494559426, -0.040007063886044074, -0.03995048629693924, -0.02074841551036825, -0.04988454434913188, 0.0752255983794072, 0.06085321731412592, -0.05094376095985554, -0.08634755366008044, -0.005699174937693863, -0.0047438822440054205, 0.0648738727461333, -0.05027697188077302, 0.06103163841112909, 0.06760222165683821, 0.008971328867679061, 0.08430953083459318, 0.04531117273326985, -0.05905675104664125, 0.0445564257118898, 0.060557661263697465, -0.006277564048605562], [0.03813768763236032, -0.07446313905334487, 0.06932689897344949, 0.07010349770502804, 0.0948420237256956, 0.06810608110821428, 0.018336562414452758, 0.03266327784536769, -0.018843443081838045, -0.015272577779318536, -0.011384469181460851, -0.06551257013480186, -0.1022095675174387, -0.01578450803221579, 0.0780834082780023, -0.07210725666830678, -0.02544574802119479, 0.006417894770084911, 0.048943045093709066, 0.07242513635692362, 0.01247927357120405, 0.023499355387898685, 0.07608991559071983, -0.04611660996406348, 0.0022871515563616424, -0.009543813638858175, -0.023310682847875953, -0.02613148058124102, -0.011524032136288522, 0.0658543672213539, 0.03426897423151055, -0.07487473663550323, -0.019750257877832068, -0.028846718249614902, 0.0901815148962125, 0.006296590314355173, 0.036821417100515716, -0.006944430652729033, -0.06501460223620063, -0.005476556884095101, -0.0062737361615079704, 0.05413239235037656, 0.07209235444674628, -0.02419614658581186, -0.03322208808727934, -0.061196489388621086, 0.094137748721918, 0.02196016961165506, 0.061641730621608576, -0.05551876339203819, 0.07690949748503177], [0.06736970597739242, -0.06386734373087055, -0.051397719270643676, 0.06434269397674136, -0.08265412377718447, -0.005442539789910643, -0.02865938067347086, 0.04284715551018079, -0.007225771299417675, -0.019337104961141105, -0.0504511029753124, -0.025000543030617915, -0.0946952576724237, -0.075494026334149, 0.02038853253150494, -0.003493881157593191, -0.06400778472631298, 0.007759360008279755, 0.013041782245180579, -0.049649614485639475, -0.029995547996656047, -0.014849318530185663, -0.029675339115724786, -0.044578348923855905, 0.04150570202800862, -0.07815096761668947, 0.061929798872664706, 0.0006386976369562176, -0.046060178165910765, 0.03252830634596037, -0.046790794138182684, -0.021605962011221228, -0.09483216740636881, 0.06944479322365206, -0.0579385975139373, -0.06462634987543234, 0.00680043259294031, 0.029753168251742984, -0.015753206600597727, -0.03491500372019151, 0.006465255658984552, 0.04938621275670207, 0.011034559429835103, -0.05274576432497238, 0.05871428128774689, -0.08181607333243562, 0.018072740076505008, -0.0548183754536084, -0.03180623770967345, -0.06874935702051367, 0.007594052445210161], [-0.06544913052966023, 0.08418316668015287, 0.030323376874356007, 0.08378683756201724, -0.004495051178293365, 0.05127082829933951, -0.06014518276510169, -0.007407264186245497, 0.025528442525737653, 0.014128902080243646, -0.0575289764060359, -0.057266419945946806, 0.04895755591414785, -0.08391622704094001, -0.10358110662325419, 0.03724371501607291, -0.03759297853395893, -0.004937363474320379, -0.04787394305036994, -0.0505029829157946, 0.06856374300628883, 0.0694228974593751, 0.07574444483450812, -0.02608384441851952, -0.027198015076648804, 0.0262164159925999, -0.026697206239448736, 0.04505016974302359, -0.0005662926671179631, 0.0040969770475566235, -0.0039407624661059945, 9.758267133488235e-05, -0.03417722441327696, -0.010591881286802883, -0.06453620333008579, -0.009664355693891246, 0.0810563500008178, -0.06570803043731414, -0.08241114777168158, -0.0771175800589459, -0.04336148382534249, 0.030384632122064482, 0.07688198141415988, -0.01711495321332125, -0.052532316755213686, -0.08791689036119572, 0.004524558794501248, 0.03399013637865268, 0.08549892150332898, 0.007949781718046474, 0.04420456413571129], [-0.06356972151096585, 0.07730544601720936, 0.03874283151481726, -0.05293082560428954, -0.004124014010962199, 0.04613605964698672, 0.05475389840660581, -0.03204073419956252, 0.04758238981141936, 0.07269133797472235, -0.06312116009156798, -0.06688878120843925, -0.049440567340881404, 0.04081849966994918, 0.0874888410291625, 0.040025766773437645, 0.07007162869130668, 0.0013458042657972559, 0.011784958816066273, 0.004665421914924996, -0.009355783778018384, 0.05894591313635238, -0.09231218124045777, -0.05407128812902808, -0.02327779974267331, -0.035483492306395144, -0.05592783495621381, -0.04805216629060627, -0.05608984754219343, -0.07033097398921201, 0.0004323006127362232, 0.050536908207893735, 0.05128477093288098, -0.06163013308080323, -0.040211716882376514, -0.03148903154578555, -0.08196444673608075, 0.07738632746988271, 0.0469718331559602, 0.001854508577345037, -0.06018663715655552, -0.012200842658472788, -0.09691864977689682, -0.06943475712472273, -0.0015010266403568237, -0.03578202081117284, -0.03447347375471169, 0.05225430543532929, 0.03698752041394, 0.041657231762123506, -0.05156405548916065], [0.09796482402781143, 0.0788432278085362, -0.029843946309226065, 0.018228385593876732, -0.07506140514303401, -0.004993973980894769, 0.011472883442303737, 0.058116044311414504, -0.06606119186321727, -0.06411493212499363, -0.008794234852421805, -0.03359786684217815, -0.07930264406195603, 0.037409340438500915, -0.07275819522614185, 0.06434184025735859, 0.04041360012073024, -0.06106254657389206, 0.049572434949098916, 0.009074487407518698, 0.0023507434511303234, -0.02577821189870001, -0.016683661715186388, -0.026372031301403073, -0.03778995941314119, -0.03521954736841856, 0.03984560155795857, -0.08739653532114557, 0.04186020387868294, -0.03262307719397596, 0.05450941676113814, -0.08226215325581757, 0.06337717285338043, -0.058498811242454325, -0.002901294781217888, 0.04204641396526922, -0.025542132918419932, -0.01726145046753659, -0.028906910715667016, -0.002978567415494657, -0.043894548011804965, -0.00780979790407113, -0.061148344494055325, -0.084903599674242, 0.06399412954157965, 0.004565549942150823, -0.05766422727671682, 0.012300106481465827, -0.020286519141053703, 0.07321386831146937, -0.05418056205499395], [-0.10419342662090968, -0.029742488190938172, 0.06770823412567169, -0.10545665749172879, -0.05472774027130045, -0.06522391392249688, 0.04193318112994687, -0.03416624255377735, -0.019819273703433598, -0.0035363851491917704, 0.0770785368000756, 0.02107077362212751, 0.03246417265889048, -0.034219286230623, -0.06736384499257511, 0.06469670806521088, 0.009415956662416207, 0.011501871565520145, -0.010934353333279592, -0.01781494612002447, 0.008916432669597341, -0.008848174439287062, -0.052660180265124826, -0.0898447426093162, -0.03473341435905168, 0.08765234733558752, -0.06293567172758278, -0.06499985792310385, -0.06737058007095516, -0.038033524881379364, 0.05441830209965537, 0.06579376493453014, -0.04240954467283985, 0.08731539933123357, -0.008689165690433083, 0.06877855844934115, -0.02496971329302254, -0.03366503240225479, 0.0815885772246558, 0.029674910711821066, -0.0036806137665637453, 0.047850080422437206, 0.0158054023097659, 0.07201377100087135, 0.03631759770392077, -0.03474488105732337, 0.028095687430866465, 0.07949041755738236, 0.039814945227582305, -0.005838240736113624, 0.05737689570121342], [0.025808434420539008, -0.05903395971087302, 0.001295827439915396, -0.03230843611363755, -0.02183921518639775, -0.06022897068539866, 0.0362303938776469, 0.0274669225420202, -0.07759492520494517, -0.05112231838480881, 0.027539396033358747, 0.018145649632397114, -0.05704068347617077, -0.07863767592236845, -0.07871667985475163, 0.008400664726554126, -0.07800274360760616, -0.048947905304334786, -0.020922490138792493, -0.07748135714079801, 0.025665333256134126, 0.05812081829768305, 0.019916721331760902, -0.0057633491857373145, 0.0977533831115965, -0.022221196143779078, 0.07321862081142767, -0.05493394334266276, -0.08841868267764255, 0.01615785537536704, -0.03503018875049387, 0.09706237789070894, -0.02688830570617183, -0.09694022487082901, 0.07820902141763314, 0.035071179725609095, 0.00755291108710758, 0.017200602385930266, 0.01349952758701785, -0.02556942994545931, -0.04136498815124031, 0.03601807580821839, 0.08027438434622051, 0.034702802438344574, 0.011567145417074992, 0.034923695819364685, -0.04586116446088527, -0.057572326031997925, -0.10058528952913354, 0.047452130932875015, 0.019362279636031945], [0.023043229716821045, 0.06819359234295039, 0.03735724981114683, -0.06056164668168709, -0.07075356894241454, 0.020805048182381148, -0.09864498331405318, 0.06914989479453665, 0.07596157550170901, -0.07870490839414389, -0.027243494753230794, 0.02091658659525188, 0.04234834855652177, -0.00860688380084529, 0.0890240181422818, -0.061153312819811026, 0.011723564486331887, -0.06269765382411469, -0.05244937082710248, -0.06671193505989047, -0.02822391279963314, -0.0053689991925671855, 0.028984426313952184, -0.0753701441121218, 0.06040954878980365, -0.05310646893042336, 0.04232867898379945, -0.07393070921635371, -0.09416406628670548, 0.0022878876579855954, -0.01986295369641179, 0.11670481262721956, -0.053023255186095894, 0.05130202053902055, -0.016654789273375586, 0.09860699182760484, -0.07657403124433051, -0.008403670528357826, 0.08133392775873727, -0.0356374345390208, -0.03448424384345337, -0.041924223318643934, -0.035598959047172064, -0.03623479791179185, -0.047450167967258934, 0.04675720362404603, 0.06907117399346316, -0.04231252310896068, -0.013590967426946236, -0.007389883408629443, 0.018135874270330917], [0.013303814631066873, 0.07102770402691243, 0.053311913408336506, -0.08266285924976444, -0.031105468389695287, 0.04487496857387953, 0.05000997669064111, -0.031494017812500746, 0.06566506901242367, -0.07877553538037557, -0.03289497866765982, -0.0033843265418668114, -0.055705158506750264, 0.02580860067133192, -0.09114354724747692, 0.07786518872704844, 0.046246046409512576, -0.05785406162126787, 0.06762326371315154, 0.011015596730942337, 0.057906049895652775, 0.07210040256372192, -0.054253470809233276, 0.07154692310860347, -0.061090998260147925, -0.06632246826622461, -0.05229815034046014, -0.04068310029623591, 0.00982895887577645, 0.02506657326033386, -0.04859536391615212, 0.03539667609531426, 0.017029186039372122, -0.01414510432832161, 0.08609410455170124, -0.01647536631883339, -0.060108504993191106, -0.08842813453834805, -0.01168024897786122, -0.026092235841747576, 0.03631348234208964, 0.03331842954063226, -0.04914209945185267, -0.06013666644632199, -0.0666537949088242, -0.029152906147375403, -0.036260368950418835, 0.04426350782806302, 0.00770154690962936, -0.06690373009580859, 0.06729425059900188], [-0.030455399242406176, 0.09510237064302896, 0.041087080940879234, 0.0289771646280582, -0.04715580099817286, -0.06226852021154179, 0.006222375747080338, 0.06698749942282935, 0.0027163319509387663, 0.035085187964557785, 0.040098813179096596, 0.02825165273249043, 0.06040508823093752, 0.08838663867845399, 0.03124958230902528, 0.009127563500383604, -0.03594650813390926, 0.08252704632775566, -0.05146147852945701, -0.03359778806591447, -0.03186071573572232, -0.01879211290511356, -0.09550214157324437, 0.04411293773607007, -0.011893250811829804, -0.050400966640220965, -0.02166645553576981, 0.061807701655085694, 0.08798705843919818, 0.014859309051208799, 0.035625497597238834, -0.05402942018903341, 0.05646693137267463, 0.07355576780278975, 0.0690855358714941, 0.017960899286710443, -0.028874794162814976, -0.02773609025081066, 0.051149418046671356, -0.0571971530298862, -0.09112250193783038, -0.09241264981945864, 0.03738021000357574, 0.09016069248424062, -0.0714802241213069, -0.020229088806712016, 0.07012259219091238, -0.0058024606466423375, -0.061230333362071725, 0.05244012583527959, 0.0860595453807134], [-0.1012559644694661, 0.0020518142733344912, -0.01191861063280499, -0.01582826547360455, 0.013805528282677094, -0.017604364669047107, -0.023022803907437005, 0.01446807690406847, 0.08045228172297617, -0.03570527174368832, 0.06876044708314402, 0.08544379014228669, 0.014619809095015585, 0.0426314440325053, 0.06660289874568019, -0.01943475300229781, 0.011499484333004335, 0.0027593120371144342, -0.06947298655008807, 0.060395845309503114, -0.07618627035326794, -0.012858034582780705, -0.012860361741611927, 0.041624757063746756, -0.0764620833797458, 0.02264912509187594, -0.08172292079613219, 0.018084646729751068, 0.03580033101801499, 0.08464852572180794, -0.0980217120225283, 0.047221744726537083, 0.09016566844282414, -0.03166847962856174, 0.07406126213254328, 0.06306640014062455, -0.02697561023899237, -0.013885878945359083, 0.03728139738192952, 0.08019710288734481, 0.02329614741037126, -0.038965121273837375, -0.06455267852091245, -0.04939065144375516, -0.004124444387561955, -0.034489697020874475, 0.00245936122367402, -0.01744779002763687, -0.06169949410974209, -0.08733504794480981, 0.03733436003956001], [-0.003054188438339247, 0.07354402893399535, 0.07423888335464214, -0.007469076940495758, -0.07400610114430294, 0.06391227856256697, 0.08036513449995017, 0.05186686930607143, 0.05434563999730767, -0.08019386461975733, -0.019443660091847222, 0.028471540516329042, 0.06536545817046042, -0.0047168450914267124, -0.03729300866132331, 0.007155116521015478, 0.053050270502977406, -0.06571870943492283, -0.036598935423242565, -0.05349359312964044, -0.06438550659994285, -0.06298522313478742, -0.06849392948698425, -0.030657787079770616, -0.06259231280137324, 0.056889576393754915, 0.057011763531110975, -0.0376811752401097, 0.023882835035949204, -0.01844256759362176, 0.007428197082786275, -0.018114239791125822, 0.07631360645375834, 0.027056416654893032, 0.08211051927663168, 0.05298023081575708, 0.01627740896858538, -0.06409629006565983, 0.05554851764751257, 0.052754137046824974, 0.006497389924496988, 0.044446288377543074, -0.005507644671488007, 0.03969171367391168, 0.0016187767708465512, -0.08115686000881278, -0.06156950293031274, -0.024769505010259856, 0.002326817514801869, 0.015542005509953103, 0.04957027815090573], [-0.034122530383063246, 0.0354983104058028, -0.07361125524511512, -0.07138759322857681, 0.06826056779049167, 0.06517785595556531, -0.03922777555813656, -0.04626708085561217, 0.034123248243310894, -0.04298000018442306, 0.026865724838537237, -0.070400692664557, 0.04100767170674437, 0.07941720557291357, -0.06579241710774465, -0.07453229770537233, -0.03706465360601143, 0.026440198454525696, -0.051405742067254255, -0.01015272021738082, 0.07007089247561454, 0.03913648924550385, 0.007799192186355195, -0.07479603504319214, 0.03645410464262445, -0.007018611804556836, -0.04161560264456917, 0.014061849110718762, -0.010689587350660229, 0.04422579522814628, 0.0026649552655562962, -0.009270362196895988, -0.07286231934893807, -0.003825414044043947, 0.06575440915720217, 0.06559438193367818, -0.03265532588987634, 0.006730720375643455, -0.02006185860129396, 0.054158204814735454, 0.030502497127729945, 0.0018749574276070093, -0.004620605331088447, 0.0010321390741189324, 0.05127199494535401, -0.09073647948042882, -0.07131934657137619, 0.076061420537933, 0.08664157020162351, -0.02953987613708886, 0.07775787504016796], [0.021330216946179422, 0.08443906704719101, -0.047063283843485695, 0.07921101729320329, -0.05528428857343052, 0.04079706420742805, -0.05820203524979707, -0.019873943249809446, -0.07294549492754909, 0.08219480684235918, -0.008827565310583829, 0.008259062690534896, -0.06939854705532418, -0.015782454461420653, 0.0029847853441914035, 0.07938466951813807, -0.016530069759613204, -0.028749087620984097, -0.08153495379323254, 0.03216712221159245, -0.0009951990336915337, 0.03245497255644434, 0.08642193618625973, -0.081781229107906, -0.009242533652219352, 0.025205817230580574, -0.021645525036293727, 0.051849996365183455, -0.004522626495141078, -0.013131725668883737, -0.004900513454441622, -0.030045201799616467, 0.05104977634814369, 0.029248825666347834, 0.0849005735173506, -0.0065128617702313145, 0.08264143204673523, 0.03877536905094616, -0.05515919273542604, -0.01096460334730749, 0.10018080684259877, -0.09162384355525402, -0.003738927689261966, -0.06684118583807966, -0.002724483991730465, -0.08036813188720586, -0.04499261577551136, 0.01548845703268426, 0.05820533620353187, 0.058937358545215486, -0.05918864326062834], [-0.00827543141454901, 0.08041909599893747, 0.038724199135485256, -0.027093592343346854, 0.06472380216146366, 0.07936919897601324, 0.05053919640268459, -0.04419299831062712, 0.007993873821431335, 0.03874074775651872, 0.01154876412023924, -0.017471990762671558, -0.04550029023776085, -0.018583021062965055, 0.07191491787337749, 0.059005866778456886, 0.007517018996234453, -0.07408056299013292, -0.024470386944544217, 0.02371186768818232, -0.035976951326770826, -0.0059387461402623356, 0.0168144087492188, -0.044683104033293154, -0.10080827054444293, -0.02345344116032369, 0.10134886524583937, 0.08021759191876077, -0.0649045398955636, 0.046581502615630835, 0.032689248921277045, 0.03085377140633921, 0.03682546460160077, -0.027342870469437532, 0.0678456928049208, 0.03898355934858564, -0.034125242301832934, -0.022328649515270506, 0.0975113091058471, 0.032470285264397165, -0.07461654057807017, 0.07582955382033461, -0.015080286039101658, 0.051255801095736, 0.08457518649027798, 0.010839717855404548, -0.01056255814281781, -0.02355718388403544, -0.004270621567655064, 0.05113060987075867, -0.011710913020679324], [-0.0170314164924531, 0.0868153996628722, 0.07578813637468977, -0.08947724228747014, 0.06908507769300123, 0.024962170929655934, 0.05129243758387037, -0.06476531690835029, 0.09488292531507722, 0.08572679607125272, -0.05285908185563935, 0.011576940672103528, -0.011706910547652745, 0.049733701927788365, 0.027366732329339533, 0.06379298514895337, -0.0802764468930423, 0.027113373326481657, -0.031761458063209985, -0.05395869594483171, 0.08690983355971574, -0.03041628523473753, 0.023059602753553624, 0.07466074824311439, -0.00538699126316239, -0.04836676066160049, 0.014677570697015394, -0.04412317033461728, -0.04392860791508573, -0.06076366823066303, -0.03160635835035602, 0.0960666688230922, 0.09210471119281549, 0.0921016327783222, -0.022332792917466444, -0.087994762412135, 0.054996813482184756, 0.04059258741812989, 0.07921174002048822, -0.08721823146168403, 0.07183794094646537, 0.06904371266911961, 0.06884165920713842, -0.09597707030726055, 0.07634040680652143, -0.06771602766110937, 0.0014447227693544548, -0.03339479452659485, 0.012144449738108107, -0.019428625169989396, 0.07991140699124072], [-0.09385357577386, 0.05389762212239254, 0.01883829402344301, -0.036849284793133444, 0.06915994078696665, -0.033235931830792625, 0.05055840149140861, -0.0030535976336419127, 0.0005249930822598533, 0.06675989424384587, 0.05101282543625186, -0.04538460814236856, -0.07200353691140529, -0.010423077511439461, -0.051667138272072345, 0.09627641774962975, -0.006277804850637394, 0.08134882267588069, 0.08472995759997615, 0.06348619766002696, -0.017900292066361075, -0.04660182365446642, 0.002011381717418733, -0.0385386282902588, 0.004111021974433519, 0.05237501877020773, 0.08698122300597563, -0.024450212974898165, 0.07245078417199816, 0.05317891294257929, 0.005882781636425555, -0.04685916292182326, 0.06632121287136965, -0.022618301718126076, -0.015276028520295162, 0.053543509353113694, 0.09119544906901668, 0.057287548744350665, 0.09304596908205533, 0.08261487068987926, 0.06109332751049019, -0.02552595250452295, -0.02144820582038157, 0.06209449173989642, -0.05798324904470393, -0.0025857537664707346, -0.08054059237211053, -0.0178291771123978, 0.049464028194028634, -0.04117596914642694, 0.03923270064207806], [-0.04353294575924337, 0.07516422278193184, -0.055497923063628656, 0.061190559916946864, 0.058892920593063725, -0.06662322215185934, -0.08244166492517208, 0.008241830832246378, 0.05876346897514769, 0.014612455192689142, -0.033167401235999754, -0.0987195760461529, -0.10500948288473244, -0.014366754151371522, -0.030437283063202612, -0.08020730410395853, -0.09106029565183575, 0.0071414301086481806, 0.05264484827890089, 0.006409484862646801, 0.04908614279964941, 0.01354867326748099, 0.05333372523911757, -0.00720035887235589, 0.09306001590222072, 0.08129523201515895, -0.010242759060131142, 0.06431098599233365, 0.06643890279157125, -0.07240458313038504, 0.05363123660603678, -0.0663881580193981, -0.013980640615832823, 0.015134848734909674, -0.0033627065647741676, 0.04184454537197077, 0.0441200601119258, 0.015235772354350295, 0.07671199464483391, 0.0013883160048670821, 0.0546280317483802, 0.031699107945410615, -0.09172907993336973, 0.015974521563924385, 0.044688072144890414, 0.01096937209411445, -0.03843845948553835, -0.10002219956104083, 0.11153388690279681, 0.015824458497840668, 0.029387521110867038], [0.07451973133694142, -0.06401547665817793, -0.0521713960111334, -0.04098664090206363, -0.021467131074608972, 0.014825540798846093, 0.0723796926376375, -0.015040289344913879, 0.0536192024332277, -0.08546338485732606, -0.06298318003575878, 0.0663800724642198, -0.06202194150867792, 0.024352350545510503, 0.05498076699476945, -0.04378566104702751, 0.06875932521384395, 0.04801487575005397, -0.07056743132057569, -0.035878920567305565, -0.06437659850224794, -0.07491349717321531, -0.057329016023606974, -0.0027647506741951553, -0.05796090359858275, -0.027947238538167222, -0.08299439745325968, -0.04275875855417546, 0.06493755036261126, -0.047352394686633825, -0.04119022873720093, 0.08885762828418843, -0.030418878435734858, 0.009239103575586438, 0.018068267619437573, 0.04253487112761311, 0.005340411581888252, 0.025195316229561664, 0.0026541678157275365, 0.02608381782421602, 0.08097025585668063, 0.043075280067219134, -0.038171679797158006, 0.06290431997748354, -0.01583421850556114, -0.005293687939775293, 0.007885065470005061, -0.03665499967535526, -0.06361711744393683, 0.008068043618854657, 0.013296602729455901], [-0.03524147391398762, 0.00412173694607523, -0.08127802132786699, -0.046955468874017484, 0.0584786652392075, 0.07079918699633546, -0.029955373180559523, -0.07846071711618649, -0.0021329742972228827, -0.03725125907312604, -0.056935057033798954, -0.08775728548009958, -0.0386531726340344, -0.03691720094385019, -0.03249811400094439, 0.09201248033501318, 0.028675877638818972, 0.05084688962526773, 0.07595024199912205, 0.029786044516926086, 0.08111608168704337, 0.09146044245507565, 0.059620566623359336, 0.023209191066906307, 0.009411834990763226, 0.042605774202812155, 0.04852986308159199, -0.044749979540469456, -0.0055812900840328545, 0.006702889379377757, 0.05233137299320455, -0.06466261593498437, 0.047064452191047816, 0.07929123984313385, -0.031867387336998995, -0.06788834319168494, -0.014181833619284276, 0.07839509188718817, 0.08222138256989399, 0.03375349233518087, -0.03388059537344497, -0.06872010068789468, 0.021927149352007264, -0.08977388568078219, -0.04030929367543973, 0.05964551747929018, 0.0682171581846479, -0.03872574721940887, 0.014284413565961907, -0.003919328248746635, -0.0627836237710407], [0.0808092948711587, -0.007389763700133313, 0.08098561342908685, 0.00915497691899801, 0.008776066321771095, -0.08379577634016384, 0.05074817311712046, -0.011141433578760225, 0.043885317186840904, 0.06380321843370301, -0.05245997391908136, -0.06764884986224268, -0.02092165754160274, -0.02972897464887323, 0.03199571920439241, 0.07617172281158384, -0.07886664190497152, 0.03877616374488587, -0.06835343311889834, -0.018402583076664748, 0.04301413019258521, -0.004390124622880892, -0.011159114354739598, 0.06795330706232612, -0.06381394533260483, -0.037305149569084275, 0.09700362012579991, 0.0633313814092491, -0.004270676124802119, 0.053088039991772404, -0.02341581964372104, 0.0036980623363258, 0.004357865419710369, 0.07116141013956113, -0.009302362936913609, -0.035398921801162726, 0.02232736833461085, 0.0610416255703819, -0.07888603692341602, -0.06031106520619254, -0.06441469646278107, -0.05685412298013137, -0.02750704571496139, -0.025271681126468125, 0.055503824442711305, -0.008882562268531157, 0.06383240291204857, 0.0017743620676882793, 0.03676315695194958, -0.015448015401317223, 0.004685010460409921], [-0.07716815910951638, -0.08302860637944563, -0.08170493941727171, -0.0864480169637193, 0.07593067699256975, -0.07035484658197048, 0.04497936583305453, 0.0459753331299024, -0.03128530857372159, -0.0650533541669873, 0.03952643073771577, 0.060528376686633564, 0.03341805462934116, 0.042370695530056963, -0.03968648096576359, -0.07118525465455784, -0.0325854015771049, 0.03306575456256881, -0.05915335146044395, 0.06138701272570591, 0.0749880070005229, 0.07938528212769765, 0.08526617462807165, -0.09621063658475135, -0.05113520457826041, 0.02901904269297552, 0.001989717337250863, 0.02221409779175653, 0.028452025268788796, -0.0005020716506542955, -0.045755427275974835, -0.08627314080865833, -0.031331019463204754, 0.08351880761108543, -0.0378002010029106, -0.025471408572712913, -0.014523688545172634, 0.013063937981502405, 0.07246544707793623, -0.008878555100223826, -0.061363323324489676, 0.020501263954145792, 0.10896681701257173, 0.011416425346242775, -0.08208958695163948, -0.09523519696327008, 0.05786451362540783, 0.023464991350723663, -0.014846616608337746, -0.0379942036341467, -0.1011082561546897], [0.024890931968775766, 0.06279302183900162, -0.04387379376543986, 0.04349792266754839, 0.013844450517387282, 0.00425863520182951, -0.0011599429763545766, 0.015077963295992066, 0.031847887058074245, 0.09579184011359385, -0.0023613672052830515, -0.0728084546311568, -0.05767642997843294, 0.02260530924618699, -0.001724111594338764, -0.055754820092118317, -0.07987776367247652, -0.06834075048800328, -0.01718888490135802, 0.04606019116057497, 0.060544552934631464, -0.06966781188681805, 0.056486005262992134, 0.09065354081976784, -0.10705796359571779, -0.0572653975142482, 0.08940967235679369, -0.029311394429548405, 0.04203826323077825, -0.08191919437105781, 0.0458585811722838, 0.05256817609377931, 0.07032007621782835, -0.09002396035852253, -0.06430514996729031, 0.08852721314572445, 0.06568000574134357, 0.07294311650759135, -0.036968866725353565, -0.0408661562716335, 0.0005887851506184871, -0.06907206552869873, 0.051398117036203415, -0.07991105310612381, 0.04412458155554571, -0.05247704274495909, 0.04502672646449481, 0.0063812469329044925, 0.07371299006056911, -0.011215514724179667, 0.08162352089663144], [-0.0346508892889383, 0.04217965245006515, 0.01171405944243038, -0.05635791120348775, -0.07300246048382447, -0.07601804379094959, -0.06710791684890388, 0.008554608242596238, -0.05374463845023211, -0.05508154643111485, 0.0791946515903977, -0.0015684408614081082, 0.0754406813146029, -0.08586028680984195, -0.08298456996623478, 0.002617881338881338, -0.02892773857761388, -0.058569917614708936, -0.017809724945130334, -0.06804058708948786, -0.003109505511781369, 0.05781672549993947, -0.053244683965561444, 0.05681367564178004, 0.01775337601072128, -0.031099721595381262, -0.009406220463042004, 0.019775647097630394, 0.04752565656567653, -0.08512292751301434, -0.05356829906234145, -0.07673468853061323, 0.06572314827064639, -0.0017398994670878318, -0.04226792638775716, -0.05088922493919549, 0.09053290843500333, -0.05359550643545482, -0.06202862759721979, -0.08170796976720053, 0.09205540069891388, -0.05886521990937227, -0.037475013247169175, 0.07167939079957832, -0.023588744437556187, 0.05770770422890914, -0.056045841989193594, 0.0006304253776323222, -0.03785571025358251, -0.03656190866318613, 0.09347630343337136], [0.006011952589894696, 0.011465898484182295, 0.03440833232074894, -0.09347420268907919, 0.04908424027374711, -0.00016375486351575438, -0.07077653800798782, -0.05033169064952719, -0.07593657592696076, -0.0390236144279508, 0.024017935063632506, -0.08533783846168295, -0.073279915927268, -0.03570751833614312, -0.08137024639720446, -0.019525086133929646, 0.0015464647529013706, -0.05412969695331655, 0.0058690179155986965, -0.003980338306862555, 0.0007412372403820767, -0.012036956492846296, 0.003061863353976197, 0.058349008762434804, -0.06998650837390287, -0.00860897587931915, 0.07891618108884908, 0.0060621673578167634, 0.07313088033223727, 0.034567654365225756, -0.04717465275123618, -0.014493316779871097, -0.07329438633000318, 0.019447994515451317, 0.017257297201625797, 0.06724279375868447, 0.073434169184133, 0.008332698873597359, 0.07315957048301157, -0.0856125190747376, 0.05087946916015137, 0.024997064447560006, 0.047204744840171994, -0.08977857678044336, 0.009367539262501163, 0.011226260591254828, -0.047877244249919425, -0.019101989712059935, -0.040865236716562045, 0.0717174837682255, -0.00835979267886669], [-0.07311737886964824, -0.0013796032114836835, 0.04262430361793408, -0.03394598972610363, 0.05118192234647608, 0.02593809646963795, 0.04806071085585605, -0.012315184162464736, 0.0012399597701220528, 0.04739460438271831, 0.03587454297186883, 0.08330500804110805, -0.05963626811023335, 0.010771085466969013, 0.033108540546487215, -0.05130343317452675, 0.0697016715300127, 0.0674057298932667, -0.09080632181432063, 0.06082423222872029, 0.07596146890604154, -0.04907604164077725, 0.006038442057354056, 0.09206525841285282, -0.0023856823484781353, 0.05649946208130168, 0.040860597929098665, -0.023117239221691233, 0.09475087635020327, 0.06405175579055224, -0.061074718933771005, -0.07257153097304955, -0.07370301644779423, -0.018116247012050096, 0.08533002249224628, 0.0761198183983844, 0.010144731539236911, 0.06620842340599485, 0.06667837233380658, 0.009172903207807646, 0.024179907004971066, -0.0678903251160041, 0.06467120389782674, 0.018933194278812637, 0.09434521683513823, -0.058241908794761016, 0.031562700611194136, -0.027470372289598064, -0.04977579654945135, -0.08276801769421603, -0.043992531408386125], [0.05897363273606284, -0.01759605240557698, 0.0998691688601482, -0.04167830916615838, -0.044960756800627756, -0.01653813573750852, 0.08847440531708729, 0.00031167147886520445, 0.07110516449301929, 0.027725466155666866, -0.01678091454249974, -0.05697363791564115, 0.07098851051489427, 0.025049485403274365, -0.029723721478603148, 0.029580313082636603, -0.06767576167560524, -0.029421426300394852, 0.006173298944982339, 0.027293895007989302, -0.04274109561521291, -0.07853003031819973, -0.04757666949602598, -0.032573924681095594, 0.013560130353599402, 0.07872146609768105, 0.04982460760302948, 0.055039891571869254, -0.03819232897741462, -0.08185586971636159, -0.029889139673777407, -0.06752358720013495, 0.021954803094981833, 0.06436235964294476, -0.06514176514809675, -0.02224261163917057, 0.0002719065905866043, -0.07350436744269134, 0.028512862444932383, 0.04211001193718885, -0.02378979368206511, -0.02736322874661168, 0.021636086915285135, 0.08022072112074498, 0.05997371853176429, 0.08418977370568885, 0.00025643380908071337, -0.017254286905759118, -0.09023928403811704, 0.08298584687257954, -0.058373777934947], [0.0730009816784149, -0.06530064772654276, 0.051656468981320126, 0.017706322830226103, -0.057118363326214124, 0.07968616924905811, -0.04200964887447692, 0.042506639704763496, -0.07615209222116204, -0.056709520863929275, -0.08649816502787533, -0.022787988800571382, -0.0370840245465584, 0.0450326470431028, 0.06136395228455606, 0.06400922996695155, -0.06161140264171686, 0.023622567008931828, 0.04163963745027582, 0.01528049356926065, -0.008198680551149794, 0.042420354645102194, -0.05573169768323896, -0.06318738571774343, 0.05118193051692198, 0.059003614949500835, 0.01873043949471996, -0.006291171810194243, 0.031305236885981615, -0.013168408114319326, -0.05251881309403104, -0.0544424153974471, 0.021636992662366468, 0.010581695152848966, 0.005330851744445658, 0.03020374739580048, 0.013464677710902564, 0.011014875021496047, 0.01829175618501101, 0.06441198924341462, -0.003175085440291654, 0.01845485386471813, 0.020697134159888088, -0.06097284956760006, 0.029428854740693837, 0.06902919862821226, 0.02385240291294626, 0.003612290409079166, 0.07150511226872075, -0.002823536054412724, 0.008539325086917474], [-0.019992941033904782, 0.025189901573171837, -0.04581031750434866, 0.025527821799523235, -0.07211269485627993, 0.0637881676188156, -0.07244413597094519, 0.04224974229996372, 0.06633868743604829, 0.06822898122243247, -0.01608723155893138, -0.04231791100757782, 0.0031147662520867713, 0.0300591969629251, 0.04697816800031115, 0.06722639451218354, -0.03191085343251987, 0.0012192827916807163, -0.08616918134965318, 0.013749170530176368, 0.06636600234717016, -0.020637875920373652, 0.08458191543492438, 0.03872222498698628, 0.05512675749429725, 0.0634058708929119, -0.08585717325667665, 0.044785173987524685, 0.023698653238146607, 0.052389668302010514, -0.059674637417476105, -0.044370521348857335, -0.024317061112492256, 0.0947742887053062, -0.08298136830597266, -0.0008994205305167581, -0.038170632949176, -0.038952970426619535, 0.07532774229899467, 0.02858547075156314, 0.08049180770631655, -0.031222030846744794, 0.0554579227256154, -0.05876936593006939, 0.04997804036606806, 0.024721711987565217, 0.08012010641522403, 0.004584735728616195, 0.01668692708691371, -0.04635886880242733, 0.055879820856945844], [0.04667535009210369, -0.02856784476774007, -0.0551860371957256, -0.07985753241096118, 0.058096192363505605, -0.01713355548572086, 0.04506180353776073, 0.028884733209092524, 0.06225371586319906, 0.009708657446162032, -0.03761465449183512, -0.015321708407580192, -0.005356627997167642, 0.055340481155244904, 0.0834147216838424, -0.053451879157811175, 0.06455611134966352, 0.06928607004468265, 0.005968253757742461, 0.06731028759665417, -0.04639188732309106, 0.01319631863876985, 0.09559002626160355, -0.0369232643417503, 0.02602923183596481, -0.03714734315182172, 0.0044543014395055066, 0.07036017132502968, 0.059886013609707266, 0.05259652376495611, -0.1077827451917088, 0.05810234571660438, 0.006457355839719085, -0.006891137867451659, 0.06918622978241802, 0.007784389021061477, -0.05867366847929802, -0.03847019528758969, -0.09106214238320665, 0.01012313336600724, -0.041546758920244405, -0.04843761082944004, -0.009236371934208648, -0.0474505499529365, -0.090153009384925, 0.02074668116250511, 0.031948899245171636, 0.05095711290764386, 0.08339878008864103, 0.06813086603108966, 0.05694364371677146], [0.009592417116241253, 0.0020026775167571263, -0.04552779800317835, -0.040197654005988785, 0.04965239414802566, 0.07865174873349269, 0.03305126192159612, 0.03673096469286962, -0.07029414298810094, -0.09564173603417724, -0.042067173034353464, 0.0420586430049954, -0.041682819325473235, -0.07809532466475111, 0.006473868641638989, -0.08843210519357277, 0.04900337996331286, -0.0010419587430913935, 0.019924714359862542, 0.08637980792204705, 0.0011183070192305928, -0.03580031963126741, -0.016565125554413543, 0.05223323045813465, -0.09978339357238603, -0.038487655198113056, 0.0041944279668654424, -0.05901595199353274, 0.027686021184963407, 0.05380755556643329, 0.0407049017871856, -0.06306339216556937, 0.03689277226400926, 0.049177778466399674, -0.017589970623396834, -0.08815564857844888, 0.06057049157884697, -0.007141502036193614, 0.029405500264512108, -0.01630667042441769, 0.07728635738963645, -0.026186898508678683, 0.03614430888814126, 0.05974783160585834, -0.07052773839046508, 0.034152351411583716, 0.026350167215380173, 0.038729175277680945, -0.011684540870727081, 0.046979474407782745, -0.06848934174229343], [0.022720746290975303, 0.03672941253685161, -0.07842243128647784, 0.053957631735361694, -0.00441115963514085, 0.06805295289979064, -0.007251283760077307, 0.0456965344949416, -0.00940294801792083, 0.026230154222217385, -0.04082390728616445, -0.0708204586710563, 0.03720563631617839, -0.033705756669664994, 0.0010248085871536288, 0.02043773367960705, -0.027152952730555922, -0.018894333178919382, -0.02542696327316371, 0.027135056033891533, 0.045641929212887955, -0.07173998809282416, -0.06686613128150237, -0.07567145336697484, 0.02955156196530532, -0.030748323493029833, -0.001433882081017855, -0.05360077422387824, -0.03416841627278476, -0.014411312959261674, 0.06630735769830477, -0.0841802259281786, 0.022545634462590627, 0.03160085936970781, 0.016095999372694608, -0.02226728523642034, 0.05342057461885278, -0.038943678153348496, -0.010386048126065407, 0.025231262498693383, -0.07355503575539056, -0.051304809889341926, 0.012597071265538422, 0.031050739383720518, 0.0014221541353760365, -0.006444565812367848, 0.011687938823442923, 0.07316571085510866, 0.017216328888294323, 0.08051830683086825, 0.02791192739027975], [0.009075062599257071, -0.09080672754884603, -0.00026758542709700184, -0.05003157697705052, -0.05112357233881214, -0.07643986592294104, -0.04655140857454919, -0.02174169810180804, -0.05868746672358338, 0.08147783738095235, -0.08778415113134097, -0.012568053164027966, -0.022216265405746692, -0.07750949744697769, -0.06568365701887305, -0.06419620315727166, 0.004089165191679091, 0.08633281334874941, 0.0672921347623331, 0.059071831966596246, -0.0033777270298879767, 0.06870685578449044, -0.014879957845813729, 0.027945597234431314, 0.005179075759976954, 0.0792315768811671, -0.0031981101195454145, 0.01674135154998256, 0.04903746967878235, 0.07904076247217456, -0.015227976021058603, 0.038230765485864494, -0.06311379538198729, -0.06233614282826411, -0.006591739695333636, 0.08002024131885827, -0.004830724208306567, 0.013714479567314038, 0.01446987981200791, 0.05049358407806622, -0.03215200932444493, -0.06720477644069307, 0.09321813680245263, 0.05988046696161464, 0.06715686719721212, 0.04507874105078895, 0.07322702852538322, 0.0852818417709879, 0.09056530778257532, -0.07725069090004959, -0.06967774782374743], [-0.02967380781777624, -0.02706938471119669, 0.02142802436700049, -0.014294966419191901, -0.033813842317380376, 0.05720276610271831, 0.049406949644855834, 0.06555720911659887, 0.0177732305957401, 0.0821217647613141, 0.04082102712201395, -0.06163374740706951, 0.07754500632039872, 0.038478705021280105, 0.07906508705910208, 0.07539535820835638, -0.005216728270007543, -0.06472950389672222, -0.06949913609243531, -0.030957756456426712, 0.05857118351054296, -0.07698238084595671, -0.00848876778029047, -0.0802370212707537, -0.02566325955360188, 0.08985091257703878, -0.0011883363339300972, 0.014384904738748903, 0.04012431184241438, -0.052123418351051096, 0.03719790808751187, 0.021439496300332837, 0.003890652212814372, 0.06325923987150413, 0.04628126172222909, -0.030626857134777655, 0.008325079426417704, -0.09096858591950316, -0.07355361576702327, -0.079933645636841, 0.016713641500953075, 0.004626662564466993, -0.0784919537187496, -0.060869280065616926, 0.03505055508750632, -0.04062282317744277, 0.09295987717587043, 0.07960580895094481, -0.03549463733552439, -0.004826664798145357, 0.07059441487966382], [0.01271011216952489, -0.05792766594011214, 0.0737398270580175, 0.010954232100719727, -0.028671431859163654, 0.004037355575677403, 0.014276193521541532, 0.05158331451043159, 0.017060352027195348, -0.051454317312558374, -0.08007195126600289, -0.07887416268058627, 0.0767698075122032, -0.030484900331845744, 0.01282418674131644, 0.060282054527628616, -0.07647877751829864, 0.06874550056553862, -0.023364302128705484, 0.021346307638018584, -0.06225662549943443, -0.057001454322288946, 0.0060556148330051475, 0.025667789052301958, -0.0661414059752064, -0.008584907016769058, 0.04834347137316359, -0.01570031291488516, -0.06054254341269811, -0.003685384808403572, -0.023066697498124518, -0.016629333955349296, -0.07677040080625648, 0.02750239577661453, 0.06489099199551093, -0.019175199612686367, -0.004956768565166071, 0.04085544832126341, -0.06256795585888492, -0.059022849446294635, -0.01892733497805466, 0.02651932307815602, -0.060306455253358086, 0.06949296486598634, -0.03886344140853134, -0.0525984190649733, -0.054950045129893516, 0.07945757005575746, -0.028258722859572958, -0.03569147921623295, -0.07537902148586195], [0.048072091041691786, -0.019096375771693458, -0.052247698884818394, -0.06650403085155121, 0.012027441348251759, -0.04424142005658484, -0.07800124094981471, 0.05296875335768422, -0.05661303382722043, 0.06792594994095125, 0.059569810409887854, 0.06510398857359324, -0.07015474209341699, -0.040475799324143476, 0.021948855044179785, -0.032101621322450265, -0.050347228500698074, -0.08038673504476837, 0.003258873168784435, 0.04501659963496733, 0.02958406136008413, -0.007008662149843983, 0.09878292015008713, -0.029998552128974534, -0.07904250442787061, -0.047340016316341174, -0.061428012274888866, 0.10566756394995658, -0.028539572924186213, -0.026304607681957068, -0.003164925244180197, 0.02473445265936081, 0.019125523073510224, 0.10883009818728114, -0.07181264632753857, -0.06175197063742438, 0.04349193417297425, 0.0017304006487260614, 0.021589958069373777, -0.04925183851126658, -0.05550583266103487, -0.07927883097602208, -0.04112409210314154, 0.019508930508298047, -0.023357811439532503, -0.05497159417538251, 0.0583893812703948, -0.08577260727402204, -0.027151933042759015, -0.061826280146197926, -0.06712359987942612], [-0.02271053576714878, -0.08647083078007563, 0.031175135722159256, 0.0708944290577753, 0.075185241871063, -0.09186561378427006, 0.03211219227628235, -0.03199012518859364, -0.0010758195757831412, -0.06408412426867266, -0.07408805705245985, -0.0077095163032287976, 0.0659096204113851, -0.010272234779916237, 0.04556994099502926, -0.03829015624235141, -0.009511530278376054, -0.02916499223800104, 0.023485216596128785, 0.08675382509781764, -0.0903711985028737, 0.10333763056504784, 0.03938517012024942, -0.013004910320565052, -0.03918471525215355, 0.028682351557459233, -0.06522746624040292, -0.016250080333958954, 0.04187008176531613, 0.04360841732936251, -0.017976278232704958, -0.05616466910755428, 0.05682634020192731, 0.032742243824975856, 0.022381656820444427, 0.0008267778336999756, -0.024209546667570785, 0.060830271066681464, -0.06318003502816164, 0.013996603379185532, 0.08246901263423095, -0.08758601628803048, 0.08737992050350205, -0.0157501969504757, -0.030399563413784993, -0.07888001565994522, -0.016609871833808406, -0.056881527722244196, 0.05845424292492898, 0.08254221620927081, 0.04927286044252403], [0.01768757124645845, -0.07801870198639849, -0.043693985347083714, -0.07587424252241942, 0.045336181632347324, -0.030497817116556115, -0.08039511316801089, 0.011060585559869262, 0.028844002222842755, -0.03559121437449763, 0.07530801456830954, -0.06429741487306255, -0.08846848767861137, -0.001198464982528539, -0.056959511919134696, -0.0024345256508718893, -0.07860324632878864, -0.07904027601818535, -0.03527881931084809, 0.09071777149215199, 0.03621041094583552, 0.04053359759255598, -0.0008931692486434788, -0.06030792976803666, 0.061847013547761696, -0.06984412518488504, -0.03470461362482075, 0.049856049669959816, -0.0350056826268568, -0.05403164049976851, 0.027540182228255838, -0.027404303428745523, -0.05648394471939584, -0.002941458914721561, -0.07382991027883692, 0.0029596474851582458, -6.787429857615455e-06, -0.047830688849641576, 0.046950850394287286, 0.056083370196570406, 0.002803149514768872, 0.07918236002239663, 0.0720717179524212, -0.049056542750608514, -0.005700017308271092, -0.10336244570289078, 0.05720475198573475, -0.032543805804979786, 0.027178618046189016, -0.02028430457631502, -0.06185772376467416], [0.010337200420559045, 0.04852634054130044, 0.029022113963376395, -0.03531626961864489, -0.022177470183567992, -0.05653065418428042, 0.02356716989048771, -0.09116319750446324, -0.03459456840610644, 0.028037606659290334, 0.002124384930931626, -0.0919747618082104, -0.04662020707868686, 0.033663620314891694, -0.07970852268105473, 0.02305603025186828, 0.05541222953022852, 0.0009747881511388929, -0.08272955600481618, 0.024738419745704378, 0.05208434528470251, 0.04442039594596422, 0.0880694259377237, -0.05308357796641165, -0.050975464707087956, 0.04100570010307267, -0.0843732543748711, 0.002493913871373864, 0.027314180800684363, -0.08169779755912912, -0.03853459173892052, -0.03152672527087287, -0.06824357606693411, 0.05957471673639922, 0.041044456239865953, 0.008029240670234085, -0.00974547117999553, 0.08728872310629138, 0.031232450944786994, -0.0436343037114618, -0.05988718416618779, -0.07393266374827859, 0.014630068020616135, -0.029587369364630557, 0.012592273850842774, -0.07199369867155854, 0.02311406107038209, 0.011760760131329791, 0.08237668553912404, -0.000819354617931604, -0.07386623162168952], [0.04275645123548191, 0.06875661889268098, -0.026080429490929195, -0.02673939904430461, 0.015035110602492121, 0.027955829228520888, -0.04743001661283044, 0.048372526914859486, 0.009495036731598443, -0.019449872234044614, 0.027460100509639918, -0.05889020936011118, -0.04667840810077188, 0.06586996344132667, 0.09073647261271046, -0.03294667201178462, 0.06014460397779123, -0.010020087676216408, -0.03481588583492507, -0.08079640556478582, 0.005650517301322317, 0.036053001962852854, 0.1142095396812592, 0.000998088999389336, 0.0034369896269665157, 0.0594864440064398, 0.06545368982791025, 0.022488550284693744, 0.0428657946768021, -0.06056235308549146, 0.009300232788724428, -0.06927170807422389, -0.07999315465565052, 0.006898511267757419, 0.05327216815538585, 0.06531399681210749, -0.007941296616436557, -0.02328846774469582, -0.0609546438904198, -0.003563013784606602, 0.04720860939303402, -0.08467203262304777, 0.08918193980957424, 0.017963749335963536, 0.05224552968690007, -0.08104324864532483, 0.09889978705515388, 0.03583765899491449, 0.07886869650951625, 0.10011170070933968, 0.0017247048095784987], [-0.06816740968884785, -0.04347656364675824, 0.0738146897518964, 0.07390946739614926, 0.0780625873210171, -0.008041288131792227, 0.05506053519974526, -0.05488301488444416, 0.047731503019453954, -0.07939830705375336, 0.0852752631922073, -0.05878591442071255, 0.06974739345796822, 0.046589577772124656, 0.07818486689042645, -0.023365944525253233, -0.0556640408849074, 0.07123861901106882, -0.0004630432627844785, -0.06323712067613146, 0.042122149643039584, -0.062261413488014804, 0.0879281177866476, 0.0843790928439758, 0.022498436157973187, -0.04668999558297418, 0.022967810388746377, -0.020465814682620084, 0.10669137475167433, -0.07241056551591508, 0.038285889363085863, -0.06046021049063107, -0.005383596811787643, -0.003293449216385223, 0.07547436583851194, -0.08181892980721045, 0.03661784607300461, -0.06104758755879069, -0.018225785854836637, 0.024412634931093913, 0.087343464214583, 0.011590925240246283, -0.024140579920265526, -0.10578184889533503, -0.0908143640652481, 0.029553940056163696, 0.052723819219722086, -0.043784954727233476, 0.05075122182210157, -0.05280772619315832, -0.08556979051262882], [0.06722777895738924, -0.003227464177322007, 0.05202431001852021, 0.05908115717088602, 0.0729089636422859, -0.049429720673553036, -0.055542640309121045, 0.039571109961907255, 0.031159491867338362, 0.08273048271601549, -0.011011250993113363, 0.07058378820283213, 0.08164983302838658, -0.004892041939805563, 0.08845184753855241, 0.07032853876842306, 0.08916373926350704, 0.02158068742733632, -0.024821687639721576, 0.02002833719291034, -0.07800102467246738, 0.02841373563610746, -0.01339368395966493, 0.03393296854627751, 0.03164683572211706, 0.06014422760316375, -0.0671124243077584, -0.0380772235761474, 0.06009696187491901, -0.019760376864621843, -0.04372800513912674, 0.0016129987666333983, 0.005169768875344993, -0.039251380826082906, 0.008909467803037491, 0.07965090537753981, 0.045755171369595296, 0.06475440144311323, -0.007128254975025908, 0.022375656077633223, 0.09742610325239574, 0.039241812132662535, -0.006392261159758955, 0.026566455702471764, -0.040686861072554835, -0.05116052374419395, 0.04994157590968404, 0.01775169222869986, 0.11527859286888144, 0.03305338816856622, -0.03159047138462889], [0.05272534195128404, -0.05488173215879517, 0.035959873529389515, -0.02489228806768735, 0.07525577022803986, 0.06263795695876923, 0.0069549137145150305, 0.0721904535764115, -0.006285851121156303, -0.017948069362909838, -0.019254075857039865, 0.018563899965412658, 0.09933646149958696, 0.07513906231058694, 0.005045660639752524, -0.04188512228452799, 0.04363408538949724, -0.01045852108116364, 0.02434918140532377, 0.012516163651245648, 0.07318566646353901, -0.004825636930287936, -0.008643423824086624, 0.006162773320270243, -0.012115180238192393, -0.052567317719869666, -0.07671413878788963, -0.0249615153462928, -0.04120088691569614, 0.04537156702680146, 0.04390543844682034, -0.0761329429175505, 0.07696413106394474, -0.00815435962524592, -0.006077712565091382, -0.004979671669674414, 0.04928482348683522, -0.08641076757734557, 0.06849668320544611, -0.02257082540081747, -0.06500955111926664, 4.523768319184166e-05, -0.01384312969395194, 0.03324756384484429, -0.08123402704414609, -0.044061429380166196, -0.049252455550264286, -0.025741343058495837, -0.08734674321050438, -0.07250589575278257, 0.0596166785319183], [0.027522702841491484, 0.08560541479287605, 0.052542155088247874, 0.05787595785382709, 0.08446532946453399, 0.07307041853511567, 0.027695699828748824, 0.07124938555728316, -0.03954821205362585, -0.09019192168341904, -0.07306053023228362, -0.001430644596968808, -0.04536767810112972, 0.02986838331478665, 0.025718217799440512, -0.04698532901853308, -0.02098357926022192, 0.0364866143598608, 0.017453911147742238, 0.026371115336803187, -0.07224907607036123, -0.02775417133976505, 0.06551112050132431, -0.0847832533447372, 0.048850611650102106, -0.014480950681494083, 0.049032432344749986, 0.04463781526209491, -0.010415718672483002, -0.059259628338807706, -0.06141127699385713, -0.03573972585459017, -0.04163858792017488, 0.02261576591035263, -0.07170812719979953, -0.08636554853199836, -0.07866760462928461, 0.01236518704292591, -0.04768540890985591, 0.06037078265495541, 0.010792754217189197, -0.0065918319149595875, 0.08795735198575061, 0.04406013890176341, 0.05315182861195341, 0.023212623719473514, -0.01983698765594647, 0.020471019120312822, 0.03168813300182204, 0.02249563805452135, -0.016710294223900263], [0.03531466575290466, -0.06475420514290797, -0.03032877540855447, 0.08027325978276442, -0.0187635673294386, 0.028400090392275458, -0.07503046848997103, 0.03630543930481758, 0.074975886453975, -0.007874345169448677, -0.07962805775126493, 0.027834151787951594, -0.08442949961402302, 0.04851218074545098, 0.023513635691048237, 0.03344824617677945, 0.013745734023205338, -0.012875744137244844, -0.0744766171471471, 0.004408286935424273, -0.0802864998116349, 0.0026692218219766155, -0.027419772409165825, 0.004150056800448725, -0.03046757302767497, -0.0902336687302138, -0.0914790033707702, 0.04161852974194186, -0.04076214858131669, -0.07486755166940283, -0.0829057665049462, -0.09414165137731258, -0.07202146277142328, -0.01431479991813989, -0.025117932950745946, 0.006415335665892389, 0.07124550232028795, 0.006053303533762502, -0.044859018843468844, -0.027065172640738863, -0.021140608529838695, 0.022642989749550705, 0.019048654859640992, 0.0900864942595295, 0.07857686546222192, -0.05965639764142851, 0.048765659707681645, -0.04817340066079304, 0.04953037426400241, -0.062240087721470515, 0.028321126356804536], [-0.04663170811497921, 0.07141831312451187, -0.04296828858047216, 0.05220470507223773, -0.07163728222821027, 0.08444585855797264, 0.06028613526688974, -0.03280137177018507, 0.016047707937570203, 0.09091412472574974, -0.08408820696224155, 0.04827369177048664, -0.0071387631759630655, -0.03565139716410303, -0.016648959656570844, 0.009734879266725087, 0.047969093149880924, -0.031368759652518036, -0.055801543597041925, -0.0663192220805376, 0.027835430500113, 0.03924028151709838, 0.0023791771764989215, 0.05949291086674792, -0.05816577000656516, 0.013483878643850627, -0.06087915016134343, -0.04764450699151419, 0.07126277875326083, -0.07855999728906929, -0.028307436624775736, -0.004877184707007428, 0.08139751055482106, 0.04356314560394383, 0.01495896654002823, -0.042600637260148344, -0.07042247160183626, -0.06282047021998678, 0.04441751015216807, -0.020578357900589397, 0.02207025305096205, 0.024196248886806493, 0.027375009869721485, -0.049218445492509734, -0.056613287225448124, 0.03720975140929933, -0.06563539043447296, -0.0637906748889424, -0.006294195010305661, 0.0054385416306859165, 0.029794516957371647], [-0.02666998842576929, -0.01080055711889227, -0.06195019092224058, -0.009037044702369062, 0.06773335042672281, 0.03441975899112653, -0.04499964539915722, -0.06740200596755047, 0.0002414091053692062, -0.07489212556351955, 0.03886159173401874, -0.06974298360253887, 0.05326317693387554, 0.06821234704984133, -0.08382015469311839, -0.04925705206922244, -0.0020596193161582705, 0.02667587547458129, -0.07700760284114597, -0.039962300919132575, -0.06649260185330982, 0.002937122889239587, 0.03952100221814122, -0.060972702663172854, 0.023349257091799018, 0.04568639535502952, -0.027489782353092015, 0.016326719397875184, 0.016094895355369326, -0.09082579551915324, 0.0208685886804572, 0.006506117813303027, 0.05547003031262582, 0.1147355029752223, -0.01411694932511192, 0.06748772109574312, 0.0018107029916263181, -0.07510519720709308, 0.01646465413847732, -0.11992541167248506, 0.0940198581897703, -0.09191584587604841, 0.03137351425753513, 0.05518600443514874, 0.07645456255626322, -0.06473743572962719, 0.06396362150903163, -0.012620062643945842, 0.028036421243607997, -0.03932629974843943, 0.03749188242621312], [0.07751018826770156, -0.027533917167322727, -0.05977770522849043, 0.024599428890675977, -0.012891659258017338, -0.07088447003533282, -0.09941888906499358, -0.002596254488110849, 0.011560718839832835, -0.01883290289782475, -0.010995901900620516, 0.028076106779988744, 0.0036110686831834628, -0.0747161275223696, -0.06549190114494059, 0.012911247474250367, -0.03577850411900044, 0.012225806471621786, -0.019629219999282327, 0.0213529056826653, 0.058146949427102856, 0.07422778769317363, -0.023911611654189032, 0.015154227052722126, 0.005533348665539972, -0.04725066192763488, -0.039926501411014656, 0.02442196782846944, -0.041797931253633125, -0.0406940204105057, 0.008310793912882449, 0.06970410897779702, -0.012258932929643198, -0.010353163608469183, -0.0046819668121685755, -0.07743647502248995, 0.06682832438934834, 0.060328556485749286, 0.022795574944903783, -0.07593032079936393, 0.10593330312680373, -0.06945338777341625, -0.0704942626814812, -0.06790910800352731, 0.006611193304065936, -0.07294505072276745, -0.021338937653878697, 0.013839958826680137, 0.008138714910957238, 0.011456951060531765, -0.014331438355066917], [0.00701223642609888, 0.061690766360647006, 0.027355263534419243, -0.06478038910079215, -0.04995864064005172, 0.09471200294800125, -0.058727008821471825, -0.010820072059453139, -0.0016197149304451018, 0.050640171802205244, 0.0372484533830713, 0.0034243610061676357, -0.08466290590577417, 0.03818579516133657, -0.053828978936091225, 0.04866196927742839, -0.023386874355628653, -0.013476587395892891, 0.0798027342663856, -0.04863581886272568, 0.0032576554084365683, 0.03276604866767528, -0.027212050231070022, 0.04365867659114765, -0.027380070205993205, 0.07928062187543948, -0.017920230265951565, 0.06793546542178976, -0.07425607417723822, 0.06844877610097892, 0.0051267027140127295, -0.008434405595405054, -0.024426078530154993, -0.06412882129881532, 0.07141862117971633, 0.05775106145693534, -0.004493126546234289, -0.007333546460101063, 0.06531040756853294, -0.051572415529843554, 0.016351015134657313, 0.032942475590233174, -0.019887645450062687, -0.014666122805729676, -0.007006018780575979, -0.07455269583332776, -0.06189166353568004, -0.0566503741196531, -0.08449607046099451, 0.0238062914697223, -0.05066048444745769], [0.007022796537600509, 0.006342186933710983, 0.009229852930516588, -0.04918400110324446, -0.03420752529260128, -0.09190929897538248, -0.03498685804584207, 0.05674094606813144, 0.08507300878359488, -0.033416985421626355, -0.09475557259473102, 0.07108509977534784, 0.00303155016354627, -0.0586420054776756, 0.05390617822240214, 0.061783458407561734, 0.06421050436601182, 0.0792425625748465, -0.006601708950341061, 0.05404285115006988, -0.00791171657257037, 0.0536358222729743, 0.026351132995121523, -0.010110533614365131, 0.09738915004546363, 0.0036315544035802603, -0.06812432007590227, 0.0034363662939983536, -0.016969885090383056, -0.08945895487062895, -0.027531578236095554, -0.05950365582746255, -0.00947009972429241, -0.045116397232855945, 0.06348459435369654, 0.07040813738083833, -0.06445366658378675, -0.08117268984643497, 0.021762054745148415, -0.09377569476863828, 0.09666236559347881, -0.08202775591832775, -0.030083251642757446, -0.018199647029029063, -0.04408189538065083, 0.0297882796386871, 0.073238886090874, 0.06341048285818553, 0.05114980807314046, -0.021974544231460485, 0.015590347898238642], [-0.05059651321174574, -0.046062209003426634, -0.0196535594610194, 0.0554660863446328, -0.06942103776598922, -0.06703810610954514, 0.008339704408095798, -0.03665253985699216, 0.03835197650691077, 0.006196664249255733, -0.07864997946080696, -0.024482347199721203, -0.05448538468512203, 0.015003453246202905, -0.055352304229368085, 0.012870778154321456, 0.015012538481903872, 0.06073729536535802, 0.024097801908193026, 0.07803113633955966, 0.01033519093968371, -0.04650191232337199, 0.04362372861287249, 0.050030873862982855, -0.03498533446734056, -0.06822229394177248, -0.0597875541022323, -0.03942610959848809, 0.00630959257286973, -0.02170155490699917, 0.05382738626674088, 0.10960688004383352, 0.09002573122694997, -0.06494656256185731, -0.09185831424624519, 0.020598560910314524, -0.031188768194823566, 0.04477688376109389, 0.022593351745652274, -0.07151414500759452, 0.07151131724510298, 0.09368217734438404, -0.007683099684314637, 0.023288692677894737, 0.07902085981334248, -0.05222369183215447, -0.054374737960660745, 0.0023383510242941997, -0.016674059108811545, 0.04925588780116388, 0.05930671745796895], [-0.06872493207097966, 0.05957752422565622, 0.0362334156539799, 0.062480329473155356, 0.005207546183650885, 0.0370208383015378, 0.07055520533782829, -0.045937303956110474, -0.050059728746447964, -0.05405798219656528, -0.043854475067464385, -0.06882236852468153, -0.006548507618219233, -0.018148231626854066, 0.07250723814770942, -0.04492374661907619, 0.015486283965250732, 0.036384571498271366, 0.02895175602751898, 0.030699516301583643, -0.05774670437966812, 0.03153289398031986, -0.01638720068066044, -0.055149569819136046, -0.009643903000708488, -0.07041795729218282, -0.07039988282384997, 0.007085269591683127, -0.08215924903162741, 0.026632348550710516, 0.02978198848059894, -0.006456944126670761, 0.02094308896502515, -0.08180333888045405, 0.042444783783217276, -0.0822995761929603, -0.07486639865849838, 0.0009868197300779852, -0.005687392447171055, 0.012575941492082398, -0.06343166897331351, -0.07989874905378241, -0.042577144648637336, -0.042583479065009186, 0.0797754221057435, 0.08651721719081833, -0.046518448733720456, -0.05294673280248589, 0.06370356528796935, -0.0779800528614032, -0.02901846074003974], [-0.04276970585908506, -0.037864376621696914, 0.029361828848020216, -0.04587914022828298, -0.030728902891376957, -0.01638712455188093, 0.020341382932995637, 0.004745778132624864, 0.0773942288073141, -0.08105421041365907, 0.053049752039614886, 0.017697409739460632, -0.007325709270051352, -0.001197427618087112, 0.04174076507029124, 0.014648656358662896, 0.03302958123682736, -0.04156198492791072, -0.03103617252984105, -0.01469098944053242, 0.04644823322742934, -0.013535476276953222, -0.027511443023862932, 0.022465017828460172, 0.09601088059094721, -0.06608663650938706, -0.09111338864116184, 0.08446513886345626, 0.05323443999731603, -0.04346395024585821, -0.06297640460334127, -0.005986573985640808, -0.09202072109670673, -0.05567992632880858, -0.017666451873418466, -0.022444873375194827, 0.017234110183655837, 0.055269868466812345, 0.05517754925443524, -0.025992330469309165, 0.0721220996684354, -0.09357584125817082, -0.05298294130293257, -0.09598053375179454, -0.028485509304642064, -0.03247020551525618, -0.019430423138973838, -0.045857546998027174, -0.04243972672442027, 0.04497346408637612, -0.04922468810450862], [-0.011364062099703656, -0.017901044537709326, 0.00901093624944595, -0.0017714557722620576, 0.051427167291127486, 0.02273719999751086, -0.029954177480832483, 0.07106259218066492, 0.04988759121452421, 0.0320517380405882, 0.04799698345642416, -0.032061662820764746, 0.06559803083050915, 0.08509832727368306, -0.007301823716297615, 0.003818764801595308, 0.0006078162330760393, 0.0014071704586774902, 0.03603968996018138, -0.043296412272443296, -0.09039376012768814, -0.06588347070496652, -0.004702932694964461, 0.0871350610425859, 0.06314403905055022, -0.025041146121758024, -0.014486616488422055, -0.02843650593087062, 0.05439127527982272, -0.0309422798495967, 0.025492892281030993, -0.05210712783797522, 0.07262866392828973, -0.08347203481595357, 0.04767547626698648, 0.022925619794015233, -0.02940703641885477, -0.06004204864063713, 0.01386059157409283, 0.09150657790172556, 0.03455614282611301, -0.0457537544143977, 0.05111597030547214, 0.09337944562840153, 0.07601813923820973, 0.07755562091103978, 0.050393616684598776, -0.049163743393006304, -0.051955667863018494, 0.03562466538916004, -0.07741827652828075], [0.07853237332418092, 0.06417186821925887, 0.053546047381966264, -0.03880481935709766, -0.09653825953881039, -0.051587158623725336, -0.04298294510783643, 0.041285599299583635, 0.02611046005889335, -0.05060828678737103, 0.01491999771487941, -0.01745498414557572, 0.010998739702980837, 0.03154116028399612, -0.0938215175883154, -0.004267597789625485, 0.04988518674819782, 0.0038064136011952544, -0.03719031072096968, 0.06914814526164106, 0.008243109246058337, 0.02167388486625114, -0.0024846990971581938, -0.020386145159729488, -0.0012632575014515585, 0.040016919455594595, 0.020016412141808364, 0.0063855097938585615, 0.0809731601760027, -0.01892040294882051, -0.018508765829770076, -0.0511744479600623, -0.051027711169625345, -0.012520673294480571, 0.09041383804868507, -0.028648448933033126, 0.0823258454062998, 0.07149686110367588, 0.04953796190644199, 0.045996503375083674, 0.017112940791224236, -0.07065786223038735, 0.0623854350961524, -0.10731215064677274, 0.04986880484406898, -0.11511923665352446, 0.055678854460647825, -0.07533998017750092, -0.00980199198980303, 0.055256803226607476, 0.05567662108673255], [0.07732747427188909, 0.041291227552305576, -0.0775013307193555, 0.06299906680650617, 0.09147499718367606, -0.02836196968087963, 0.04110270508494287, -0.07171755360004967, 0.0012933850057892794, -0.01751384417017247, 0.038112335561294286, 0.01796270342957449, 0.023452313177500874, -0.03214257698150819, -0.015478484636373007, -0.009646301917033497, -0.0005197511921870686, 0.001783700861396277, 0.04949097655273963, 0.06507532605555844, -0.03634716895845587, 0.008418191622559407, -0.07205525402220557, -0.08059214625379404, -0.00659502444846576, 0.005124267778524712, -0.0912250771066955, -0.010003327839331964, -0.06327934696594288, 