{"layers": [{"type": "Linear", "W": [[-0.044729312139396786, 0.07170458108438198, -0.05355799809643434, 0.045079673037263165, -0.09152339261978769, -0.03136425677296722, 0.09481711383652766, -0.06927750823700891, 0.04098769988272622, 0.001640753632494861, -0.023137396086761467, 0.012635484775890117, -0.0576353906300835, 0.04464879329396891, -0.06057461436430365, -0.04313392815434399, -0.08745581677862797, -0.028564963639472446, -0.02243799455397301, 0.07318548760775438, -0.008047439596522304, -0.08611250215488653, -0.031141567539293848, 0.10384292644271031, -0.08595041636205403, 0.036604077828268515, -0.00869806879566531, 0.02721742979184694, -0.013904144914380669, 0.048482239850093346, 9.698659684892321e-05, 0.04660420508529794, 0.08717802760901532, 0.019441471188870456, -0.02352815146102716, -0.066312139924515, 0.07251021869137152, 0.040089439939842146, -0.04269095423959453, 0.09142143288301471, 0.08621701647908474, 0.056309230267706296, 0.05856178797349484, 0.03389941581810314, -0.011991180488710456, 0.07924698056611083, 0.028505675226496368, 0.06286872225101414, -0.08711380737781611, 0.13264394222647238, 0.05131696981782028], [0.08152071150437476, 0.06107429686524828, 0.0026193697214868146, -0.055850404007140524, -0.0666932776157416, 0.007092979927940714, 0.00036152395828778147, -0.0809419472122668, 0.07581399722469223, 0.0015633001764200803, 0.03356948496670744, -0.04926882944392189, -0.04911043729853512, -0.09206652457135923, -0.02679760223669074, -0.04112634037512211, -0.013128549150369201, -0.020574434020569368, 0.05964678945009134, 0.07077595976181955, -0.05751399456351807, -0.020832248921940043, -0.052519669460875454, 0.031247001583052856, 0.08717647090293805, -0.054462039709412845, 0.05036649426856306, -0.03448800841615475, -0.07970528297823197, 0.05012620464337882, -0.030906234158515337, -0.06371844936276441, -0.010308825331174875, -0.04712639328195453, -0.006200243076714, -0.008084345976738128, -0.01591156605533725, 0.0259417835808591, -0.03692007634352833, -0.0715004702875682, -0.05887276745101992, -0.07026422517013245, 0.0016663966540698804, -0.010001106328272853, 0.05825631266346978, 0.006708550116749831, 0.06225023245589697, 0.08965028166594889, -0.0788422074957443, -0.0661079582503086, -0.06406900297606656], [-0.021967421153533753, 0.017403818834164482, 0.03882010025688294, -0.029273732930339757, 0.08986793177002685, -0.09660109615936022, 0.06022955275869672, -0.04781336351536419, 0.06296015123201812, -0.08821824460747228, 0.08977966908759975, 0.04277546186472416, 0.08883068866541717, 0.02036014890779842, -0.06365322706470762, 0.0847553877635776, -0.01094604481197311, -0.08107538619567638, 0.020567133817121903, -0.00027112663467271716, -0.010187717714133893, -0.0609582242361781, -0.0712054788619725, 0.009610389719609981, -0.014001838085325817, -0.06999788804743498, -0.016309031991461345, 0.03290790288683376, 0.03836425572721844, -0.009988670967553487, -0.027890047385702187, -0.02963564299280984, -0.05493100254505468, -0.05419707376584065, -0.025290835546063265, -0.07687957541842545, 0.046297294772930715, 0.022626987819518003, 0.015477625163990953, -0.09257344083157888, -0.048173958675119456, -0.017981286023050425, -0.07020196886949426, 0.058545691896373854, 0.040825605765615405, -0.003002663879962979, 0.006626821022141625, -0.060305122464431246, -0.040466710409027204, -0.03040931938041368, 0.03908986197848893], [0.04207889697167159, -0.1050799739816646, 0.039235538763382635, 0.09285612789018795, 0.02558724184963732, 0.09674516097720583, 0.10042357861074581, -0.0704906227750124, -0.01877518816404803, 0.025130683481005656, 0.06794413299208965, -0.00794478349279298, 0.08298296240488175, 0.042511060053785556, 0.02123587976422231, 0.031243566675361396, 0.08423902116938581, 0.0690423224563939, -0.045718297665540565, 0.06273465687597282, -0.03848321684048025, -0.015573112439746881, 0.10953106984446792, 0.07984745911813344, -0.03407954257274731, -0.014763787209209508, 0.03791752060824472, 0.0755095824090009, 0.06492606720631591, 0.09647160699046584, 0.05532450694973107, 0.0835337366226762, 0.036258202046277374, -0.022314414708088173, 0.04916713555604174, 0.014458847601225434, -0.01161713217882339, 0.12638060783532534, -0.02612026452842686, -0.05860612815444739, 0.1427236493740576, -0.024259034365622302, -0.03698162960418569, 0.04117160639623427, 0.0781446632453239, -0.025005086732384853, 0.0994816584521533, 0.07357263946372562, -0.04171395904604582, 0.09432209018020277, 0.08886306562551566], [-0.016224049175189367, -0.0265083047406727, 0.084069268118933, 0.05337304439922628, 0.0439901299176447, -0.046840104300711866, 0.057117835982397246, 0.016132735639538334, 0.05929654727098486, -0.023501007366593506, 0.05033337884713675, 0.05290797112400879, -0.020882035681334815, 0.026832029578505535, 0.050490592261314964, 0.08945518721192207, 0.07775593206101171, 0.051296421714303334, -0.06567482757804086, 0.01941322014726513, 0.03281069049758023, -0.0718714258219859, -0.003082893022265735, 0.06595212296933795, 0.07650635582888123, 0.07655594343688507, -0.07562119601539476, 0.019439894645967563, 0.07069247638809772, 0.026364501225226378, -0.031437672412394285, -0.08041263175780614, 0.07570344603486326, 0.06530169248955248, 0.03136153967936774, -0.02559332197311795, 0.05889055983383135, 0.060470582628251814, 0.03997663620062327, 0.019647394282646547, -0.027934864414800382, -0.03816045534772462, -0.027649149400791207, -0.025875929030597, 0.002709898551640093, -0.0689894300659231, 0.04708850950250968, -0.028799392597153254, -0.06539030039429918, -0.037813958537364085, -0.02105957467235893], [-0.01386971737629655, 0.05158264278898943, -0.07059582742638663, -0.051756728149805226, -0.037845822995544356, -0.05650383283912576, 0.0446055139718466, -0.07171839663005025, -0.07948464598908132, 0.010178947429918065, 0.04328210294124415, 0.06267053978070687, 0.011268347217616027, -0.0319445259107748, 0.0722553496611954, 0.04424621440492516, -0.004227148098483464, 0.013875986189065555, 0.07882244714134692, 0.09141999805087875, 0.08148137366362457, -0.06596336476495826, -0.032499497502300315, -0.014551092638456622, -0.06176321868546181, 0.047586822846820566, -0.07776128963421688, 0.07182201874216472, 0.016893158016481988, 0.023356049723337893, -0.01733538758041987, 0.08050642488655065, 0.016795110043075358, 0.0685716012640222, 0.0768670665574424, 0.03761072484823935, 0.08497209766183175, -0.002267352892090481, -0.022145069800534375, 0.06076173012930977, 0.004191760756151999, -0.03256443166097566, 0.030603697095658647, -0.004355548020065255, -0.06561360394510078, 0.058924652565375706, -0.0018785152180863414, 0.08891281282110558, 0.004360172411845435, 0.07716524735261553, -0.0359542505326123], [-0.04789010657814377, 0.0033836956778485893, 0.05148701521290726, 0.06401963544118466, 0.024999048822927916, -0.06610728319768917, -0.01570916465630694, -0.08740128850942375, -0.020885015817577516, 0.08430292179368039, -0.030405567673924997, 0.03845120272918416, 0.02396812746351872, -0.06837015326191907, 0.036937066211429, -0.07613609025755616, -0.058318332206658496, 0.016956765027956143, -0.06902801810550219, 0.08561931710159405, -0.011299144779625405, 0.024432801394470693, 0.08803624701886222, -0.06934737672625779, 0.0904129326702739, -0.0796184519165425, 0.020905233249150532, 0.029517805087919773, 0.09433964156444924, -0.023436154760930444, 0.08528125426747002, 0.033017493449130526, -0.0016245449853207825, -0.06204066027464653, -0.03876782705644482, -0.022397828005429977, -0.03278247317978039, -0.013478875644059307, 0.0586840391858107, -0.022543307564607297, 0.03883247462431393, -0.08193720815590759, -0.07028170297966282, 0.05465888324088893, 0.0741148764065065, -0.03365531120340984, -0.06318262829124628, -0.04644424542099249, -0.031784713481504155, -0.002789293667084434, 0.013458922806754056], [-0.028137858260373672, 0.013084992611960089, 0.06615823455676612, 0.0626465489400584, 0.02664801435165181, 0.029280354990919827, -0.03817098074513726, 0.04439345823402443, -0.024579190437923944, 0.077338018526555, -0.027236442898988793, 0.03615802429596282, -0.0011338702920859352, 0.009679017759754662, -0.01546871580604541, 0.019355781673668204, 0.04388562795921699, -0.012507494326886257, 0.013388988279897448, -0.008551551602088377, 0.007400506658352106, -0.023943358780736085, 0.02993543364413274, 0.050602911835014475, -0.05759094285215856, -0.04434925017879994, 0.07205165573264063, -0.0746142651690647, 0.07817371573997803, 0.059706321352179265, -0.04137293810042224, 0.04918815482485008, -0.03249276578489932, 0.07216225580863206, -0.0004797885910992293, -0.05800611639474178, -0.09993906897167813, 0.09534517527855058, -0.04052859486614855, -0.020393893193409333, 0.17946623475442638, 0.05658445233410962, 0.023070254389515234, 0.11145658086521806, 0.0391754828098995, -0.07660822132982882, 0.1840057950059514, -0.017782366536849822, 0.03204239405159859, 0.11090216164924056, 0.08855865407005238], [-0.0889487120289584, 0.08484571954530903, -0.06984581384517376, 0.004762671982623112, -0.007119248698002972, 0.0930491165290488, 0.04178586269127728, 0.08440240820673128, 0.07848704476563974, -0.011471711780113194, -0.0684063431466423, -0.06179054601874898, 0.038520765294281605, 0.07844094972999924, 0.03430889285776697, -0.02629957513896906, 0.017977353665428655, 0.03293930981453388, -0.04707388092464633, 0.035343570194517, -0.05123512861691193, -0.09646304168487481, -0.07569192122756603, 0.0018467336647289383, 0.032970609846903066, -0.04596918183354638, -0.015050177893897782, 0.035591364816490466, -0.03983955936921898, 0.008106553390971048, 0.01789068191066583, -0.014787849074806689, -0.04907575036477451, 0.035385013441121584, 0.04592361507814922, -0.05328263648855, 0.053677830024405654, 0.03752301772355179, 0.07086094418065438, 0.054385253173936145, 0.012416843164705807, 0.04341014478069182, -0.03833656224021361, 0.04445152651210796, -0.07239510169628731, -0.02436571385822636, 0.01915078700233033, 0.07451063372559738, 0.025078169724696623, 0.09446668934634492, 0.0715712884933176], [0.09874908267095395, 0.00815934632180555, 0.03598432098783325, 0.009599937321150612, -0.06772145404286796, 0.06893959562749752, 0.030475687327221543, -0.07973198791246912, -0.03288844957715942, -0.03657824220506581, 0.024442155564240873, 0.030827510836581442, -0.05260982784712981, 0.015452382097049714, 0.026173869073716213, -0.03661977084875251, -0.008910352091033587, 0.1038040693642499, -0.07184221543805969, -0.04946472771950965, 0.030858449712459768, 0.06501901199442912, 0.09911034661761729, -0.0054538044937467636, 0.05130646596176284, -0.05050854354615465, -0.007015632622493453, 0.07067953392274333, 0.0550454127667964, 0.0033948431254062924, 0.031323085232500644, 0.02060353273140678, 0.022336108528384635, 0.0706717127830662, 0.1414425981510256, -0.04186029888112262, 0.029136789778409458, 0.13632121369161804, 0.032551634496334615, 0.014686676165832814, 0.06565908127578496, 0.01117586238293349, -0.007847437266733325, 0.11731156702972832, -0.0565363768927094, 0.10567479625173973, 0.08163131705420693, 0.02293497700258059, -0.09301874140860525, 0.14788904922461096, -0.06373049498170984], [-0.02220251351356309, -0.03401687011064632, -0.02183086913477664, 0.007864312823335978, -0.07833064245860326, 0.010845119524295972, 0.059613070008120904, 0.007100823906633088, 0.09873849925519208, 0.09384847377356664, -0.018916522726366812, 0.005778090615821522, 0.046973192388262835, 0.053076485638769606, 0.020234047878537827, 0.035434268305106015, 0.03523927041438983, 0.014201561230252109, -0.003296285570056515, -0.018435191314900314, 0.002556863487008413, -0.001727302435044574, 0.07501580934762625, -0.051401737083150906, -0.06545886709140815, 0.09660835752890673, 0.013806587041253753, 0.04065934207672026, 0.10086839840356239, 0.054311766917354246, 0.023418595543211684, 0.1069884365832443, 0.03436243995281457, -0.00959993773896386, -0.008899241715253095, -0.05098871667621712, 0.03827478906125343, 0.12195040584130172, -0.014904515407008477, 0.014828011514684263, 0.11531457817998676, 0.03174136359350988, -0.06310017609120487, 0.1620684478912564, 0.021709890238035136, 0.04698810539399777, 0.14805262465924166, 0.0007183841497783881, 0.004019012733334448, 0.05380594146879151, 0.021002029352969957], [0.03328564812604848, 0.013098635880784948, -0.026434702061721774, -0.050713184728112155, -0.08583483057408399, -0.05716606045061023, -0.053948091513120015, -0.016137997316778906, 0.02423695649989942, 0.046559479634233736, -0.023428024474969264, 0.05971830252934887, -0.08679265360000168, -0.041429265319604176, -0.05823151086138561, 0.007797343712742669, 0.014050729449206316, 0.026155570540146268, -0.015117777500109677, -0.02492189245140012, -0.020485433976830968, -0.0761086966138947, -0.038673392987608524, 0.008026356460542096, 0.006436181148729864, -0.055786290316720534, 0.07408116988809217, -0.08541021782979728, -0.0461407237540891, 0.0012462720284630987, -0.03241812093632116, 0.02425091367736144, 0.04543653736371328, 0.020063162005826276, 0.09283236761010895, 0.004846880822831034, 0.02194616738056767, 0.025709332966439815, -0.058154967729756375, -0.06879149481914815, 0.010208238262292906, 0.0007539636225795716, -0.054991811538706116, 0.08242566038451561, 0.04160494121570841, 0.08577528886109753, 0.028006983783849755, 0.0948303912003255, -0.1114370614061998, 0.16534051992896143, 0.09962444194000779], [-0.009901416715748058, 0.03516018968105022, 0.020701560665940786, 0.02986902441361206, 0.04144960871121052, 0.10079074263283681, -0.0254792014130307, -0.07619963998238212, 0.09599702393084096, 0.03498672818225712, 0.05041270925241062, -0.03315756528609521, 0.06379741667614477, -0.0878052850427909, -0.04550012588277883, -0.02901826930177013, 0.07902140224046439, -0.0027251447880785487, -0.02066405721774437, -0.039376183019608366, -0.05961867084243733, -0.0006116536673436795, 0.031147201055781962, -0.012763718085731391, 0.03904872405981001, -0.005943865710764934, 0.10634378392187674, 0.08771334811584346, 0.05481525254574106, -0.05459896663335904, 0.019960240512602232, 0.05046533246151844, 0.045416823673643844, -0.011241081257130687, 0.1164745998936496, 0.10811698655606147, 0.014383212940136848, -0.00810518854988964, 0.04062126469845488, 0.037438897428842585, 0.13394036444379484, 0.0987750370248249, -0.11072514952705731, 0.04289638487148498, 0.059275832987152624, -0.05683466097206132, 0.10455831400769543, 0.07687283624331531, -0.06733323108969107, 0.24325112795603943, 0.07345675001529961], [0.035299931022211344, -0.03882302152203269, -0.06335457830665611, 0.09520604393520819, 0.05206725937132672, 0.08965621181887824, 0.004604953160392992, -0.056352484635268645, 0.0364394818263608, -0.004843459845976429, -0.07077691110043428, -0.0589526375234817, -0.019764039471924694, -0.08030524528634773, -0.02997824827112696, 0.09453894564522562, 0.08060023830608395, 0.08244893366874785, -0.004902462790460507, 0.04691418866159312, -0.04938501449398881, 0.030496509196874026, 0.11058797778231953, 0.06483889260711666, 0.07984204010955684, 0.04260666307572952, -0.02380188189971948, -0.07832247319815303, -0.01318800354602981, 0.07204614566144091, -0.0013922565933646132, 0.04336665937053441, 0.06707074782728993, -0.030905018732868095, -0.014117379417510465, 0.08224455116338032, 0.007552045784587888, -0.0352097664350241, 0.04730621881134545, 0.051124460757789876, 0.13548667110134247, -0.05577589279390218, -0.05700878312684925, 0.1275568347301044, 0.0425704236955541, -0.017981352053977957, 0.20114698773440043, -0.02412662383671641, 0.051800806182482215, 0.05140631031137793, 0.003710775659424014], [0.08721599802961778, 0.04151884698184077, 0.04084822496931138, 0.06683046740794543, 0.030634053837053365, 0.0020272649309765146, 0.057967687738032375, 0.012741789216706413, 0.07766863823830064, 0.044845592670761374, -0.0839634501410299, -0.044174534513928734, 0.07254324655943838, -0.06361724169838778, -0.09533325623633974, 0.010357326740313939, 0.034537919069808125, 0.0816388849982688, 0.08929892061899752, 0.024099474760619858, 0.03070267184022901, -0.006916340806514343, 0.052665189588607796, 0.02948518412430742, -0.056437959956300514, 0.01588634189187576, -0.08837299606121407, -0.029823606304622725, -0.042060453084838655, 0.0706374640576165, -0.03964535957229331, -0.024447463176241566, 0.005785857761735657, -0.057523588910435804, -0.026512379383454913, -0.0425268144361199, 0.04424612062000001, 0.035948770790521334, 0.009704260969448566, 0.06308243304356996, -0.03360179971779442, 0.03953833903268707, -0.06751398512471354, -0.05287898684187185, -0.03794189955507515, 0.0641215372956638, -0.043082212144480964, -0.028440815163150744, 0.0385465629326661, 0.039261854160564644, 0.05475968393352039], [0.058446179887364856, 0.021456045440886033, 0.0651024679280284, 0.016305692056660763, -0.031473024444626754, -0.023997801843657865, -0.04182418380718472, -0.0414289788491794, 0.009669466120772447, 0.07287122560591011, -0.05905863265315016, -0.010911737748747458, -0.045504481215949036, -0.015175948922214074, -0.07129818785393668, 0.02684706925516545, 0.06623121742572613, 0.08413461671816469, -0.0302287412965101, -0.0612524191656785, 0.0509772995424806, 0.04957740755667846, -0.04362918401686632, -0.07175546766410196, 0.031836211626705135, -0.010981288090237285, 0.012865207905401, 0.014341527092883851, 0.08516527279883626, -0.05972112774656479, -0.042057348613281025, -0.07858648901953796, 0.043010380422488635, -0.07364083827804734, 0.09774022566071999, 0.028509033117449876, -0.005870480431995144, -0.009295138587823848, 0.07601240875484797, -0.06005560825842478, 0.06989328209524227, 0.0693755756177732, 0.016281743881889608, -0.025171093735902317, -0.0619960663505954, -0.029084769238745478, 0.11640782632501834, -0.05720025560476629, 0.06382341870238577, 0.14466888286870105, 0.02246449141660857], [0.07520315826185892, 0.01982863871159699, -0.05417928790846304, -0.009660073355800283, -0.0933123054422226, -0.003395112822824056, 0.09488639390227242, -0.02459983720809959, 0.03807349627063017, -0.017447146270496726, 0.026100756601234804, -0.023202838724669394, 0.07724545505470351, -0.024731673962766966, -0.03451904819289096, -0.008730835608478666, -0.07698519679246056, -0.02391544579963416, 0.039576439170638564, -0.018289400321997995, -0.002358618513694284, -0.04649668612313093, 0.07004086170054627, 0.07723317293273511, -0.0203991951409437, -0.08311793481423219, -0.005933064638642958, 0.07316060238919367, 0.03965181942116461, -0.0425896287552251, -0.07161791279274314, 0.07891130544417504, -0.06963163877766193, 0.021653643009672773, 0.04164760385704261, -0.05120603444475104, -0.018897830724866335, 0.09095449674200698, 0.09793507191379883, -0.06997297014911451, -0.04863622447513426, -0.03656243018050636, -0.0940700692291091, 0.11895858487231589, -0.06938214115281932, -0.0158233768778427, 0.11515752357734378, 0.0010093818475128927, -0.06571723680489948, -0.030658960189109893, -0.04252054408578595], [-0.030564824909057042, 0.05503175966676645, -0.0034966493125736828, 0.015484246247861337, -0.05365896975499012, -0.008136194379589805, 0.08123407435795595, -0.0813205673193393, 0.04551511066068539, -0.026248365172656617, -0.024268388844285, 0.04821952615584874, -0.027672213208052094, -0.012564148429306065, 0.0059269357339483365, 0.00030001697011895447, -0.07764974505327382, -0.011651069550056093, -0.025084572293443182, -0.015072978653388747, -0.03083559198281189, -0.011223611972852014, 0.053465233618067334, -0.0699933689161453, -0.08189043118912841, 0.018633984759814638, 0.022127453183778713, 0.05339459113755908, -0.07414475314032826, -0.08198972154593244, 0.020761341237325256, -0.03404624509386761, 0.0068154744855711815, -0.036810514369562564, -0.04801946086745409, 0.01881205948804002, -0.04236239672726236, 0.02510961269374812, 0.07508794991846442, -0.004441800971541866, 0.10861270488682831, -0.029573099043625508, -0.06875581313093171, 0.03039357856841373, -0.028812927183157082, 0.047260414062359125, -0.007650997870852395, 0.04918429896301619, -0.06563790946089992, 0.04855886292336603, -0.043725723740559705], [-0.0619913797864671, -0.06658561527027354, 0.0918691212126477, -0.07016053506961605, 0.07686660860551658, -0.00428198950920736, 0.07233882327433033, -0.059581316794212566, 0.01834202354459604, 0.035998729859164136, -0.036291354886442036, 0.02394898080802668, 0.0732284577164839, -0.016606351827679094, -0.08226081990430645, 0.02340847288691354, 0.05315881752646334, -0.004780472453206598, 0.0588580253360487, -0.028177448546270505, -0.005654312722599127, -0.013862738262323171, -0.06516240259963885, -0.07582271936752975, 0.014483758453544566, 0.07238195280018435, -0.055106928609040505, 0.07531041464666223, -0.02450452695907492, -0.011944267266667948, -0.09854890812572166, -0.08823487587056444, 0.017021922929622593, 0.07351340478050236, 0.031935413268050036, -0.06491844165987315, 0.03002827260248573, -0.061558386300541126, -0.0025440801980406305, 0.045378397088880355, -0.007009428273658693, -0.030871719611706105, -0.03352128770389628, -0.02872910549597567, -0.08642952706610835, 0.035707248384666615, -0.0016571626434291266, -0.05451112751898908, -0.03366724042451604, -0.06847815840673156, -0.0029894285938290004], [0.015105111451192471, 0.021565397009821914, -0.008823455074372688, 0.08985719129435403, -0.06493653081370619, -0.05415118824651921, 0.010633192654980922, -0.017080300028483632, -0.0347108101694477, 0.043384980518524456, 0.0020997420536014565, 0.014468182841487424, 0.034481857350681565, -0.0155348573743724, 0.003275080226344055, 0.08935309551743012, -0.06235785549623694, -0.005327178060615683, 0.020544326154339165, 0.048663631295178006, -0.07393964274344664, -0.07192704018242016, -0.0401830144308924, 0.03138653624446458, -0.052468949529343605, -0.08096369990321249, -0.013382051383654484, -0.059094775478322106, 0.03794169435652103, 0.08273164078312108, 0.04965766594116428, 0.017866328924555263, -0.016169443671858182, -0.08729642381083176, -0.005781197897345832, 0.0051667824541801, -0.0384125768198336, -0.01041790075304578, 0.08223990996806496, -0.023609598006590488, -0.0330469881122172, -0.009272701895589137, 0.07694882837783056, -0.07444652870269934, -0.0047776772218480704, 0.0853178518611219, 0.020584569826883125, -0.03225610081892502, -0.034145940285338836, 0.046422412606680855, -0.06642825735157971], [0.08338808266489585, 0.036145025010157414, 0.0747450305964494, -0.06121513621717156, -0.08764377191375017, -0.03343515339408789, -0.0052649436102114025, 0.005954304022890593, 0.021668144655965192, -0.08438142122207888, 0.08052990356113386, -0.06486224577683455, -0.05715001625251329, -0.06747354850030365, -0.022768306705485866, -0.06352724316348111, 0.03868136185817115, -0.027798685930877736, -0.06704066299416744, -0.02376852979793416, 0.05820204754776363, 0.009751853804904901, -0.08023518094104652, 0.015515415638610771, 0.004882284605800538, 0.005619402645161542, 0.04514061749665699, -0.058650508118775355, 0.033442020354448626, 0.04857463123874684, 0.08653877250132572, -0.013895989887402123, -0.05140199233279693, 0.03905584583540945, 0.09023771958172731, 0.08560454440403158, 0.018157607771358435, -0.03273881447859731, 0.07678912560502683, -0.05944096064360028, 0.026544667624287258, 0.06510481423783804, 0.011682939951465488, 0.04580191377712923, -0.013402294370832549, 0.037941693918762315, -0.049322659036955596, 0.032687976888978516, -0.06937088717395688, -0.06178525881066807, -0.06987404467309088], [-0.032606805279990894, -0.0924499006952342, 0.03848728507580017, 0.0760759072579044, 0.059152712454281026, -0.08244449187737432, -0.0018209071944653194, -0.07009926896767056, 0.014791040311868267, -0.08764447954057683, 0.07967893417749457, -0.006979275050487341, -0.06098646305710766, -0.018999860248852505, -0.03331044779539919, -0.002834049721761529, -0.015580271601940634, 0.08677564486795507, -0.034043704058024274, -0.07992925608308363, 0.010818140010019784, -0.006718333217033545, -0.020680962348583912, 0.08592010744449971, 0.06323667152410206, -0.013405751076599914, -0.06522141619920216, 0.06752573755175371, 0.05975820381459369, 0.07847153312228264, -0.01905660769490264, -0.04212710608729326, 0.005527989293689843, 0.007413526051810461, 0.053737252077301255, -0.06482031481203676, 0.08529110045305431, 0.01751181327738118, -0.037474223778739685, 0.02252055587120542, -0.06280294497064942, 0.06137231247153443, 0.004422929306311689, -0.03812327436832637, -0.08084260601257731, 0.011724548596143478, 0.07601565534801848, -0.04646424443497825, 0.07971189739541301, 0.041691832243208556, 0.0037575020777021757], [0.07908904232490743, -0.02794256020858736, 0.033806123128957706, -0.029637209595877186, -0.028277153208499536, 0.001711962003268045, 0.07567248819636772, -0.07397943932014155, -0.02148671381740125, -0.08572254571893598, -0.015388773937426643, -0.08146330613186148, 0.05067499817533365, 0.034477240728961384, 0.08139655632553115, 0.04183619114335265, -0.028406438763516256, 0.019091647062698402, -0.061249861383507756, -0.011646704786746532, -0.07521954580507634, 0.07901289563464799, 0.028065828660955836, -0.047749404856613206, 0.0015557697081618538, -0.018974475329551488, 0.0680515771262345, 0.023102836193687915, 0.03194154265822729, 0.019785143307485365, -0.07721559498988019, 0.008120499165475685, 0.06068200759190881, -0.018010236597201596, -0.09762123803680024, -0.03758596336378496, -0.08045505276016687, 0.004489645346282558, -0.0068140591925016855, -0.07406783179585817, 0.05943414286334618, -0.048962456147479655, -0.006755864225289818, -0.07950992183011904, 0.0012398700563510307, 0.015199013986246408, 0.026392194476578684, -0.09225821183986824, -0.04817433649059436, -0.07460377592040719, -0.03861395409969254], [0.06512050178857369, 0.05487135670327461, 0.05708131050065661, 0.021727123302449025, -0.09897635717154404, -0.02549230338386012, 0.00886976480736791, 0.030459864067167185, -0.008372034086113245, 0.0014233374728462905, -0.04610061219040222, 0.016348718105435, -0.011163885224884791, -0.03871842644545067, 0.09055244123179453, 0.02629992773213774, 0.030892469655615484, 0.07780010532359116, 0.03756218759668703, -0.04525452860993461, 0.05850601988123049, 0.030823261236560037, 0.02253461306116448, 0.048808565555184986, 0.057260506030591594, -0.024786569483806933, -0.025963054719991233, 0.016339821619662784, -0.05279342874913354, 0.0645899611438771, -0.05091636884466639, -0.019980982991971503, 0.06408100199907568, 0.07318723328719844, -0.0032941533327995173, -0.05708981108320617, 0.020432051692981665, 0.06215950382533043, -0.006035269194000973, -0.046925603236800145, 0.15176089164012743, -0.060741887945345005, 0.054510874261463, 0.024198348706619317, -0.03331827019285416, -0.007069257691327424, 0.02241746631984458, 0.060341846378066534, -0.07986485658231361, 0.048467778205740664, -0.016527347994856067], [0.06166175406437422, -0.09866464219636777, 0.05922691150848028, -0.03219270351728477, 0.011086968341198006, 0.1014875882633611, -0.05412167141763218, -0.1036067592662036, -0.021117295120605655, 0.048478410778437654, -0.06548276345914703, -0.01825552361344384, 0.08706442295328838, 0.048809086284411225, 0.0994302433091197, -0.04614606721623957, 0.03582091109855868, -0.01985166588731106, 0.0308827698450525, 0.058964040655088, 0.04400668988702956, -0.002100969135127815, 0.044948083913401854, 0.04870170131497188, -0.06827046769164541, 0.05632514677628149, -0.053947144802772545, 0.06360264775247525, -0.00863758966066408, -0.06077275353644919, -0.0888792796805649, 0.038955319503945485, -0.06442358649244191, -0.013189380604107447, -0.03837901806111713, 0.04856739297885381, 0.05595986373878054, -0.04109691151907171, 0.03473702766723943, 0.0388047437220069, 0.08653377041907276, 0.1007618742827841, -0.046610108932734665, 0.1531292182454476, 0.022320218915257765, -0.04134687964125782, 0.06087155998843472, -0.057792861360264236, 0.029326233967314593, 0.05336445970159836, 0.03105171099424377], [0.05517639947694763, -0.04387719249708478, 0.02836751584877464, 0.03806843142465715, -0.01206664466406775, 0.05245763696399076, -0.00849160997207996, -0.06445228437245587, -0.07428041252716831, -0.06076051472881941, 0.042899974421744695, 0.0013853576520633099, -0.06286790999009967, 0.08222729095275169, -0.08862874301886482, 0.017643807885489964, -0.004337159148805338, 0.07121764977529478, 0.017533750573758326, 0.06327579944182299, -0.05026569339081016, 0.016125023146356804, 0.04955180600606759, -0.022979392357360868, 0.04583626335007496, -0.013061181602457174, -0.027899434716301127, -0.034828518824205075, 0.0310177438255456, 0.08980159186431932, -0.07571585182250345, -0.05293978271054183, -0.07929543274161246, -0.062305829115634224, 0.0010617320050971314, 0.01151715657795702, 0.031458283342614586, -0.06728185120556866, 0.06423156037380698, -0.05206729158023209, 0.051137718868176, -0.01865620361695685, -0.0034301916556026173, 0.06503421825164786, 0.07603746970200279, 0.009844388627529208, -0.0786486015147142, -0.0338688867155802, 0.026353788273069518, 0.0573892219854856, 0.0719310723123868], [0.0076326249150019294, -0.06301122202246208, -0.04909460063145871, -0.017552734746593572, -0.05505174979053103, -0.03634182547109529, -0.03595441297379404, 0.05337149782470323, -0.015431578081713186, 0.009447527624364505, -0.025900139870044272, 0.03392182044124913, 0.010559693764383909, -0.06478773782901534, 0.06965325566546525, -0.07203026019910076, -0.04558879764022263, -0.08342875830055474, 0.054821775823839285, 0.0651698180723714, -0.015312184238940292, 0.04860553206144314, 0.045424872495715966, 0.057769780975453176, 0.07015544965415119, 0.01651278331444109, 0.010209424837812574, -0.08606727173026264, -0.06446113801203193, 0.08309935270367105, -0.012561943875941988, 0.058598751849829524, -0.058374690942080185, 0.057128859850023264, 0.021555195055718897, 0.03501146577094148, -0.02691812950582996, 0.057284606366872666, -0.038020054369670146, 0.0776440709371867, 0.027729661875309494, -0.08403138524025563, -0.06672666088165724, -0.07768575788997548, -0.052056346318552424, -0.029111901906684137, -0.12824927904336234, 0.03753859830372925, -0.04915694030461492, -0.053004596487735194, -0.04030240686183149], [-0.03708077751371237, 0.023232263658699275, -0.09308925588833128, 0.038364421351470744, -0.0007380637644894556, 0.03946074119955304, 0.05251540679294042, 0.08226329780703055, -0.0941877302654942, -0.04883609730852346, -0.02215257907472823, 0.004633415795445304, -0.03986784724138908, -0.005092292488344732, -0.004239001169680366, 0.04768526057730528, -0.07604252731978166, -0.02743497995384005, -0.04692569552175592, -0.013652210440248164, -0.030744261195555178, -0.053476288172513875, 0.07174683817924306, -0.09526867100905329, -0.08978339400361042, 0.03439451856623316, -0.05682564439457387, 0.06902218161326977, 0.014298766657668611, 0.05655339253815158, 0.06978015920894245, 0.0323432989027988, 0.0806430503870523, -0.058852382825508955, -0.0738914429316704, -0.09141646815739883, -0.08601581182319189, 0.034414380623088776, 0.033783096333261896, -0.04336821787443607, -0.09502317739977702, -0.07807309596259869, 0.007602914073228862, 0.05308198107520943, -0.09600737112371135, 0.007368840337577348, -0.007202568622586193, -0.05020359150121931, -0.04914247707215147, 0.0340351017460437, 0.0466949173613378], [-0.02478409355808217, 0.07028336198637711, 0.003531372904233889, 0.07120805178478622, 0.020766976988219228, 0.005529491923539811, -0.02058816981839565, -0.09123001254083157, -0.011116514854682251, 0.05207493825673841, -0.04732648432739242, -0.02335360691521265, -0.032972632794242916, -0.09420519125266738, 0.07968644163175347, 0.03205658055605297, 0.022818333967059554, 0.07435417976386245, 0.013942672874358708, -0.016866258602268716, 0.07621018295870322, -0.05141293976713537, 0.061006410406886466, 0.09848456486698574, -0.06874176378065452, -0.030315841376772505, -0.013156308311857068, 0.04155716242478926, 0.019613437716668083, -0.007105553205158521, 0.07533557095701081, -0.0018195644398636727, -0.03962954794746344, -0.08299587534565454, 0.13853199337221436, 0.10133631052242888, 0.07341643743126613, 0.06967002199064093, 0.018233301986347504, 0.09732175389883206, 0.09466452612540742, -0.015684928379502583, 0.011472831683779057, 0.04459773456198328, 0.013489150688786174, -0.042387479639244476, 0.0670328840097685, -0.010089440219919732, 0.0038553050015684934, 0.17541725550315526, -0.06750804033471718], [-0.0019588371083176215, 0.062210058692635725, -0.07408591389990644, -0.049902756661310624, 0.02547013107943722, -0.03715655476859437, 0.07199557136908058, -0.08572941698234818, 0.031838643489245526, 0.014885832682666574, -0.04121036466098854, 0.040979778395641014, -0.03904857628927166, -0.07652697199269552, 0.0008242215454991801, -0.07955564867840838, 0.014298678970892438, -0.05384620376511308, -0.0017510694316217395, 0.08483857471592376, 0.03329595508705028, 0.009419169992341114, 0.0493363531992627, -0.014945792132313932, 0.010206777432910452, 0.07665170581317471, 0.08692432802578161, -0.09048945205026947, 0.016010003658561322, 0.04580456401474213, 0.05547591195883004, -0.00388593398369615, -0.07086173368946053, -0.01277321163145338, -0.047030018851298296, 0.0006964065268669832, -0.06559041273590203, -0.07454504856849051, 0.08131759662983029, -0.005449134700877232, 0.04521754364724414, 0.019969491917171785, -0.016005227408810663, 0.0098241197400832, 0.07309930411799156, -0.06461424856380132, 0.021291492973777446, 0.08437449921386728, 0.09293863997863765, 0.0006313575535610121, -0.08236629183175583], [0.03848603172072569, -0.02104873725257234, 0.10148035915063823, -0.04080210202791566, -0.09000216421401723, -0.05917507900195472, 0.0117450707730609, 0.004641296644629168, 0.01202323780371358, 0.07937110800068388, 0.0708148172859916, -0.05216416363052819, -0.00035515110201307854, -0.030782036220797768, -0.06171142782391382, -0.04958719731588129, 0.009826408691798506, 0.0006698453497384062, -0.045701657815289176, -0.08001435445273018, 0.05124864512875696, 0.0720097233825366, -0.04190441374286038, 0.08020493075758937, -0.020130776795448384, 0.09957269222981559, 0.09553342571925384, 0.08385830967740261, -0.060176506019079166, 0.05731468672557229, -0.08343097514664444, -0.056974000704686535, 0.02762770213927176, -0.03482070919790205, 0.14150635819615331, 0.015840319644024003, -0.05308842044145509, 0.059413446694573824, 0.010320807929233464, -0.07712357598803785, 0.16572467552198436, 0.03205731804086269, 0.02162120985989204, 0.15874412049304687, 0.06476772797877085, -0.07274344205092645, 0.1626811931377584, 0.03758073296379498, 0.008238729332769484, 0.1447740363252219, 0.08254344947219715], [-0.07867438921772398, -0.018875727014079483, 0.04876939699220386, -0.023660096359170293, 0.08252279661635081, 0.07320683850684488, 0.009754470147153419, 0.0450312506399047, -0.08495908934212063, -0.04432323417773445, 0.009487598672800334, -0.0959706674515675, 0.02550679707581032, 0.007890887833807767, -0.06989805896098662, 0.0308796194946839, -0.008244322492436834, -0.08262192810597496, -0.05188052171441787, -0.05817058515191215, 0.0002360060087969531, 0.004419632346191135, -0.0149292633104994, 0.0664387970857335, -0.08985995783520588, 0.05405048351451968, -0.01452624861503997, -0.060659794262839135, -0.04149261595901032, -0.051050684783699736, 0.0766451559386333, 0.005145896820137443, -0.04247504463851367, -0.03631087777049629, 0.064616941739763, -0.04720018427758713, 0.07021226284396961, -0.041517952587264866, -0.09215251021446039, -0.0953055397954931, 0.06048283995785232, 0.0751810691362626, 0.0741601810261865, -0.012346068339114426, -0.09403583211974822, 0.0004104995794798083, -0.06662680245986569, -0.012992830456180212, 0.07989470734101323, -0.07926005558033872, 0.031925637800069226], [-0.0655893967587567, -0.08907718903082573, -0.0624984296955094, -0.019043917469423636, -0.0782088305721358, 0.051725099558644884, -0.011061254866567664, -0.008860579255637172, -0.04435999009394182, 0.018934264501085, -0.09454723159661467, -0.06332633029964575, -0.0636923863833709, -0.04341670184110688, 0.0685201008594519, -0.0350203458714612, -0.05322860240913633, 0.0029231355093343576, -0.09503494617541464, -0.02617114297441726, 0.027715194673819738, 0.014978124212340625, 0.07922575321329269, -0.0011868543812490339, 0.003576054824096979, -0.05736049658750104, 0.014481048715222551, 0.07483495398060233, 0.03148420625913306, -0.07401006845869565, -0.015313821734292745, 0.05825080724037018, -0.0791470099472708, 0.07852136605626767, 0.07336870162680244, 0.030096080619799223, 0.043217985123110335, 0.02172773462513352, 0.034286230997340704, 0.00278399422042951, 0.07424812354266201, -0.05023607869163715, -0.0436913698875091, 0.0008684186432210668, 0.01857112451974156, 0.07468449522640422, 0.0470946136501347, 0.011623576063509956, 0.060204778657699846, -0.016249585259517828, -0.03575282439855034], [0.04571761352106478, 0.03264976108210297, 0.02768081314464142, -0.023516359446299404, 0.028668194063150982, 0.024137323816169714, -0.07365763759417049, -0.09574013208948542, 0.08043340673682466, -0.01568016184504431, -0.0971761967009656, -0.018908555223894775, 0.052082196884509, -0.09949291495612429, 0.0012814383132531853, 0.06986802676069008, -0.0166574762193258, 0.009168878627689793, -0.07955421716562108, -0.06175116759676351, -0.021883332738416684, -0.03531816827293353, -0.011765401827260198, -0.05071565932206494, -0.03862385653326495, 0.05194603247125821, 0.10223219787932557, -0.011916398709304278, 0.04557206140693491, -0.03738728394590179, 0.0016336496312164253, -0.011530221257345877, -0.0050063532448770265, -0.06353800666025305, 0.16221121031772448, 0.07722815559342212, -0.08882515540665782, 0.0017997556451712856, 0.009297503334864385, -0.010155237669167316, 0.2148279168954424, -0.0329279465439421, 0.03803929099013021, 0.22360089535273941, 0.02534946038056494, 0.08408107776857625, 0.2532942239175882, -0.04269258913698331, 0.01780750031366431, 0.2785057339052806, 0.009937381197277209], [0.05375738176550348, -0.07939328537159673, 0.0722931828572565, 0.08594143313138942, 0.091760468949447, 0.07125966892419304, 0.03661485168380087, 0.02670625550988232, -0.015172241970186184, -0.011764948157616492, -0.015543593276946894, -0.06055502875109101, -0.08560250371050576, -0.024215970690448858, 0.08229575870574206, -0.07658704055544105, -0.026310063566406177, 0.01049417056011944, 0.05342282898084352, 0.07328945190213453, 0.01541511333207075, -0.007317512996864888, 0.07287948270266992, -0.04250813555902524, 0.012853279316986052, -0.01431609677093851, -0.018295870331544076, -0.029334738534970026, 0.001290484068519301, 0.06948134569956868, 0.0754260234376955, -0.07507597897322454, -0.014985492630896848, -0.05222588641503465, 0.08011527121409855, 0.008826482203443908, 0.016523434424821043, -0.017321213064330973, -0.06245840168985319, -0.015837744101978808, -0.034030449777705134, 0.05970913790613362, 0.04539914440549721, -0.03515796436151318, -0.02668935940170987, -0.04702565519773589, 0.0782347826557272, 0.02741107892518962, 0.022265318027222997, -0.059667544990800826, 0.08377589947584119], [0.0631231955388034, -0.05445068632356048, -0.05498999653449313, 0.060504369755204374, -0.07159171929659451, -0.009036076276082076, -0.030633157328957192, 0.05326883949344723, -0.01074804783697744, -0.023433242189424584, -0.039060294195178875, -0.028994766621265367, -0.0927014122867425, -0.06695444351622079, 0.01822016177413, -0.004589014441707366, -0.06295658495841544, 0.0067556442216730826, 0.014136915529294832, -0.05070081425353665, -0.032772644888528525, -0.02183413458275298, -0.05214343516446129, -0.04606087400132633, 0.015528414217041245, -0.08453557638576593, 0.0585554015507282, -0.024377251797035843, -0.06103526442054585, 0.030258038841543693, -0.06950628610808421, 0.012790265384270442, -0.09437290699891152, 0.06891885921043618, -0.07768060094914205, -0.06762238066335567, 0.013673340360251304, 0.010860972528530778, -0.01878698506384233, -0.03166395151543937, -0.03600006619989171, 0.04635083566358121, 0.01659481293485678, -0.09031804248294073, 0.0545579234874119, -0.07023137193266445, -0.03621528035223055, -0.05853410843437583, -0.02604407781734361, -0.13337037246440728, 0.0042761820802640115], [-0.0786669541352699, 0.09310572271315257, 0.04163818325449371, 0.07002061279095467, 0.003031227712710134, 0.06140974626619506, -0.07133018281233998, 0.0014590055624765766, 0.036238428434170446, 0.00419611367266101, -0.057590484716571216, -0.04916205373175186, 0.04498874768761753, -0.08024593498743811, -0.09683964974905906, 0.03941098482107858, -0.04091620506520037, 0.005890329011486427, -0.05004121285537561, -0.04717975638455316, 0.07816261282761823, 0.07951868830249305, 0.06442371952889443, -0.011025675023140325, -0.03559441588028955, 0.04087603452101094, -0.017352207706318217, 0.040529985710231, -0.01322952329937426, 0.01770205492669927, 0.00033872028106766717, 0.017666635411788364, -0.023948259841369397, -0.007055016876553494, -0.08285656775844898, -0.00036683196187754167, 0.08532711808384855, -0.08333348792995869, -0.07292274733929034, -0.07069959562280015, -0.07850344435093706, 0.04083337465056257, 0.06990150536688229, -0.04931030175366139, -0.04128675277207348, -0.06852983155381813, -0.040667501574273915, 0.0448553413233579, 0.07846934898746309, -0.04007576982181514, 0.05551389499744647], [-0.05293303620508741, 0.07767417691843, 0.03263011479348643, -0.0426407840656938, -0.003077502820431391, 0.04090142372557609, 0.06407753054249025, -0.03115144090878615, 0.04184987453534046, 0.0774047149024653, -0.059522677737906884, -0.07200002892115166, -0.047928916301543105, 0.04249528684382968, 0.08634178142584359, 0.04381337660800235, 0.07486870587498552, -0.00243680837608831, 0.007997348981501772, -0.00013165526875443114, -0.014459330994580872, 0.0339509722680719, -0.07599639454119442, -0.0610661180517765, -0.05576876649925451, -0.04005878229417563, -0.06112598118055925, -0.08230766152761457, -0.04444387982118215, -0.0745867621620405, -0.04380622438396128, 0.04035906267139303, 0.047677072319652944, -0.05656944939501291, -0.038072971096273285, -0.035898617487166, -0.07798134277761183, 0.07665720013861062, 0.04312037398801285, -0.01063333083358206, -0.042189817436515904, -0.018455004488973123, -0.08564739808295269, -0.0687688305125259, -0.009164444199446047, -0.061165657030910245, -0.015420661448367711, 0.046231602582673594, 0.0609559024880115, 0.05314506172214369, -0.05890493253295026], [0.09299029313139226, 0.07176406673039465, -0.029412458801203512, 0.013739984991163329, -0.08377979217517614, -0.004209212469664653, 0.004253713268975631, 0.05060549316992003, -0.06564987901739945, -0.06590788390604094, -0.017133590161567087, -0.032188621878814265, -0.08797657003831778, 0.03208680089418711, -0.0720684183791895, 0.06501974642443188, 0.04144776510403312, -0.06095357774753551, 0.048894528782025055, 0.008040322424215941, 0.0029437562135153686, -0.02747749075874502, -0.0033652986118139334, -0.025998622170315008, -0.032064180213670926, -0.030332687166382353, 0.04078870758804604, -0.07627714250252854, 0.056693280329899655, -0.03292054282879003, 0.051371470494616885, -0.07639569170473044, 0.06271210402069648, -0.05268299207505486, 0.018066122364233647, 0.04276312235608158, -0.025110490396724673, 9.405069372278222e-06, -0.02788851163646806, -0.009241973868095017, 0.0019763975164820264, -0.008141934157836555, -0.05421831223707936, -0.053024887480137235, 0.06389772758189789, -0.011428878731487329, -0.004342640742717036, 0.012037176599817154, -0.008920031547703756, 0.13532739432755955, -0.054730782274674906], [-0.08645641407407605, -0.024135701115821546, 0.07245862356754598, -0.08890265302952989, -0.04814354892242509, -0.06059494645137114, 0.058545697201991535, -0.027599683984469665, -0.015616179616927212, 0.0041722961769098, 0.08394945415480853, 0.020135053480848618, 0.04158008016193064, -0.026962690041176993, -0.0626877144025104, 0.07038922588764901, 0.007078387787105049, 0.014468754066998782, -0.016626871155717503, -0.015477377244713203, 0.01231598542625206, 0.024598105063343517, -0.071445385675911, -0.08569958511539691, -0.018633360791761908, 0.08592829315374192, -0.0564617323768545, -0.026682037826140856, -0.08983607388063203, -0.03206271542113657, 0.08501568476031113, 0.06146167535229269, -0.036506698241667544, 0.08600914242576102, -0.02238631279266671, 0.07245868638759308, -0.03585058549051474, -0.04479470576735322, 0.08565695059883428, 0.043266179151757324, -0.030282483882459237, 0.0507680517404486, -0.0030122842068155795, 0.05479771486653875, 0.03935852139386949, -0.04368430327210004, -0.010586849472299199, 0.08343828378458153, -0.00842179514108655, -0.05013286744127494, 0.060982360883485576], [0.006211974298564847, -0.08027900733771039, 0.016065453266058294, -0.05237897320141508, -0.0432653768376807, -0.04531518032861948, 0.013339801494935402, 0.009912819884293985, -0.06321809002745184, -0.06186014759265455, 0.01107389535484561, 0.030871015617342488, -0.07994014981046263, -0.08708087053930347, -0.06734210501796635, 0.019900085064714263, -0.08288838424988108, -0.0387928253636768, -0.032421910476952566, -0.0725957164985231, 0.03869143789782033, 0.08622913971904815, 0.030532334605032338, 0.008467673592978195, 0.08488982150061283, -0.019543980090910684, 0.08768615299311612, -0.0581044621814683, -0.05143724792994197, 0.03583244399547275, -0.05648632359357728, 0.0806124136665261, -0.01390618974372718, -0.060078245164888015, 0.09377146817917012, 0.048646507301224357, 0.018177393315049712, 0.025105772928665268, 0.027292055839172092, -0.04676712538310205, -0.0034470827587337696, 0.04787200428461833, 0.06237347499889232, 0.027129245940576988, 0.023467459525560022, 0.016101478672859715, -0.02533938042669882, -0.04379164012485099, -0.06937760778694964, 0.08580124157270078, 0.03175813182674413], [0.05676412948447682, 0.058983444991012324, 0.034850303621476994, -0.02669387395952286, -0.08392993142407774, 0.01847751072737536, -0.07028630745071968, 0.056616045238907474, 0.07330498378961728, -0.05515918361395711, -0.039801209094139645, 0.015259383100561475, 0.04910787860723538, -0.02044184282560458, 0.08918867323406819, -0.054898502005803554, 0.011957957424310122, -0.0660509058805381, -0.05870418164110995, -0.0669463279978684, -0.030467822376125202, -0.015437915927696116, 0.05569074028624071, -0.07785791199842095, 0.07829424281817775, -0.0420304806709204, 0.040117318365160616, -0.05714100402388497, -0.06277738720341135, 0.0027832194766303974, 0.001898349721222049, 0.10277997432267791, -0.05475969717023059, 0.07087953776044177, 0.02869924200026694, 0.09654665548063796, -0.08654636525222924, 0.03850016314206832, 0.07987680464163216, -0.02164029057288441, 0.04149712306641172, -0.04480686768283547, -0.06136629491669078, 0.032461621835548654, -0.050902689554001214, 0.03996943757171965, 0.17227057801361834, -0.043685731327259995, -0.054233664042624134, 0.08541085994178797, 0.01599114500584505], [0.018866450577470835, 0.0691307399640444, 0.06318836701479165, -0.07687726717751828, -0.034827886164729496, 0.054074902448675716, 0.05447708593064691, -0.03467239674569974, 0.07498918500262072, -0.07269454992969364, -0.037458577780047124, 0.0022182506905372595, -0.05517195122164086, 0.022210382059895357, -0.08300710145699286, 0.0821277647866244, 0.045428472819139296, -0.05004912821582462, 0.06336068765357525, 0.011833170321315537, 0.06664499353981204, 0.08750960897042694, -0.0519222504719792, 0.08037570305511485, -0.05995770691312914, -0.05900599499874835, -0.04438892084757481, -0.02343110531762635, 0.0033659227943299724, 0.03431989301524727, -0.03521747484327758, 0.03703869301178292, 0.025138094817785797, -0.01102594413000598, 0.10412268266255016, -0.007872006966756958, -0.06549176027721443, -0.06889339119829288, -0.003240074662138039, -0.01351227052230697, 0.06576347407371744, 0.042885039792334184, -0.057411423710311105, -0.02454207281432322, -0.056874045304058894, -0.027402341124391966, 0.00200075489716278, 0.052995276637928315, -0.012604020189503977, -0.03348742360243837, 0.07572355132439258], [-0.043366444667126955, 0.08803031903895259, 0.04732532286348671, 0.01788385065261222, -0.05473058672777922, -0.05540969498221646, -0.008484946149003702, 0.05910237365130841, 0.009326278082100245, 0.03640358826794288, 0.03638720096056909, 0.038646036506986725, 0.04968240481575108, 0.08343535498721368, 0.03865749507497679, 0.013766417405152788, -0.031096821487493466, 0.09006063353893358, -0.05610033243422624, -0.038447474712330294, -0.02476471972181186, -0.03062025491317815, -0.08374364587369862, 0.05008379485999319, -0.020361967605289265, -0.05642228135801871, -0.015639737200077292, 0.049772942233158014, 0.09706496800439153, 0.019189328235328124, 0.007807464643168734, -0.0696670859301621, 0.061299051108470656, 0.08288065388218742, 0.08067346940502368, 0.024412070262080223, -0.02438108534721483, -0.018346749814188164, 0.05728062200140913, -0.05116941858746089, -0.06815215007130916, -0.08596693915480759, 0.04153280143136865, 0.10462204618382734, -0.06550749093165065, -0.013616190121814297, 0.09567025144571667, 0.00047305631380478084, -0.05511211258944883, 0.07810502512210984, 0.09280881724115922], [-0.07914517507223735, -0.006663761887283561, -0.0004563229903838686, 0.008667216466539958, 0.001233378913662928, -0.0062560091062690585, -0.003304664237391259, 0.0005248273795508633, 0.09193121442696138, -0.014454638173770969, 0.054611391390907475, 0.09537100632855819, 0.02386826146586128, 0.02439074053560526, 0.07793212176452696, -0.013375800799925142, 0.013578267700366816, 0.013476618076928884, -0.07553193875246045, 0.058317061942140425, -0.0648655608767526, -0.01138951477785764, 0.015006832269154936, 0.05165930771283031, -0.0804257402653606, 0.039088394276476195, -0.07177262824147386, 0.01944097805190978, 0.06868772625663544, 0.09491242080732308, -0.08329005701729485, 0.07587817178991622, 0.10142774404166956, -0.03857956396853687, 0.1276237227902896, 0.07269348584718541, -0.04907173016838825, 0.041271084671722316, 0.04678801167471688, 0.08814398162591427, 0.1003278041547925, -0.027780317265476428, -0.08487306622671367, 0.04170451695125052, 0.006585753385904246, -0.02569071986168353, 0.11013607443840075, -0.006834986746652549, -0.10075653647183107, 0.02018349431925057, 0.047958818189929926], [-0.016707695747824464, 0.07241717044402295, 0.08041699500251696, -0.01957334391022453, -0.07425697701301041, 0.06894927890472828, 0.06947176971979149, 0.05068092161759793, 0.05994262950700512, -0.08952695670343964, -0.020561143536498357, 0.03110791993158099, 0.06323103134871819, -0.007236776167648906, -0.035533706134442865, 0.0020182598451162505, 0.0488781715106795, -0.06286895825004583, -0.03146207874734345, -0.049321494137342534, -0.06165135931389457, -0.05552893646715646, -0.09147615434244954, -0.023541882454723047, -0.04181932288092014, 0.058009153573623, 0.06137127235066809, -0.0551698416273981, 0.011122010132972275, -0.01284015260435689, 0.031820329177982075, -0.00764676556000388, 0.08076969935389634, 0.024983360228117205, 0.07967266420833176, 0.05664467187796912, 0.013211107693077706, -0.06632529787476726, 0.060094836697548205, 0.06605305201192582, -0.0089170786401763, 0.049248946864561334, -0.023420839509791926, 0.03659803943286256, 0.007905820884069601, -0.04290867012393883, -0.09270047685553338, -0.018313346333724487, -0.02387293557793862, 0.00888949816504099, 0.056364652493036106], [-0.03196415272663577, 0.037462797509372606, -0.062116911076756126, -0.06887388267256664, 0.06964670375376929, 0.07608244080165152, -0.03596608520599729, -0.046141199159570094, 0.04557386424205847, -0.03746526561861343, 0.026630455476953033, -0.061609297420914956, 0.048120633806449604, 0.07641537883498664, -0.057107821028707435, -0.07240911746441961, -0.03670201474221769, 0.03737703687690222, -0.05352892230820699, -0.010515359081174411, 0.07991998329060203, 0.014904337162537905, -0.003573876396996908, -0.0638041920689569, 0.01816702135870544, 0.0017617241976146977, -0.031240694051651505, -0.004171432154952144, -0.03042060894799681, 0.05388619109502005, 0.011322797175669027, 0.012031958457908007, -0.06258339587953773, -0.00927222638084482, 0.06709540991895492, 0.0753171625617448, -0.043760327862757804, 0.009758467135422812, -0.010792514718466626, 0.07037682506903384, 0.03292377447499072, 0.014122604720082923, -0.021549829245757865, 0.013217696894885219, 0.061747466474812676, -0.06106293541677789, -0.06757621076267974, 0.08771929877602061, 0.07651316459318593, -0.026052992129847213, 0.08938945548120582], [0.019239312145837573, 0.088722243052512, -0.045538116220907296, 0.0806374884174541, -0.048755098199164515, 0.0416059396076635, -0.05461278405621046, -0.018355906398466893, -0.07111858837520048, 0.0822958784450526, -0.004847574794326228, 0.010420595010546381, -0.05904565710754604, -0.022565679458120522, 0.002875259562618224, 0.07681144778369414, -0.01538195386822157, -0.023228449475362723, -0.07896173205878862, 0.031019006320200784, -0.00149131919066776, 0.030951288142839428, 0.056100459071074034, -0.08027327866192685, -0.039301715979258016, 0.02952875380429366, -0.023169784159465235, 0.03628164279749236, -0.05144572214287637, -0.014319263597673569, -0.007520175431728228, -0.02481820637971257, 0.05432740935366193, 0.005961875557466021, 0.08241350046842623, -0.006727970781756355, 0.07160669165965608, 0.040995971398551025, -0.05587835792825334, 0.01927985580172825, 0.07155146297286734, -0.08820302711704597, -0.029255004867743753, -0.05526862185258421, 0.0015261583551081565, 0.014191589412022471, -0.05718605861767256, 0.017029853346214527, 0.013083541524066041, 0.05293283174940823, -0.056260107429269283], [-0.023608961368672375, 0.08068812294720218, 0.01896230359847949, -0.0432081712266609, 0.06571186029215786, 0.058366849219805714, 0.03746043601013153, -0.04257144027457172, -0.012471795518872028, 0.02403543179649428, 0.013450354356889396, -0.04066778032989283, -0.05263343479910048, -0.014440299685231058, 0.050252816931144084, 0.04557669395362285, 0.006584128515130007, -0.09565863604811418, -0.011041214119709984, 0.02464475816928679, -0.056921245471565254, -0.009786829127395636, 0.0020443552598684253, -0.06587565358330558, -0.0571875079664899, -0.050851830909659716, 0.07949331158760142, 0.07680790065279115, -0.08760728248372629, 0.025400654447479316, 0.06799070461686675, -0.024780186714944388, 0.01580074346314713, -0.021711211872279663, 0.0658378794051529, 0.020566346339545093, -0.02118818257238152, -0.024772633353523334, 0.07964870063143416, 0.04414048632726703, -0.09113686296436845, 0.05736614714357735, -0.010938199339521289, 0.040005028858806246, 0.06790379828064744, 0.033214764025833995, -0.041217940736711395, -0.042692412438800224, -0.00951690896314682, 0.03249835469021737, -0.030664157055427372], [-0.006606110050018327, 0.07536409051057796, 0.0835028796499583, -0.07670346482193613, 0.05574632601769576, 0.032904243147653015, 0.06074281129774203, -0.07959714963306437, 0.1026064027017765, 0.09926651411783932, -0.06388435917926212, 0.017931675973366496, -0.006607623657256193, 0.03535568385809749, 0.03498966254491535, 0.0640067565608356, -0.07964007516602169, 0.033508787589699565, -0.03197522947509261, -0.05459506767185289, 0.09429999865682223, -0.04319844002723656, 0.03303906525054698, 0.08113152052623614, 0.0009027048496289352, -0.036048164372122556, 0.02126996320403549, -0.05468723950263723, -0.04239904364340053, -0.05474353241423082, -0.017397476579022336, 0.09298768988073054, 0.09729361496199249, 0.09122105444387231, 0.01640786872637611, -0.08124194297918658, 0.042657429570972044, 0.08041878944135586, 0.0857643215250097, -0.07808292705627169, 0.13926194415435836, 0.07799463760179216, 0.058258008747431846, -0.022472469821183217, 0.0847987213486813, -0.06224158954010003, 0.093910314231381, -0.025563352746375483, -0.006774300015010186, 0.0796764042754215, 0.08781446330159338], [-0.08842993614118694, 0.04739792656176326, 0.01710704759200666, -0.02870763734761125, 0.06189309500403964, -0.03497914655748779, 0.05370653249603059, -0.011518662768684539, -0.0012498708234312424, 0.07736160346360332, 0.0459124767449548, -0.04537865926939718, -0.07306758056625126, -0.018279795702533016, -0.05304194587127432, 0.09328822503990938, -0.008411746174922788, 0.07772924223470694, 0.08771815030969651, 0.06562013898431222, -0.020315499863051527, -0.056857414601174446, -0.0035201982619063395, -0.042600889661434084, 0.033239694593692505, 0.05141310804084839, 0.08514811157378911, -0.025701759384050882, 0.05991367687533011, 0.0476925311060704, 0.02675669100208856, -0.048091439500695374, 0.06489852297862464, -0.02589713108565416, 0.006133108948318831, 0.05076859275663403, 0.08310833485749264, 0.07954113069802798, 0.09033847009709878, 0.09098274287431322, 0.08117803386915462, -0.028032437186140496, -0.042901482669491446, 0.09037149330754769, -0.05962127122292684, 0.012861835796138886, -0.0530879375475664, -0.01910732401798912, 0.008406084697272805, -0.0144719139503382, 0.038670492590090456], [-0.0349872432257384, 0.08381563737874469, -0.03796050984058146, 0.07240615337958597, 0.06665607974686122, -0.050081392299530576, -0.06930663761544612, 0.011941501733058949, 0.07619698270535413, 0.02094453537647837, -0.03066645617848436, -0.08586291407676035, -0.08759257434067559, -0.0207917086932964, -0.013849970735595397, -0.08135066234851394, -0.08988481370846348, 0.025819038158454856, 0.0537882065234564, 0.0052340029192746995, 0.0651642513329152, 0.015854307177721294, 0.03730170591398985, 0.008109753774510224, 0.07969134756161567, 0.08592514617740123, 0.0038650223992013166, 0.059685146106495925, 0.03836443112492669, -0.06173220088526311, 0.0744320554448905, -0.03499437505245248, 0.0027996138363131887, 0.004500167407207032, 0.005583412686875695, 0.057463246574259504, 0.04093130834198875, 0.03279633608047538, 0.0917877105807486, 0.04796094417808919, 0.049626084385611766, 0.05090039177758608, -0.082979962751992, 0.05783674417950787, 0.0638661969442284, 0.06119423177084621, -0.03221411204010069, -0.08252681928309595, 0.0830266653715258, 0.021324391744625075, 0.0474356927014612], [0.07253730928426981, -0.07713324192353804, -0.05031034732365675, -0.03767949350884931, -0.03602298289029661, 0.016970296376532676, 0.06891357809000354, -0.03154565060761658, 0.05534286799231214, -0.0758753336691651, -0.07438324284598766, 0.06982135492131618, -0.06694542062293606, 0.008308890187886563, 0.05465188823902931, -0.04573324732621009, 0.06853360443293902, 0.04827313938691104, -0.0686198450413929, -0.03565319978640048, -0.06475072757169345, -0.07483377985499959, -0.050776308683184154, -0.0015159310873365255, -0.04725065421145446, -0.0148514358267096, -0.08297727298514604, -0.07429205000296558, 0.07313115670722864, -0.04621003468728941, -0.039096857449028674, 0.07453676828968078, -0.031692951983714725, 0.0024102323400279667, 0.06287047414518547, 0.04219312116261966, -0.014123847618439059, 0.06898160934498034, 0.002814438237223034, 0.0308615304275928, 0.15106365639733707, 0.044426787838733744, -0.06578070336655953, 0.13656497226845343, -0.014458047781539784, 0.025231910454202807, 0.09556767701525762, -0.035332364728222834, -0.10155170163211262, 0.11083581458027147, 0.015132993250396532], [-0.04454496311077697, -0.0005925937052314658, -0.07523894585754684, -0.055286715822036134, 0.053392462929845154, 0.07682243231368852, -0.03954700040348442, -0.08389746642743551, 0.004213844732559824, -0.04263629786956338, -0.06222530447768158, -0.08079604111631222, -0.044194740465582, -0.04309880258038716, -0.027250521734954777, 0.09245989353169987, 0.02785923451431406, 0.05786164190124218, 0.07550282880243536, 0.03060268764143101, 0.08653690827675936, 0.08670677754830561, 0.05357015216138138, 0.028671314376294953, 0.0010521962783761234, 0.05039079030568893, 0.05438150605815115, -0.06112792851407617, -0.009894943434480255, 0.01006324970548916, 0.05233020862338405, -0.04671744643849592, 0.05242855087165487, 0.0775775838059708, -0.021183838645208238, -0.06268902921538923, -0.012720365788747995, 0.09073951008974156, 0.08730828101975, 0.042364023886920336, -0.014652022139951556, -0.06270303192332904, 0.030497493517887945, -0.06362800343644692, -0.03488193488003007, 0.09203271089642856, 0.0923898532256529, -0.03355286265498843, 0.02921390846901223, 0.024638515170600537, -0.057189758433138185], [0.07970656280770107, -0.007301296024156424, 0.07201915572943356, 0.0068984135998004245, 0.009675954509774532, -0.09329964052308534, 0.049912820166285565, -0.010136148697593956, 0.03444741957706204, 0.06190741017444457, -0.0502884614095924, -0.07871453063673127, -0.021283942224033882, -0.02781771873191568, 0.022367824909390422, 0.0709257722621058, -0.0810010041680445, 0.028231514094921178, -0.0631074825694203, -0.01626822081359194, 0.03355178581758379, 0.0009171303057073011, -0.021369252731398496, 0.05745211521026917, -0.05242172771602341, -0.04273040466733799, 0.08683043679163038, 0.0635569493025754, -0.009815653760687262, 0.04325037405657125, 0.0017070474425215168, -0.015722014897140393, -0.005421270919220494, 0.08210121154833142, -0.015769239757791736, -0.04409438557678009, 0.03319760972187715, 0.05588303477638424, -0.0874123151081021, -0.05298419281118086, -0.07991414440712397, -0.06412675763384572, -0.025457538337443006, -0.03795612950351702, 0.04824139539457522, 0.01197470705202902, 0.04191367247144055, -0.006963693260911273, 0.0464836974266269, -0.02621991419679903, -0.0033462188151479676], [-0.08554784646267234, -0.057072931154069154, -0.07680197266674876, -0.09666276215517008, 0.10143398786927345, -0.0670451516140733, 0.04335831922346119, 0.07148531000486584, -0.026749063280861407, -0.08272669048269644, 0.050224976189416584, 0.06365041050004897, 0.044716309253166324, 0.055434393944061716, -0.04048470675718182, -0.07265144979731165, -0.03311486298436833, 0.038855073946892804, -0.05768715631769003, 0.06191647413296934, 0.07813190051216233, 0.07966802726830509, 0.06622792274624408, -0.08607749177857016, -0.0598936948419542, 0.019263953852903592, 0.003973797631331276, 0.01469295621975944, 0.008142626198195831, 0.00854255242511205, -0.023025585145781322, -0.09467604391446668, -0.024790065250677534, 0.06633211214113952, -0.0718147864811441, -0.022489241531373917, -0.02128671580524958, -0.019229675976263145, 0.07627115743725413, -0.0009486419723364881, -0.14191473756857942, 0.0249504750361457, 0.09765920167748722, -0.04533489473089238, -0.0767334220056097, -0.07064388229759352, -0.039507949017250084, 0.028736144073798285, -0.04785405289889627, -0.13978496792885858, -0.09540342052586026], [0.021240447647396285, 0.061293875939017896, -0.04644055224932511, 0.039411031966035744, 0.011194912600231569, 0.0018984729779658125, -0.004633657536696787, 0.012961369547584438, 0.029376705009625585, 0.09233436026313385, -0.006345027368946547, -0.07395986489356375, -0.05902539675740624, 0.020588156383966744, -0.003638840132602417, -0.06019422704329184, -0.08074769313646157, -0.0711160646396982, -0.012749477950184579, 0.046930120624559576, 0.05847140634402244, -0.07876604253139444, 0.05720091927196318, 0.08860152740959218, -0.09181315685180623, -0.051019426690642924, 0.08804533704732045, -0.03818307018090784, 0.03956956372292167, -0.08514791940404616, 0.05593579887888133, 0.07039097459999558, 0.06754783383015599, -0.08806321099470228, -0.05509324570304382, 0.086852588533354, 0.06923828980152376, 0.08198041801151577, -0.03857673900383326, -0.04188958191531941, 0.022218002983621345, -0.07143125000193618, 0.059641091805091806, -0.058876500126121285, 0.04229348254201202, -0.06152642166300507, 0.0720721677715659, 0.004425824847816582, 0.08099553581610998, 0.020873829645828783, 0.07963972531546015], [-0.02655325316423728, 0.04647874590126568, 0.011669981696828617, -0.04607708052882375, -0.0690185783153979, -0.07622216245671642, -0.05672800847594304, 0.010512440359246407, -0.0538915568082737, -0.04951598492211445, 0.08079185475853708, -0.0022769708126121856, 0.0855674785215265, -0.08835309346711788, -0.08321913145654894, -0.0026757811046780517, -0.027958673007529536, -0.057673867169675506, -0.012516062501570835, -0.06900965265957222, -0.0037334326482079297, 0.036045060990789184, -0.06653622263925323, 0.057571143264882656, 0.017742620688287036, -0.02989483368433735, -0.009717428899944395, 0.0010493711769321574, 0.025415428142681915, -0.08636036889280066, -0.038858444403149776, -0.06269292139358267, 0.06670671464076454, -0.021272575346807737, -0.0351900412760355, -0.05139575882221102, 0.07717948172499804, -0.044645037138627455, -0.06247504069279613, -0.07992676970673257, 0.1011305906184245, -0.057257717748108325, -0.04064144491310116, 0.0982231264877899, -0.022478420239452804, 0.06950136323129914, -0.031694644489967574, 0.0011221986978758845, -0.05724046525837159, -0.012496975444481808, 0.09404793875213213], [0.010451205166084658, 0.0014848743173039348, 0.05035032026363998, -0.0864766728975251, 0.03733245688387139, 0.015595882563349267, -0.06786616380233737, -0.06311972939576019, -0.060000243287148, -0.029220730219251694, 0.013329815849649606, -0.06931316035816962, -0.07304919130568752, -0.048628915290364984, -0.06671626090650962, -0.013631752988000026, 0.0018740949389670974, -0.039980554523113596, -2.431523033100128e-05, -0.004307968492928298, 0.01553056393947798, -0.018646262995362976, 0.013642540641236373, 0.07207884293328409, -0.0692035712915758, -0.0003941998106973098, 0.09308612849512558, 0.017957762623112942, 0.08088475372522567, 0.04783196447299821, -0.041803480528671215, -0.006815880466300003, -0.05925342515713302, 0.015513580014416634, 0.049163543074679926, 0.08119458239740224, 0.05845671078932129, 0.040327021045981126, 0.08680999214796642, -0.07942316532947694, 0.10126050296980597, 0.04009281278229774, 0.02808554244054366, -0.03361608326670673, 0.024451011419580698, 0.019287755353531236, 0.018059320008609343, -0.003526375557127865, -0.0650148911036547, 0.1422213817638862, 0.007534160345244455], [-0.06526831976358968, -0.003915190902846597, 0.0422617729043713, -0.02300694188724409, 0.047930731906601555, 0.02619433035773208, 0.056291058545041614, -0.017616668626429195, 0.0012444701202895508, 0.05974700499040972, 0.03436064125600205, 0.08409035148752605, -0.05399845716309326, 0.003470894770574804, 0.03373788475523297, -0.05001671213250521, 0.07256124666775303, 0.06680840676559364, -0.09209304285634265, 0.05796465709098035, 0.07604123200633107, -0.04044916957789602, 0.013937002422194731, 0.09129138163747241, -0.006772862056070108, 0.06065047024790219, 0.03981149717411117, -0.026326428129832054, 0.10073512078429332, 0.06348508163165323, -0.0721500320901212, -0.041209925985867354, -0.07241495975608922, -0.02883363824559619, 0.11383392848160091, 0.0753336643631765, -0.004264643559816379, 0.0948788750490081, 0.06590649642168199, 0.007977907046652475, 0.06557434015621087, -0.06854079213869838, 0.05744100698576907, 0.0664958074360845, 0.0938256860086586, -0.0627058234612011, 0.08725520870582074, -0.028204156712187397, -0.06485746996593283, -0.026312498928567275, -0.04489933164228591], [0.05976072412959057, -0.03309770103523565, 0.09815925053417869, -0.039368059478392364, -0.06332254335557815, -0.01755357580557208, 0.08452898844142501, -0.016700100504848783, 0.06947812615173708, 0.03561177069108508, -0.032727389991494056, -0.05586247183265737, 0.059464613209520026, 0.01177935464967084, -0.030931700293288435, 0.032186030297605514, -0.06883973930814141, -0.030392696046321867, 0.0035675817300139345, 0.02845787264052513, -0.043813009620692234, -0.08270625471783183, -0.01982370319394053, -0.032865456889384984, 0.025349744449474673, 0.1010447379818039, 0.049382815835728816, 0.058619941410659036, -0.011286948457754952, -0.08166353783967739, -0.02610677751056697, -0.06621045022738427, 0.01965199864853125, 0.0755753966882737, -0.029602974725996125, -0.02392502167186614, -0.0034954773818884465, -0.03795790259645335, 0.027312775487312736, 0.05195399705411704, 0.0390739426481755, -0.02921449611460665, 0.01111000242855832, 0.13459176477242207, 0.057247213775618484, 0.09639004898671892, 0.08509169463791029, -0.019400860140263577, -0.09951507506330921, 0.15986343130522684, -0.060620783272993646], [0.06716032681330182, -0.06974399273689001, 0.04630524330596438, 0.0098184757134725, -0.061681629252133476, 0.07484635830320184, -0.050356512147301254, 0.04036150485412773, -0.08140532682924814, -0.06289238017654836, -0.0896209306214009, -0.024981326637921224, -0.04634186673147658, 0.047566051707946796, 0.05713288865081967, 0.06674834253128278, -0.0624552655381842, 0.018221858556783904, 0.03890052488594456, 0.016124356465728344, -0.011855005823825912, 0.060698189165716156, -0.047189685253613126, -0.06754887591321419, 0.061602293055342434, 0.05689044804316083, 0.015825517738198867, 0.008471500136189108, 0.04584159611560472, -0.015877125324648158, -0.05809260034234017, -0.06559988885033242, 0.01623509447042514, 0.0200434799219327, 0.0062786514193191355, 0.025977414055775905, 0.018810289941653523, 0.009232769992148105, 0.014212660298383865, 0.050123255091899015, 0.005162463571318578, 0.011382005617237222, 0.022515449172504684, -0.07061772646914193, 0.022830148872486043, 0.04886929617589287, 0.029771905668982492, -0.002049366282121687, 0.08423925285326861, 0.0037625416919696915, 0.0024935759325072923], [-0.023177783887436722, 0.023302094364335033, -0.03398589817153394, 0.023601352754357294, -0.07409387428796368, 0.07512101473737892, -0.07423444550542667, 0.03943050652556149, 0.07810321810525947, 0.06759191190135104, -0.01859069683133898, -0.03264037065220504, 0.004518345682014387, 0.026079820646274367, 0.05708700642959877, 0.07286924689005805, -0.03113378158998177, 0.011053143890818252, -0.0918120337275277, 0.01297209868763845, 0.07689609802147099, -0.014837900264517834, 0.08755320221862377, 0.048178158188417086, 0.04248116391583978, 0.059097632165034726, -0.0759031333786488, 0.04769134929500889, 0.03416423702570825, 0.06377651218576469, -0.0651425194929284, -0.0503525465413624, -0.013544338148354835, 0.09028448754372224, -0.07124793667433503, 0.009425445247517055, -0.04804922348250375, -0.027942757289078614, 0.08561101611774065, 0.030952210956150604, 0.09370229251509805, -0.020084425814691893, 0.0403878703055642, -0.04022591278735299, 0.0615152702638935, 0.026545714533353453, 0.09473531986648444, 0.01608806100526208, 2.4008874887444915e-05, -0.028939598259306944, 0.06738892210101013], [0.0330960744359266, -0.009653412050440405, -0.048468003298776055, -0.09276262222253176, 0.07395236307827568, -0.01245143841523292, 0.038659799848223625, 0.043409992800842456, 0.06826363467470606, -0.008248944953074188, -0.037930355620976394, -0.015328052642490054, -0.0007894953386117135, 0.055773746747418675, 0.08938206914593665, -0.059369297785168786, 0.06496849064457817, 0.0747652609818382, 0.011885672385100047, 0.06689790830173951, -0.040500439933224504, 0.0075004567848112914, 0.07816814548110015, -0.03197372740791911, 0.06973165681968198, -0.05456214745087645, 0.006419912444212426, 0.06954868975185968, 0.03821437814643183, 0.0567143313902302, -0.07626977508209297, 0.04277233496337021, 0.013913940149672422, -0.011095507182405127, 0.07343810151975554, 0.013937332487477165, -0.050168553863954725, -0.0326652949814799, -0.0841701988842164, 0.022147877439064226, -0.0581784807206046, -0.04161552365827914, 0.004710893810298449, -0.0329643946858398, -0.07993088351123782, 0.02360075164523975, 0.012670844433524606, 0.058857025380744964, 0.06421390774587782, 0.0691248810392432, 0.06656859743199232], [0.021902233292548062, -0.012335072980093573, -0.04383333994942061, -0.027571549177815076, 0.034975276734060305, 0.08070166722326112, 0.043083569882721745, 0.021614433003572516, -0.06811918802620948, -0.08396106207700209, -0.05227474646478898, 0.045788920988501694, -0.03470989233453412, -0.0890348167810497, 0.007236429309030427, -0.08833613390951868, 0.04604131952029503, -0.0004509051676664043, 0.01982874307580863, 0.0893418683650649, 0.003072957950621978, -0.04918587707396073, -0.030853737557670947, 0.052560553083327875, -0.07494457105338263, -0.04294971379304038, 0.007143727492717605, -0.06483795949160116, 0.010441109241640989, 0.05333300446013868, 0.08299290209975527, -0.07176937360832247, 0.03881910696084519, 0.02369306859669202, -0.0046781603626471725, -0.08661122577459154, 0.03150501168939592, 0.005104147589914307, 0.02995926937428522, -0.03857614129862074, 0.09458804910524049, -0.02364048457706729, 0.0044341627849016066, 0.07833902828873619, -0.06847928898564892, 0.03198695733235167, 0.05579096262121825, 0.0408925118588685, -0.04043933476480286, 0.08088791350556783, -0.06561171400354429], [0.01897872063757251, 0.03206357098914275, -0.0767676920416577, 0.05173307245891012, -0.007570219716734324, 0.0700980948735647, -0.011429585414851564, 0.04161862780614407, -0.007621203987529812, 0.03149864804998188, -0.03833101430976696, -0.0681414781363642, 0.03437807083759596, -0.03565144857194647, 0.0026057788002315303, 0.02164992606832978, -0.03010687701406972, -0.017863076519880016, -0.02663915566188644, 0.030088980317405332, 0.04669645588732894, -0.07425655657792919, -0.0866284577733141, -0.07494100820125023, 0.00531516745927984, -0.019219580187709952, -0.001103615254718582, -0.07925593911453341, -0.06411824984980016, -0.014354444834405948, 0.038533940222468845, -0.07219978033033728, 0.02356988338140756, 0.03582968378096086, 0.01637912198237537, -0.02127596350798226, 0.05686703980746821, -0.03668349370201612, -0.009567641478000497, 0.026746801415043365, -0.06971703469288099, -0.049760059589825975, 0.011889930139213682, 0.03026587446834804, 0.0025424130727755394, 0.011669415196381339, 0.009627175339942484, 0.07389873876978667, 0.036056559596254895, 0.08121865504859373, 0.0288181821861952], [0.01184718630415343, -0.10415532930936, 0.006945872973812502, -0.04460959520280482, -0.06898780713156298, -0.06945161950092957, -0.046723777224690725, -0.03909444839066202, -0.0515064749537752, 0.08603219518034988, -0.10791661285415302, -0.005130480411776702, -0.02988432968616099, -0.09563422734816845, -0.05863697007732594, -0.06031681563899772, 0.0033642496717984248, 0.09209281912608622, 0.06341274724405933, 0.059796747486476634, 0.002899470937637359, 0.08058898334482943, 0.009246540961748793, 0.03295733920837331, 0.033969379359052865, 0.0902982684828017, 0.0025649007393799836, 0.038882572168172196, 0.0772645662219813, 0.08548965615752442, 0.013849923246017725, 0.040358909008602256, -0.05641997066666162, -0.061541043431189754, 0.05897308673688918, 0.08616011997066512, -0.01790495594727203, 0.07925766853721487, 0.021185290376987655, 0.06039219437355622, 0.06977897758726335, -0.060786679681259385, 0.07015438234074713, 0.16673043928489922, 0.07437820144092035, 0.05333365746247416, 0.2116286390783557, 0.09209002800134078, 0.04934059752474198, 0.05339370733040501, -0.06271503651085288], [-0.03517743353455703, -0.02403502932577776, 0.022765557745302898, -0.020577051837837135, -0.030873788862425592, 0.05805509908192726, 0.04689368349562105, 0.06856347853730636, 0.0191534412067175, 0.07241535407956814, 0.04052806130843105, -0.06177809463101458, 0.07944259735742064, 0.039790753020935404, 0.08021865024963337, 0.072694554060164, -0.0038724925119982398, -0.06264456397565656, -0.06679833194424292, -0.03230199221443616, 0.06013044508840317, -0.08623005547952367, -0.015393906954645908, -0.0780321182142649, -0.018122755543205714, 0.07394191668709563, -0.0005046112843308994, 0.008950845572547966, 0.02825501256314763, -0.050113734714523024, 0.029819663973028418, 0.021019759696522162, 0.006633304456708877, 0.056168363576126, 0.03919991793370023, -0.02925135648157071, 0.010532032277910566, -0.09931355067311443, -0.07209945094155788, -0.08198152511136915, -0.0075632390329479745, 0.0057944770929550275, -0.07498253446672921, -0.0763686944048698, 0.037458115048708086, -0.04649389954903465, 0.05755794060186666, 0.08153403401229065, -0.04713063572030143, -0.03446329563135089, 0.07352164143228153], [0.0050794490114894715, -0.08870727607231134, 0.0904606579360589, 0.006629389904493229, -0.06525043098939291, 0.021014547049213992, 0.0025627809021544893, 0.01636697809166295, 0.0341950490493515, -0.045841854121029285, -0.11355182277562573, -0.0621379158576672, 0.061512309348020225, -0.060737617988630414, 0.027544898692400798, 0.06777285621756725, -0.07477568693321476, 0.08472665781413843, -0.030855103818644074, 0.019643217052935064, -0.04584488421342802, -0.07805398325952695, 0.03630337724003846, 0.042091952459351066, -0.06221064906262401, 0.0019466545847691785, 0.06425068984029751, -0.016434988317067745, -0.022142142875599947, 0.012114517869336455, -0.02723537523368368, 0.0027807487695376484, -0.06258007200591353, 0.03493735461268428, 0.13958880887276134, -0.0036854769647188595, -0.020886019908484755, 0.11161440588167253, -0.047360125252939804, -0.06189630921207349, 0.11474303455040745, 0.04236740982354064, -0.07644682539932203, 0.18940739258158332, -0.02289180406419713, -0.04826431710980134, 0.11839060639196163, 0.09561677353470088, -0.026108483157371444, 0.1492304173117164, -0.059466427640291475], [0.07214044369301802, -0.004708491474306103, -0.03963091339591312, -0.03991884741961155, 0.026841277501232868, -0.03185149861061169, -0.04891269142846974, 0.06232244456508829, -0.04377887676693015, 0.08640058955369677, 0.06987387015345183, 0.07384102478281027, -0.040705810033219485, -0.0413273252501744, 0.03682244822549891, -0.036219226254808806, -0.04829065931382692, -0.06777256506307792, 0.0073764781011428126, 0.04296003044809618, 0.04044683942347222, -0.05735955071480722, 0.08441568821948052, -0.021072576454896155, -0.0889087707208405, -0.03586412872163957, -0.05031091408179221, 0.08994763878298148, -0.051749158890669826, -0.01805832440717174, 0.015172813252827877, 0.04826340763506056, 0.03279610658106479, 0.07499773003871815, -0.05709997756687071, -0.049841840380268836, 0.010406241759045374, 0.02356256442769701, 0.03311957606957883, -0.02739356057038416, -0.033399210652537405, -0.06458762549835724, -0.058547635252827954, 0.08894732001166372, -0.00832105867602249, -0.05936077489127369, 0.10220636126778006, -0.07235073006814267, -0.09502074446614074, -0.02074779108677487, -0.053979105373409164], [-0.018016215141213165, -0.0919441065388724, 0.04106938255799951, 0.08145355253740799, 0.06700457807694851, -0.0829214724098688, 0.04120401681566771, -0.04451879330126878, 0.008705386355632335, -0.05761943484369786, -0.08836869360374254, 0.0010620002576846145, 0.0797077593260387, -0.03253517257315597, 0.05149710468705795, -0.04018468730221203, -0.009848525852226947, -0.019499666104427715, 0.025379747655989233, 0.08709082067166854, -0.08342402423245272, 0.09519154365659692, 0.028203291586954306, -0.004091885732890214, -0.0416689135732598, 0.03696443062747104, -0.058782946479907006, -0.06548085805086476, 0.023370468263639064, 0.05109202186326873, 0.006920745961373119, -0.056920270223969394, 0.06584360028908964, 0.00188047710836134, 0.059223711831290486, 0.008119302874476621, -0.05679835962568538, 0.10034750071654028, -0.05636571454654353, 0.02639431297571039, 0.12324361807810731, -0.07704358065766616, 0.059268865809318005, 0.05842040670244517, -0.019815739853353567, -0.023374609699559085, 0.05451291665710364, -0.046584460435133805, 0.01040643113283515, 0.16471426796277172, 0.060696792575515475], [0.030813756364481044, -0.07155249112434992, -0.03887830585832427, -0.06070419988288101, 0.05105571867150399, -0.026241088931082148, -0.06370002413159345, 0.013330925890340737, 0.0337919215601123, -0.02617493574048171, 0.0770129941604962, -0.05997839893313967, -0.06997220557991407, -0.00660805908549056, -0.053060956118510694, -0.007602539827447186, -0.07839916564300216, -0.07374039106686049, -0.030110805134272774, 0.09051369080636551, 0.04043560148673019, 0.033412974106752605, -0.01835012437957049, -0.05419366244739903, 0.07642751332754547, -0.0639831514970205, -0.03069011776782389, 0.04349594011176273, -0.06082789699985514, -0.051239622397932755, 0.06892066391048296, 0.0018304858935665536, -0.05128829744625049, -0.0244924348060748, -0.06505161611725636, 0.006808897674217389, -0.01751874050622244, -0.03363934168183522, 0.05062818467031403, 0.07742401846732695, 0.004524344264446836, 0.08573408745230457, 0.06706648714297506, -0.014190873098781585, 0.0007994806711779807, -0.06981178763360144, 0.07392192682446953, -0.026825719944218375, -0.006566982086437564, -0.0008947721203904047, -0.05521604404081103], [0.028142193271370634, 0.03851933340986525, 0.04521858071069905, -0.012174593089954432, -0.03430447240224213, -0.04020897768389054, 0.04080495567109747, -0.10661230800341155, -0.018354166883741464, 0.05270031888082303, -0.008956469880941455, -0.07598523924250952, -0.03720701349550212, 0.014068648651361485, -0.06424286946856242, 0.028144407523322756, 0.05770403542519332, 0.01667212071165655, -0.0878179332762708, 0.022446613850739695, 0.06675204835276902, 0.034884819406684704, 0.10793851218464152, -0.03780375170100582, -0.07747550431886802, 0.06414541874274379, -0.0698234995560836, -0.008437368690823472, 0.04506343867882494, -0.06621938594253994, -0.05360498701955795, 0.005784312603042125, -0.053119663588911875, 0.04014036413853305, 0.08807014476976663, 0.021447650298068294, -0.042253458954992676, 0.13638784787999925, 0.044044705122853696, -0.03379465654320265, 0.011305385465048293, -0.05737093512995263, -0.01759976409612488, 0.06321959087669125, 0.02891187279434304, -0.05385120352841139, 0.13075287816389, 0.027466778581459888, 0.03222508589097425, 0.10412591739660279, -0.05781462592064916], [0.027177967867771522, 0.08660743066427215, -0.03362467793950587, -0.0382225357844114, 0.032219535151701194, 0.0189407857705961, -0.05453587623910567, 0.061822972859786794, 0.0019898605875065373, -0.03374749300914432, 0.03334243933137105, -0.06409370737039033, -0.03714118528332383, 0.06682978721138036, 0.08063047714699492, -0.050623835012126354, 0.05979677046633733, -0.01630882528750522, -0.01713872283458349, -0.0804485720533308, -0.00395560380108805, -0.0175860864468252, 0.07826557563261398, -0.005805485848065841, 0.03429673669958702, 0.0474739081121001, 0.053619103836074045, -0.02277618229607747, -0.011870671514636144, -0.07118350132121427, 0.05108366677359449, -0.07400950650217036, -0.08545665208327038, -0.028113236694019574, 0.048389233586234884, 0.05719140526056676, -0.0183506331102392, -0.0254328207285363, -0.06831253099249332, 0.008182621215593528, 0.01275182990881246, -0.08971164417996125, 0.08231625206881787, 0.02378569640217925, 0.04839744868107974, -0.04083341652690251, 0.07164634158222727, 0.030742822817880534, 0.030759618018509634, 0.06970568219885416, -0.0015900820190436252], [-0.06234531624390009, -0.032772460949059494, 0.07250756305045691, 0.0798833655845377, 0.08807639582161704, -0.010666597622357527, 0.06564344500685479, -0.047229991315005576, 0.04603860989228435, -0.08024896938782648, 0.08841737274239074, -0.06369260631438636, 0.08436871306127262, 0.045354416263035165, 0.0765129938507177, -0.03065917962348851, -0.05468562150980253, 0.07000670743808918, 0.0068301918354508, -0.06421554005123639, 0.040426064923856496, -0.08548974446804197, 0.07144279544683158, 0.08316803588010281, 0.04410846127050813, -0.052343592498666394, 0.019919775737711944, -0.034278923682229685, 0.08427520723067182, -0.07411775355087023, 0.06502152255259014, -0.06339128353927702, -0.006959238903038296, -0.013449941959821651, 0.07890826782919287, -0.08366631546854238, 0.03342971202947561, -0.05338477840609508, -0.01980007578357646, 0.04672267532564226, 0.07230511876512409, 0.010817999491172564, -0.014395684895165371, -0.08400630569185372, -0.09046404284013126, 0.05868667555546915, 0.031583437628699036, -0.04436017181746418, 0.027985035122739126, -0.04795727327226269, -0.08484640497675927], [0.05401429281376077, 0.010072119294322902, 0.0371654374224633, 0.044511421675526346, 0.08660113540295941, -0.06597027874878908, -0.06177472518696539, 0.053145840242919025, 0.016258731888727944, 0.06258187364098883, -0.00503991815722994, 0.052312460644398026, 0.0877200075240226, 0.0041479743085252666, 0.07245504384866205, 0.047587534536880076, 0.08157492332811948, 0.00563800878727676, -0.002080683408178041, 0.02761715312829796, -0.09456735554649039, -0.03146461853950348, -0.0565126967044726, 0.02092724594212112, 0.0848950969310967, 0.054999441526391225, -0.08418151069079301, -0.07763972140947108, 0.0052567754946154285, -0.03468121974716132, 0.01854296785939107, 0.029180102781449165, -0.005758299735011943, -0.0625635511331104, -0.023800433293699713, 0.06483284510818689, 0.049263695187046076, 0.03377126858010604, -0.020816881351039283, 0.01926635012413533, 0.0265958659157871, 0.027089623113039342, -0.011028993296821566, -0.0212673544117872, -0.05088219793988254, -0.04114011791706105, -0.03695809701262225, 0.005066094792144855, 0.08761734321533304, -0.06301140482026356, -0.042295951518479834], [0.045765400433700386, -0.06537617276729472, 0.052257553294002335, -0.030459245538163315, 0.06266169918472109, 0.07821998077177547, -0.0006124389551883332, 0.06086760002469476, 0.009485026145406339, -0.02068830532482648, -0.03246709195175235, 0.030263921414754133, 0.0912558004382018, 0.06522727984539842, 0.018285337273978245, -0.0367895671460107, 0.04145110312471926, 0.003158839446172963, 0.01925362626680685, 0.014699145916023405, 0.08712021989040851, -0.0066470287783327, -0.011903011818338713, 0.022530833540136845, -0.022472462060735415, -0.04749306393045674, -0.06259624707433321, -0.029314965501104226, -0.03881382799486011, 0.0617889933226208, 0.03456893164611481, -0.055063482788579934, 0.09214204936156122, 0.007001232057757745, 0.015372102524877314, 0.008463832245336983, 0.05292145758810484, -0.06558711946424545, 0.08229253802881925, -0.011504142784542409, -0.03092081651647791, 0.014757432421028635, -0.025606619334494624, 0.06335975390748574, -0.06592402465247889, -0.012417490064336296, -0.010841667102892683, -0.009765838852664792, -0.07415396890498198, -0.024291589430363702, 0.07594893081636946], [0.05163147818541434, 0.06384326356056313, 0.061731798911329565, 0.08018217874911991, 0.0599540435785798, 0.08271635897215229, 0.044725314776058796, 0.048068669529010476, -0.030079109984872652, -0.07289556437697037, -0.09194694943795925, 0.006602449217444962, -0.04608445688631674, 0.012959293589109582, 0.036200509221552934, -0.03896989019708642, -0.022588183893662146, 0.04604490138362747, 0.009438472326295548, 0.027975719970243413, -0.06203113790038516, -0.017951027782936297, 0.09978004599458415, -0.07674493692763347, 0.05493224350635432, 0.006779846333925306, 0.06055804003985822, 0.07303746300217909, 0.030376949687422303, -0.049835412624397855, -0.042610503223884134, -0.03751053875306558, -0.03582901924210903, 0.028320618254870082, -0.03685781300842131, -0.07758548656675986, -0.0877069256599376, 0.04962953845864595, -0.039686257800333774, 0.06890891280704951, 0.0758339041616099, 0.0031663070857683665, 0.07368138209727737, 0.10783104185514004, 0.06148157949680936, 0.026019811383814675, 0.07397684352463624, 0.028912681470849303, 0.009077337057175417, 0.10433800065340862, -0.00771955319002681], [0.021081101427120403, -0.08172258627650573, -0.01709071239945574, 0.07135299496121014, -0.036520925320019416, 0.041980061408907546, -0.09030235793970744, 0.017110563425800092, 0.08871504063941114, -0.0010215731150440218, -0.09287521529818349, 0.045098918622691796, -0.09451891088880665, 0.03192003284591406, 0.03353084300165644, 0.03474801666538981, 0.00983542529185924, -0.0004429228941172363, -0.07577638763575788, 0.008318595666770429, -0.06845142050051495, -0.013045450901395451, -0.0436796541245135, 0.018600973857035283, -0.039719172367872355, -0.06665441819943695, -0.0799368467863362, 0.016321433739820247, -0.06590270817604603, -0.06447825170539388, -0.08980685046994771, -0.06270802682592999, -0.06097895702031376, -0.025843170590200696, -0.006846122075343722, 0.017115422510080452, 0.05694785090469796, 0.02474710274857503, -0.0348568758041774, -0.02647835244805724, 0.008551866771547697, 0.03649311751171508, -0.008470989409036535, 0.12243298742138994, 0.09287295112786573, -0.016357590751364778, 0.09751779914166894, -0.03483060604675158, 0.03450201187579685, -0.014281396747342691, 0.04312294784889656], [-0.04811766151494332, 0.06816078781530155, -0.04590092992071034, 0.051362635372349315, -0.07454248231498767, 0.08178069805981424, 0.058453459394331546, -0.035945550879682424, 0.012951965455929923, 0.09270524883333744, -0.08385257386785007, 0.044744414569283165, -0.01044102480987054, -0.03596357786245845, -0.018961279226334747, 0.009540747748839276, 0.04772533157912365, -0.034197784822616845, -0.055607412079156045, -0.06607546050978037, 0.024516222012246586, 0.0378018705588301, -0.0035331414294593644, 0.055253099180874544, -0.05871560814360011, 0.016211545032695764, -0.0631621725201465, -0.054565821925608375, 0.05340513495334756, -0.08128993994169419, -0.03386854772765888, -0.030189794047254186, 0.07814120288202792, 0.051602748029514825, 0.020494516791371282, -0.04478704312007115, -0.06605694931105177, -0.05721667134727945, 0.042404571522214086, -0.011521569332056695, 0.03582897296559234, 0.02226284200851168, 0.02104821491333342, -0.03965495934015496, -0.05894016123303658, 0.03798352336620704, -0.04689619420802774, -0.06680232663466515, -0.012043638715105047, 0.013731623662825291, 0.02669464402170265], [-0.01754248625172228, 0.00880024977848345, -0.05389132211609617, 0.001981613783197037, 0.08677530316439606, 0.04175180961140962, -0.02920400068431233, -0.0523624717011929, 0.008305972630106045, -0.07425446321541247, 0.048671015213625116, -0.06339926632852294, 0.07657674238905035, 0.07068964552241942, -0.0769841794653045, -0.05542470299750104, 0.0015459117468543469, 0.03708383610185993, -0.07083995191286785, -0.04356783198214504, -0.05933273522026744, 0.0074496574306609, 0.0179518221863292, -0.051823848808971826, 0.002627122370032919, 0.04554501785516429, -0.02130877824810616, 0.008939994732051306, -0.004812708830631612, -0.08721540121130242, 0.05012882894571991, 0.06996789777238623, 0.064380835314888, 0.08980773325819907, -0.017890120354930664, 0.07482347171278841, -0.009407791966560114, -0.07134755846016182, 0.023177381790300478, -0.08571798069211449, 0.07790196801673763, -0.08168781298677529, 0.0578775061908861, 0.0878864644726898, 0.08589769149616354, -0.01963753092740317, 0.060788033270520334, -0.004352463505601645, 0.02093291599081826, -0.0369158827078477, 0.045960563926610076], [0.09292045530699355, -0.018746080394885276, -0.05127025260269806, 0.04128307912178705, -0.005063127480202082, -0.06329787233025058, -0.0820348537659228, 0.0030190317342027842, 0.019756568761889304, -0.00986312005440867, -0.008467461000138607, 0.031997963706609144, 0.017200276155620645, -0.07617848136295251, -0.057424167101029204, 0.015597003543310672, -0.03385945104683791, 0.020080507667246405, -0.022314976068342415, 0.019433852610502678, 0.06577848109304625, 0.09217750411978852, -0.020600491771641815, 0.022228417262591, 0.013177301498170207, -0.047530214033747215, -0.032108016874323526, 0.05155241652438167, -0.03684873056028511, -0.03216415191235205, 0.023242330033592804, 0.07741697317017354, -0.0033054546903548486, -0.022911972212424074, 0.0056982352781997205, -0.07051080125519542, 0.049310130469344585, 0.0735207700270969, 0.029918294558470056, -0.05732520392475503, 0.10760440267714173, -0.06180389784629544, -0.08329059243705868, -0.037251009607127655, 0.014340718841067886, -0.06757760011189436, -0.016827314125828434, 0.02227326336568438, -0.039329841257049754, 0.021560136782854195, -0.005407548684585131], [0.008107177462501508, 0.058518967877070206, 0.008826962174476908, -0.06527530417920396, -0.05201388825144593, 0.0769030181435341, -0.05736534551586487, -0.012358521561582242, -0.019822462112263437, 0.04576580558992705, 0.0363582093695475, -0.009501931096902205, -0.0831149470125298, 0.039285061006020305, -0.07077661650472997, 0.041083983116298774, -0.02623075485322608, -0.03099216375560649, 0.08738072042751506, -0.04579193836512795, -0.012102474458029958, 0.032906411751216044, -0.027555337051399353, 0.02757249695626773, 0.002018727304997874, 0.07433439786112765, -0.03376980142643192, 0.07091752035552236, -0.07310923744095575, 0.05244241447025259, 0.02990193357136963, -0.042230512474416705, -0.04274072793860146, -0.06741793797858373, 0.06512858588013513, 0.04210872012457645, 0.0006944596814975619, -0.0145661288555791, 0.04919965259720949, -0.07679680239592662, 0.006158735747601487, 0.01595059303154999, -0.00429331666434435, -0.03598500109344091, -0.024188002128478877, -0.09119696698457881, -0.07113375404322936, -0.07418828207528262, -0.05543084843771295, 0.024263148411630846, -0.06794798024399967], [0.02198736202325229, 0.028146742907154593, 0.01088501012479836, -0.03223900786331174, -0.011261199873044136, -0.09058548560518868, -0.013071828574338057, 0.0756972092420586, 0.0864080669929241, -0.02780021645587491, -0.07889230220352415, 0.06995838762529873, 0.027801464288162193, -0.05208491464501687, 0.05592939266573359, 0.06041679394224719, 0.06802074558623754, 0.0825363867717175, -0.005235044485026528, 0.05023260992984416, -0.0071068953006399515, 0.05147606014924027, 0.005558911075964035, -0.008168773518298506, 0.06970625797650677, -0.00017345364152995054, -0.0700351648580023, -0.003623549603122546, -0.0688021723277538, -0.08958696865339712, -0.03350690848487291, -0.06758208426256376, -0.006295599294978923, -0.06829769111595115, 0.05487332128050532, 0.07157565978172827, -0.07299355211315434, -0.08478103721133022, 0.022721048179404815, -0.07799278520227824, 0.07138983922316007, -0.07852369877230274, -0.02093605329556137, -0.015356175804527495, -0.03949078899115236, 0.04601984172399779, 0.056407204713128344, 0.065120933587643, 0.03328430914171922, -0.04481740878770061, 0.01690487668502924], [-0.06598527102409252, -0.07004309575791853, -0.015643110048610295, 0.04455671665218963, -0.09497845196088851, -0.06259173686725761, -0.010597803267655685, -0.062315594251688915, 0.04192205682911355, 0.011263434599953366, -0.0961266834318641, -0.017602510549045134, -0.07213301409077721, -0.004395850169023709, -0.05515315533478456, 0.01524602540517496, 0.017295980501275728, 0.06236449221343215, 0.021722554657339445, 0.07574769432018799, 0.012266791903268773, -0.06568861741412048, 0.059919463047316955, 0.05354521246870242, -0.0341003572149276, -0.06450626930535547, -0.057483475461420325, -0.05798872596430652, 0.01324862529383985, -0.01896184225752464, 0.01997895896140041, 0.0845802716501155, 0.08906362805257138, -0.05571962308592266, -0.038999156847491986, 0.022675287339512525, -0.040171537577332175, 0.09255831160930089, 0.02449425745902509, -0.07359582678539241, 0.1607846305930692, 0.0953723640055571, -0.02702558465595925, 0.09539313575250757, 0.08095982337928524, -0.030837519267467743, 0.036926846830841006, 0.005191634708162262, -0.023776872712710687, 0.1822103990630535, 0.06156731599047522], [-0.03724437304146071, 0.05080065506522864, 0.04030967740436987, 0.09188520249551951, -0.00587564039268154, 0.04242097766736121, 0.09566269152933864, -0.05573178679842691, -0.045807412962406334, -0.029970638099482683, -0.051071298817050303, -0.0656314840758147, -0.0017187857865168723, -0.026185889434546184, 0.07915541816849676, -0.034485657360469144, 0.015418180689260126, 0.04165747493475867, 0.018513666768912133, 0.030767619577574134, -0.052212849718395585, 0.032580143539684574, 0.0047528679510382265, -0.04969448435664239, -0.02453212100131375, -0.04713373428403224, -0.06435545576978556, 0.015200394122559312, -0.06294257360747171, 0.03372688495086186, 0.0260191135853127, 0.01465224455353847, 0.026219665950464557, -0.06002224172742407, 0.08241846898021006, -0.07754114585350431, -0.08077067364652868, 0.03965939865924911, -0.0002450826214935261, 0.008144880170724652, 0.009149902982878879, -0.07826425598540805, -0.05454791178449777, 0.005785409987497419, 0.0795819906912441, 0.05326755456522764, 0.03760956738564001, -0.05073381124281862, 0.06286449047879004, 0.010401497509580039, -0.029055331077215193], [-0.053749249376607106, -0.0367856050155327, 0.031592026941166466, -0.0544533265256511, -0.02933655127693707, -0.014213610382289212, 0.013185390343218025, 0.004434397425603161, 0.07923078565091758, -0.08540167676912688, 0.05360218644203062, 0.020671920390424432, -0.005562229161672865, -0.004033430292317641, 0.041464935162934875, 0.011225336173705835, 0.03401003924794852, -0.03941157335759638, -0.027612852344883858, -0.01567144745165377, 0.04671372999722038, -0.011240632724421476, -0.04444276836055522, 0.0259681705471427, 0.09241907597646941, -0.06999397573585067, -0.09132944530537891, 0.056824780734390755, 0.014469097730374638, -0.0425746300969789, -0.07028759152746354, -0.02734097304717503, -0.09124302579638788, -0.06640205845230675, -0.02153273413064843, -0.02132673802827739, 0.012623436954398142, 0.05190660548031632, 0.05641140729601816, -0.017675468453642304, 0.0639361283328821, -0.09043308974864843, -0.06018895774698536, -0.09429886857062814, -0.02468410920839914, -0.012465836043502102, -0.031014749023043332, -0.0429744489673694, -0.06426961113528018, 0.04173643075241721, -0.046136463692741075], [-0.016343657844450327, -0.03160779821239763, 0.023141917797515277, -0.0057284286917372055, 0.03434941496666394, 0.03704105154778339, -0.03739390137415846, 0.05529280429652083, 0.06450598765211676, 0.033934585137324315, 0.030520182758239697, -0.018801488112468862, 0.05705600510549966, 0.07136423563909332, 0.007093056707358528, 0.009216200152360673, 0.0014078017629841236, 0.014735295579657488, 0.030642254609415925, -0.04409639780235138, -0.07694196001166444, -0.08439303936907733, 0.013411482584015547, 0.10093694045036904, 0.068443650090846, -0.007883013105359361, -0.0006672191494031696, -0.05520688357846398, 0.08060699739335968, -0.016348943868805966, 0.02570549863970066, -0.031647121049614764, 0.08629584156995908, -0.07839188129474027, 0.08304839364537366, 0.03666691356264549, -0.04152697028266914, -0.028695127505855286, 0.028036843855660555, 0.08708835373638794, 0.11028514908681122, -0.03213401233346972, 0.02468737031487747, 0.15440898403147058, 0.08995569039528492, 0.07055443359948257, 0.1461986641899239, -0.034632878598329, -0.07093637592963904, 0.1316469845356246, -0.06291662365842009], [0.07238257584012539, 0.08390370802888106, 0.05720820806654304, -0.042119969232298, -0.07406427534403155, -0.04834925916044572, -0.03766105445566604, 0.05741109462107367, 0.029889929243597537, -0.059407402681925216, 0.03081171115717139, -0.01126542584587718, 0.0373283886042423, 0.034857965953786124, -0.09295430479385768, -0.01798575989302972, 0.05102195735633662, 0.011927968236876559, -0.023472148617565722, 0.06801137465350156, 0.010344986802013777, -0.014508329451406333, -0.05024077962434401, -0.013307128736570181, -0.036459134123791946, 0.044476440784240324, 0.02132985068181852, -0.04832896245859738, 0.014665849965103978, -0.017376623685028587, -0.015611843319818746, -0.042880151766076326, -0.047686813147844336, -0.0457469796014584, 0.0702953900910772, -0.025945309828175382, 0.06897161747141471, 0.061338781504967646, 0.05217014961722785, 0.08856919826246656, -0.030287271991560456, -0.0627638539744422, 0.07515617013875203, -0.09762508860189863, 0.05642188366792509, -0.03571984303984712, 0.015634313358747688, -0.07025599254224951, -0.029653542735025535, 0.030513419843053072, 0.061009816865852544], [0.053949619668721936, 0.036887046094335206, -0.07701813307292996, 0.03870701885947662, 0.0887727243616694, -0.027993633241794862, 0.017991041525643094, -0.07284754761573672, 0.0012865985860024795, -0.03375286873701674, 0.03882969246605517, 0.018958927005500965, 0.007220934477046531, -0.02775290807172712, -0.01586806344114646, -0.007207280411816787, 0.0016825781694586582, 0.0022355681521385477, 0.04705195504752292, 0.06287299669391294, -0.03666963037092815, 0.003097605871781767, -0.08231992497209409, -0.07999141255501778, -0.01765164068255287, -0.018612815228696095, -0.0908298311335332, -0.014667703045379345, -0.0814412298010617, 0.03355022348614983, -0.0297933472215733, -0.09213786904499513, -0.07590157769770052, -0.01998943089569593, 0.0706328643851131, -0.07231170669526542, 0.04341723194609808, -0.10515057111898701, -0.09546462606914495, 0.05509681609379348, -0.0382327271273843, 