{"layers": [{"type": "Linear", "W": [[-0.04993544799236772, 0.08506490108522909, -0.06888718366214146, 0.03753237715211556, -0.0754175357487225, -0.046714500580018525, 0.09156136324213353, -0.05268748896679919, 0.025496625250200744, -0.007616990053724413, -0.008063179880746488, -0.0013783593535271728, -0.05608552866577313, 0.06099902554300003, -0.07559289484785973, -0.04888574758384272, -0.0878899099166045, -0.04316254866638936, -0.016686175124474335, 0.07361958074573091, -0.022591592698901805, -0.07091599926569982, -0.04478242754796037, 0.08955576254922216, -0.07980177076006305, 0.021398690407366718, -0.022912605154421936, 0.029391131020243072, -0.030223567354397345, 0.034583549795048345, -0.000284715532566882, 0.026728837534694596, 0.07306112862744582, 0.014599600523058682, -0.06690223104393732, -0.0801816492400864, 0.08181227462261377, -0.003470111903549967, -0.05647524775156802, 0.081174336140424, 0.0120730450133432, 0.04146568232170716, 0.07011561970209594, -0.041629025681594115, -0.02668267189033296, 0.06857382653637066, -0.07000139727317749, 0.04793692670337253, -0.0732935161567885, 0.031702803255976096, 0.0365526483827704], [0.08305787580288587, 0.06129019962976119, 0.002452803359236859, -0.05436145945600295, -0.06600110167810976, 0.00706293721934804, 0.002171952003165117, -0.08049003677453113, 0.07562681809075911, 0.0026991784889538436, 0.035041368755374176, -0.04960137298505026, -0.04715917209349106, -0.09137045248683773, -0.02696819962062723, -0.04189748120363527, -0.014000941519985644, -0.02085600643806263, 0.060417930278604495, 0.0716483521314359, -0.05777590642053888, -0.018778087030104376, -0.05934207847458812, 0.03150343283296522, 0.0866126207803324, -0.05242896125207623, 0.05045077798255738, -0.036314645449121, -0.0871431591115865, 0.049989686198901956, -0.02855095240754847, -0.05782717398000123, -0.010137229498122138, -0.04876026926704408, -0.01086821445689215, -0.008280799366095095, -0.01656233261335883, 0.02185953850457083, -0.03709558690644293, -0.0726593746681962, -0.0665906722656323, -0.07033311632814893, 0.0016366865135490098, -0.015845329950041922, 0.05803684042529543, 0.0024047530663104943, 0.05077566655322618, 0.0896087564852801, -0.0831179979092373, -0.07596921631987413, -0.06412804334925869], [-0.02192893126265535, 0.014647432918622316, 0.04349222074088718, -0.02855838597012118, 0.08661315743619766, -0.09214205226823316, 0.060561618189106235, -0.05151432229857152, 0.06754591904673904, -0.08675741342574465, 0.0866485436930899, 0.04646625067553356, 0.08963166777137266, 0.016310817228520794, -0.06010874177206438, 0.08554017239032448, -0.01076661150930196, -0.07733215214223157, 0.019782349190374877, -0.0004505599373439014, -0.005981291130695041, -0.06339646670417677, -0.07101449593576732, 0.013766573807239477, -0.009034838320808241, -0.07009922994239015, -0.012141472128076841, 0.040561284308711955, 0.03733716237767185, -0.0062782657130851195, -0.020774536133455927, -0.027476228924474978, -0.05130677593505804, -0.05530263836904788, -0.014955933066951407, -0.07274064860869578, 0.04287643027076834, 0.032944119931886874, 0.019421692658105054, -0.08856828413969924, -0.03318132367849034, -0.013465885854931237, -0.0724991907901731, 0.07662266325604591, 0.04571201630475313, -0.0005384341974782865, 0.02608152553370014, -0.055893968557931134, -0.0461189250185034, -0.00674501227239076, 0.043580426279148], [0.026334371857507168, -0.08952967289777207, 0.01968086238087388, 0.07405596297926394, 0.04552299769558583, 0.07723802905711095, 0.08772039988237779, -0.04955807083644661, -0.038315182677434986, 0.007818321650720463, 0.088244844789073, -0.024893033194445868, 0.08078342642419642, 0.06525666108091331, 0.0019664877552123604, 0.02242254754015354, 0.0836294664032295, 0.050891006211886324, -0.03689727853033208, 0.06334421164212913, -0.05668986693879694, -0.024191502674498287, 0.08272377894272376, 0.06258935961601914, -0.03412408152284771, -0.03954392074944628, 0.019712530524095332, 0.062152885224272515, 0.0321957138756255, 0.07888651192699005, 0.04145981237692362, 0.05699288820721451, 0.01823989587083807, -0.025269433414931364, -0.016324477750167654, -0.0027669234474266497, 0.0062894682060378815, 0.05883821980217591, -0.043232189046160975, -0.07966131035372348, 0.037651937805862734, -0.04293317146885, -0.013452936585763256, -0.07545879204703446, 0.05931309668599369, -0.04196937289920294, -0.04504268307732353, 0.05470239565738406, 0.0026752200174954546, -0.0476258321616362, 0.07011854940777298], [-0.014949855011943888, -0.026426812833254664, 0.08650235018774935, 0.05455331619387763, 0.04394736990080504, -0.04449979083383593, 0.058350277731078024, 0.01625216849242094, 0.061663024084203245, -0.022863842146245785, 0.05002923899878156, 0.0548692465152644, -0.020245682933244954, 0.02674261874655493, 0.05258282536449464, 0.09081064995244507, 0.0770241026686456, 0.05360515197440346, -0.06703029031856386, 0.02014504953963219, 0.035095156330611776, -0.07538630780691735, -0.004903436120134197, 0.06866462230670739, 0.07434057122061132, 0.07974911002498036, -0.07335494145789177, 0.020396077748779412, 0.06917648467618998, 0.029132274357503027, -0.03167124682394033, -0.08207807912708787, 0.07807075877921973, 0.06561305003285514, 0.032809644301934955, -0.023343113385803502, 0.05851133968093683, 0.062406561252745095, 0.042274492355215916, 0.01936378943274216, -0.025488740165681666, -0.035996524379637344, -0.02803684665050901, -0.023357576017218155, 0.004911010793631999, -0.06985288027704838, 0.05112154284261421, -0.026574589168884978, -0.06567665499191075, -0.034427149375030226, -0.01903641486710734], [-0.01211315154126127, 0.0510523652444168, -0.07263348569982316, -0.050179234775444274, -0.03863927195163159, -0.058549849966252066, 0.046014510580374104, -0.07239300555901323, -0.0815835766923829, 0.010862082186375441, 0.04248482495314698, 0.06009530943087481, 0.01087865340023198, -0.032571464442723366, 0.07054921543379543, 0.04350838560502504, -0.0038358541357035765, 0.012097129235632676, 0.07956027594124675, 0.09102870408809789, 0.07955418083229909, -0.06701296408718828, -0.03054539100728719, -0.01631219267290222, -0.06061539428855688, 0.04899904098467716, -0.07981090050389728, 0.0713469400487698, 0.017016720548633898, 0.021390712257914, -0.015259979867961368, 0.08109192795532308, 0.014928985108374595, 0.07266861938021861, 0.07988160227194012, 0.035734956001234004, 0.08782607783653891, 0.0006232309974907155, -0.023877031430556486, 0.0635794955554699, 0.009149246865362374, -0.03439179999061027, 0.03204885299875228, -7.938576471719003e-05, -0.06751717612410524, 0.0623932248391325, 0.0054891849421504725, 0.08694692633908498, 0.0045452119587357535, 0.08545311390241943, -0.03799370131553895], [-0.052289680508930916, 0.005562544568639731, 0.0479532203969559, 0.05876526975358906, 0.027919309356405478, -0.06967193002323188, -0.01981107781746336, -0.08418778317746733, -0.024409235873491406, 0.0807157966075153, -0.027033985968897695, 0.03562158749741025, 0.022236648140354965, -0.0642954340865384, 0.03364871978673448, -0.07733747665110978, -0.05774895340442153, 0.013816701563006416, -0.06782663171194857, 0.08504993829935677, -0.01446303518028679, 0.02330929262808159, 0.08387257635059484, -0.07256213182022403, 0.09113805233365838, -0.08543994098261493, 0.017701975407893096, 0.02778303210186477, 0.08736148798281321, -0.026786148340614987, 0.08095608625568099, 0.026151238776264876, -0.005093383142440354, -0.06049644167093291, -0.051458535959879016, -0.02546707705249514, -0.027186849223162318, -0.026600534050188612, 0.0556296386093417, -0.023574206879803616, 0.018558846083171047, -0.08531016021796069, -0.0645315875585104, 0.033052645244819025, 0.07067632926313684, -0.03457676287729356, -0.09252618810789355, -0.04979760970856133, -0.023341871705518855, -0.03121080272190727, 0.010424245154544556], [-0.03637277009954953, 0.02654837845112017, 0.05253434382036542, 0.05183713587866953, 0.04374849406513406, 0.015576456082366592, -0.043930854928334186, 0.0620675945761674, -0.03833642728725911, 0.06604324593990714, -0.010097534885887953, 0.023837458204852086, -0.0003616944751022067, 0.027775237915886465, -0.028928467042457284, 0.014448633622569696, 0.04329899620428683, -0.02520083642600926, 0.018296136330996186, -0.007964919847158247, -0.005310713000240874, -0.02145557614780023, 0.008831575761013325, 0.03851015901246661, -0.0596224034075573, -0.06439526412434658, 0.05935246775822517, -0.07549949666917999, 0.0540312388440507, 0.0476182625494056, -0.05167747365488184, 0.025265486008346945, -0.044976727878363244, 0.07021059600805324, -0.05428638714550126, -0.07019422081828376, -0.08490859801595964, 0.04114476843377258, -0.05258649354349476, -0.03360891554994776, 0.08925084861675414, 0.04339805260007109, 0.04317962762593766, 0.01572934410794185, 0.025913617589745995, -0.0890233724311731, 0.05981931343457955, -0.03111196953100068, 0.06461154863636742, -0.013184380854412729, 0.07548324049001207], [-0.09198998155292057, 0.08820866597257702, -0.07412855878885245, 0.0014238681619956899, -0.0030173093642544484, 0.08890135632427089, 0.03921833501449079, 0.08861748498913677, 0.07415264152783985, -0.01409745511353586, -0.064075098340393, -0.06493053890085485, 0.038139908371892156, 0.08306770922384296, 0.03006570112552768, -0.028226602856735592, 0.01780765545665806, 0.02859757475523871, -0.04514685320687956, 0.035513268403287855, -0.05521189251971863, -0.08672743584309357, -0.08015214555434926, -0.002268624879814917, 0.03524827263330996, -0.05062047723215652, -0.01901995306793897, 0.03487340650866048, -0.043760522701962706, 0.003951807298383666, 0.01770719103159455, -0.01746674280743214, -0.05351975545486118, 0.035441885033587923, 0.03530405337195408, -0.05706378477174181, 0.056874340701339135, 0.026867270459318315, 0.06697149474170623, 0.05098499998514028, -0.003410768506174409, 0.039369109694786325, -0.033358123908573734, 0.02540119850354334, -0.07659884516956694, -0.028301885003791594, -0.0023475534887552056, 0.0704621281252974, 0.03503582578877308, 0.07152614687660229, 0.06748616681325802], [0.08682056420152962, 0.020913161990755994, 0.02205107802882626, -0.004937877651126257, -0.05183200540687339, 0.05497431176933105, 0.020723010831551345, -0.06276518536481952, -0.046938926824255295, -0.050450535000682764, 0.03995102874574171, 0.018434832436823853, -0.05464211511547455, 0.03344570747123941, 0.012256902099380632, -0.042432315948022756, -0.010106091535804705, 0.09082435980584266, -0.0660296703387888, -0.04826898827473835, 0.017811773682296493, 0.06269021767215588, 0.07844510691215442, -0.017859045602805185, 0.04937051615913534, -0.06886082354237727, -0.0202082134010047, 0.06606521025671896, 0.03182548618017137, -0.009157433625703513, 0.018817818408171712, -0.0010098312920209028, 0.009399376119367418, 0.07026529764780283, 0.08980746857852144, -0.05427023907461033, 0.04582617338323578, 0.08417891940103349, 0.020230214362312773, 0.0006732081975295442, -0.018910704866854665, -0.0022786910884687443, 0.013798618767243824, 0.025258123430199772, -0.07002647480055592, 0.09181772385012799, -0.03486520017425493, 0.009341831236226983, -0.05705862997721667, 0.030275267149622517, -0.0772402156878103], [-0.030359538946959357, -0.02112231932187415, -0.03424948059123112, -0.0025660888575818218, -0.0625532668097912, -0.0017151010934911104, 0.05389425604593479, 0.02359257183134883, 0.08607074906327042, 0.08231074519571221, -0.004039685458876467, -0.005877779359087818, 0.04790640321821686, 0.06962830895550494, 0.0074960438519169415, 0.03063446038824183, 0.034922387269148245, 0.0025467233447447756, 0.001503522346807519, -0.018118308169658336, -0.009390849958187291, -0.0049283056033653854, 0.055358514040211505, -0.06228606828569295, -0.07027691758481687, 0.07745165197739776, 0.0018783490644220077, 0.0356964716000755, 0.07611638904387873, 0.04324738562245995, 0.011660024829489869, 0.08276602509636305, 0.02270427831354399, -0.009599808996358646, -0.05847975311237519, -0.06238513171180785, 0.05373366889070469, 0.07217658121518668, -0.02617858411210416, 0.005220796654922735, 0.032177715200565525, 0.019533927108897006, -0.04107615755486814, 0.07454379656654936, 0.009492419720761676, 0.03923473508433625, 0.03365398400890504, -0.011301889826022019, 0.03726794534251024, -0.057620837706559146, 0.008761208630041178], [0.027581098287480846, 0.024071024973103674, -0.038517455955327844, -0.058554813628067984, -0.07250864951848861, -0.06935876529528615, -0.05788736971223954, -0.0021737922060050888, 0.012059007293888778, 0.037396715812589396, -0.010881804014927424, 0.04857471562213972, -0.0860580487823869, -0.027257694311003534, -0.07015593668881252, 0.00282188421798208, 0.013271928317113666, 0.014788849099984555, -0.010142318005349045, -0.024143091319307693, -0.031847542111610845, -0.07208245331561619, -0.05660578449102287, -0.0029043362493512853, 0.01243462171075541, -0.07370268260457066, 0.06274040104268536, -0.08649075548007107, -0.06905288667518018, -0.009937804427092573, -0.03080747450801321, 0.002897308721439632, 0.03433364175960643, 0.017219295814300855, 0.05072491017083026, -0.005904204426250788, 0.03264204254271339, -0.01649823301833881, -0.06885422483926003, -0.07834731356829888, -0.06062422389848151, -0.010733316637351388, -0.04049707527775754, 0.008595786468078497, 0.03016301335723982, 0.07635029275615624, -0.06731854718862154, 0.08332911528460457, -0.09060461627045621, 0.06810775838046565, 0.08830335039569681], [-0.025597963548475437, 0.05553581143794942, -0.0003219526948491547, 0.010251986522483107, 0.0665543909754724, 0.07957605135224396, -0.03731470535431226, -0.05013319088183304, 0.0749341914618031, 0.015813434346601818, 0.07474290301933398, -0.05220213661367922, 0.06372496612504613, -0.06101738264243237, -0.06591946022132393, -0.039265876244111084, 0.07822297075295925, -0.02181604031951523, -0.010416450275403345, -0.038577751532103834, -0.07906105541646757, -0.010919541068910556, -0.00213743818136973, -0.03142761899971034, 0.04228637515762198, -0.03630471160230139, 0.0865917852258961, 0.07424461185894847, 0.012406205176710873, -0.07409866413709974, 0.009902045426139568, 0.020027453765384683, 0.0262753228930444, -0.013533117562934268, 0.037323168105103034, 0.08979809547022115, 0.03845220618073194, -0.08793955796116165, 0.02233173909865262, 0.02173655752548306, 0.0018986455525806945, 0.07900817463294874, -0.0803327303855707, -0.09538262662320178, 0.03946710986904875, -0.07375420313199069, -0.0753053174439733, 0.05685577909915712, -0.02270301422016843, 0.06127777377667548, 0.053859244153261446], [0.029789447062489656, -0.025631518716938702, -0.07650596756446697, 0.08712084468658646, 0.0681358300986052, 0.07633977698918663, 0.0016893871475649998, -0.039843950691391954, 0.023308077165221337, -0.014911414628547772, -0.05614837532455376, -0.07097405650821043, -0.016770560892037368, -0.06412033927434134, -0.042537035204887295, 0.0873535384561815, 0.0793846366056987, 0.07053528276813043, 0.002282944398583644, 0.048129790361979126, -0.06160558335354445, 0.022198568907443643, 0.08669279658966604, 0.05317075411005875, 0.0888041186504395, 0.02325600793595392, -0.035967833551129307, -0.08768637014251374, -0.042285641686617324, 0.06015117785721387, 0.004958156542742263, 0.022448744321569705, 0.05535083406718582, -0.03749241999055563, -0.06665564049333045, 0.07083448688622589, 0.018689871918907506, -0.08746415351706088, 0.03595107057118786, 0.04027299816828156, 0.046386357824213784, -0.06758129636628628, -0.041200095070112186, 0.03938272183382267, 0.030909969951546885, -0.02845165636984505, 0.08385799742265984, -0.036281437145680266, 0.07203575660876141, -0.06872292886092106, -0.007896013824311703], [0.08905688106297993, 0.036540357965171286, 0.046001964429542554, 0.06891709770419091, 0.024554192501522867, 0.007361427722671877, 0.05857762738356238, 0.0070944667011221514, 0.08279718208704472, 0.04666145696534311, -0.09001870757407042, -0.03981323964354005, 0.07026161291010641, -0.0686329556789322, -0.08981041789932469, 0.014485182363372043, 0.035399935038578294, 0.08705469727541397, 0.08517106499593895, 0.02323745879184985, 0.035572428799606495, 0.00526102684418367, 0.06218832576948731, 0.03423709841940822, -0.06818807478884004, 0.02157860253325551, -0.08331892460753423, -0.031050737260149754, -0.032723620130872016, 0.07602512747782661, -0.05239303447110726, -0.024606634935736213, 0.010832573731273725, -0.05386681905995667, -0.013048732199324259, -0.03813548633277074, 0.04203297876405087, 0.04919394130896871, 0.014145589366107016, 0.06631838369280994, -0.00891742226182071, 0.044205801702239186, -0.07259136951922435, -0.028619704590888587, -0.03346581258439417, 0.06999616154031987, -0.010467197616839565, -0.023631021487433502, 0.033490942422087604, 0.07300425384491316, 0.05945230357344642], [0.05567534956168518, 0.03006036109894718, 0.0557741944262469, 0.011491154547895137, -0.02085629636052963, -0.03335506470938885, -0.04337896880739783, -0.030297294369736927, 0.00034241231867642845, 0.06646458869928085, -0.04871746133672092, -0.019702094159899812, -0.043832815302131366, -0.003764221887408847, -0.08019312063489162, 0.022588397833030932, 0.06557653675891326, 0.07548104070466517, -0.025970069874375584, -0.06059773849886504, 0.042419912925129456, 0.04667944065031582, -0.056504338181842056, -0.08026444703431589, 0.031573466594484643, -0.021673046199317952, 0.004233699191856392, 0.011905757203600374, 0.07057754731590356, -0.06835609080024148, -0.043486690593507564, -0.0848840277913431, 0.034742742757863224, -0.07689528452394066, 0.06604817245368615, 0.0202738771653856, 0.0019208030755383128, -0.04112794665001572, 0.06776635795804185, -0.07015718646650636, 0.017128906627061246, 0.06055634932457175, 0.028463277793371593, -0.08006172742223128, -0.07093595070747162, -0.03873285628121593, 0.04552782808706946, -0.06628981908658305, 0.08280914290970366, 0.07382052031391437, 0.013362325675738891], [0.07118106484668237, 0.022541840966506233, -0.05996975509053179, -0.014875092352986296, -0.08997373722099025, -0.00904924575027133, 0.09131766350400262, -0.02056276366798374, 0.032333753861751434, -0.023275395701001143, 0.029110239097604868, -0.028188108435714693, 0.07600268143239182, -0.019622151367114635, -0.04003010006517768, -0.011955074328763235, -0.07765993142332736, -0.029070776261828815, 0.04280067789092314, -0.017614665691131265, -0.007587315819300552, -0.04796805251640178, 0.06321767954920948, 0.07243766564581836, -0.015906685463091957, -0.08781505600034518, -0.011122385672206515, 0.07030128161638147, 0.03236748428477233, -0.04775196262193644, -0.0695531876915689, 0.07487431249399125, -0.07493641434428845, 0.021045622491107023, 0.027058342471066216, -0.05614414584339285, -0.013692925762240411, 0.07605843522468735, 0.09305875687679502, -0.07570705319884809, -0.07032855179160244, -0.04183628673037116, -0.08590122640965908, 0.0953223745093893, -0.07464998998552376, -0.022556996421746314, 0.08690660013148933, -0.004407227739203358, -0.055263617323968735, -0.058573481102940445, -0.047893639601853735], [-0.035716817953133646, 0.06496871487314333, -0.013968404926976067, 0.008412816018891203, -0.04169227195632148, -0.01872382134960563, 0.07766692375281802, -0.06879971376991244, 0.03496597890859984, -0.035498783068322826, -0.013326399262824175, 0.038643986137115, -0.027552361935922507, -0.00015191239725797874, -0.004038769151445932, -0.003662764686459438, -0.07804022585795936, -0.021410671453413174, -0.021121790636864927, -0.014682497848702332, -0.04076539128267573, -0.01032754206684226, 0.04204582315251298, -0.07975787816736675, -0.07722264259083315, 0.004237118739762384, 0.01250459726132396, 0.053927044859145734, -0.08792162711047428, -0.09147215039111303, 0.019201466754106458, -0.05473874111219699, -0.002852273579591228, -0.038008126436984674, -0.0807799356727793, 0.009500513484915346, -0.0323126940624896, -0.007686058524657874, 0.06594057427085397, -0.010581844719726731, 0.05402573355747715, -0.039703760940729, -0.05621634448602734, -0.027012297132265536, -0.038801868374630434, 0.04033401728851409, -0.08122319639997443, 0.03912930960025785, -0.04819289004117377, -0.028390149542795236, -0.05375695909750921], [-0.06541717774070366, -0.06489792213328412, 0.08736806403369984, -0.07396954879099027, 0.07921421513531428, -0.008921026717607328, 0.06983121032106325, -0.05719705990632463, 0.013744102448238558, 0.032510664195329254, -0.034011622280605565, 0.019279636417279852, 0.07414249563939569, -0.01377903425278258, -0.08775634838916815, 0.019428197511253048, 0.051424065229475104, -0.009802998623618733, 0.06283830071171008, -0.02644269624928194, -0.010383972986526751, -0.012802195925017716, -0.07594797858261582, -0.07994889670193196, 0.025859721073580488, 0.06948426900857355, -0.05942888090187607, 0.07372187740796621, -0.03395574915247402, -0.01649257604433444, -0.08380289675224747, -0.0924459960425164, 0.012391182547454702, 0.06990006916491329, 0.020594456569501, -0.06922254135866139, 0.03060769564407642, -0.07208040954305563, -0.006931004666778415, 0.04453449225063937, -0.027779563340846553, -0.03485757023721022, -0.03139568612133704, -0.04576289950116163, -0.09018691096032683, 0.04024808587950183, -0.02938366006401538, -0.058831752981887614, -0.032591214826638695, -0.09358700463810465, -0.006997737808673387], [0.014424247906963075, 0.022909758991646354, -0.011148186880085424, 0.08852194843853417, -0.06307344252197762, -0.056618539555113465, 0.010560719563119887, -0.015047657353372651, -0.03707766649549348, 0.040310691181817765, 0.0037043319798335987, 0.011158746730207385, 0.034942180682690574, -0.013285854617008435, 0.0011707783520357908, 0.08885246089221033, -0.061952849228775364, -0.0073654449362776, 0.02104496077955863, 0.04825862502771643, -0.07623257845530337, -0.07076694735700403, -0.04391542450191131, 0.02967206916811481, -0.053121899750499954, -0.08647084853581755, -0.015751916138124687, -0.06397850924509862, 0.03249264250049126, 0.08131364869266794, 0.045535475889534244, 0.010498834201427701, -0.018019772258127537, -0.08662787201841073, -0.015151450487371078, 0.002915817432260974, -0.03538902425236945, -0.020156217581925064, 0.08012292065843715, -0.024129872338214384, -0.04883604902143539, -0.011753970363984385, 0.0809294671325969, -0.08971528002552945, -0.007095060238170478, 0.08901508208871384, -0.0021754831956467455, -0.034371647033988505, -0.028522606950835555, 0.027848287322356537, -0.06836699584278837], [0.08225338034522163, 0.03559403111207292, 0.07494429663880849, -0.062240239076194, -0.08786089517714792, -0.03314517122193643, -0.006155502698043365, 0.005617049090826927, 0.022077495106653914, -0.08544377552531938, 0.08034553848246542, -0.06404816137365214, -0.05746166866611075, -0.06795016575471298, -0.022086045699320225, -0.062190201665603746, 0.039242742071976366, -0.02727970708577978, -0.06837770449204518, -0.02432991001173972, 0.05870142291276984, 0.008776531767266454, -0.07958936175409327, 0.01567741655626044, -0.0018135105731982783, 0.002965953675564238, 0.04536749711953936, -0.06529321417107004, 0.03569103883707354, 0.049486069378967254, 0.07551713151401292, -0.021285073987094654, -0.0510120569086285, 0.03837227796086048, 0.08951246920511738, 0.08585690515312376, 0.01769650292392641, -0.03428604257382777, 0.07699454744804958, -0.06398474445498907, 0.024016950218277117, 0.06498061923164718, 0.011854307484800762, 0.041907428862157724, -0.013310612209759527, 0.037157167899438015, -0.05547852663060861, 0.03286444266213256, -0.06503534010021172, -0.06274216247406271, -0.06974360812585095], [-0.03216374246784748, -0.0909180974688439, 0.03753700723552142, 0.07606130375639436, 0.06135883845906363, -0.08336618169831295, -0.0009673829800865877, -0.06786783412152209, 0.013866340180211054, -0.08879852297873145, 0.0823014109093497, -0.007872572692898603, -0.05966970347342125, -0.01624055681099878, -0.03398938851107647, -0.0026461160476830394, -0.015997570255814025, 0.08612496224105241, -0.034231637732102825, -0.07951195742920991, 0.010144395050638008, -0.004300387725833662, -0.025490043657055504, 0.08517396269746065, 0.0628769596085335, -0.015714831803491064, -0.06573142149370532, 0.07010065628229915, 0.05651828036067962, 0.07838183351379173, -0.01799578800916597, -0.047726745767510965, 0.004733544088595372, 0.005106843468398236, 0.044646863842094354, -0.065412967726694, 0.0846950986110427, 0.008717616862964522, -0.03809979878368876, 0.019150565148056478, -0.07637222540896899, 0.06060289353988641, 0.006556048884175385, -0.05126690249985246, -0.08176484114554051, 0.006397434556935704, 0.0587424615221029, -0.047350961953088876, 0.08265403754567464, 0.023924609092447924, 0.002817571928006099], [0.08664902148770497, -0.027647147307899578, 0.038364913435827354, -0.02141341009272384, -0.028849159048593507, 0.006134080173270613, 0.08326394633309887, -0.07518405762404469, -0.01703273857234869, -0.08053116188727306, -0.017207490607327285, -0.07825015541120466, 0.055558036972382215, 0.031295471667301386, 0.0857448350819928, 0.04345423527135589, -0.02793828355189863, 0.023013651923204086, -0.06286790551151035, -0.012114859998364322, -0.07091543547691678, 0.0862199787921396, 0.03220116244045262, -0.043703964162404886, 0.006668493091779459, -0.01821049612116417, 0.07238902457942993, 0.03299053524479736, 0.039711538577581154, 0.02409515167661433, -0.06307090001682389, 0.015154718646986056, 0.06514581825445098, -0.02358738238205286, -0.08661532042312776, -0.03364990350163496, -0.08947053264997198, 0.01653148261597064, -0.00294028328002411, -0.07050606982198394, 0.07351453907645458, -0.04431492488932261, -0.012177314454882814, -0.057192695716424685, 0.005779509797226936, 0.013799366174492091, 0.04708567494269089, -0.08780365527845094, -0.06573510033419079, -0.05470433628491297, -0.0341049113878078], [0.05662461391799811, 0.06345209913663022, 0.04467059620561682, 0.011332271732277355, -0.08792322057568425, -0.037888642871844624, 0.001938326545553926, 0.042180066347373084, -0.020703617715413146, -0.008263032627576031, -0.034804361511869955, 0.005768889434648374, -0.012391220509910119, -0.02569520579837402, 0.07841281325139371, 0.020236884195031973, 0.02983857917914879, 0.06628138004163164, 0.04362523113379309, -0.04420063813346761, 0.04690452068925433, 0.021657018756643998, 0.005508193943514471, 0.03795726089367357, 0.0605494577040002, -0.036986075620230964, -0.03740203890922748, 0.006592546132511341, -0.07250421463609143, 0.05346413595030612, -0.05458172223104024, -0.03337076117032152, 0.052689411250984634, 0.07153640524943844, -0.041297713857430154, -0.06804495878710554, 0.03093248790699654, 0.02323292159727398, -0.01691388042785458, -0.05872890061169072, 0.09062480324455627, -0.07238811261314983, 0.06552689077467207, -0.04376597986320544, -0.045034525566508186, -0.014825308801662218, -0.060837450726886184, 0.048550619506321675, -0.05774844439388869, -0.03536379243013325, -0.028114001853377753], [0.05612290530457451, -0.08525987149203372, 0.04431791302643728, -0.03997967578834112, 0.02743706125881995, 0.08649765185747749, -0.05781632380699106, -0.08673116607100118, -0.0361052904967974, 0.038834534583224355, -0.049865453672261376, -0.031595098237455294, 0.08809794442993969, 0.06573344370572612, 0.08488253926518784, -0.05204590966432712, 0.03544490507315369, -0.03397448362986862, 0.03678261229314001, 0.05934004668049299, 0.029985361035748184, 0.0004727083009638613, 0.02867175678190498, 0.0351250521877019, -0.06202793019535395, 0.0395363401712336, -0.0676904720707995, 0.06483851364793115, -0.02776173486937587, -0.07440323993856306, -0.08843589714568889, 0.020411710440365362, -0.0779730482240882, -0.017144590896862606, -0.0816692022151337, 0.03517316679658804, 0.06596073819944795, -0.08508361489200436, 0.021451256047614588, 0.027562206121759247, 0.013615232465347874, 0.08631986291156078, -0.03529624504725615, 0.0756506159079502, 0.007940983181360406, -0.0501300897928753, -0.036540508345357846, -0.07217838735357805, 0.04724671195887025, -0.04655390625237861, 0.01684633645550039], [0.050050541820215136, -0.04319778583408794, 0.02644585309830462, 0.03251306385304799, -0.011304547735876426, 0.05047707995502878, -0.01302701683699521, -0.0632507828421948, -0.07617180700626094, -0.06555106293026869, 0.042971619681916984, -0.0003632847771766201, -0.06513409773547352, 0.08332627687625138, -0.09066105702034948, 0.016393373918755724, -0.004020025013125973, 0.06990318230759882, 0.018784184540492566, 0.06295866530614391, -0.051939682574045576, 0.005915419909554652, 0.04953840911744632, -0.024573602953108495, 0.04246673443018905, -0.017226939183194113, -0.02992627184129725, -0.041436881455779534, 0.030915735167519477, 0.08791227569799008, -0.08412652874425035, -0.054372681288581054, -0.08083037537828609, -0.06099685826279827, -0.003968522011044774, 0.010027145574959586, 0.036261796645729864, -0.07325497806487459, 0.06269875850962349, -0.056852716103186984, 0.04310988015314734, -0.02043962510595819, 0.004236966820680554, 0.05345364702724832, 0.07437438159179963, 0.005755096262537629, -0.09151076530698181, -0.03583979952651197, 0.04078755701068071, 0.04707955068254641, 0.06996709846554881], [0.009440868609872869, -0.07233097757031975, -0.04062535947858817, -0.014437772686971013, -0.06646484797317138, -0.02796931530068126, -0.03536343795514262, 0.0417834006583502, -0.007017513640117594, 0.01326631804084127, -0.03682325181419015, 0.04060788502512084, 0.009008640321460643, -0.07573948794341795, 0.07735834079557927, -0.07183075528258245, -0.046180333192152645, -0.0760081243092008, 0.05462227090731976, 0.06576135362430226, -0.007827103465732621, 0.04784823040651926, 0.05398488811621565, 0.0653294166525597, 0.08091670483732394, 0.026861256839305542, 0.01816537073706521, -0.08600405996075135, -0.05235213491520394, 0.08995513172133128, 0.004334190481434295, 0.08011478151352597, -0.05112069294001968, 0.05833500529054838, 0.052024480377182075, 0.04234858637784847, -0.034039079194372025, 0.0886638712776017, -0.030620108435750394, 0.09027455632736678, 0.07768979561547054, -0.07551541041264376, -0.07718655898787367, -0.020237169311840292, -0.0435004362772607, -0.019056880456922543, -0.06265781109483397, 0.045786808862509916, -0.07232861557437369, 0.013979330111913027, -0.03187183918016094], [-0.030323636627208314, 0.019297734198186808, -0.08844648174065294, 0.0455364663207789, -0.006165850588990176, 0.044009212362210455, 0.058593273935431574, 0.07658702709927002, -0.08951996394813566, -0.043623615014995794, -0.028321089328663212, 0.00815508366854595, -0.03738829427119409, -0.011763442360305335, 0.0005651261190711664, 0.049049102898537006, -0.07608836853404276, -0.022950093177778724, -0.048289537842987645, -0.013606369225987316, -0.026142874867321978, -0.04755201623613561, 0.07949525018840067, -0.09122578834570935, -0.08550103706009708, 0.04217254330047337, -0.052337225979102425, 0.076324765763946, 0.02468079551672492, 0.06052901714289625, 0.08270695582187584, 0.04593996437074109, 0.08520116235297931, -0.05903127631153112, -0.05491880018593088, -0.08709662769186549, -0.09105855424090237, 0.05450546557712105, 0.03802204994148743, -0.036659003049596454, -0.06570915817530279, -0.07330525874489714, 0.002534447327008461, 0.08867797563493073, -0.09127321607736923, 0.011534871223564641, 0.035361246515295944, -0.04563504621825657, -0.062103666333769826, 0.07554375465707817, 0.05135833195165147], [-0.031049136433867197, 0.08363148336628366, -0.009114037097916673, 0.06189035837516289, 0.03731855223419193, -0.00723645122234627, -0.0248531951714723, -0.07380050632572623, -0.023783473514557122, 0.04140159935051892, -0.031578291335505174, -0.03498570361485054, -0.031688321707881405, -0.07643545933772196, 0.06733833124885613, 0.026835456865705164, 0.02196664789533908, 0.06259550909145203, 0.019163796564706407, -0.016014572530548242, 0.06463914303497284, -0.05020213575414298, 0.04449637685435876, 0.08707549884978547, -0.06876899663856126, -0.048535816355131225, -0.024675999266523203, 0.0416883673196564, 0.0029812321692220837, -0.018511112498809525, 0.07315689189693257, -0.015467953849343746, -0.050916919837892434, -0.08550860640744558, 0.08534527519115327, 0.09028938265148122, 0.08691317694340189, 0.015819306157856997, 0.007147016505184549, 0.082175310833557, 0.0067851358462879645, -0.027692330478980284, 0.0297499256790146, -0.0489946743040033, 0.0014392261269116709, -0.05658305977807077, -0.0514619627925854, -0.022338146195089083, 0.036861695135003356, 0.055965171228862576, -0.0795967784923036], [-0.0003125576170361091, 0.06318356163136352, -0.07393006264706758, -0.04853381005056598, 0.025985105295871346, -0.03703648708252959, 0.07360040595514165, -0.08515716991709245, 0.03203891071033258, 0.01515469779576232, -0.0420386949850284, 0.041145366709810116, -0.03780915036186677, -0.07699898586931557, 0.0010662158344008582, -0.07986943035309653, 0.014269841281963602, -0.05362088974693763, -0.0014372877569335083, 0.08486741240485254, 0.03353028690543385, 0.011109725301494146, 0.0528858572113316, -0.0146625314563379, 0.013385089112365679, 0.08004729106728223, 0.08717509202400403, -0.09033502866633272, 0.023247044753614977, 0.04633372605121152, 0.06354317910784561, 0.0032387482040206524, -0.07052781026789268, -0.014635039439021039, -0.043594305683441956, 0.0009201643105260864, -0.06852823368598668, -0.07096887504559049, 0.0815997167786707, -0.005677983331515095, 0.05136692367152236, 0.02025498816077964, -0.018509237128174195, 0.017793065925913936, 0.07334045066201787, -0.0645830496280499, 0.031239296648735235, 0.08461886189002239, 0.08856915943135167, 0.010067125108603973, -0.08218650143305688], [0.035901709812953125, -0.004309454229534124, 0.08765561459696097, -0.046605212399153204, -0.0700500165559073, -0.07318004490121165, 0.012087569800294158, 0.025035204075749044, -0.001973841678492508, 0.06876627975704852, 0.0887326587798717, -0.06514048513372524, 0.0053268144187873555, -0.011505897332203623, -0.07508527638464438, -0.05553828424421232, 0.009653232512936103, -0.011954349323550831, -0.03975057088695814, -0.0798411782738678, 0.03838030309072779, 0.07180661568755306, -0.06195783950338318, 0.06820898494658335, -0.018060540039080586, 0.07980426581164243, 0.08283300401081017, 0.084980029607823, -0.08541826152708014, 0.0453041420482775, -0.08332887042118386, -0.08231067194677093, 0.01507757345382392, -0.04072043785952135, 0.08777013497582238, 0.003561904693002198, -0.041708657769616124, 0.005866321209073463, -0.0018162347313012176, -0.08782444711858932, 0.07473314482147649, 0.018960490321000053, 0.038393039958506785, 0.06767828335358513, 0.05168983696442676, -0.08795342147625132, 0.0421487176125386, 0.024499839217792883, 0.026757934282354442, 0.02219822566190029, 0.0695515637953949], [-0.07598466899477871, -0.023026873282394354, 0.054641748334444865, -0.019898349781090154, 0.07758342411611437, 0.0790633635714218, 0.011871111678815579, 0.039536770047825145, -0.07911375511086806, -0.03896515794416183, 0.004844332433565175, -0.09033835217934529, 0.027196408028560243, 0.0022545068586060754, -0.06506022783142602, 0.03082291902836149, -0.009345474126603593, -0.07790480736206268, -0.05182382124809524, -0.0570694335177455, 0.005419389176274126, 0.0032103253566188976, -0.015461123363095313, 0.07144750344545558, -0.08492738099831777, 0.06140979842770666, -0.008817993714874607, -0.05883835815994175, -0.041382999927521584, -0.046680325530466846, 0.09067611012772962, 0.016345804823366325, -0.03745330882157777, -0.038786643854987354, 0.07674555017099835, -0.04221823457866574, 0.06317472606996208, -0.028395581524574703, -0.08748093400658359, -0.08986459349827959, 0.07972248267144877, 0.0813562074618247, 0.06468114127797593, 0.012429070728064406, -0.0878057195467392, 0.007783745115252318, -0.03888710988915296, -0.007160051572254896, 0.06628963402122234, -0.050918519581724095, 0.038062433048213426], [-0.06882993379895273, -0.0830326401227937, -0.07037227922342251, -0.022914201865293946, -0.07038558355579762, 0.04391637599658834, -0.01280962264797404, -0.001206614432266855, -0.05234175006305585, 0.014310508627517177, -0.08629974759226104, -0.07023369887861902, -0.061864376437889355, -0.035228579877179735, 0.06076325108558137, -0.039431962574880484, -0.053636299689509045, -0.004787942608127495, -0.09062332947199557, -0.025763445694044377, 0.020085030032733892, 0.014041919900801397, 0.06697872169851143, -0.008552142437892322, 0.007709907901182395, -0.06762179123764273, 0.007044003778928368, 0.07093671001350216, 0.017983559347252404, -0.08127873778415796, -0.01627868008832781, 0.04557414757394174, -0.08695530556677543, 0.07549400746859296, 0.04861320509966029, 0.023024715735740074, 0.048016813448217656, -0.003007497474379365, 0.027196988306011104, -0.0032069708913632926, 0.03439636827528847, -0.05758073167931495, -0.03429476351145731, -0.04005954364080307, 0.011217469888587522, 0.06824306803139249, -0.0070355822846117685, 0.00424826487629712, 0.073215424797355, -0.06802914774430947, -0.04309146893916141], [0.028117925119242534, 0.05726937182629363, 0.003824734596456106, -0.045866432785168026, 0.059128286062229606, 2.8961574169886833e-05, -0.08697691944657462, -0.06399253445087713, 0.05632423404348346, -0.0380092063500575, -0.06752955950181966, -0.0408908259919001, 0.0517993251552771, -0.06696265440865598, -0.02226918979991018, 0.060081322583783965, -0.017033809704810818, -0.012902714892515234, -0.06976751298871604, -0.06137483411127837, -0.044422358889912174, -0.043436006479462184, -0.04785010658268329, -0.07201115832072104, -0.04397212564392447, 0.017119914591323775, 0.07970597234269122, -0.025352021480101964, -0.0009034619918593735, -0.05902834999505994, -0.020145349443022202, -0.053850789847883905, -0.027182507573353328, -0.06344852503798618, 0.0683286426991772, 0.055866801714218726, -0.05959586367247762, -0.09324254621880625, -0.011862614338383209, -0.02892111214983553, 0.05974745233474748, -0.05613378573182903, 0.07319337519883357, 0.05796347873718814, 0.0020826067403126873, 0.066340969524022, 0.04009608946420559, -0.06580409451074007, 0.07398650356204249, 0.06536734686803575, -0.01309020566872567], [0.05740091094269556, -0.08047599116973159, 0.07549923362827915, 0.08999194028536478, 0.09046022162893097, 0.07437678608799761, 0.03988941378048004, 0.02510915568227903, -0.012078782543855127, -0.008002674136678288, -0.016455680195221447, -0.058921452700327684, -0.08491506165548571, -0.02618317460640881, 0.08516708202828412, -0.0750067193299968, -0.026771843317035908, 0.013308794599630077, 0.05184250775539785, 0.07375123165276457, 0.018225820838852692, 0.0013683393880698702, 0.07341114928783103, -0.03970382682550053, 0.011839846351340683, -0.011379915941963832, -0.015384268732222884, -0.026059875944286746, 0.00011279142502691436, 0.07221016133839485, 0.07631518734600176, -0.07668793521717601, -0.012441368584465014, -0.05010624030717791, 0.0838220879360582, 0.01165895176315116, 0.015849852843539628, -0.013101493813653798, -0.05968995703062093, -0.011898759701766131, -0.028913863393241774, 0.06257278466410425, 0.04491912290662082, -0.0295640852071052, -0.023878324106208788, -0.046401530343387204, 0.08429655802027293, 0.030189352039074534, 0.01898723468369406, -0.05393672007589233, 0.08647746479840074], [0.07030736449003948, -0.06391299434091045, -0.0465768682015576, 0.06953152365467716, -0.08204191162896737, -0.00028377757326068873, -0.024847118866223167, 0.04178459384293146, -0.002186606360011066, -0.012388407724058543, -0.04663430285815287, -0.021035922007632227, -0.09058068372938852, -0.07738905495309882, 0.026635524542722996, -0.0018202228707203312, -0.06357302849451318, 0.014452850040940718, 0.01136812395830777, -0.0500843707174373, -0.02467925733532376, -0.020942900798738028, -0.04713453955785912, -0.038105781167191884, 0.013231158195514627, -0.07011958980176526, 0.06679895442915894, -0.026934065740823444, -0.05640137400910431, 0.037345686289803115, -0.06647542132699007, 0.031125630162836346, -0.08696876800155906, 0.0668516754907681, -0.0570791639789647, -0.060089818505742625, 0.0037847620339329486, 0.032376058577315674, -0.011609280808556235, -0.027790845800040296, 0.0015400627665699215, 0.054855629600930246, 0.006909408645876075, -0.05022305303193666, 0.06293307764239052, -0.06634329488867219, 0.017079098590252605, -0.05025647248494713, -0.04054928526305336, -0.07978579304189519, 0.01266326043682768], [-0.07455438692918308, 0.08818030972760557, 0.047629433435916906, 0.07459279163468083, -0.003111395798368786, 0.06743274609874456, -0.06832246789301986, -0.004271805096719826, 0.042201676126325395, 0.00741372463272937, -0.06372879584314561, -0.0443794362893685, 0.0433136748111724, -0.0852916970229724, -0.09038609624459448, 0.04323086920185896, -0.04042637802703159, 0.011901594381750357, -0.05386109723615599, -0.04766958342272194, 0.08414194542111822, 0.08221972471393667, 0.07107287000807176, -0.005215889166407994, -0.04114800067351568, 0.04304780898867873, -0.012079813570587683, 0.05181209623298475, -0.010117037789049361, 0.02338559281841268, -0.008386597213014763, 0.022157511464890752, -0.017743991063122033, -0.00194249722874293, -0.06885825770285409, 0.004993710871664417, 0.0860119878587207, -0.06948477395879653, -0.06753939650608586, -0.06643113707952358, -0.05585650977403963, 0.04636168938728668, 0.0678090858104586, -0.027019209073625955, -0.03543262428512172, -0.06585109190509203, -0.0082829719043628, 0.050698509199210984, 0.07663983580542923, -0.009047944777408227, 0.061546343978273105], [-0.0567974672448756, 0.07711450032949775, 0.0341654822792318, -0.04541340037091995, -0.003682557822802391, 0.04227483366102168, 0.060879157911761315, -0.03219524969236987, 0.043312668551658, 0.07701110978579132, -0.060366153296113154, -0.06979056934553518, -0.04811325836584339, 0.041189767100714786, 0.0861231053175921, 0.04127609743931843, 0.07295625594643654, -0.002256433786915899, 0.010534628150185533, 0.0017807946597956966, -0.013631244698505856, 0.03425064805788579, -0.08477068099673317, -0.05896229809599534, -0.04209979948555827, -0.03767155927178047, -0.060178508310967965, -0.08187166750980125, -0.04978946680504807, -0.07344969930648032, -0.02464574327910627, 0.05108871551260142, 0.049070686861782765, -0.05893110074840892, -0.036088524481441, -0.03481413823626482, -0.08159722525511634, 0.07880030802889103, 0.04427949721501741, -0.008641731647209421, -0.041547598734909416, -0.016768629651304025, -0.09279778806372327, -0.06583078486675704, -0.007153096896459597, -0.053704023330085345, -0.013651655370983734, 0.04807152249123933, 0.053105011823404075, 0.05592729213553497, -0.05673741781834366], [0.09248395705367399, 0.07644646134653316, -0.034528147464021004, 0.012363536799026019, -0.07829585002289226, -0.009383442847581443, 0.004778285126388293, 0.056283741322114535, -0.0707704177512558, -0.06955592914723291, -0.01295651016544688, -0.036617846261478584, -0.08570421406764997, 0.037381339864326256, -0.07716639901873085, 0.062418041550198596, 0.041295693400839266, -0.06545354889210282, 0.05149623365625868, 0.00819239412740968, -0.0018401625478007705, -0.027728852726993804, -0.010876960959137658, -0.030257557238716468, -0.02619967483948714, -0.03680354550325746, 0.036513598455442116, -0.07632075292626136, 0.052160749605521334, -0.03693320026955448, 0.060838173120807235, -0.08083188900648965, 0.05831398820594298, -0.05814862406037839, 0.0019119443731315288, 0.038347707181945, -0.025479831974324837, -0.01620969041627246, -0.03229870801994623, -0.014881779201659591, -0.02472748816624828, -0.012708264895962957, -0.05075148208457207, -0.07771448615105324, 0.059370829268757266, -0.014238654361650902, -0.036124499479296635, 0.007402239221315618, -0.005425414528912667, 0.10429755943996366, -0.059334020018440806], [-0.08065397773298494, -0.029620579914268665, 0.07770094458599337, -0.08253312681194262, -0.05457410071828908, -0.05515529756181519, 0.06318638628724131, -0.03403971093346204, -0.010425663817126741, 0.010013179811703979, 0.07820792368391538, 0.02501278970400307, 0.04060028057141466, -0.033366807503053604, -0.056635439388888355, 0.07593423482096291, 0.00887899401582183, 0.02020577083708773, -0.022171880089031582, -0.01727798347342994, 0.017732491590720587, 0.029740753751151778, -0.05829931132209224, -0.08108445675589955, -0.0338467107713394, 0.08971644636460681, -0.05166563254228966, -0.01876214488993399, -0.07979961737222788, -0.02671195818251113, 0.0675953105693209, 0.05886741036241065, -0.031656660763583415, 0.09031093055542341, -0.006093419305929277, 0.0774853465196437, -0.0374383989312118, -0.029265843343220452, 0.09055956883540484, 0.043204078772059076, -0.002240733650779228, 0.055714524030452926, -0.005988843738034419, 0.0805231432273587, 0.044371732421198205, -0.046982710062603655, 0.028795267234653022, 0.0883550364520146, -0.010202038159029045, -0.007510180855155553, 0.06562445374145282], [0.005000550489718722, -0.0785161342595139, 0.01239549459491763, -0.05370170570745213, -0.04112923901229106, -0.048969214208498674, 0.012502140245290984, 0.012014906413992502, -0.06693739571654818, -0.06329958251268404, 0.012977331878086435, 0.02759785239761792, -0.07986526852428916, -0.08516526377938578, -0.07095522491848062, 0.017514221692610757, -0.0832206515941577, -0.04237642498938646, -0.030036047104849063, -0.07226344915424647, 0.03519087991940305, 0.08364042203766417, 0.028125767525067888, 0.005008655355855454, 0.08834782402430992, -0.02133355703084045, 0.08442856015198308, -0.06052431393082854, -0.05384887431869781, 0.03212813788228046, -0.05641687878893423, 0.0810947319671677, -0.01739132891608503, -0.06134513242830535, 0.08688413163182733, 0.045324881238774685, 0.020244028739593495, 0.018074374867207282, 0.02389056282534808, -0.04899910469671829, -0.0164717961619714, 0.04443047692349494, 0.0653513057870149, 0.014756260121600966, 0.020191262684759168, 0.014484382486142276, -0.04279396805383529, -0.04726438827583285, -0.0670558689599941, 0.07064947017187612, 0.02845638789448201], [0.050762956863397705, 0.06839528426326047, 0.025539593299599993, -0.034325317605857886, -0.07208816194433222, 0.009118111581455013, -0.07448599186684345, 0.06881024781080074, 0.06389125757177355, -0.06346917504652548, -0.02816146427823349, 0.006630997213518267, 0.04995050195909585, -0.007930172510471251, 0.07989731011032448, -0.05865891958853483, 0.011768928935663638, -0.07472820941259377, -0.054943764058378676, -0.06675729950922188, -0.03941258259622874, -0.01966610903966208, 0.03942086701206013, -0.08618228569963364, 0.0750116189976021, -0.05650711363328949, 0.03138186877400501, -0.0632914109197188, -0.08408417132820323, -0.005733367957574547, -0.006752677958934829, 0.08490880209517561, -0.06331996375132654, 0.0703215083687854, -0.00891570831398308, 0.08809399412413522, -0.07573245093922379, 0.00048405622280568933, 0.07147560246868152, -0.028676673088852793, -0.021079667508287697, -0.05388732618255355, -0.04696252881390464, -0.03364306957002033, -0.05994783237196868, 0.03533120793513686, 0.08584615962079808, -0.05269566007761278, -0.03175500432541209, 0.0016542435641499348, 0.006937588591308575], [0.016747828429053476, 0.07446697480642324, 0.05777674816929447, -0.08032640566760135, -0.02859948713639535, 0.04865414719261687, 0.05312856564836771, -0.027718634028426777, 0.06958299092667514, -0.07829369361252725, -0.032400712191525315, -0.0031524256632987427, -0.055572946506787735, 0.029098902696359504, -0.08781393296298162, 0.08165439557288788, 0.04607901370257856, -0.054658014103445805, 0.0638340568673121, 0.011182629437876028, 0.061755170867895115, 0.08953898854957601, -0.0535481340723002, 0.07565284554937456, -0.06485245943670437, -0.06778159430735761, -0.049455507279990776, -0.021505350249265785, 0.0006249216887894061, 0.0301501356348841, -0.046634384810460096, 0.027950119128690915, 0.0212755628099612, -0.011775179982977857, 0.08757785352690188, -0.012679838769721589, -0.0605696961647234, -0.08681786947934789, -0.007941009680655812, -0.022663471902952287, 0.03791996298066338, 0.03740625591605795, -0.05403188592120349, -0.057758812793522886, -0.06216574613267572, -0.03552916763403157, -0.03502575817343214, 0.047754085928610655, -0.0030914185741245763, -0.07280985977194247, 0.07051746343514537], [-0.04260765491199185, 0.08961751929413694, 0.04602283840733237, 0.018224690725208697, -0.05283310613018216, -0.05663438344307423, -0.007396536432576652, 0.06109169785490871, 0.007994984986520372, 0.03501586868225296, 0.03782801503534119, 0.03750289942448232, 0.050779186348236374, 0.08532285451189844, 0.03747620961966611, 0.012801183444117802, -0.03187929732047384, 0.08883080837484114, -0.05513509847319118, -0.03766499887934989, -0.02599970309267206, -0.026502446857121345, -0.08883202753898316, 0.04888449961984727, -0.01728681048172877, -0.057876336574348375, -0.016806421511647684, 0.05318921269720139, 0.0920449926682226, 0.018126796562296803, 0.011878050131561128, -0.07405778132068068, 0.06009524045987459, 0.07952952051528692, 0.0762321621885475, 0.023308270175583443, -0.02499938082745002, -0.022326213303702817, 0.05622862649893492, -0.05443617890273056, -0.07551287775614396, -0.08703969281713082, 0.04373550945487438, 0.0991555342352524, -0.06649333612338426, -0.0192575163569997, 0.08726375645351157, -0.0007872315353750506, -0.055777806737055215, 0.06915923665505457, 0.09158814719652955], [-0.0861290895320617, 0.006359721817865665, -0.015504464534145876, -0.0005795687533146206, 0.017481784912095996, -0.0213655386078663, -0.007919967719624355, 0.01711619295423518, 0.07683481382037298, -0.024985391732655928, 0.07061643082902601, 0.08171831079524816, 0.025078593689059424, 0.04140321088219078, 0.06337986309594872, -0.019995627010546413, 0.013049289448182075, -0.0005998428378673882, -0.06891211254184043, 0.05884604019432548, -0.07899302193024647, -0.01304392958976453, -0.0036184032743939347, 0.03780294697724752, -0.07402353501343788, 0.021780573850966232, -0.08568859387397051, 0.01936778410891359, 0.04366906973650984, 0.08104497997750847, -0.08599230347325505, 0.05356007426526913, 0.08759757488629599, -0.04289377688060163, 0.08090850134336074, 0.059467652360490605, -0.038021995395048594, -0.006102050265765226, 0.03363419358335995, 0.07687555724898565, 0.02262228685724153, -0.04223084155930703, -0.07085472085185615, -0.0396936332664468, -0.007744552258841013, -0.03905454545257466, 0.00510826890224409, -0.02120220988368485, -0.08091172108583318, -0.08474368486230889, 0.03369830949626475], [-0.017113437576620764, 0.07258895089644105, 0.08128967169813267, -0.020558602917907183, -0.07459317152552129, 0.0696996101025421, 0.06907790414605758, 0.050829863581054666, 0.060806852682836, -0.0913547866725345, -0.02219636556099565, 0.031454564087718385, 0.06287104504847633, -0.007484737633658814, -0.034752266579212994, 0.003249925358219415, 0.04961626319991695, -0.0619881401353128, -0.03269374426044662, -0.05005958582657999, -0.060729773862522166, -0.05783999466024908, -0.0878842857887917, -0.02287986030596298, -0.04638331654968515, 0.055626854352360824, 0.06213559932110367, -0.05498034113130024, 0.014239743653829927, -0.011671632496329635, 0.02776060194107142, -0.011273717065845307, 0.08161250529791299, 0.026204857563508755, 0.08289305359245433, 0.05748860255430152, 0.013547333166426832, -0.06334984040133107, 0.06085239231005518, 0.06581695981565056, -0.003201991178242916, 0.04996983665179105, -0.021403414863690077, 0.04288257598094765, 0.008671515879569373, -0.044825092806351385, -0.08634848732682857, -0.017453812880715333, -0.020274933481546957, 0.018028477504815534, 0.057014336108111976], [-0.034508794380639224, 0.03846925030881786, -0.06266265277284708, -0.07176039651630056, 0.07115029289430086, 0.07554104350189436, -0.03833493970671628, -0.04451307753831151, 0.04507875720879772, -0.03936807562158478, 0.02882621948759155, -0.061976758101071276, 0.048063692839264024, 0.07886900828777434, -0.05798717228541654, -0.07315552294389749, -0.03722139678276988, 0.036697356929607274, -0.05278251682872972, -0.009995977040622389, 0.07938945866319387, 0.014532750094853884, -0.00748463034174573, -0.06411395794556389, 0.019432202218034093, 0.0011061494562484176, -0.031213453363313416, -0.00768781676143081, -0.03205325474401809, 0.05362771142906112, 0.013581303741067169, 0.01244658428568217, -0.06345376951661179, -0.011388046167395794, 0.0591271073935739, 0.07489088999854154, -0.044335579479975816, 0.0024030821664246405, -0.011283916318898028, 0.06960830806023229, 0.021818843718346345, 0.013596270111795816, -0.019459235710617376, 0.003835933839428049, 0.06113595579819775, -0.06449072205524313, -0.08424401939965658, 0.0871680899816863, 0.07735382692869602, -0.04369648071131812, 0.08883431138259658], [0.024207229989813187, 0.0889801447880403, -0.04744230621857119, 0.08553997552098169, -0.048554021234680826, 0.03958246576437937, -0.04982654983601743, -0.018358461463393927, -0.07305865218782022, 0.0863975253315408, -0.003986912979614727, 0.007828517817006556, -0.05670034291383504, -0.022751545250400785, 0.0011782037658758634, 0.07695391732634481, -0.014926456360637318, -0.0252277030253131, -0.07910420160143929, 0.03056350881261648, -0.003103507711128446, 0.03079991431297866, 0.057828670304361514, -0.08199481787253038, -0.03664164472792904, 0.028884019235246593, -0.024938074251277646, 0.03879901404535634, -0.05054360420285483, -0.01561491989385785, -0.00492831937290289, -0.028012228683917423, 0.052305920431287664, 0.005380806409100324, 0.0836050750992991, -0.008372649929711264, 0.06985218292393143, 0.04244210471495765, -0.057508177365631914, 0.018841681111278943, 0.07249901618691429, -0.0900619524008728, -0.028009321671671614, -0.05340367453259463, -0.00047213547124988915, 0.010377942565777665, -0.05708120153116307, 0.01510546080185812, 0.012627991569604757, 0.053608190930730784, -0.05807086711977232], [-0.0203454019219585, 0.07640408610006999, 0.025277762615841977, -0.03907357913535171, 0.06054707187582333, 0.06463766162762381, 0.03998360800614309, -0.048090758532244614, -0.006146530644936744, 0.0289829171135952, 0.008596777062244699, -0.0352267319230804, -0.05253350027573052, -0.020341144030771748, 0.056281030245715076, 0.04813213108054069, 0.006356999496125069, -0.08980081488237657, -0.01359665124662787, 0.024871887188291676, -0.05099050071022052, -0.009707463179834444, 0.0074329754892243135, -0.06035920123915252, -0.06067366350627357, -0.04388162195546304, 0.08528227199591974, 0.08159776964347187, -0.08211773618789782, 0.030806536872437673, 0.06924648645206613, -0.016766670387648203, 0.021734263164370382, -0.020061597676893562, 0.08074690781104787, 0.0262099251970673, -0.024831289990523253, -0.009706666675623896, 0.08516168518896142, 0.048570048844492994, -0.0678523380672955, 0.06351985356259897, -0.018071771695357137, 0.06441953206243024, 0.07404549009977777, 0.03683990735731185, -0.008691117409565711, -0.03677858874844002, -0.01905638825753483, 0.06411891878853868, -0.024777785625693962], [-0.011037024125448856, 0.08439203211823551, 0.07320621483266677, -0.08307326561502053, 0.0670979346481206, 0.022530850475520465, 0.0579923813160919, -0.06767854290002352, 0.09223939552387914, 0.09032906189838882, -0.05298572827259645, 0.008274609831962699, -0.005462819118904502, 0.04784109503469198, 0.024741809021218617, 0.05938403127468165, -0.0809572562472157, 0.02380631042509043, -0.027352504188938663, -0.05327788659065775, 0.08434843560839599, -0.04824772477866778, 0.014588616777842976, 0.07170703230278995, 0.002359120185141319, -0.04990586456752805, 0.011710209643425534, -0.05495182775902254, -0.06092402014875085, -0.06408134689546194, -0.018914535533151585, 0.0764458169705316, 0.08784873427103779, 0.08826037115897852, -0.019455757999126876, -0.09049049278367644, 0.05135717809724948, 0.0447527830053016, 0.0765587634502252, -0.08744956902885374, 0.07994931550479675, 0.06812452108006331, 0.07188352900747198, -0.083710948079744, 0.07517216341024925, -0.06934277551231958, 0.01433125216387572, -0.035416788177734686, 0.013441613822339028, 0.0017829726654525822, 0.07787527815397026], [-0.09050031107939824, 0.04921201497616205, 0.012899985247513313, -0.0314813711870005, 0.06407668023418343, -0.03914393838529, 0.05144175803341226, -0.008703345763906483, -0.005411986620723822, 0.07472293764690391, 0.048176397639351394, -0.0490539561518425, -0.0747956565177836, -0.01443633628329357, -0.05715044034788925, 0.09157224096724, -0.0099445995653774, 0.07382911156007789, 0.0894341343823659, 0.06715299237476687, -0.024225939841609097, -0.0583472588813867, -0.011847768114519774, -0.04648079768141854, 0.03899158282556511, 0.04990483149304093, 0.08139171324318452, -0.024655216904676296, 0.047991053445862075, 0.04367965301730667, 0.03346448737569324, -0.05537601497187047, 0.06111718763619159, -0.02640622031887866, -0.004631522969306624, 0.047143583954751565, 0.08622804198187617, 0.06939078271587079, 0.08674329252279148, 0.08877243349670369, 0.06558929406635335, -0.03168714534959445, -0.038450978949603504, 0.073057154813066, -0.06341323704024061, 0.012326908423975755, -0.07142680507449016, -0.023148529640805545, 0.016814285062211953, -0.03794794173839339, 0.0346809188404337], [-0.034323298688391485, 0.08963606140295056, -0.04449727979131402, 0.07209626030213231, 0.07348125629051531, -0.05672370108665187, -0.06740749832602194, 0.01881132757634238, 0.0696056842490083, 0.017366422702561998, -0.024815272379278188, -0.09262114808088748, -0.0846431254872917, -0.014559539916399945, -0.019979642428194968, -0.08452124598989028, -0.0902072932623924, 0.019782031485273025, 0.05695879016483227, 0.005556482473203943, 0.05893344218873278, 0.01217205859586517, 0.0293845905687179, 0.0020341864202153954, 0.08417036488159096, 0.07717749334658659, -0.002387454780929385, 0.0586401499570171, 0.026579715775719912, -0.06784673595761843, 0.07704860874278513, -0.04738161156947812, -0.003123925408810691, 0.00018583466484919044, -0.012631789183618788, 0.051628118317429424, 0.04423968163688003, 0.014908647724794005, 0.08600291006109187, 0.04372483765953075, 0.017885622282809262, 0.04486348672679784, -0.07670635793947964, 0.027406323510019405, 0.05805575154459397, 0.05554470187644119, -0.0731241875590574, -0.08863907407016394, 0.08767738264745058, -0.020929518785852076, 0.04141710696713012], [0.06385899990162822, -0.06817064325500538, -0.05958210813177911, -0.048411995081865944, -0.02412986578071349, 0.007740150047085808, 0.06200330059699339, -0.019197788860252054, 0.04595123160533305, -0.08491361515516935, -0.061364089510716674, 0.06198132279074455, -0.06767511276512098, 0.02203272997279214, 0.045274007705026334, -0.049258087442859776, 0.06877991583106285, 0.0394541725463106, -0.06509500492474302, -0.03589951118452379, -0.07343925847568009, -0.07312775473041139, -0.06457771623431226, -0.009710614438778362, -0.054008148347488676, -0.028748980201948684, -0.09149846608038474, -0.07838810092746727, 0.05675109037840811, -0.054313083701392456, -0.054554150691204104, 0.05743112777410946, -0.04073255139842445, 0.0021396717002282093, 0.024721260835340864, 0.03399785898102757, -0.004096958162478821, 0.029561579005172586, -0.0053620009574560515, 0.01940383772347045, 0.0905999385014293, 0.03520337676952029, -0.054041599301348955, 0.06904629255144201, -0.023783040153220497, 0.012833347117602522, 0.010449916006079045, -0.044429524056364196, -0.07769659170521499, 0.0300363851214607, 0.005843713192415449], [-0.04528800944905274, 0.003119828219474315, -0.08120132504850502, -0.0568354832832046, 0.05787430668229293, 0.07086117712085774, -0.04009983542825655, -0.07916728298799694, -0.0017066575806497634, -0.04444783794444837, -0.05787272143317793, -0.08611745242023018, -0.04391787750187538, -0.038124045706174385, -0.03281230311742628, 0.09001979962496436, 0.027252743074439117, 0.052015029314916104, 0.07794292270917087, 0.03120917908130595, 0.08093198424176404, 0.08508630460226906, 0.05038296015306731, 0.022755937077701696, 0.005412212873218881, 0.04707440474777838, 0.04907781386727846, -0.060208216467180706, -0.015199622801347526, 0.004054429538107901, 0.05505619492627136, -0.0506510723754523, 0.047337232711982834, 0.07547416313487915, -0.03405765085563488, -0.06805684260037034, -0.009853927168447593, 0.07795415339783862, 0.08191344063194915, 0.038904322003490005, -0.03678619202167448, -0.06834082380056238, 0.03267324306695398, -0.08663981653225877, -0.040462890102862394, 0.08855131158968019, 0.06376066628860683, -0.03926101038527747, 0.032532890774470496, -0.007879719085410443, -0.0628264615237269], [0.08598196605117972, -0.01362826786715867, 0.07756083995298306, 0.0133797579842094, 0.001984451606793918, -0.08776102316022577, 0.05436566711919507, -0.01746597103837682, 0.04001995077541802, 0.06825813853370896, -0.05759743907000028, -0.07465540322545516, -0.02189010282428998, -0.03450317570656394, 0.02802777756085606, 0.0744797987575718, -0.08265483764852304, 0.03340423463145795, -0.06666150906488628, -0.014614387333113677, 0.038888719163391004, 0.004316440941808369, -0.01827572464052985, 0.0624929256591068, -0.0562518571174596, -0.027417111271966197, 0.09230736697974005, 0.06650008233241952, -0.008403660743510517, 0.04868634454489469, 0.008013213205320028, -0.007054476753632695, 0.00013878934615903688, 0.08720434661644556, 0.00019282929998421953, -0.03902404052375283, 0.03059925273769121, 0.07272888542032618, -0.08243621656250613, -0.04838682083331223, -0.05038983658260409, -0.058604681217380335, -0.03157274443633186, -0.008459355943164137, 0.05344460801511513, 0.01949616190920045, 0.0846518113398064, -0.0017263405844807535, 0.04273067104804892, 0.015193232142845155, 0.0017560549274133494], [-0.08078128359597966, -0.06725877915988951, -0.06407874386915359, -0.09008799120472119, 0.08919712997561832, -0.05403979990616964, 0.0455690679925761, 0.059043978084148116, -0.014004175917700737, -0.07290498982527634, 0.04021169459638874, 0.07575038425091862, 0.042044687855575316, 0.04428815872047253, -0.027608040788897024, -0.06642273261127009, -0.03208929111226294, 0.0512919676150689, -0.06391587350373161, 0.06089090226086395, 0.09045181920113816, 0.08202099817464553, 0.08237386919685302, -0.07439420183092058, -0.07018411928900327, 0.033506966696307205, 0.016686880412395366, 0.01919561447382901, 0.026692607664728585, 0.020043229592534233, -0.0315213529846632, -0.0741894121560491, -0.013680780314305047, 0.06868248591795158, -0.04128435063218283, -0.011015250801239102, -0.03050204553606013, 0.011945714934539678, 0.08747772596083918, 0.006813839751097896, -0.08549100648162226, 0.037243515520259965, 0.08815147970152731, 0.011720844384557944, -0.06500517783418985, -0.06825543382353474, 0.03564723686139274, 0.04076627642433354, -0.06234254405757066, -0.06868307546082109, -0.08351161114666247], [0.02333072471281423, 0.0637322847622418, -0.051633075203064475, 0.040461038188800175, 0.013911185419282511, -0.0034077598132220594, -0.0026133774868165936, 0.0162270627199355, 0.024219310205165406, 0.09062647030148345, -0.004206472394976184, -0.0791053392470257, -0.0583750186225829, 0.023949929331364025, -0.008195097995076818, -0.06136585672313478, -0.08078381006380785, -0.0758250978363869, -0.01157784827034163, 0.04696623755190641, 0.0537549021779758, -0.08657049097174416, 0.05857130724730406, 0.08386863032992854, -0.09029904489810983, -0.05288006662919632, 0.08336859526445511, -0.034993193145181345, 0.04351674148903793, -0.08944235989596946, 0.057664715927429576, 0.06680901394517703, 0.06347307826523192, -0.08787672317796087, -0.0604060941777604, 0.0822504461233666, 0.07180968892154875, 0.07668663658899467, -0.04296736256049442, -0.045307674897192715, 0.013291133453043981, -0.07653391843580724, 0.0636135104565897, -0.06898493093869495, 0.03718660975096742, -0.06483684725154365, 0.0611931326766213, -0.0005321042146139148, 0.08618023469222631, 0.008751322538867973, 0.07443676552951052], [-0.026579342002726786, 0.04998091856534189, 0.007937638683397289, -0.04686130041544923, -0.06440916988387425, -0.0800299165671286, -0.05597512505620872, 0.014945505355596156, -0.05759094099752738, -0.051749470683186895, 0.08541958708430919, -0.005613291815548153, 0.08795283408707248, -0.084074356263761, -0.0866767666569111, -0.003994610019461518, -0.028233994804363567, -0.06139637790483227, -0.011197233586787345, -0.06873433086273846, -0.0072666333069816855, 0.03639038931043971, -0.07217082926620177, 0.05392265186054391, 0.01917549884049305, -0.0335509781328388, -0.012828811424373272, 1.9284155020676746e-05, 0.02241972303009965, -0.0895655288104232, -0.037943295296271565, -0.06855448785183164, 0.06329914334328564, -0.02470251873853774, -0.04686805322224134, -0.054709618755014525, 0.07740424341273881, -0.05609297661126501, -0.06584655070730341, -0.08375098628925069, 0.0814422869928619, -0.06110324799549951, -0.03800487779312337, 0.07999785218055257, -0.02628203383229949, 0.06718951590004041, -0.05963215493189003, -0.0023484426216982394, -0.05382039801485959, -0.0366003367739879, 0.0904951085722014], [0.0081688309253024, 0.013279550528549185, 0.03811627569209023, -0.0907795949943097, 0.05148996981792018, 0.0032650710031208157, -0.06805300261789499, -0.04878470238361469, -0.07228766338833394, -0.03704623715330294, 0.026013343534080108, -0.081094480482701, -0.06936332879388742, -0.03522671552104165, -0.07836869620137135, -0.01931895176950121, 0.0011598574827553735, -0.05142595474308337, 0.005662883551170125, -0.0035937310367165696, 0.003809444668687339, -0.022878561942535913, -0.0020746143383765974, 0.06086757741525231, -0.06426512560388634, -0.012706157920652458, 0.08195510085146758, 0.009596655483332134, 0.06229373769607068, 0.03688660371248595, -0.041061762156723025, -0.02479317652214856, -0.06996872824538505, 0.00960923590923302, 0.013356848368714433, 0.07023436025931168, 0.06533546047562505, 0.004366279318851152, 0.07599240709281098, -0.08891758996172568, 0.040081640149513036, 0.028326468364923075, 0.03732905321124177, -0.09501129377856206, 0.012812646639200951, 0.009366710397098589, -0.06399752645143654, -0.015265798419895055, -0.05583235364310113, 0.05927508214445689, -0.004067725482543826], [-0.06694085765326666, 0.002277951648556142, 0.0369730610616715, -0.025583340583651384, 0.055720131330979424, 0.02088316646873226, 0.05588553691237948, -0.009801692020789794, -0.0041424506454383475, 0.055407140405985315, 0.04184574158488719, 0.07901628099912958, -0.052045892924824165, 0.011149157889560845, 0.0283819188082919, -0.05202704357787197, 0.07217362061011917, 0.06167147189029261, -0.09008271141097518, 0.05835228314861444, 0.07071482330321732, -0.0371697262201776, 0.00494329618298262, 0.08641314345231357, -0.00786849448351151, 0.05235713013090711, 0.03487188114330534, -0.028535896241777246, 0.09067824879463181, 0.059037714447123614, -0.07538256042926825, -0.05508116811973488, -0.07727586685339627, -0.031117137396222776, 0.09084565236255975, 0.07040030546406847, -0.00084754145532849, 0.07173787917524611, 0.0610669947551427, 0.002500213687052782, 0.027291395079509857, -0.07373451501064111, 0.06083254417661159, 0.02643917787803291, 0.08876692194386103, -0.06731819125729266, 0.035780397409089656, -0.033284167515694824, -0.058155859366899654, -0.07862223854035186, -0.049990010128595316], [0.056359249747191385, -0.023815905977046612, 0.08998698703591285, -0.044663284506833274, -0.052302791958791554, -0.02587281666536114, 0.08246610500008172, -0.0052766285425892585, 0.06125902437934145, 0.028811588342840817, -0.022779202428542287, -0.06372938389218236, 0.06093248799274614, 0.02290620427283756, -0.03878847223158259, 0.02852943591327877, -0.06939222993119429, -0.03791248249173119, 0.00722417611434027, 0.02901036326357731, -0.05140102022746507, -0.08181904782646723, -0.03369224115905702, -0.04062885787136577, 0.030189454775861855, 0.08770145440736621, 0.04158080746978855, 0.058827432663742234, -0.030389533430117462, -0.08955690287223662, -0.023511966937532727, -0.08178832681331896, 0.012253739971084228, 0.07347671860483423, -0.062022412287097706, -0.031112361111318113, 0.005687568768974911, -0.06994233778278071, 0.02010087599805436, 0.047144402350130774, -0.01703593947534567, -0.03692503308596557, 0.023385298678886952, 0.07941857477506097, 0.04963493701773998, 0.09026545458052519, 0.010133146927877992, -0.02717323991815254, -0.08520667234057769, 0.08301135700135552, -0.06818267547363391], [0.0677346727868083, -0.07482556822385329, 0.04904505602364339, 0.01123975641651826, -0.06739949709456637, 0.07755484098989557, -0.05060562935973049, 0.034538181600809174, -0.0787002628253199, -0.05983261647705685, -0.09411288186270177, -0.022510142972907068, -0.04806873303870694, 0.042800864840671325, 0.05933055748089103, 0.06675404250815518, -0.06392487372132247, 0.020668391381348673, 0.0388948249090728, 0.017593964648865548, -0.009483150692847312, 0.05838322660645237, -0.049806414729935196, -0.06469692084090863, 0.06626515493183195, 0.06461260922966436, 0.018333019898973058, 0.00867912257588822, 0.04452037677447288, -0.01379125015944316, -0.052289349386408224, -0.05582976380128194, 0.018278333797973972, 0.020658472263701162, 0.015313880722350993, 0.02830369153271901, 0.01608892963386754, 0.0193271768829625, 0.016433048778187048, 0.0557654823288661, 0.020805509129633554, 0.014367241845869815, 0.0193239475887856, -0.05232793464974046, 0.025737109793486267, 0.06109782527633014, 0.052135229424521305, 0.000581144664605124, 0.07957296775699756, 0.028198313847549835, 0.0055693548123240625], [-0.02634635423134082, 0.026630021671714754, -0.038683301172348646, 0.019774307846285512, -0.07017900478440624, 0.07037672146602031, -0.07677632496631767, 0.04357675081106127, 0.07344675099320343, 0.06396473964029994, -0.014953492051591091, -0.03666701772326151, 0.003880758720834245, 0.030318288193686687, 0.05249575183643987, 0.07012414670380816, -0.031032165116034696, 0.0068510198442720445, -0.08906693354127782, 0.012870482213691399, 0.07254147002030233, -0.02051708783518241, 0.08235466621296345, 0.044358347002808544, 0.04587352549234898, 0.05405895589207093, -0.08035947076999539, 0.043362174935101465, 0.0275482152066855, 0.059507536704773406, -0.06400766995941162, -0.053340545259134745, -0.017911669172543575, 0.09079681563690785, -0.08197356197920638, 0.005337597536082646, -0.04383454102236742, -0.03899682105278667, 0.08165052052205216, 0.029179904016555236, 0.07630027804412547, -0.024424084457665377, 0.04494360075021477, -0.059519670918405085, 0.05705766938363574, 0.02514404890172983, 0.07083819475740034, 0.011763247842947553, 0.0068341436425886975, -0.05298324950529684, 0.06314603780047878], [0.03716515056501322, -0.009751828650997888, -0.050094803154404434, -0.08903120844038157, 0.07463198088241146, -0.013912104139260204, 0.04257997882759284, 0.043686531250573965, 0.06666765566853138, -0.005275764593858473, -0.03541160805092424, -0.01690437514078792, 0.0022387122683695795, 0.05679439185047277, 0.08837042641521525, -0.059973908152624655, 0.06566124024330434, 0.07345093065313309, 0.012490282752555423, 0.06620515870301334, -0.04169593761272826, 0.008902822377407802, 0.07717599936326683, -0.033195352535692724, 0.06786190833144437, -0.054523822120489646, 0.005498417545643095, 0.07008429813401355, 0.034072834872607205, 0.05448952316812737, -0.07759356940534104, 0.052149457630442105, 0.012166174179264968, -0.01407801434113217, 0.06672074630097753, 0.012548658277834164, -0.050954226112350565, -0.039398085632612156, -0.0857969231180775, 0.01915108155628773, -0.06701829643052704, -0.04331219094700336, 0.007796542051384206, -0.042343666832229156, -0.0816944726680864, 0.023422838393036428, 0.0013494920595826618, 0.057287896318897, 0.0698742767701159, 0.06247377198923532, 0.06485049922748796], [0.01695991519739956, -0.010269233655185612, -0.04694071051722746, -0.03270956454164126, 0.03753911176494073, 0.07754552546135253, 0.03854404573688325, 0.024375022558467505, -0.07126535222861091, -0.0875132616154452, -0.04953586215422847, 0.04284898050669925, -0.037099195852866265, -0.08591653305440122, 0.004058381854879894, -0.08987496127552665, 0.046255103534951277, -0.0033645187177707525, 0.021367570441817398, 0.08912808435040821, -3.136184982649928e-05, -0.056036380817464135, -0.03266377618120629, 0.04972792383173204, -0.07836318125192814, -0.04561390053560077, 0.00400714885669991, -0.07120183761375029, 0.006160969584258774, 0.05042340739613132, 0.07327166828203428, -0.07587199012727286, 0.03574044844510668, 0.02748990890487654, -0.013359012520622696, -0.08948799054936087, 0.037430776439314965, -0.0042171455255892686, 0.027173853827953103, -0.03878595458263876, 0.0810269576467045, -0.026806033042397922, 0.009214397941565092, 0.06115851323607633, -0.07166136055655042, 0.032085881640600354, 0.03501690488773427, 0.03781861298930549, -0.031218487886539848, 0.061311740244837945, -0.06874163735468838], [0.019828714214038753, 0.03137624804499076, -0.07911438062754945, 0.052830706025328744, -0.007908137567872672, 0.06766022385359946, -0.009633270199010923, 0.04075490743463395, -0.009992569721896723, 0.03001636607896728, -0.03916286739063135, -0.07108845562763208, 0.03702676288519371, -0.03686223252158928, 0.00031873448667912055, 0.01847707918514957, -0.02982861198560011, -0.020022816130846242, -0.02346630877870623, 0.02981071528893572, 0.044120555674498206, -0.08257458156266974, -0.08995583645701881, -0.07713747348802458, 0.013830618929842177, -0.024655947901906637, -0.003162087451046784, -0.08582013688500563, -0.06430450605354032, -0.01684397257605049, 0.04785172376293318, -0.07004239789886396, 0.02165386087438753, 0.03150869996125806, 0.01148228870946065, -0.023642521708548758, 0.05555248789672475, -0.041936346738166694, -0.011865431398789499, 0.026404252251400438, -0.08097434377445074, -0.05171541265698641, 0.013088943011231514, 0.02470459077006338, 0.000975965098332948, 0.01798394388570451, -0.0043106181321791075, 0.0719676051021592, 0.032861421871547565, 0.07563938826407071, 0.027273765790672207], [0.00834528837806985, -0.0888408312994558, -0.006441586700033749, -0.05089414567188347, -0.050363495679753435, -0.08296632847458249, -0.04751660687770966, -0.020255357703237484, -0.06496819900384239, 0.07686727027465491, -0.0904054037745522, -0.01773750525701039, -0.02502312805389532, -0.0775512134984222, -0.07149491739279765, -0.06639223474037347, 0.0030923761111244273, 0.0797852845561055, 0.06948816634543492, 0.06006862104715042, -0.009530446042666707, 0.07714815555008193, -0.01179607752272038, 0.020930046797308755, 0.03549809635426593, 0.0704730670845085, -0.00989829705465015, 0.03539175020100529, 0.04918198734217456, 0.07322364589949378, 0.011775417209026477, 0.01806119231087288, -0.06843015430387414, -0.06840982775235885, 0.005849023241604536, 0.07429579213529817, -0.006994024089935497, 0.0262717512605844, 0.009327469832250695, 0.049002921439764244, -0.021066655808256424, -0.07337476347332261, 0.0872592440918677, 0.07650269004178065, 0.06179441271560957, 0.03959941734662539, 0.08985380408947675, 0.07934787639599589, 0.07000903575552347, -0.06887758272522326, -0.07523278083895812], [-0.029201157285971547, -0.02341660880576426, 0.02657244400885005, -0.013836413395100097, -0.030291128220477238, 0.06186835983031282, 0.052383472914894966, 0.06845651682940698, 0.022877785891655428, 0.07779697808290856, 0.04125383167519157, -0.05877036135016596, 0.08206481173151063, 0.0383496018383641, 0.08427607926100361, 0.07442314324043815, -0.004442060533428642, -0.05937325637220704, -0.06852692112451708, -0.03173242419300546, 0.06351851174587535, -0.08742174933357777, -0.01652504290610095, -0.07473557342739237, -0.02075582743416533, 0.07845245475339997, 0.0031978466166056423, 0.009177911081245356, 0.027085926399199538, -0.04715800896917624, 0.03139748035458001, 0.028548826891706153, 0.010007102529337304, 0.05644338760699074, 0.04259732741713004, -0.026049715635922698, 0.008200343931014126, -0.09530608965255019, -0.0689343981093236, -0.08092224486729745, -0.0013813366495774658, 0.00909501262272052, -0.07670298426441327, -0.07123396710625268, 0.04046660563334281, -0.04662082366961852, 0.06538185808392974, 0.0852191411770181, -0.04954933356142498, -0.0270420182614803, 0.07686597058264098], [-0.007594633045972906, -0.06938594616959617, 0.07082414845127043, -0.009810069308304177, -0.041214114156116435, 0.0012971689193764756, -0.006578501174038863, 0.0414077553313145, 0.014441623367746991, -0.06429637395630478, -0.0904978999401461, -0.08039713688302007, 0.06191955560272508, -0.03501214854574442, 0.008312132228670492, 0.05915574810202161, -0.07619933056687453, 0.06652772773610861, -0.02223799570309815, 0.021066860686594625, -0.06453032776186778, -0.07675043726483688, 0.0048598738783862845, 0.02445813636552149, -0.06047377043733022, -0.02520524788996102, 0.045961112109781, -0.02577686158112239, -0.06181255206324514, -0.005622077421986001, -0.03654352261017114, -0.032922150314179055, -0.08048786770650349, 0.03322972569949188, 0.06305078739482724, -0.02116847995259178, 0.0009246707838583288, 0.03443322620743882, -0.06465409010692902, -0.07742406770296188, -0.011874519885210363, 0.023628052883010935, -0.05120915287257581, 0.05532454452278741, -0.04146054944055246, -0.06296849151967805, -0.05356155010358778, 0.07680143132638839, 0.013054747647086305, -0.025333649199421902, -0.07799937194416046], [0.06566615314980477, 0.0022902430301550043, -0.050717886799179955, -0.048093745317867795, 0.035959402947576005, -0.04294928699834306, -0.05403905035994063, 0.07186524593208266, -0.05487186776429849, 0.07892210792069168, 0.07935611949498242, 0.06438261180693437, -0.041184318004998124, -0.030856036911633935, 0.026034188209540617, -0.040743996167681144, -0.04834242161843725, -0.07805282095301727, 0.01190124801401535, 0.04301179275270651, 0.03017081466322027, -0.05660787276176676, 0.07566576055684153, -0.030883748389100008, -0.08478931228864946, -0.04528751127943411, -0.060258359846077456, 0.08763861380309794, -0.06174965715771246, -0.027778886981067855, 0.012398741206148261, 0.036139645962316794, 0.022486782179186468, 0.07539821444751368, -0.08804293433923799, -0.05967236286583794, 0.020466029602402062, -0.007967740934955858, 0.023430743066610568, -0.03282969541991232, -0.08491620305115395, -0.07523622509350118, -0.04853829609534677, 0.0344532009144946, -0.018985214243363725, -0.06434381771636201, 0.03162802683294018, -0.08290889631125585, -0.08044752881151361, -0.09023922318347918, -0.06430421583690671], [-0.02778682114568345, -0.08129007996761264, 0.0324834950624944, 0.06962617952993162, 0.0804400630504144, -0.09156376684818171, 0.033097165932162005, -0.030674685809148377, 3.0173056738868348e-05, -0.06694532592291516, -0.07418746182909618, -0.0068141283911119606, 0.07838435910630726, -0.017968711806899098, 0.043052368558368, -0.043124309043745666, -0.008690603856890357, -0.027469372835892642, 0.028319369397523327, 0.08593289867633153, -0.09146120651307339, 0.09073999136951408, 0.017172522780682604, -0.0121294524027928, -0.052986918261194844, 0.023318102243773127, -0.06710204890582211, -0.07415812503149717, 0.006259381211142594, 0.04306794948727183, -0.01640522623960638, -0.07290921360140541, 0.05745346884019845, 0.004883957018730066, 0.02264642332961894, 0.00046801433858533083, -0.042959333097262374, 0.0624782032101551, -0.06400206969696041, 0.01923856048677148, 0.06462873255749448, -0.08593894009729498, 0.07404962591718886, -0.00742014427901941, -0.028893715618774587, -0.03251948308560685, -0.03111273127600624, -0.05523547724336887, 0.03727057726728213, 0.08295425206814128, 0.05180298493496957], [0.029345229431262113, -0.06999580207481775, -0.04339500833689694, -0.06351146105473894, 0.05305438330689126, -0.03058757003545948, -0.0653443596739433, 0.01640663353138888, 0.029297320636255078, -0.031229207309850848, 0.07895200982350625, -0.06439156659180997, -0.07238565237781465, -0.0018035072315647689, -0.056425679076130414, -0.007454793814309344, -0.07804640704303345, -0.07750073190661917, -0.030258551147410735, 0.0901609322063968, 0.03654790520010767, 0.0416937753077188, -0.019809735865675613, -0.0589422951376112, 0.07403559633586355, -0.07322264092522099, -0.03460653372158233, 0.050554146909162226, -0.06436816015016295, -0.05488952253133998, 0.06370495010576561, -0.012581328695668938, -0.054935517129307825, -0.02170243067583318, -0.07664194825588787, 0.0031334954656933854, -0.011220547159012658, -0.04524063613339215, 0.04699176036208499, 0.07498790559174826, -0.01166929495969375, 0.08178213525182793, 0.07522586164139122, -0.0321663630849392, -0.0032610425779890265, -0.07808320281071181, 0.052984477622512245, -0.03111572574353275, 0.004040077929821868, -0.02708816402975016, -0.05944519805227559], [0.016198564962811968, 0.05192321844581408, 0.029933377366217324, -0.026693981239764818, -0.017360199306453127, -0.05560653562523963, 0.03133111437876986, -0.08896144331311313, -0.0336825247614775, 0.03919121793678134, 0.008083559029987768, -0.08960537530236581, -0.038368267216182715, 0.03269274799415385, -0.07925819101281358, 0.021826852534169994, 0.05751806938367549, 0.002454010260257614, -0.08150037828711922, 0.022632579892257403, 0.05238879959460139, 0.028809638778201925, 0.08638902008143808, -0.05164950403969491, -0.07658595281350064, 0.04241958012660887, -0.08419439186616674, -0.017181668769726887, 0.017357080185632843, -0.08029922831790506, -0.06364885515710582, -0.019144681380664726, -0.0671407255791431, 0.03945561242076241, 0.033676637540181874, 0.007831999140249561, -0.02557656411540252, 0.08089966234010099, 0.0305452640678887, -0.04611493306890994, -0.07884508679351636, -0.07212326454618877, 0.0014764067274053597, -0.03420079094359375, 0.014165592584132696, -0.06317347827437769, 0.006378261442290657, 0.012759843989893247, 0.06497632540147459, -0.020235521847844842, -0.07236102518630787], [0.03129052540456913, 0.0876924486857778, -0.0334102168675803, -0.03431794632922956, 0.03290292277818703, 0.0191181397922629, -0.05007493042321512, 0.06229134186882444, 0.0021576214448264155, -0.03302533665289626, 0.032731317926105764, -0.06478913297903914, -0.03329665709972299, 0.06594570939455052, 0.08101155393495756, -0.050242633832075445, 0.060236449794037236, -0.016228366989964476, -0.017519924014634505, -0.08088825138103199, -0.0037043376358602688, -0.006494954011576094, 0.08039979327389486, -0.005681600530916544, 0.037976304571321555, 0.04859114066154638, 0.054395174672260974, -0.022867236238376, -0.007852690592629916, -0.07068329396552973, 0.061244509738258984, -0.06952140701204391, -0.08487089225942056, -0.031228478774707254, 0.053141051725765186, 0.057381766930139654, -0.022324016900978415, -0.020109634666563934, -0.06815841189728465, 0.010033271475162099, 0.020463186625645582, -0.08949054726859254, 0.08138378244656083, 0.036063916513540586, 0.048507504915383144, -0.03993227475844585, 0.08370345729865691, 0.031025392025215526, 0.024140618279956484, 0.08275639372658662, -0.0014562861935363274], [-0.06365470858396766, -0.031200523513096396, 0.07009895736701686, 0.07868182242321811, 0.09013926288285798, -0.013004823009835678, 0.06453540900752663, -0.045423716060268196, 0.04362993774399335, -0.0807840263394552, 0.09086835698271757, -0.06533502118103302, 0.08434478192915795, 0.04712843085563268, 0.07417382333676956, -0.0321825075030631, -0.05386211309328536, 0.06795831981797251, 0.008353519715025534, -0.06503904846775345, 0.038054210335342606, -0.0871896476127839, 0.07158408607841978, 0.08053820871034709, 0.04437037339506264, -0.05675970438912955, 0.017703254130536892, -0.03662484265396986, 0.08372961516127884, -0.07704489096797443, 0.0636555543730398, -0.06896306893118384, -0.009444412105404034, -0.013703242430902084, 0.07401237657038634, -0.08591039914898838, 0.034877519671005955, -0.058703163112686606, -0.02200069046183352, 0.046229763650821674, 0.0634325343568985, 0.008646745328217463, -0.0137598531169373, -0.09396135593450904, -0.09277624222685461, 0.05891611520492718, 0.01932639430113543, -0.04667865554926001, 0.028263880550986956, -0.060731026454280336, -0.08716662756289073], [0.05720718335380861, 0.003429672844480871, 0.04724488088768882, 0.04962269416821625, 0.07827143953996658, -0.055820825935649375, -0.05978962740776588, 0.04403757974247637, 0.02642263760035085, 0.06926511847614596, -0.013305818078200308, 0.062342528547030755, 0.08679084665568661, -0.0060836813476982336, 0.08236750113488275, 0.05280671810565287, 0.08220832086707347, 0.015122076598249257, -0.007299866976951027, 0.026983755589343916, -0.08489055918054503, -0.020162539766386316, -0.04415025442913015, 0.02987648746406296, 0.08327973208804403, 0.06567166614333834, -0.07487338755522918, -0.07330021648665615, 0.02160798878543538, -0.025283244765713617, 0.021719367293713408, 0.04295104727383839, 0.003535448762153276, -0.059378605412512914, 0.005426398902618211, 0.07393115246919904, 0.04258104707417122, 0.0632245624218199, -0.011779255013517924, 0.028466448755473762, 0.07336621752269237, 0.03655979351473509, -0.0210058386863873, 0.027525774885120036, -0.04152849202629259, -0.031737130124276855, 0.026913516531897972, 0.01451640552245276, 0.07319603807110554, -0.0029805940999770063, -0.03277405623345724], [0.04276474759431329, -0.05999071907013094, 0.04711845962467445, -0.034652512313977514, 0.06963044538405086, 0.07337265205266172, -0.0034090199968119204, 0.06814071546788181, 0.004445465584131395, -0.023636153526523974, -0.02462323000746689, 0.026619812597562045, 0.0904979673740002, 0.07323255989411859, 0.014119755037084831, -0.03775571981629654, 0.04144684183780764, -0.0011756532703289125, 0.02021977893709245, 0.014703407202935115, 0.08282461863546321, -0.004445991483739536, -0.014248171380750563, 0.017424217153870623, -0.03273065072203787, -0.05046568940344512, -0.06685088893265752, -0.03488806404870005, -0.04246105635882552, 0.05702493958559772, 0.01862547386957236, -0.059097171058399615, 0.08733515331196555, 0.008695405632671033, -0.00693287163562077, 0.0043215742581847825, 0.060973888222465085, -0.08836071700262668, 0.07795922680734456, -0.019774548639818076, -0.06336736144835398, 0.00972699984223567, -0.014498854265891465, 0.02343692422041918, -0.07139493714804368, -0.026064386433917952, -0.055316142887602324, -0.015037474125043101, -0.05326828565263207, -0.07260177187712502, 0.0704167771841349], [0.0427733193067131, 0.07293356736125658, 0.05264931073710669, 0.06966173567162863, 0.07143728620593541, 0.07361587885978964, 0.037732560579631536, 0.06017585112884814, -0.03926911933800931, -0.08305475060805738, -0.08024000527630169, -0.0017549273591669463, -0.04755761287587073, 0.025957370952455337, 0.026961403763010205, -0.04251336785515061, -0.02287832705202949, 0.037517874582311046, 0.012981949984360024, 0.028265863128610756, -0.07077667283233174, -0.022544377052719243, 0.08305425170634562, -0.08460867775723298, 0.05051254429499015, -0.009000862337772624, 0.05167031211475605, 0.06732164950203122, 0.007435335745710133, -0.05774952478494992, -0.05753511257231335, -0.062481949816675486, -0.04455059391645071, 0.029330742319637355, -0.07354085549331472, -0.08574608154814911, -0.07583244166254757, 0.012098573823120838, -0.047652757725452084, 0.058586372047868374, 0.017321384426919988, -0.005873903940370831, 0.08961449794627008, 0.04140206696871475, 0.0523236230493585, 0.01413892404899046, -0.009280274301903833, 0.020076646966961518, 0.03735749176313634, 0.022330992448124014, -0.016731197955255753], [0.020933806796398884, -0.07394642808613926, -0.02486292977330925, 0.07004144749364549, -0.027309540069538837, 0.03408561074959221, -0.08921577988650654, 0.026266475706801514, 0.08081022406647513, -0.004526908341637941, -0.08373079677602895, 0.03728820477201833, -0.09135510137345232, 0.04094700837540527, 0.026181066036028617, 0.03135929837234476, 0.010092831057490799, -0.007889340344694552, -0.07238766934271143, 0.00806118990113887, -0.07583405784880207, -0.01118989011902064, -0.055948144362159974, 0.010809387533823036, -0.034969387277715806, -0.07856213661936819, -0.08732586755673687, 0.017473666030094797, -0.08300607918114139, -0.07213387919214097, -0.08588312635325589, -0.07750194140796167, -0.06857686796202413, -0.028508115655845757, -0.027854701405081516, 0.010185790386912006, 0.061779364960060756, 0.004899991772723167, -0.04174591216109289, -0.02741172568902382, -0.025453909135918606, 0.029206540013441654, 0.0036963410412192443, 0.09054367146258942, 0.08521939737011518, -0.020117743112637025, 0.051563394203405784, -0.04227405432579959, 0.04821701631993258, -0.061957582377498176, 0.03558938126535786], [-0.05090787320104076, 0.06715923360780597, -0.047144847333872995, 0.04827119761913277, -0.07557938763492668, 0.08045702768310864, 0.055562592717029485, -0.03658010857434586, 0.011759222736330607, 0.09046404583729101, -0.08464471546802015, 0.04382207615642753, -0.012525788893748505, -0.03601681770413357, -0.020162532495137588, 0.009431357864951655, 0.047476001620651555, -0.035117496668328585, -0.05549802219526847, -0.06582613055130782, 0.023639639837229526, 0.0388561731878098, -0.0013334872418678092, 0.05424933384355483, -0.05820366854757665, 0.015295253227582703, -0.0641126410083969, -0.05498572897253541, 0.06246909832113602, -0.08212563266039342, -0.03294838965390634, -0.029138238477194833, 0.07681831837714456, 0.05346502023763379, 0.017568274726730698, -0.04573152404032967, -0.06343012646061107, -0.05969275617742446, 0.04146686674393334, -0.01181501515952216, 0.031325121007726296, 0.02133294831375777, 0.026955648868045853, -0.04380189361330619, -0.06018711291416254, 0.0383359609385516, -0.05484209227612801, -0.06806592889054229, -0.00453430510882447, 0.0070960736593278645, 0.025558547379793854], [-0.019436957231230897, 0.011132852341461802, -0.05684683587120069, -0.0009639743529135857, 0.08924528976720104, 0.03874275232791303, -0.03113209172712505, -0.04914349759057708, 0.005317360401785005, -0.07809792170081477, 0.050305208798952866, -0.06657437326907005, 0.07511915997012066, 0.07433134466767859, -0.07984622208898395, -0.05630556800210853, 0.000853014357475212, 0.03451225161857229, -0.0699590869082605, -0.042874934592765854, -0.06203862362056943, 0.015955585772996436, 0.015569420995217957, -0.05429374695437221, 0.006329851970729947, 0.04541112133427152, -0.02354308684321301, 0.013372266782485667, -0.00594131978190856, -0.0892427120399522, 0.05580254320852834, 0.0685006087283926, 0.061816475406321215, 0.09078520893412736, -0.026779817760782306, 0.07226255516493077, -0.006290510201419013, -0.07987721217729836, 0.020701114542707687, -0.08633061144389226, 0.06516145143471766, -0.08426092963525213, 0.06004030267576885, 0.07491520010744172, 0.08313336325496387, -0.021575740995562864, 0.04464454428982924, -0.007154160104619299, 0.02247248681794352, -0.05750702197574764, 0.04329537589155043], [0.09104016310052586, -0.01592788990765723, -0.05556755588858602, 0.03887539126059356, -0.001376388611001138, -0.06752968838291053, -0.08345260677033602, 0.006958006611173478, 0.015444819394402797, -0.013292256435328212, -0.004781880521043811, 0.02817719624521154, 0.01732746210463167, -0.07156428732453575, -0.0617446361892811, 0.01338377090771739, -0.03434179844457029, 0.015838096100064387, -0.020101743432748925, 0.019916200008234883, 0.061571244358944184, 0.09065272896573542, -0.02725677049821757, 0.018227662972720677, 0.013442075161418578, -0.052186272801776075, -0.03602688470276888, 0.05042323349107061, -0.043035338235226366, -0.036264331813114094, 0.02326775596635757, 0.07331345155978808, -0.007159960325670237, -0.024359159531083415, -0.006241664984999262, -0.07442957742869052, 0.05121432280576398, 0.061063454008105394, 0.02595873378095807, -0.06333732400621585, 0.08947256405847147, -0.06597962684337874, -0.079886783140014, -0.05850477823143793, 0.01010813141836859, -0.07220580756859124, -0.04076808124215362, 0.018125123257269202, -0.03270323742760873, -0.0012246549639947815, -0.009786770834524814], [0.011114754036903738, 0.054197273702720185, 0.0147909249352955, -0.061904760631034714, -0.057796864847150506, 0.08286938652022896, -0.05566875995343712, -0.017657797942378373, -0.013940683159791483, 0.04958342598925245, 0.03033911602733979, -0.004401954410355659, -0.08480760926698139, 0.034094549863802025, -0.06494148130318299, 0.04477508204038486, -0.027111316983644572, -0.024979649130655014, 0.08368962150342926, -0.04491137623470924, -0.006216011808532451, 0.04025405447954077, -0.024110623122804636, 0.03353258301877702, 0.0005867248833625873, 0.08187097716186291, -0.027941118487012293, 0.07903795277996896, -0.07163936886912005, 0.05820330895058107, 0.033880964659162106, -0.03769133518503219, -0.03689191313663072, -0.0651613360881088, 0.07830784515722854, 0.047601977930717014, -0.001952751396633172, -0.0005455282832823746, 0.05468394087542997, -0.0727884647037902, 0.027117633040049088, 0.021741438875629016, -0.008589968947463033, -0.013684608855177909, -0.018633484196850396, -0.09013217372789395, -0.04216719863769541, -0.06856707619436826, -0.06420878311542473, 0.04963556900893904, -0.062437920543484036], [0.020945708583688664, 0.024248555586558907, 0.011218473958106427, -0.03324427535123846, -0.015490739402611677, -0.09020804032952842, -0.014457160801702201, 0.07182085574927292, 0.08670322213496917, -0.029274178272222184, -0.08232755938222985, 0.07044709143522196, 0.02619715395529549, -0.05402541877279752, 0.05593451836147672, 0.06044494074332847, 0.06782873707700042, 0.08277617464814009, -0.005263191286107324, 0.05042461843908116, -0.006968624649853401, 0.05641552962321556, 0.004634787939719804, -0.00785450435762767, 0.07894788178460292, -0.002668087106791331, -0.06937882620461805, 0.004662745330484874, -0.06966906752436683, -0.08896972860465038, -0.0246016700745201, -0.07858099125660636, -0.006387432010908605, -0.06986293902301899, 0.05991163536065041, 0.07176642603598163, -0.07633061137039004, -0.07923851133040008, 0.02297396840165531, -0.07414458122822357, 0.08023291397448216, -0.0779100711238532, -0.025322857460853145, -0.003022588978157066, -0.038709349638396846, 0.052021543228221286, 0.06937093007590578, 0.06568308142447495, 0.024420536463198354, -0.03220155968646732, 0.017714713206976235], [-0.07276108305521282, -0.0572925983131167, -0.027502856367869716, 0.035030602840113556, -0.07958093725889387, -0.07453974232842449, -0.014991835402539112, -0.04614606813255466, 0.030010033209133733, -0.000763737824807279, -0.08224975134410367, -0.02876220681979657, -0.07049632883267386, 0.011748990366026073, -0.06660214196016517, 0.009410079198057149, 0.016265147792700285, 0.051527111825825166, 0.027558500864457033, 0.07677852702876423, 0.0012929243912566878, -0.0646814655658871, 0.039240581502478306, 0.042833119481242174, -0.030494374390324236, -0.08300764327353477, -0.06852735452052107, -0.06223802140616182, -0.01128167508070521, -0.02990870917196864, 0.020746072048290317, 0.06620752029116352, 0.07846348328156391, -0.058966107177207294, -0.08686015431271273, 0.01242597799442985, -0.027128049488892466, 0.04476252720634621, 0.014218459199327765, -0.08444205864396506, 0.0814871537441226, 0.08443925254691648, -0.008361440341916911, 0.013923912891651857, 0.07017540978759276, -0.04268094900105383, -0.06860619901823986, -0.006013970974035202, 0.0027296009760209338, 0.0743622922646439, 0.05057109891738324], [-0.04355583628127275, 0.05749870879207866, 0.029509904594988978, 0.08396449131759764, 0.002452232797182602, 0.03145830536946008, 0.0904616471741552, -0.04683744279044338, -0.05664254198445777, -0.03878802851076819, -0.04329946229433574, -0.07578372481957009, -0.0031780164151745966, -0.016639919267949586, 0.06865292663531289, -0.039702984479570755, 0.01428096175170724, 0.031671418021131006, 0.023730993888013377, 0.03190483851512708, -0.06263551509675938, 0.027950528762049894, -0.008903389568581383, -0.05994364315596664, -0.01495202917204912, -0.05892551466594955, -0.07457051071876776, 0.012319238969178959, -0.07912385501097947, 0.02333657960103413, 0.0300848693012053, 0.0002912269766714739, 0.01634897271773152, -0.06073377684063208, 0.05232201603131597, -0.08730448867348035, -0.07039643479957303, 0.010008964750494906, -0.009884270482886405, 0.005190730446928513, -0.04319914090790031, -0.08845218321624357, -0.04364533496767478, -0.04595271272532672, 0.06972128849341931, 0.05555478838728042, -0.032121398814594526, -0.06098934956951693, 0.07649924442937787, -0.06104512626695353, -0.03888758031057809], [-0.05788628212273319, -0.03823727561990458, 0.032253415262805764, -0.058147832741553614, -0.030909262458137406, -0.013530400942694604, 0.009185364489990275, 0.0029038929037168725, 0.08001653070778515, -0.08668720500188333, 0.052567354316639406, 0.021887170471419724, -0.007785151820634206, -0.005046365651587218, 0.04198218150279711, 0.011869968331906464, 0.03473085526093669, -0.038664507882591195, -0.02825748450308455, -0.016392263464641368, 0.047526003360133004, -0.01694631724161604, -0.04446454789163456, 0.026517029802748764, 0.0876439607489561, -0.07456651661121134, -0.09101345345229589, 0.05047987480045924, 0.015250287842871647, -0.041951829573033, -0.07838840513503646, -0.028386845086008545, -0.0903275250515597, -0.06550679219894025, -0.019717675903193992, -0.02054652048645459, 0.012617868830036823, 0.052873651173208, 0.057097812661654035, -0.0205335685379011, 0.06759331105988468, -0.08970036545889055, -0.059914261222726875, -0.09405723167574251, -0.02410850965844919, -0.013298615532621252, -0.028530978037406948, -0.042238914858182985, -0.056571030430967895, 0.04441341723112614, -0.045314352814728766], [-0.023034147231201108, -0.01972283590693505, 0.011197016179367398, -0.014394257833661769, 0.04910008629100868, 0.025026947395384594, -0.042091869688234, 0.07052640003151413, 0.05239667270125197, 0.024548793600189935, 0.04531256014847505, -0.029923672085440868, 0.05749151525703326, 0.08703093869656903, -0.005011932642757569, 0.005096603275863706, 0.0013623803955042687, 0.0033120455471333764, 0.03476185148591284, -0.0440509764348713, -0.08843606206859272, -0.08260534530460853, -0.0031094978289085296, 0.09011398415750763, 0.06449314764896465, -0.02528100165394874, -0.012017746851081828, -0.05701005890405845, 0.059593349937090985, -0.026801591367518498, 0.012601075926976403, -0.057133003071379175, 0.07495418904088158, -0.07892483628782909, 0.0412423571921656, 0.025796757221462494, -0.030588156338402585, -0.07129168768462565, 0.01729645964763029, 0.07669328239726553, 0.041167833671188515, -0.044086575980368775, 0.03854249721072517, 0.07890549360593724, 0.07797013795569321, 0.05902585201480735, 0.0499467698903161, -0.04631944469389371, -0.04727278927212346, 0.036587331571181894, -0.07475799187406391], [0.07274675719560118, 0.08314006800441828, 0.05935651702361869, -0.04214451725116519, -0.0752655180642386, -0.046393950661655144, -0.03724504281812674, 0.056515390206354925, 0.03208776224958714, -0.06030299942573524, 0.028784470232110275, -0.010447371674505285, 0.03766265572271396, 0.03354187036101241, -0.0911118766391257, -0.01685150221834397, 0.05065104015067262, 0.01413979989347363, -0.024606406292251474, 0.06838229185916615, 0.01243804670704293, -0.018905225102521413, -0.05135400417173464, -0.01079121326522639, -0.03799409352747425, 0.04618559492599804, 0.023153839947012186, -0.0497132902185114, 0.012442297966088188, -0.01505666820202091, -0.015240297867934783, -0.04074664487116124, -0.04536175532051026, -0.04526089866890247, 0.0723026338391947, -0.02404202356271622, 0.06885824805943325, 0.06321312254170709, 0.05408318911577687, 0.08784188726044123, -0.027568541980988577, -0.06098254208224215, 0.07534472414131194, -0.09538774398884346, 0.05836005473023241, -0.0333537397505329, 0.018516736499667005, -0.06824070546238438, -0.027326444816206653, 0.036069384114385844, 0.06295920827318432], [0.057636591467220596, 0.034163602854954726, -0.06991994280646, 0.04392404064616482, 0.08522952098134381, -0.02110454772048011, 0.020931165100195857, -0.07743511033968724, 0.0085039676730968, -0.027649665896341345, 0.03500596800491787, 0.025762242241596196, 0.008997027637384395, -0.03382098754278244, -0.009324909868510305, -0.005704104426232047, -0.0001028359757481827, 0.008261407326379304, 0.04554877906193821, 0.0646584108391191, -0.030324442812356175, 0.010809979926258375, -0.08300951917673416, -0.0740291986122714, -0.007720485837533292, -0.00527833260474547, -0.08401048499530421, -0.014240615611902398, -0.07458921150743092, 0.03934115050238312, -0.0058141162770661715, -0.07535324550302017, -0.06901053865792661, 